1.541628423796723808e-03,7.400496965154047292e-03,2.633150151851346935e-03,5.337393933802977823e-03,1.457496248541967354e-04,9.187470080998849653e-03,9.007148541170122147e-03,3.342142762634459259e-04,9.569493362751167742e-03,1.372093213560764352e-03,2.838283529579458449e-03,6.060831843588289532e-03,9.442251360530421952e-03,8.527355411092849349e-03,2.259233518513537083e-05,5.212260272202929277e-03,5.520376332645665803e-03,4.853774136627096725e-03,7.681341540644223351e-03,1.607167531255700946e-03,7.645604503388787540e-03,2.080979795206616809e-04,1.352101783691168685e-03,1.162730174016898387e-03,3.098975844900292431e-03,6.714526452120026488e-03,4.712297782500140912e-03,8.161682980460268494e-03,2.895867835305535563e-03,7.331259776126705999e-03,7.026223552552462830e-03,3.275694762634230508e-03,3.346475291060557831e-03,9.780580790165189012e-03,6.245821117353523959e-03,9.503135246995253471e-03,7.674756506204887495e-03,8.250092532147734400e-03,4.066403018066616463e-03,4.513084114213142956e-03,4.006316273616735389e-03,9.951381603385585015e-03,1.775641759378893212e-03,9.625969030278503508e-03,4.192502702591062447e-03,4.240524465509987184e-03,4.631488697273459035e-03,3.737231488239153247e-03,4.655081001725109788e-03,3.516826147080476185e-04,8.427266973184566884e-04,7.325206981419501127e-03,6.361999938328675303e-03,2.790778886153255536e-04,3.001700598239866007e-03,2.208525208288855159e-03,5.501999334020013293e-04,5.232460707782918621e-03,4.163696572946101737e-03,4.821874982557039719e-04,5.724045155296093347e-03,8.035166506773763415e-03,1.136017195398170100e-03,2.771172144251962070e-03,6.416780916854229223e-03,4.927373054365078928e-03,5.065560756680948136e-03,4.614402600659551698e-03,8.947430739278908196e-03,6.057776931355849173e-03,6.033556031675537008e-03,-3.858717617335523636e-03,-1.242335854572363708e-02,-1.223837668849426380e-02,-5.743119830200782774e-03,9.445814621563249081e-03,7.347004394226552956e-04,5.951524566360904926e-03,3.115107085176638409e-04,6.652574325307892243e-03,6.373854951409694061e-03,8.624651622976150372e-03,9.416377123396569085e-03,4.456270534106256641e-03,6.699576324357549989e-03,9.243306996319916938e-03,6.194234667677466118e-03,3.225857327088138635e-03,3.194763109335811875e-03,2.914566850066528832e-03,9.574174237390572009e-03,4.059583429596427297e-03,9.465558223628031675e-03,8.571905588319436026e-03,6.889276660324576002e-03,3.287968752339609908e-05,9.001034996569824698e-03,9.010070614640311101e-03,-8.938242851720493501e-03,-2.290194535266842912e-02,-2.816732946421589279e-02,-2.599834914988381415e-02,-2.130134560142182484e-02,2.958657137963428396e-03,3.122839968432516121e-03,6.987367476308803133e-04,8.007342342155275225e-03,9.114340501333192263e-03,1.946746290425370668e-03,2.106076388528839004e-03,3.774407823606447387e-03,4.028472101726734630e-03,8.851776944327949606e-03,2.021543433700725284e-03,4.190148274837505495e-03,6.479591733392613823e-03,5.116429527933310378e-03,3.338324855146030962e-03,7.784734338593446434e-03,1.354351345676108129e-03,1.917107722555557846e-03,4.025891478959648176e-03,7.868444652477246323e-03,1.775015553169405260e-03,-5.476964734954805313e-03,-7.761531511492963768e-03,-3.644346026954045636e-02,-2.557557236428264005e-02,6.925388991047636521e-03,3.499197622019019349e-02,4.505432944606049123e-02,3.444745720257437471e-02,6.304711352271507273e-03,1.189176746193522892e-03,-3.429327302715875613e-03,-5.151894037244987221e-03,1.043840209472113274e-04,5.974588046391233163e-03,8.463852035212138334e-04,3.156682369286655139e-03,9.686183289699668020e-03,8.735825512370129844e-03,9.127839941708243074e-03,1.110990152197376298e-03,4.009081056190696470e-04,-1.489446217700124159e-03,-2.149652373822796229e-03,-3.275141273964290566e-03,-6.642566312412945262e-03,-2.068538906717974982e-03,-7.319238995296156736e-03,-2.443184771314807838e-02,-5.227774927730588495e-02,-7.678591009904335574e-02,-7.879467972051895641e-02,-5.517835427290848985e-03,5.406579256420122881e-02,1.044654036704377592e-01,1.115733257186031502e-01,7.657059014202595437e-02,-5.506400589897911604e-03,-2.112067664877274528e-02,-1.788400219631828061e-02,-2.641910692357926551e-03,7.776794520796216116e-03,9.498820771377501637e-03,7.029821731000113205e-03,1.162057334478246943e-03,2.466014781230909704e-03,4.189386807175727104e-03,6.320315467138395635e-03,-5.363856069060889999e-03,-1.454116757205930512e-02,-1.662985386355058520e-02,-6.741564865004802398e-03,-8.229585834953321091e-03,-1.024097895306336908e-02,-1.763293775461553109e-02,-4.237987930755177796e-02,-5.000385969264337788e-02,-7.926071365105842592e-02,-1.120161048404983567e-01,-5.292318382851909225e-02,5.821013302822721641e-03,3.782108375157870739e-02,6.179275618632116412e-02,5.675698614731677916e-02,6.707203754094639980e-02,-1.092036659354235148e-02,-1.977565821157757989e-02,-2.800633024070206881e-02,-2.517461987883480926e-02,-1.452940463166757859e-02,5.095519767707061727e-03,5.213052583204294023e-03,4.244851388775528270e-03,5.310030378042821311e-03,9.459781226700603174e-03,9.992736621442429093e-03,-1.997148487870780906e-03,-1.618660647159519267e-02,-2.035013611799776218e-02,-2.160338657338559121e-02,-2.766771043604812283e-02,-3.110752920485167564e-02,-4.946807486345719540e-02,-6.948435866453006593e-02,-7.237681594166292531e-02,-8.971718565133170176e-02,-6.581755190953782197e-02,-3.097981619908330569e-02,2.018780339985674563e-03,8.703048643195179096e-03,7.158378289271698626e-05,4.340838135170716275e-03,3.447144315986407082e-02,2.487148673203491353e-02,-1.167384196229588438e-02,-4.119351487059571409e-02,-3.239074011662020774e-02,-3.052509170606190758e-02,-1.684612546916099823e-02,6.861167348304310354e-03,2.996928949934130320e-03,2.153578234647070180e-03,7.883087899319128275e-03,7.758489459474068525e-03,-7.834597142445281701e-03,-2.765495519916848915e-02,-3.192504892295865843e-02,-1.902855425282070495e-02,-2.422590251391475158e-02,-2.897270622199502738e-02,-6.095496780055009028e-02,-7.236623692197186042e-02,-6.843529220264941981e-02,-8.820401469360207580e-02,-6.215419292309184995e-02,-2.681433911438870291e-02,5.749682351457271155e-03,4.955430297923231475e-03,-6.408063602569693228e-03,-2.720482880789942479e-02,-1.321927573727521392e-02,2.284051344089537902e-02,-8.949419616875176064e-03,-3.352554399204318164e-02,-1.647946236773491224e-02,-1.773021366648878244e-02,-1.760573661747961982e-02,8.054920402860906228e-03,6.607354619910754852e-03,6.134351145389226392e-03,-1.498041967960470327e-03,3.515415467691553920e-03,-2.716154480309639421e-03,-2.760127100121016405e-02,-3.040043533531535530e-02,-1.805923803817508985e-02,-1.606667746593319276e-02,-1.317987125151106817e-02,-4.850077252817815848e-02,-5.652847492190455486e-02,-2.848520103121718675e-02,-1.446805255196873322e-02,-8.637796846468051570e-03,8.793285482482472021e-03,1.921339311092645774e-02,-7.909572425298461509e-04,-4.561686011407969921e-02,-5.658562726119906183e-02,-2.721532829996833880e-02,4.990828821117495456e-02,3.036785221961603790e-02,-1.225773101246070175e-02,-3.453313173806594506e-03,5.567324620884067481e-03,6.086805065416605112e-03,3.948342177566533068e-04,9.054359547749586679e-03,8.890563808994843970e-03,1.471020882833866525e-03,3.879035282574149271e-03,1.167172429680355273e-03,-2.204743904832443327e-02,-1.680804480052729838e-02,-5.065629933335362000e-04,-1.071849219025275239e-02,-1.690220464716424981e-02,-3.187859800506554625e-02,-4.336469508358746505e-03,2.320289375551612410e-02,2.008365935950148090e-02,2.960785359884844647e-02,2.654733399719011455e-02,-4.043051215182284948e-03,-5.533625650402278218e-02,-8.576847331016398956e-02,-7.999070709154537662e-02,-1.165062481454746772e-02,7.418797022521919637e-02,7.417005897950500193e-02,7.239613593699195486e-03,-6.811485573918254219e-04,5.998066280688502637e-03,8.366348926718695719e-03,9.123319112936716796e-03,9.506270720400909757e-03,5.815293692865138551e-03,5.146903058809135928e-03,7.767162119208655298e-03,-2.748984734693863362e-03,-1.878688729136619370e-02,-1.406003920656143449e-02,-5.323778949330264069e-03,-1.354984963628997827e-02,-1.966243802992833842e-02,-6.227026031399907936e-03,-2.318275651124059467e-03,1.400525841459388833e-02,6.196075871337240748e-03,-4.743934380937926167e-03,4.401989396938889992e-03,-5.723229680780671930e-02,-8.636483800678143585e-02,-1.126902692364288305e-01,-8.253535769719204385e-02,7.086904957669578828e-03,8.549413239776595952e-02,1.050951718200901219e-01,2.252249892561593650e-02,8.182809341277972118e-03,1.980530869196193196e-03,1.760260469782758521e-03,9.924360529903924685e-03,4.469874434409104916e-04,3.108488857896398849e-03,4.115835711828918705e-03,2.252632537156382814e-03,-9.841665535842314405e-03,-1.897256715674649000e-02,-5.337275939899269357e-03,-7.730581532082943068e-03,-7.562732405118881979e-03,1.782516213363761690e-02,2.563001133496893222e-02,3.341213872330530549e-02,-1.328968028336305340e-02,-6.130159365576151424e-03,-4.186302348242188637e-02,-5.003873059422331987e-02,-1.184188333501035445e-01,-1.302069380317632530e-01,-1.256466618837519256e-01,-4.503755499644992305e-02,6.620783739542942387e-03,9.805086960027595278e-02,1.111123259954602954e-01,3.098291424853199041e-02,7.568208313633393441e-03,5.088825801648179208e-03,3.752731886427573740e-03,5.977516640696615112e-03,6.421631853185381412e-03,9.785298456822152588e-03,6.215381952322243490e-03,3.934004315978301310e-03,-3.199310626985110012e-03,-1.272653696083754678e-02,-3.515152057403255013e-03,-7.763106700742735192e-03,2.098777585770931695e-02,5.176902519901994265e-02,3.800659223507052431e-02,6.678541631674035856e-04,-3.922391227728866392e-02,-5.950785407317594686e-03,-5.794021034354870925e-02,-1.373953477225871855e-01,-1.946579984090666404e-01,-2.035200882843434811e-01,-1.402307133533305106e-01,-4.812051195711166546e-02,1.987800202657816553e-02,1.152284350913100747e-01,1.134904041381005757e-01,5.083951165263559530e-02,9.557343134313783448e-03,7.145570085319356141e-03,1.152453343997025207e-03,4.478617951302597301e-03,5.267694798564343840e-03,8.963368630171967763e-03,9.202531520660547568e-03,5.328364788841999464e-04,-3.450687666855756404e-03,-1.315400982764399450e-02,-9.634788730264567166e-04,7.703480316993848234e-03,3.112720747692707471e-02,5.463546717647862344e-02,5.483863643350042789e-03,-1.256431498046647541e-02,-4.888772868818134359e-02,-7.561748418812189176e-02,-1.222815187650066471e-01,-1.924911910828024098e-01,-2.130090549105853326e-01,-2.083174298764612908e-01,-1.144976343262488899e-01,-3.680541039915916079e-02,2.178825780055627589e-02,9.516365471551072042e-02,9.553497897108233217e-02,3.239634934092511243e-02,5.122124532233321252e-03,-5.819416467440246448e-04,6.696968029818540190e-03,2.512545715902597763e-03,6.411315655900917676e-03,1.657803577572212290e-03,2.533226959299632753e-03,9.313555007806425048e-03,-2.864131464110176301e-03,-1.253676484493578165e-02,-8.821323264299501393e-03,2.425257678155042645e-02,4.334000858574196813e-02,4.793332387308286285e-02,9.625689270205387352e-03,-4.458300211727461715e-02,-4.327291858709853695e-02,-8.871737185880919363e-02,-1.704427301641122661e-01,-1.801993354886523568e-01,-2.051511379581275052e-01,-1.885161690099776410e-01,-7.559516059284150657e-02,-8.611733905402610412e-03,3.501321503552424965e-03,6.421918317166987189e-02,3.046557543933916395e-02,1.253525683214181188e-02,-5.329629959861500836e-03,-4.456155091860995211e-03,2.094508460601162379e-03,4.645693916825089156e-03,8.999122081055370773e-03,9.703503236319627537e-03,4.111898349808447081e-03,9.055898273960102593e-03,7.125822058460683749e-03,-2.971071473887355180e-03,1.351478487702298913e-02,2.953286319433079399e-02,5.313485362026048459e-02,5.391442835689627677e-02,1.103472447030254266e-02,-3.167339031306756585e-03,-1.319612786385388620e-02,-5.757109776640183252e-02,-1.449531012042591938e-01,-1.794140879571638758e-01,-1.948690372531890480e-01,-1.473105132129958195e-01,-5.469778518195721889e-02,-9.147317218790366328e-03,2.140591652966856648e-02,2.231678841737294236e-02,1.971352042681823874e-02,3.484290796280529491e-03,1.966240085492074099e-03,1.676988703531940069e-06,4.376986167339755145e-03,7.982304643804435940e-03,3.458258375656963080e-03,1.988679764302261378e-03,7.656200031226250043e-03,6.566735264966739281e-04,9.558583691376066260e-04,2.749915471774078048e-04,3.024174315278174360e-02,3.235610385717750670e-02,2.802876739806174286e-02,3.697162920602586889e-02,3.248835070592783619e-02,1.580106384787913947e-03,1.176079235036182370e-02,-2.534749619606854049e-02,-1.191322042180922858e-01,-1.831825431658312131e-01,-1.661055941293823057e-01,-7.431427064166896967e-02,-2.905324578735179672e-02,2.115507061147832435e-02,4.957965620741209244e-03,2.621006191515137460e-02,1.272615351594389571e-02,-5.495818265467372447e-03,4.455740945688094375e-03,2.160963528328458793e-03,6.716385405659145227e-03,2.818547883069749942e-03,6.793215258910708862e-03,8.799469374533006039e-03,3.465884506699521556e-03,2.571550465854306657e-03,7.455737671760410794e-03,1.370209576702676769e-03,2.380353272350747840e-02,1.888561855041542142e-02,3.731606953820030409e-02,4.424308083616535631e-02,4.527606995832473419e-02,2.976020423863955555e-04,-6.840000958952405707e-04,-3.331877893153233766e-02,-1.136443940189655194e-01,-1.597611869137092189e-01,-9.789126842941033024e-02,-1.308271692684964465e-03,1.810343496717537262e-02,5.735433871706972775e-02,-6.622255774861065571e-03,-1.048027084014820434e-02,-1.186279622272642768e-02,-1.408779246946719431e-02,-5.723573276967883552e-03,1.952492152393817652e-05,6.018736416102922308e-03,4.704971108756322157e-03,7.915043874967372939e-03,5.411778375385803072e-03,6.623366013516544977e-03,7.865776685364256554e-04,9.045176214579897511e-03,8.088101666623481777e-04,1.552742197034680596e-02,7.316036805357797532e-03,3.080694156769096109e-02,7.692692058859608439e-02,4.231381704642939168e-02,-1.289710539384385408e-02,-1.455465722376209949e-02,-9.252905753844672954e-02,-1.169094546961049891e-01,-8.694288666256755338e-02,-3.006900320331756804e-02,2.982155509433314505e-02,3.867996665996963762e-02,-1.380803351572584825e-02,-4.066212694673194961e-02,-3.018727410633582561e-02,-1.546162933834625136e-02,-9.027571901485688041e-03,-4.082546096448172630e-03,4.855441070661176833e-03,7.422679295804768436e-04,4.489843650587101859e-03,8.351526861723298362e-03,6.466637578587884974e-03,3.977416020873477537e-03,6.444616628974448279e-03,9.274893040080311665e-03,1.466781324950302678e-03,-1.724875292343097275e-03,-6.003917371831180537e-03,7.113489592529616268e-03,3.688297111188381522e-02,4.560195636350892340e-02,7.418870914772280646e-03,-2.046716532922686002e-02,-6.566051517676653460e-02,-4.068041305187196366e-02,-2.277877830679454416e-02,-3.119014689752249922e-03,3.819519086929955981e-02,-9.961939469654978053e-04,-7.080312593951451627e-02,-3.173533341914819284e-02,-2.602324811427032467e-02,-1.087787212688528377e-02,1.496281199070755887e-03,1.961324650296451637e-03,5.950638333464883592e-03,2.965033609067023977e-03,4.194839022482724569e-03,4.716266313652151009e-04,7.259149027914830500e-03,3.432161089514869021e-03,4.390378355367058165e-03,3.978152657892032075e-03,7.653423899809292524e-03,-1.375048861378898660e-02,-2.949500288203900367e-02,3.929141746507833557e-03,3.140307331166868055e-02,4.990324917406418342e-02,2.890459568832402792e-02,-4.072167916083488707e-04,-4.466368263684809305e-03,-2.304477804922902291e-03,-5.273241010152095870e-03,1.695005147031617559e-02,3.295562281085137601e-02,-6.391059187336732561e-02,-6.363497114978111657e-02,-3.730128227527644558e-02,-1.782857838605498083e-02,-1.204993720356719623e-02,6.855605056155211416e-03,9.370847220571533118e-03,9.633881605368979292e-03,4.344343322977490748e-03,6.445177100064583206e-03,7.855171112256675728e-04,8.872377126157873078e-03,7.265988860186823814e-03,3.217720370329919810e-03,5.072882061030659605e-03,9.972365447781913941e-04,-3.337219566090637250e-03,-1.996081730048676964e-02,-3.299567824397626331e-02,9.769054378082739701e-03,4.279818211223632846e-02,2.758933763167008626e-02,1.849038149395487371e-02,1.334134423431983935e-02,1.858875483949257168e-02,-2.015434726244055754e-03,-1.239918886225912370e-02,-3.937431915892065232e-02,-5.538198162990325829e-02,-4.224296015847833069e-02,-2.708695887548561929e-02,-1.423400546898890597e-02,-7.142519376962084762e-03,-3.124610237383926639e-03,2.469698037024208558e-03,5.766229803852925516e-03,7.843920703208337800e-03,6.929913353655328331e-03,2.432311204510036878e-03,8.674362892237332326e-03,5.492566778908760348e-03,1.600624804657729914e-03,6.363704559058007762e-03,6.397652892069606752e-03,-3.422564983314283632e-03,-1.637610283953221113e-02,-3.069725063954878083e-02,-2.853530275558972817e-02,1.310397927481069501e-02,4.237480470614110595e-02,4.062688507368397012e-02,4.629215429789859670e-02,9.445499617990930560e-03,-2.302760988978614157e-02,-6.890273114140037236e-02,-4.593505510541202874e-02,-4.099033904756312074e-02,-2.534368897052106939e-02,-1.477163060969641055e-02,-2.936376236120202907e-03,1.601189241237752255e-03,-3.478541252655913477e-03,-7.522978774000631643e-04,9.142331465732655635e-03,5.216587009345062878e-03,6.809502012105493954e-03,8.486669652932888816e-03,5.082004970365874667e-03,8.259163785985606382e-03,2.156727159761798619e-03,7.055809718445904891e-03,-1.143731004496575682e-03,-2.852252803320452909e-04,-7.281312911573721743e-03,-1.297311463198976000e-02,-2.351498478685003571e-02,-4.734989615977877597e-02,-3.957275088711231098e-02,9.265640997256406261e-03,1.928304590091580936e-02,-2.481268748098892918e-02,-4.287610475444723901e-02,-3.231056260351547471e-02,-1.909994475191053101e-02,-1.189400069831441156e-02,-2.177166324298305741e-02,-1.279634267787205758e-02,-5.589551724099911002e-04,9.160228223514209876e-05,2.966353425038782514e-03,5.180760748985033248e-03,4.626912376998261120e-03,7.010798181739247292e-03,5.804085116084441165e-03,3.409517742537515779e-03,4.872310207824382192e-03,4.969420624908219355e-03,1.702588608465990371e-03,5.081525091966264396e-03,9.238445035268107522e-03,6.158551016045146070e-03,7.715191226801336108e-03,5.234114557172052200e-03,-1.107557790708499704e-02,-1.026592352347768279e-02,-2.090063681047335878e-02,-6.434530170908349909e-03,-1.200537623574788638e-02,-1.890538237839024110e-02,-1.366885915999042217e-02,-2.720940474609821746e-03,2.763195707602795342e-03,6.513632287687897912e-03,3.807960896834551925e-03,2.821497252222029354e-03,7.547969881719652227e-04,7.478950353271534256e-03,1.193993440801409660e-03,5.545086110835650839e-03,5.406003076176303483e-03,2.732546476614285992e-03,8.673397468373983052e-03,4.413698786437101826e-03,4.596741546666560652e-03,8.148909518355533163e-03,8.059571063393413531e-03,4.103176510477784221e-03,2.660004154375795668e-03,7.288486623297969064e-03,2.150729870318918591e-03,2.639749121940412890e-03,1.488910863971545104e-03,-2.831198480250423245e-03,-3.056965179099345627e-03,-9.303973866069026495e-04,-1.028971605069904172e-03,-7.894615915130393999e-03,5.086465400791759239e-03,5.489379102507571835e-03,2.495384621891451327e-04,2.788286275335403845e-03,1.424911620947108787e-04,2.560757064367234943e-03,2.299220758639836104e-03,2.299377008676238999e-03,2.738237448956278974e-03,2.776857000055913370e-03,9.638567442795014859e-03,3.586736462641616514e-03,3.337104953375794568e-03,7.341455948471966968e-03,4.621249879092765613e-03,4.933538910702978640e-03,8.298551101947248751e-03,1.355070170053998112e-03,5.189437209436469772e-03,3.898399307940370127e-04,2.535932360729715920e-03,2.396102284500021412e-03,3.682542307382227331e-03,3.302055388746313273e-03,3.149736415377087095e-03,9.977122962801848391e-03,5.765373544939678303e-03,3.744510015541010692e-03,5.237761024311334696e-03,9.239633263644683042e-03,7.838145680029013490e-03,4.705902885479949435e-03,1.486379744686452389e-03,7.304610297035863363e-04,2.315235361871725958e-05,9.054122794366988372e-03,1.675217351493673039e-03,7.434867721975275089e-03,9.785571333411373016e-03,5.832175521653102865e-03,8.538435738685731108e-03,8.216151011809336158e-03,-1.964088836423869278e-01
7.378471507613225053e-03,4.099191196460761147e-03,3.079824302269832531e-03,5.275078388616355994e-03,3.237409471340073862e-03,9.447994010617905350e-03,8.713530379648660095e-04,1.967252995466457592e-03,4.032481806275637487e-03,5.495949839791854086e-03,5.845723604001796213e-03,8.410695153430463797e-03,2.998495178584206344e-03,8.048722490912586097e-03,3.073281614984268127e-03,2.955281128497636717e-03,8.428469047877142420e-03,1.394432920884183282e-03,9.353212444051652724e-03,6.867191238671715992e-03,5.621729800840889919e-03,2.969943818524628781e-03,6.868797910964971262e-03,8.440912397261735728e-03,6.924892928309406108e-03,8.275565062190012172e-03,5.838464572590724641e-03,3.733263098283530305e-03,4.666727929336698596e-03,3.971065310519697814e-03,6.675069853408092946e-03,9.728529176144518759e-03,8.457025218448181378e-03,2.022621478471603538e-03,4.991332333524665585e-03,9.096058810702484926e-03,9.993120080310351552e-03,9.545225272090656493e-03,8.463683516510511718e-04,2.740255421610679129e-03,7.254248280305533592e-03,7.173827525889465355e-05,7.150101571661654498e-03,3.120118727381926459e-04,1.672617515681956712e-03,7.120356254935181033e-03,9.425695310978615682e-03,3.343159362212955437e-04,5.576377596541048530e-04,5.737543396649513044e-03,5.576363594647847435e-03,8.886996999324004928e-03,8.732841659128054088e-03,7.307644386576850684e-03,6.789430265365074477e-03,8.146593942805802763e-03,8.475301467542916897e-03,7.547242729554851440e-03,2.048232850677535015e-03,5.687044832496832361e-03,3.601643276756796158e-03,6.222703953488106614e-03,9.801780984082969148e-03,7.991859855194042780e-03,9.275831295036155236e-03,3.741815427221176736e-03,5.850570891395831530e-03,1.318006837473810824e-03,4.446183557327287872e-06,7.074925753101013980e-03,1.929748316035011539e-03,3.787418091092337093e-03,-7.964685908440250969e-03,-1.343712357279755465e-02,2.907528068651773871e-03,1.909227641398378956e-03,8.963735239187083786e-03,1.445223471686880564e-03,4.383728957862157577e-03,8.618783667391549663e-03,8.539789386945219676e-03,7.104617895384827617e-03,9.155617884582571697e-03,7.951437425689704408e-03,8.058181513065145254e-03,4.433964008528763941e-03,6.259003260912836437e-03,9.322528646644016176e-03,1.634350410121794290e-03,7.490742027506873402e-03,4.054006493099229606e-03,5.718274216544864258e-03,8.575909794857417348e-04,6.199660193324404295e-03,8.204928776039269525e-03,4.750665053857262669e-03,9.661716573495945926e-03,5.646971625757235720e-03,-3.568922702045910968e-03,3.001590799459906769e-02,4.559469791146335965e-02,-1.492701320920432730e-03,-1.925999770085309523e-02,1.092821494053693469e-03,8.842263533349015506e-03,8.820345285062106133e-03,6.253940041106020864e-04,1.737208213397641856e-03,3.543941724768838800e-03,1.972857800553620092e-03,6.213418954935643647e-03,8.357832716894010236e-03,3.236666965986834273e-04,8.625914701052245920e-03,6.421602135789894732e-04,7.799384030417916801e-03,4.067682618985581956e-03,4.452345222510247988e-03,3.557289316861104132e-03,3.976545941429347406e-03,8.809143265158620936e-03,3.282794887225892917e-03,6.765347983659535450e-03,6.105706934299017299e-03,2.265205179102784336e-02,3.555591765700945317e-02,8.264487706153515051e-03,2.841345919951671767e-02,2.867157791995349203e-02,2.761130958139239311e-02,-1.820612462279341467e-02,-3.021411381270885845e-03,-1.109964978300233100e-03,6.017018038630329684e-03,1.653653921604885009e-03,5.580639054849393342e-03,9.693229361866718269e-03,6.598382865411838404e-03,4.529259726702101162e-03,8.193736686878103082e-03,7.021580183964724886e-03,5.384490666417428642e-03,6.873383603433448445e-03,8.533433272611778628e-03,2.824255894824136571e-03,2.354691681772168679e-04,3.500262286699167415e-04,-1.308808245941019133e-03,-6.638092455353307095e-03,9.440125787775209597e-04,-1.198020227703019622e-02,-2.256653225490344583e-02,2.681403864429780445e-02,2.890078640664925369e-02,3.602560489570082874e-02,3.593935341692021390e-02,3.546945570620383976e-03,1.193618249681267611e-02,8.825854994062706446e-03,7.396643327265209344e-02,4.913455151081266153e-02,-1.842045103449340207e-02,-7.751795394218126585e-03,-4.908848372717058116e-03,2.402062924887769183e-03,6.753188075667691109e-03,1.423474528116630544e-04,5.944050780413203880e-03,2.081636996016209603e-03,2.219028686207084270e-03,3.458641340459163178e-03,-4.169394021760749330e-03,-4.785745965787435371e-03,-1.041237410305447843e-02,-1.833508213339184179e-02,-1.456050340961382444e-02,-1.479777996823881427e-02,-1.842342347530885258e-02,-3.432276911258862195e-02,-5.044735494446848934e-02,-3.081671978452217488e-03,1.606299668296631844e-02,1.277617432781754693e-02,-4.092794906101673152e-03,-4.503668863767776656e-03,-3.739254340390067710e-02,-1.057857683803171273e-02,2.606565770797331441e-02,3.521467518349490761e-02,-2.808378542376148423e-02,-2.700335945254527317e-02,-2.081982085118654416e-02,-1.421403841483129434e-02,6.620140954147958612e-03,9.705975226585792162e-03,4.526454302120238617e-03,7.374960943148494048e-03,1.889702260170048748e-03,8.686481472624916003e-03,-6.945576247521294440e-03,-8.462121477362841496e-03,-2.071725318004096275e-02,-1.979531443328533258e-02,-2.827113063784154889e-02,-4.346012030691295824e-02,-5.823600463684473760e-02,-6.933007908496607863e-02,-8.274542035071033586e-02,-4.685352693202195218e-02,-3.632567025080296608e-02,-1.163530734662731290e-02,-6.032406940600282264e-02,-6.225353269378772203e-02,-9.287763722876210548e-02,-4.275196629060322440e-02,-2.467237055882784760e-02,-6.216792039447274071e-03,-5.305249067780096889e-02,-4.703908579422175912e-02,-4.250958507394212577e-02,-4.163626570795379150e-02,-1.861072462387500931e-02,7.975157189598092514e-03,8.942761787866269213e-03,5.146303764990410069e-03,1.204434093018932287e-03,5.478559858680611891e-03,-2.125239850953465365e-03,-1.846900206292701949e-02,-2.206774183923716076e-02,-2.050631427468972701e-02,-2.517306476126982343e-02,-3.442010212581116807e-02,-7.211606532660340407e-02,-9.884896562337530668e-02,-1.084724222213719891e-01,-1.189355299463331073e-01,-5.263059827094619669e-02,-6.219062259262119613e-03,-7.269376509807634612e-02,-7.261477379625452810e-02,-6.898576513797223531e-02,-5.820460393863663429e-02,-6.063378747383339068e-02,-1.155756129551304412e-01,-9.837330820509601614e-02,-4.663700882798819947e-02,-3.169580304451705827e-02,-2.650018987974592233e-02,-2.115807592545497148e-02,6.364144201516724712e-03,5.195104790643213961e-03,4.542999206545510552e-03,-5.627476868942720908e-03,1.209481952462038157e-03,-6.993098745178931257e-03,-1.681580172030290588e-02,-2.388291632432782904e-02,-1.949042279791677809e-02,-1.545912802031379658e-02,-2.220781856368425622e-02,-5.160785310986929636e-02,-9.655098562616139246e-02,-1.235221905736609838e-01,-8.900492976265472755e-02,1.862303896543603121e-02,6.511839621048437499e-02,-3.991602251483062150e-03,-1.805526973081858846e-02,-8.956367031602460727e-02,-7.163910394827892325e-02,-1.106259064636026523e-01,-1.170332391668355565e-01,-6.657184610564541305e-02,-2.490908178727211514e-02,-1.354935656565656697e-02,6.614567386992307139e-03,7.262073224406673765e-03,5.004272490396357784e-03,6.689366492037471072e-03,7.479319921138761519e-03,-6.489289568906717390e-04,7.447290335622025687e-04,-6.293850771899167119e-03,-1.251924812302132248e-02,-9.951887118878498598e-03,-3.786742267095666390e-03,-5.432211334104878470e-03,-3.761974854479927660e-02,-6.454588166353686374e-02,-1.084873059970726805e-01,-1.073878677470796739e-01,-4.740329796071197921e-02,7.162632147696992857e-02,1.075712420107977074e-01,1.147501761317293451e-01,5.400513732437466768e-02,-4.719352059532293947e-02,-8.526697287097970146e-02,-1.194948776681359487e-01,-8.750380712850257259e-02,-3.855075915057860902e-02,-1.059267656913675561e-02,4.502775853223512552e-04,1.913692462637590604e-03,8.526415418621072564e-03,2.609572486463802507e-03,5.847641291786187870e-03,3.927328000436314075e-03,8.105259467151964756e-03,4.157204988019590902e-03,8.245982809322561450e-04,-5.165817355014800175e-03,-8.149746822488944387e-03,7.402614422815994959e-03,1.044186154530318562e-03,-1.815301391524206179e-02,-4.897774420045988147e-02,-5.344615381387458203e-02,-8.431090059330036135e-02,-7.405951479356326361e-02,4.357257107704473609e-02,5.682247101225692404e-02,1.631031638618934687e-01,5.257957167908291346e-02,-3.843804778655741244e-02,-1.006612943035789659e-01,-1.132359136532210958e-01,-7.312481202228539312e-02,-2.057272745132534761e-02,-8.483503177858309555e-03,4.185869629923142342e-03,5.345697171716814328e-03,3.056136922156619390e-03,9.356901692502219564e-03,5.608037723188164479e-03,8.771448987913365095e-03,8.733963137026633933e-03,4.423548681706943736e-03,4.604096719886506539e-04,-3.305962466829612256e-03,2.055498651632517697e-03,1.033571333939096136e-02,4.063061248687368371e-02,3.580326277918137456e-02,-6.502296674740702838e-03,-6.028854192081153918e-02,-1.228166357436464157e-01,-1.319136672114591124e-01,-7.126425385556751056e-03,1.080391232967394810e-01,1.274033287048207397e-01,2.875821813920042755e-02,-7.683708030602942607e-02,-1.255058063865344686e-01,-8.875761316285357694e-02,-3.879131429847045009e-02,-8.549672979364555947e-03,-2.025149969964242132e-03,2.167256846752464369e-03,6.101077347205939236e-03,3.652673630187397273e-05,9.068677633896841950e-03,4.899664083487518737e-03,8.701357193637123538e-03,8.860147659582526258e-03,6.265513385375801915e-03,2.576896922677087798e-04,-1.349804328573749827e-03,1.924519858995647368e-03,4.423381731410118722e-06,-1.148664016722723141e-02,-1.977905176645217145e-02,-4.828967909572783046e-02,-9.515483010209430104e-02,-1.623029273634061520e-01,-1.488541014952948771e-01,2.285729787792176518e-02,9.774756409782782429e-02,7.954172190854778834e-02,-6.828882291736219912e-02,-1.466883401560427347e-01,-1.220082303116847011e-01,-5.812721638523952322e-02,-2.961350081615757995e-02,-1.817690119087280939e-02,-5.277857214988483994e-03,2.178477934302747426e-03,5.135685432856022803e-03,5.120503889452014852e-03,1.830245427715575506e-03,3.871609288174243831e-03,8.324263845458370129e-03,8.353323234511990728e-03,7.766612658530485346e-03,-4.988138466413576631e-03,-3.570163097497193808e-03,5.465711072416331445e-03,3.036785186033161710e-03,-2.336647061327825833e-02,-2.827896472238683803e-02,-4.954518976615508025e-02,-1.110834291412943209e-01,-1.657534337228462884e-01,-1.417070706184557494e-01,6.702468596710500770e-02,7.946769125567483549e-02,4.259923871425406322e-02,-1.268833821446235244e-01,-1.214098581760384155e-01,-1.095012697879418628e-01,-6.093899713082407549e-02,-4.727216742678785888e-02,-2.315927608863228501e-02,-2.339588665971884061e-03,-9.603897670045857902e-04,-1.745817497806896384e-03,3.796660456485573612e-03,8.604029124886622762e-03,5.720363896266689781e-04,5.085777903984293330e-03,6.951465712693383030e-03,8.739045971283568304e-03,-2.171148436723090765e-03,-8.151083719005126210e-03,-2.454002675582931878e-03,-5.413104000382555278e-03,-2.894571768115925328e-02,-4.781268824050531607e-02,-6.685703435931854288e-02,-1.205142852441623141e-01,-1.179861067517688489e-01,-6.355827126282051487e-02,7.970439958938203839e-02,7.918490250840397315e-02,2.447092138930513291e-02,-1.344768152744676704e-01,-9.729653426354403778e-02,-8.658325724186219374e-02,-7.698406879458503937e-02,-6.497450184081297875e-02,-4.160675815893150747e-02,-1.038078520110815271e-02,-4.270715821603664024e-03,-1.229548731655038651e-03,-2.135771377767668126e-03,1.565269792806723908e-03,1.260578309735687014e-03,3.407130287872447635e-03,5.289980904940337625e-03,1.822565227669502557e-03,5.512101362369403517e-04,3.458056908763989558e-03,-6.842850563522660107e-03,-8.897800857285934062e-03,-2.713669319073767211e-02,-5.429494329071146014e-02,-7.216154575922255343e-02,-9.910199976982411729e-02,-5.062708476143783914e-02,-1.675701652246072010e-02,8.637501565330120423e-02,6.396481076578337810e-02,-4.926951689114136834e-02,-8.407604142274552328e-02,-8.999064758023522792e-02,-9.466237696451140771e-02,-9.026419465001191134e-02,-6.223198381987835037e-02,-3.149903274446325119e-02,-5.707754142139648788e-03,6.101816917114464590e-03,7.527151496846893860e-04,6.408817054001226046e-03,1.507300200535153199e-03,7.773945264964609268e-03,7.358647000892964800e-03,2.925375471829781866e-03,6.695408500203899049e-03,8.558078808069342555e-03,6.527775201625041082e-04,2.161541450667592984e-03,-8.884047259492855106e-03,-4.944794663848621485e-02,-7.215458155121518002e-02,-6.653093609172078260e-02,-7.026614830612770701e-02,-5.334068439591516803e-03,2.026515729216471148e-02,1.143758763656404359e-01,2.352991668997629626e-02,-1.816846289263973277e-02,-1.573510331309879370e-02,-7.573511182946982001e-02,-9.098980603164355530e-02,-8.607473902105201857e-02,-4.780034885592145122e-02,-2.480295954534059502e-02,-6.964057375073061211e-03,2.842384392764120155e-03,-6.767360221282815681e-04,2.014660394714962253e-03,3.292846400420389435e-03,9.353041480688623760e-03,3.013808720730242179e-03,3.657047264103191649e-03,1.866969380254144368e-03,7.821347494474481521e-03,8.533978178978673251e-03,-5.820282959297401471e-03,-3.446726745598093639e-02,-6.778158289082539256e-02,-5.784022759758234572e-02,-4.828259959373468885e-02,4.344040089133807507e-03,4.220614620495136138e-02,5.192742684069520664e-02,6.051195132292163520e-02,-2.668186468932447902e-03,-2.321961740336441621e-02,-2.321741160086931337e-04,-4.558947694550438690e-02,-8.455409534537948468e-02,-6.971142580413647316e-02,1.065559399096946934e-02,-9.073135607509049544e-03,-1.272113066772580063e-02,-3.685003419852819675e-03,-3.581615867214709564e-03,1.069983885992682477e-03,2.585928931503996692e-03,1.291435443027721995e-04,7.980540515617355612e-03,8.825008946030665768e-04,1.510059219632577977e-03,7.208895403405822522e-03,7.080324128298718690e-03,-1.725943450560160630e-02,-4.201360703782976852e-02,-6.626175381669097142e-02,-5.356524924379841429e-02,-1.484888667392813243e-02,4.978577352879181434e-02,5.730855382529923686e-02,4.980343801885805249e-02,4.106942969224902651e-02,5.207860592514691744e-02,3.971574846760912714e-02,2.613517034643597983e-02,-2.865777350158837597e-02,-4.635768200408019180e-02,7.083385247992316121e-03,4.125940978086217736e-02,1.151145832997487947e-02,-1.073236884798513605e-02,5.538125418028875917e-03,3.269127395737376172e-03,1.945832429672426098e-03,4.118644184108806623e-03,1.001836175501058437e-03,9.946094653806148919e-03,6.699627920311184565e-03,3.901650325944801094e-03,7.656637690453131292e-03,7.181382572791127072e-03,-1.842718974776860058e-02,-3.994397016407501277e-02,-3.725250476492266566e-02,-2.847956289600267824e-02,6.483255261405166878e-03,2.998365199066014078e-02,3.379993889196400425e-02,1.166651237589630581e-02,3.305132738505767945e-03,1.921391864373361846e-02,-1.133277287073486232e-02,-3.408827389217820858e-02,-5.033472199032577865e-02,-5.579717320595881103e-02,1.757977369616149296e-03,1.044449630569741112e-02,-1.106340645997665358e-02,-4.260906713582718157e-03,4.429770722287930396e-03,9.114828995132029030e-03,1.942612488253329071e-03,3.090173081029565748e-03,8.521050783963491845e-03,5.659295760418021903e-03,6.714541387159047962e-03,7.386977953319872996e-03,7.954930505399861532e-03,3.305383946622974731e-03,-1.103033075411159573e-02,-1.840466794752028054e-02,-1.737692191171171657e-02,-1.637368345957447222e-02,3.977415341131784049e-02,2.153018479147653097e-02,-2.414043026332161890e-02,-8.874667931164219314e-02,-7.867615463943998522e-02,-2.576553637300695032e-02,-2.964923683044560013e-02,-7.109082201562813563e-02,-5.937511368659650207e-02,-5.751875073696875035e-02,-2.804688119656141565e-02,-1.734917573328512153e-02,-8.469061413407450584e-03,-4.431399817799968732e-04,8.433528328131666835e-03,5.129189627290276290e-03,3.906241227008021722e-03,6.073808653482324661e-03,7.090444860622662111e-03,4.238193457876149664e-03,9.462640876849262930e-03,5.786990897787014105e-04,7.939616658507796937e-03,8.350526021865022422e-03,-1.220264437996855999e-03,-1.798433697652651250e-02,1.552102480141827204e-03,-3.856843780457107460e-04,1.271985086316183150e-02,-4.253205043192671841e-02,-8.456440803265427575e-02,-1.223340870408840819e-01,-6.705079703698946236e-02,-1.722745747784243386e-02,1.559455312583721970e-02,-2.669033682073213357e-02,-2.392052210200561538e-02,-2.800484394251165007e-02,-2.546960268326210058e-02,-7.819549289659985525e-03,-4.909949603006341298e-03,5.823935187518699923e-03,8.758942611437062903e-03,9.847968141127247388e-03,1.594500761392503296e-03,2.512026059711276391e-03,3.270461534363563495e-03,3.465777783047310334e-03,5.108963115531391964e-03,7.059686330324630409e-03,5.501803106188405713e-03,7.211270158482172357e-03,-4.594154094736020710e-04,-1.926395104684036283e-02,-3.289443350342186045e-02,-9.474143496622946733e-03,2.724207285407420978e-02,-1.553348678861889327e-02,-6.007558061660039223e-02,-6.603565976179308350e-02,-1.807831921243717443e-02,3.077237802121576653e-03,1.864082446139036717e-02,-5.736200453399190914e-03,1.179041542878421847e-02,-1.049315775401864735e-02,-2.518137998441494566e-03,1.232474448282659370e-03,-4.653247708217480975e-04,-1.908089616628780554e-03,2.344581849889545554e-03,4.228842799235406173e-03,3.705935766674756278e-03,8.887452359833111770e-03,7.701066632360895753e-03,1.825041648318774870e-03,9.044511936694499613e-04,3.439249285767287563e-03,8.005171042056015082e-03,-2.545973021647528374e-03,-3.764023045900960138e-03,-6.965498693951070741e-03,-1.357737040357324260e-02,-2.569274449625381235e-02,3.435715863874910098e-02,2.224747856863059162e-02,-2.037308500451704557e-02,-2.862447898613904376e-02,-1.528327207819166374e-02,3.600271841065610760e-03,3.088827863682000636e-04,-2.256925936244646644e-02,-1.440109473381700339e-02,-1.036055378514435209e-02,-5.977999810844209817e-03,1.722517899632463158e-03,3.341311717876241979e-03,8.679403108538241360e-03,1.355207826721286247e-03,6.970254076059489816e-04,8.134979643844331447e-04,5.766129958520101011e-03,5.623134712952203469e-03,9.591685981460986235e-03,3.129945144043181325e-03,9.508556466638546853e-03,1.438868063678960807e-03,9.498584968500938322e-03,1.960364225219628567e-03,2.063845661895402335e-04,2.783752855053947799e-03,-5.811633073435721990e-03,-1.566325841035454483e-02,-3.215328060707203089e-02,-1.834541613371105245e-02,-2.377556567833372450e-02,-4.105188418632030323e-02,-1.936674081292778793e-02,-3.285339252994541950e-03,-7.421472890610606235e-03,-5.113486041669828598e-03,8.368996095541232985e-03,9.502652624838932652e-03,4.166896505181498858e-03,1.202261122069107034e-03,2.305733867307600219e-03,9.262964904859581627e-03,7.552948749451336360e-03,5.126134989267879492e-03,7.975385055765046860e-03,1.155143738517049349e-03,4.537762999783789700e-04,4.405638063666682952e-03,9.117431313737649201e-03,7.118317480833339164e-03,6.719357337561388151e-03,3.324448976750713110e-03,1.805676171926743441e-03,-5.446784166304246937e-03,-7.746748151010392908e-03,-1.010960268472230542e-02,7.817610624143226912e-04,-1.878666876579541999e-03,-1.230643727756917070e-02,-1.847329413711534460e-02,-4.962145780400215207e-03,7.965441198719020593e-03,1.219823006410282549e-03,7.528775414211658166e-04,-9.881695723313714281e-04,4.102813140289928405e-03,6.463548566013528097e-03,8.532038506727285601e-03,7.237398904404923269e-04,3.665298283429308012e-04,6.404978610075415073e-03,2.331753454605052164e-03,4.510793063570872445e-03,7.186281532304720360e-03,9.255942797354130280e-03,8.986934877555551038e-03,7.302765010367396302e-04,4.916350395337202098e-03,8.225369872816756973e-04,4.573363107227268291e-03,4.841286855228753468e-03,3.290942248992504392e-03,1.870403571957647343e-03,4.695584768487172378e-03,1.751663042727122930e-03,4.887640616071016637e-03,7.340273692677150470e-03,9.706710401482453524e-03,2.345569452550868780e-03,2.248585716819751987e-03,4.281736016734010407e-03,1.644081162172238457e-03,1.524426738958887303e-03,2.921584024137557911e-03,7.872121943297154950e-03,2.764103585959172202e-03,2.490479751669872049e-03,9.971100750262890111e-03,8.682621530287617378e-03,6.414746086575450618e-03,6.759452331706339474e-03,5.485967641080314282e-03,-5.449239118449567681e-02
2.999677343277628184e-03,2.730670920127520329e-03,9.860291356254376888e-03,8.945403279130872271e-03,9.783062714158128823e-03,1.781323829002427056e-03,7.571657875657583636e-03,8.177971394228822734e-05,2.302169782354445294e-03,8.274623545337872130e-03,3.202473404671780845e-03,3.580925087446067308e-03,1.216194977749919309e-03,2.070718437936708203e-03,8.332213463648676516e-03,9.334811133603968317e-03,9.743439567945317084e-03,8.953098575419534549e-03,1.975056299350081822e-03,4.269699609871767734e-03,2.610679976491426645e-03,6.928876878868645874e-03,7.387099984571154042e-03,5.755096480987823698e-03,3.935509949373012725e-03,2.708742425856923604e-03,8.176348762720685170e-03,1.280738359878106280e-03,1.085113883086539187e-03,1.304976793499579421e-03,2.066585389948015841e-03,4.264486576191125686e-03,7.596547349521798592e-04,7.007490866511796243e-03,2.778518226458156701e-03,7.653316530483343302e-03,3.467724454797298499e-03,3.227769769793854653e-03,5.583536376206093242e-03,7.647442681799621056e-04,2.474620703759952082e-03,6.000704189079326782e-03,2.378308979436499770e-03,5.232685548782292986e-03,5.007253526743880856e-03,5.586593762102094914e-03,7.815929642289332503e-04,3.926810796514693808e-03,7.392165513834180086e-03,6.330967377015078723e-03,4.993466398672184031e-03,2.422076082863289204e-04,9.741220205872359178e-03,4.461873432479569399e-03,6.278981724592723815e-03,1.174214292849500322e-03,7.432287099525839921e-03,4.568565788866867788e-03,9.824805818798798551e-03,6.807660392817135690e-03,4.649495297727136364e-03,1.616016157553109515e-03,8.531603840590441454e-03,6.236918563870306499e-03,2.848761564112226551e-03,8.966137280560188688e-03,9.942493095629743871e-03,1.525149643424093034e-03,9.028488448128814750e-03,5.687316823299806354e-03,2.219867139855145194e-03,-6.316793564050199143e-03,-7.219491145867461095e-03,-1.802435071435605149e-02,2.134021944762998137e-03,1.081716586025893755e-03,6.115424461918686841e-03,3.092652169851943696e-03,7.914264421418720080e-03,3.071833924912811212e-03,8.039954081197087663e-04,1.511960742109178489e-03,9.849207747724450512e-03,9.743846796801151552e-03,4.418955755009570073e-03,6.821377458006891090e-03,6.832888415190825800e-03,5.638258718139876500e-04,8.253952347716950882e-03,4.339006789213188144e-03,3.184293100556331423e-03,6.914817828184120427e-03,8.840430971101603461e-03,9.300037314426171445e-03,4.635415139536074036e-03,1.578525296739076130e-03,7.902225900616802190e-03,2.232601923549554831e-03,-3.208447078796337198e-03,-1.577288378621293299e-02,-2.223188348548227680e-02,-2.344969753412772320e-02,-2.130618101247267263e-02,7.329829174776892773e-04,6.099192364439865247e-03,9.775687109717186643e-03,7.079658464233141036e-04,3.165649955462611787e-03,4.534834814690454595e-03,9.226278448655715961e-03,8.005672970428544949e-03,5.956875644994134855e-03,5.405748880266737257e-03,2.172889998815201885e-03,1.360024592971720379e-03,2.448130561225524571e-03,9.982197359233125830e-03,2.550239638844576783e-03,1.058932368006134739e-03,6.159951702540240707e-03,5.579185644887193520e-03,4.815325937716765856e-03,2.503198750379534866e-03,-5.759731560756912398e-04,1.879241308971260974e-02,1.123512981427281232e-02,3.138843931279433445e-03,2.065596412836641013e-02,-7.950888793779416685e-04,-2.207255301732020253e-02,-9.992140928679572529e-03,-6.991341735538347119e-03,4.348968090526605240e-04,9.760170793573372467e-04,3.393722728141828574e-03,-1.208378344837205635e-04,9.315071644964157890e-03,3.778167413568866029e-03,5.789098140665498680e-03,2.634891038307212319e-03,2.552696038088232353e-03,2.355853241362910761e-03,3.021296980291521598e-04,2.888880252851409435e-03,2.201090098372853431e-03,1.223838086892517323e-02,3.706989026993572078e-02,4.862737336822693657e-02,4.450459899750400933e-02,4.608348650404382046e-02,5.152471330081453277e-02,8.398527484787723929e-02,7.635323477789125735e-02,4.153019542697814620e-02,1.247866808470562972e-02,1.119882562009106089e-02,8.851761620407072595e-03,1.865062105179514720e-02,1.070020876643617072e-02,-1.661494207830261846e-02,-3.458805951222566205e-02,-4.132352426033757131e-02,-1.886920198717117678e-02,-3.343059245986324413e-03,3.435633316817547894e-03,7.614165649639612933e-03,5.549239353104212617e-03,7.293236899682891371e-03,1.276457165090476601e-03,4.013463341786041409e-03,2.565681808320194844e-03,-7.960628047066140023e-03,-3.410693962675107830e-03,3.206415887279187582e-02,3.179796936674487290e-02,4.438628351927788318e-02,6.082097279305054977e-02,8.150040626958010570e-02,1.078767137172807478e-01,9.837911691977592465e-02,6.486645501927322532e-02,2.623512667376425717e-02,1.953600983382143205e-02,6.444895954477065925e-02,8.598420212400745277e-02,8.409417469934599154e-02,3.212803816798937007e-02,4.441453942214177927e-03,-2.918589955295470065e-02,-4.616416596634802250e-02,-1.959021961002149412e-02,-1.638501625394600883e-02,-9.440819553824152804e-03,6.280601578870090122e-03,4.915158093858232151e-03,9.429711686766451559e-04,4.755199093107842609e-04,9.218185117929208333e-03,2.859516055036740671e-03,-1.009613190372547070e-02,-2.880444202521906163e-03,2.354777015571941565e-02,2.040028535185860886e-02,4.259615524381357710e-02,7.375499869399804176e-02,9.267419208912944240e-02,8.333820536686879776e-02,5.803817743430703113e-02,2.636450305025671639e-02,-1.779402285327338559e-02,-4.435859493079971627e-02,-1.567216173688823488e-02,3.099500711904194447e-02,4.201123349532692730e-02,4.433960870663095771e-02,2.072975093087579129e-02,-4.542595638265283647e-02,-3.373038441172343527e-02,-2.226329551861855674e-02,-3.120206589175059803e-02,-2.937068374430767265e-02,-1.363098226574444363e-02,9.157729583798280421e-03,3.949707226802599488e-03,6.074888737049311389e-05,9.815775310553654515e-03,2.269145488782251408e-03,-1.088486894873970205e-02,1.777279643050740446e-02,7.220974964105482743e-03,1.703696046447239140e-02,4.005390890787505903e-02,5.872359652641947342e-02,9.301090678596143912e-02,8.457325026961105829e-02,3.201585093352286165e-02,-5.386186550935539996e-02,-1.105994303774130993e-01,-1.111072590741001287e-01,-8.543604681805382073e-02,-9.864824248814822727e-02,-6.894333738533246769e-02,5.354992991646134043e-02,5.871410361573218065e-03,-3.301949786988465918e-02,-4.506978809866889722e-03,-1.353325253720791613e-02,-2.616295376580854426e-02,-1.535039270912924754e-02,-1.606312221463253656e-02,1.934731229127096934e-03,5.714695445902273976e-03,7.107592032928783214e-03,-1.187365695317624996e-03,3.889842593053215603e-03,-4.318766635537775976e-03,-1.325031452157892330e-02,4.151736556104566531e-03,1.678413760086632997e-02,1.551046654977004946e-02,8.690177500492344068e-03,3.075246236006006981e-02,2.735262647961330187e-02,-2.224114750055227602e-02,-5.991933294205000621e-02,-7.949466485660844350e-02,-6.645697251740714795e-02,-9.811422148006902766e-02,-1.380437687629644250e-01,-8.908499565405161857e-02,4.161835650893878219e-02,5.511313926233951188e-04,-1.278755925556374941e-02,3.295025001134715276e-02,8.689043632668872613e-03,-7.328914358069776695e-03,1.996831703338624014e-03,4.579478328695946003e-03,6.893377527418549817e-03,8.964895068551595458e-03,8.111423890637955297e-03,8.832695303608039533e-03,5.643239749040746510e-03,-6.093736682655843950e-03,-2.969785042801216871e-02,-1.871627074376572275e-02,-6.633828975532559714e-03,-9.986712171579073885e-03,-2.704166470319022825e-02,-2.492904908738228110e-03,-2.341703254793826502e-02,-6.074457834347579688e-02,-8.955519661450737912e-02,-7.096926869783147518e-02,-9.341719516018427705e-02,-1.190905619380232261e-01,-7.442724419881416309e-02,-3.498543061306349979e-03,5.478710100549069595e-02,5.250132537370032909e-02,1.266542950876178505e-02,2.612224634130282455e-02,2.285542541337100969e-02,4.042329856071590131e-04,8.810353060020545760e-03,1.571580268819519101e-03,8.381255705748623386e-03,2.399747740323241330e-03,9.701254012625736695e-03,1.886014591354672138e-03,8.478319744466786614e-03,-8.474709892204260533e-03,-1.366532119827206307e-02,-1.361611570823731930e-02,-9.740790517657825498e-03,-1.338346462537995905e-02,-4.278216142351430606e-02,-6.329175346938591129e-02,-7.953944831040669905e-02,-1.330858138226753695e-01,-1.429292100725465531e-01,-1.385280996469104853e-01,-1.154711175040122051e-01,-1.074980250873063675e-01,-9.578672422630429839e-02,-3.474107543486856797e-02,6.641130840535097724e-02,6.872832567201095366e-02,1.974711472821085931e-02,2.442036382352533175e-02,2.866236369334064157e-02,3.932947057722584530e-03,6.525701781013633178e-03,6.194412186639894347e-03,5.881148254470482117e-03,9.939346951735459484e-03,6.073586199942025352e-03,8.469062379215464226e-04,1.239092214817903931e-03,-7.963595268994027102e-03,-2.010839624225761388e-02,-9.002642581863647478e-03,-1.035903152058395560e-02,-2.349609074351537499e-02,-5.461094027075163310e-02,-8.145828803946431051e-02,-1.140249904375228301e-01,-1.606088542486052984e-01,-1.352714353604507480e-01,-1.287940263639545946e-01,-9.054402685601226075e-02,-1.190798189262664147e-01,-1.153088884673418579e-01,-2.758592162223712577e-02,5.087744036737382181e-02,5.684610046338346018e-02,5.832829267412071098e-03,3.000479864600738220e-02,1.000010251096391037e-02,3.456747374015083259e-03,6.786641379067748052e-03,9.538012673452080786e-03,9.981995044739337686e-03,4.153264565752101895e-04,1.201183272627165399e-03,8.712398696766222514e-03,6.772509152080985516e-04,-5.451857312295439566e-03,-1.418157917380290060e-02,-9.749291845953462002e-03,-1.031830906788208831e-02,-2.823758186002539930e-02,-4.139055939890718544e-02,-6.396603404883813293e-02,-1.107804840266852497e-01,-1.465888830513148444e-01,-1.096429333037976239e-01,-8.405688824954882232e-02,-1.060471350085205600e-01,-1.356416031207948181e-01,-1.411039523620340741e-01,-4.386304454225291999e-02,5.099482498520319096e-02,4.122904935814891009e-02,2.446670679288262540e-03,1.035541289393672980e-02,-5.955122680331246393e-03,5.256123131568851865e-03,8.159760671069739985e-03,2.185278771932348471e-03,6.012484460918092986e-03,2.609408641789380447e-03,1.156161591209198302e-03,1.746953639732966562e-03,2.814226852291244058e-03,-3.973716706560181423e-03,-1.439013734310109517e-02,-4.799809689508855760e-03,-1.027397324810453219e-02,-3.619799480750025139e-02,-4.770977117104713283e-02,-6.861764885395255087e-02,-1.162373179497318137e-01,-9.990267575826214386e-02,-7.117072821583736442e-02,-7.348141692642420897e-02,-1.020124381817618248e-01,-1.205481242121011348e-01,-1.136899604406022418e-01,-1.390500382095746432e-02,2.123959931001306867e-02,-1.834240715848445627e-02,-1.618482808623624564e-02,-1.763717975973762980e-02,-2.937299157994829879e-03,8.646661178105663828e-03,2.364927227045240943e-02,1.421375330031710189e-02,2.157294230097482005e-03,7.263525359254249456e-03,4.189827787431574940e-03,5.998243797722357896e-04,4.658377330021454613e-03,-1.288539230062863555e-02,-2.002082904728317778e-02,-1.360714230264115435e-02,-2.099331640605783811e-02,-5.538315631853066301e-02,-7.140357077882301950e-02,-5.716953438097394785e-02,-3.124844259374176536e-02,-1.180665075898679021e-02,-3.923403501788969711e-02,-1.034277638424994927e-01,-1.404210036167315989e-01,-1.513799027867659963e-01,-1.005949145187688826e-01,1.510232843195646359e-02,3.625036181700701243e-02,-1.606379387152907616e-03,-3.526573916020654675e-02,-2.485052748324768218e-02,2.072147934386956922e-02,3.085208856195738314e-02,3.905814269978088310e-02,2.971146798553930823e-02,4.602771267613332828e-03,8.037019240119366512e-03,2.254110896762229286e-03,8.869292793765316471e-03,5.700805097382062245e-03,5.396845982258211341e-03,-9.342974951706068537e-03,-1.409667789109427319e-02,-2.547234393318822260e-02,-5.412181799898742318e-02,-4.761699402794687674e-02,3.211136345238070622e-02,1.989983779656624707e-02,1.275486213724396191e-03,-3.726230818038908654e-02,-1.242647092516888374e-01,-1.475504030544562140e-01,-6.712103934230850832e-02,-1.669227368505812187e-02,2.532846490818378010e-02,2.598509032883961414e-02,1.735554397975581226e-02,-2.258375702879330746e-02,4.064376589377273301e-03,1.991294385387249247e-02,1.045750425204142707e-02,1.521859689967146843e-02,7.874520295409024803e-03,1.402697807264803240e-03,4.853873650781980256e-03,7.012967585002435542e-03,3.530583488251050166e-03,6.355154505395841508e-03,1.698541035916173491e-03,2.927585210826077859e-04,3.079931178406367966e-03,-1.615787451383773193e-02,9.085638708270060704e-03,7.297052101778855882e-02,9.499724284428594234e-02,4.497776025356481355e-02,-2.232401178137910849e-03,-2.081202367094801831e-02,-4.188325828205934076e-02,-5.966902440583339573e-02,-2.276069407883192508e-02,1.859174375359718898e-02,3.369643391813308651e-03,-4.048283393050251810e-02,-4.345423091441382585e-02,-1.290831489055643518e-03,1.431065294717597317e-02,1.109319145578454603e-02,1.451090268291087455e-02,1.965324437162254204e-02,6.425724227405122356e-03,4.882089371719180657e-03,2.923321304615898036e-03,5.957703069617902546e-03,2.340478700921850945e-03,4.607760670772215357e-03,6.277901828826735336e-03,4.089751155576993105e-03,-2.849276902505049405e-03,4.758476166414924574e-02,8.487815431836413793e-02,9.333010804518997172e-02,5.427838865318473233e-02,-1.546238931798652426e-02,-1.651780117943939599e-02,5.569476876910391810e-03,-2.705073946551008260e-02,-5.810152411018345425e-02,-1.510697628034543376e-02,-1.336534046229328858e-02,-6.091422540328662871e-02,-1.155796702928741232e-01,-3.808159107058361331e-02,4.762699793576261748e-02,8.951721389464409318e-02,1.002901047694927522e-01,1.126538455307104503e-01,7.225973852030384559e-02,5.569528967089011108e-03,7.156908700788416032e-03,9.052419628162727480e-03,1.069740201830804470e-03,3.465833515332789223e-03,4.540120297795650038e-03,1.525650095126757089e-03,8.267540129475517419e-03,2.131042907517934418e-02,1.265622221059169994e-01,9.199157806486923938e-02,1.714759573891578431e-02,-1.580478434559345717e-03,-4.527388379355988535e-02,2.599381522865550770e-03,-4.219738000426047873e-03,-3.302452876589123676e-02,-3.115571516446665953e-02,-4.718155824281625860e-02,-6.399931231236859197e-02,-8.644045074224918079e-02,-8.535044823660133118e-02,-1.984368710497603702e-02,1.992624189121612252e-02,6.324768239532259362e-02,9.521815512083327271e-02,6.539282185794323410e-02,1.206077487277387207e-02,2.170059997585782868e-03,6.508261076150659991e-03,5.659682657178247665e-03,4.402654626478229305e-03,4.274430666767965563e-03,6.890620548814016012e-03,1.848260368126017957e-03,5.316444302378842482e-03,3.877062279832926145e-02,9.658847120603117342e-02,7.046257770736878701e-02,1.634913075191160928e-02,4.127402895166558568e-03,3.604974408161170513e-02,2.617869826048996665e-02,1.668269552453755314e-02,1.125974627611648704e-03,-4.802317917745650699e-02,-6.424439173456325536e-02,-7.002846367538720362e-02,-9.593220726523402075e-02,-5.580884904952252562e-02,1.207882789238222052e-02,2.976731341683655496e-02,4.349662400375364085e-02,5.993171511168750992e-02,2.764513601756160566e-02,6.764696250319960670e-03,7.381298789932599046e-03,5.567352228356081895e-04,6.088725559927933573e-03,3.266740972075579067e-03,6.031119815573907604e-03,3.223242823046788136e-03,3.558236516481125874e-03,7.036527450105436315e-03,3.408805184962993007e-02,5.609514901047481239e-02,6.090572389531445641e-02,5.328900400363712625e-02,3.068863383492323113e-02,4.231468931333932232e-02,-6.282776711430963085e-03,-7.646684629158002552e-03,-5.138009104203047905e-03,-2.602345280924333107e-02,-4.486274154524318852e-02,-2.934292844912192791e-02,-1.907151993773570017e-02,1.579250079964504214e-02,4.886914078972651870e-02,4.514521842137938362e-02,1.902635931153601537e-02,3.454118596466857621e-02,4.540774954208221144e-03,8.039002169779629545e-03,1.754300377202293575e-03,4.968540887671454159e-03,4.174213296761227106e-03,3.135311892464707172e-03,9.489570827451223115e-03,5.298222589142075403e-03,1.744826589293581049e-03,6.172430957821804960e-03,-4.835941101425620357e-03,-7.517561297019493063e-03,1.347382544499857102e-02,2.583989875951326828e-02,-8.940718181597975866e-04,2.999311555833788449e-03,-6.460212251125017381e-03,-8.892351747754675614e-03,-3.062567370212844475e-02,-3.991686772151722268e-02,-1.264039555127125479e-02,1.719437478847713960e-02,-1.047098156790322691e-02,2.902052968609837970e-04,1.589513338584620100e-02,4.215293838911121638e-02,4.487689892297388322e-02,3.751913936025279284e-02,2.033887868783361072e-02,5.943744037718309316e-03,6.042359616682468730e-03,6.122977671991514667e-04,3.869408899075428218e-03,1.632555740498128471e-03,1.480191520787376173e-03,4.611227413709915145e-03,2.494751089245872324e-03,5.668578652392796541e-03,-8.558699781490054434e-03,-2.715881761753528509e-02,-3.618649717980356589e-02,-5.625931253357911721e-02,-8.450962229787857549e-02,-8.841036005905512918e-02,-3.868866731630016959e-02,7.442138983096236414e-03,-7.187835070580835505e-03,-4.528010905274655606e-02,-2.009586771470137437e-02,-9.367545671022458427e-04,1.118771823503638893e-02,2.248796896149806573e-02,3.580573314346782721e-02,4.009880444314904702e-02,4.754638670342298257e-02,3.881801602186190497e-02,5.284900563659795242e-02,3.555765658836681619e-03,6.900459007446577489e-03,7.484033489343899781e-04,6.325327860495672493e-03,5.741062263002189373e-03,5.360990477983314760e-03,9.804488039262931540e-03,4.273852875546353160e-03,-7.471585178186094340e-04,-1.119437481795639662e-03,-1.175542211774409200e-02,-1.940605878601788653e-02,-3.776099564752181253e-02,-6.241214407895213923e-02,-8.580400512317552797e-02,-7.518140294176124672e-02,-2.924802592520257816e-02,-2.665698712355469083e-02,-5.211627922264512602e-02,-6.923766826994006730e-03,2.968096324718590140e-02,4.137816813611948363e-02,3.676187493946858620e-02,1.662943213839897932e-02,1.599886051498979056e-02,1.271869248471830562e-02,9.597317568752615491e-03,2.432760639338320610e-02,6.697043975543059274e-03,2.858297925998355346e-03,6.821838846648819836e-03,8.742502332070861346e-03,3.344853298364691523e-04,6.029913216410756963e-03,4.461322103072254928e-03,1.944247027570859083e-03,9.740306100737724376e-03,6.901299677981005166e-03,4.447106258556615828e-04,-9.836586818645705506e-04,-3.912041330099554244e-03,-1.792970766155140699e-02,-2.695716108132686570e-02,-1.346310890106505731e-02,-1.659854817713907194e-02,-2.219771268222363661e-02,-1.448650622749024335e-02,-3.448435543809274650e-03,-5.188371203273235916e-04,2.035330733346107923e-03,-1.137308166937687077e-04,9.983129309159684273e-03,2.484903819789895368e-03,3.600595990777397896e-03,7.696206679565054110e-03,3.373008420439792612e-03,3.411460214357563657e-03,8.283358043525050965e-03,3.342111421959206331e-03,6.209580727750060869e-03,7.672633442711690975e-03,3.710081694947268190e-03,5.551024962277019241e-03,5.929257966672095946e-03,4.843105596502000031e-03,8.917691258470672108e-03,3.773534120553525433e-04,2.789571697151058908e-03,-3.798458844772983987e-03,-2.496766751101026516e-03,-2.308523685235229061e-03,-2.653543585606908846e-04,-1.032159472226441832e-02,-1.218637023977630490e-03,6.449314015420085609e-03,3.142729935480984265e-03,2.593210488942144024e-03,-3.046892206868255862e-03,1.525361244766503107e-03,8.714547372964578931e-03,2.781999323267644268e-03,1.540559159792335119e-03,4.552677538763526613e-03,3.891487594695202269e-03,1.962713207490831419e-03,9.702568062413432018e-03,4.227185698781943390e-03,6.193942970774928350e-03,2.564483760451180538e-03,4.673843475893732849e-03,4.560016364084215103e-03,6.455589493220357210e-03,9.623449391237291761e-03,4.418334825446033030e-03,5.747488282932619423e-03,4.911136286056604593e-03,4.196871868498517483e-03,9.428828745841390593e-03,5.329572028270612716e-03,3.152438793822024635e-03,7.518552725563495964e-03,2.578059676024069356e-03,1.526828348173134894e-03,3.975002782292080122e-03,1.691171403223328202e-03,9.495081574587982279e-04,5.309227120800626143e-03,9.325822196597681815e-03,9.570718510434617077e-04,2.958793737507833376e-03,1.260382825702062275e-03,3.265442766153767943e-03,2.657118534856482001e-03,5.909928247255608405e-03,1.032656221186952720e-03,4.416395696470811622e-03,-1.908254394168896750e-01
9.346118871281965459e-03,2.827005984347172839e-03,6.637069221424274530e-03,5.368467436703652437e-03,3.670448485976525281e-03,2.423012207681340003e-03,4.392440336279754970e-03,8.768901019795547966e-03,6.112020590450625152e-03,4.626572910550776942e-03,5.542893491396261915e-04,3.369384189807447111e-03,2.637192705504211050e-03,2.926506625292668389e-04,6.512919894090809896e-03,1.118538711200750503e-03,3.267082161936979597e-03,6.768113381047956290e-03,8.821214197704693727e-03,4.656658873867259955e-03,6.295341209412569188e-03,4.734717570758857109e-03,5.573496639894260024e-04,2.783017459516681259e-03,3.335500860362565836e-03,5.340645441472879939e-04,8.382271926925439348e-03,3.345428187346372040e-03,1.909158393629125598e-03,1.216631289377161475e-03,3.096808347731624250e-03,8.295103641301024289e-03,7.290817170516600623e-03,5.979045458271482934e-03,9.546546326282946346e-03,4.516207763832647145e-04,7.080478109533139795e-03,2.833409092280914088e-03,1.724568794105058077e-03,6.094443656101756861e-03,3.140123753150996302e-03,6.812847257743387744e-03,6.449405818012176293e-03,6.308566069463199776e-03,4.138506725787164872e-03,9.320061709627234722e-03,7.097356780436003994e-03,4.136763668766496940e-04,1.352194970567987013e-03,5.519964068658694649e-03,7.879388429245244574e-03,9.034432967894254554e-03,1.528329181525049912e-03,6.886228004704187007e-03,8.371782163047636512e-04,2.692462494534512366e-03,1.274941068524226796e-03,3.100375345193822144e-03,6.321249326928667436e-03,5.733742746829834092e-03,2.866516845926758705e-03,5.136929952470129825e-03,9.957314536705660912e-03,1.877151678449263646e-03,7.397769709139955310e-03,1.338640504612309556e-04,2.742695703486538409e-03,2.715697501944381882e-03,7.518094133429955792e-03,7.591415625353929893e-03,3.021248099891505907e-03,-5.251219944345694203e-03,-1.109892325167040339e-02,-1.339271861162423354e-02,-2.840194284628184181e-03,7.420287442877842275e-03,3.085186522884868394e-03,2.854093001912589699e-03,7.383957335717250894e-03,7.887405509052067970e-03,8.890027678829662619e-03,2.410812478613224598e-03,4.766952931754645309e-03,2.938500519453634977e-04,7.564565440598814035e-03,6.692003584947412743e-03,8.116998606863139870e-03,4.023071984902894943e-03,3.357197997466716561e-03,5.747579796132214029e-03,6.957047564574946746e-03,4.138176569976417113e-03,2.514890899768422623e-03,6.508950433681504012e-04,3.368446943364451426e-03,1.696844174873798471e-03,2.530048300518001995e-03,5.479887283722860436e-03,2.076578030758112568e-03,-1.602185666540645315e-02,-2.261327951105415734e-02,-1.952215144819199888e-02,-1.973732568070792406e-02,7.183249101687824668e-04,9.564661064296922297e-03,6.296253304017736252e-03,6.812816642843829568e-03,8.636714464966570651e-03,7.312311017657764298e-03,9.647758807137843742e-03,5.044535468391429106e-03,6.687003064714847587e-03,7.197122030134647623e-03,3.115851381330509047e-03,1.366287998863666793e-03,1.041287959160368650e-03,7.408059582356768535e-03,6.864568799514768338e-03,4.176164762807969139e-03,6.365637602137120057e-03,9.212900250036215252e-04,6.425251111316344042e-03,1.320458054499090835e-03,1.194087835600916685e-02,1.813513621822791105e-02,2.702963874258570293e-02,-7.600966190409055509e-03,-3.171503789324921913e-02,-3.573606267100284950e-02,-4.512519304835938688e-02,-3.278645869094313353e-02,-8.294672002813795533e-03,-2.068156301850048514e-04,-1.918910511091578581e-03,4.240215219078483089e-03,4.131427199898776367e-03,2.633534726918688312e-03,3.615716203645930136e-03,3.110699004807873039e-03,1.078753907252500994e-03,3.541691526860458035e-05,7.496825735116221731e-03,6.569301796536848245e-03,2.805206919270629429e-03,1.157952476303721577e-02,1.142236731645394909e-02,5.952076482429998448e-03,1.025115162925637619e-02,1.897745044761088573e-02,5.857016908435089785e-03,2.289090295397583699e-02,2.318108505086028531e-02,1.619877545057997123e-02,1.311604883129450019e-02,5.141073633215036132e-02,4.892506062154763913e-02,5.117917082185929195e-02,1.838499709235489471e-02,1.014934231960978352e-02,-6.892984661422653196e-03,-1.732224041843097306e-02,-6.607743668397556003e-02,-2.740083720939582787e-02,-7.250983723724715481e-03,7.891003141512033595e-03,5.413976027231944162e-03,2.974159016192226036e-03,2.355524351547037040e-03,1.519217066563811544e-03,4.481788450076669081e-03,1.613556966589441231e-03,1.340370732716366330e-02,7.206111601413363842e-03,4.311228895505271781e-03,4.782377113767934812e-02,4.827986912690339361e-02,3.338373368824167770e-02,2.967026551104664372e-02,2.356972628257625324e-02,9.387110756178779214e-02,6.229034173651462614e-02,1.018109613238416498e-02,-8.749650107036145014e-03,5.809238057262820776e-03,1.858761821090277461e-02,2.020553351710746223e-02,-3.697897007051358792e-02,-9.771750269927503146e-03,-1.353634423007933109e-02,-4.158761054842714106e-02,-4.276977596265140596e-02,-2.987619941866306861e-02,-1.151902673883403033e-02,-1.263972480992401216e-03,4.063336420042962293e-04,6.844896179290483121e-03,6.257944231553468767e-03,9.832426191825017689e-03,9.388864180433272727e-03,2.336542322266549343e-02,-3.499440426689708235e-03,-1.182758170454027008e-02,6.441954086840501192e-02,7.688325636861580159e-02,5.478406145634243107e-02,6.955139018110162441e-02,7.941163836204175042e-02,1.008932736185468443e-01,1.143909895269622640e-01,2.377119349437483570e-02,-1.572322495299558615e-02,3.332434113929311215e-02,2.078526284110015707e-02,-8.549532726450597905e-03,-3.177772264381487771e-02,-5.239592190880521666e-02,-2.417097280682975122e-02,1.171380598339672764e-02,-5.693878017357306004e-03,-2.970553218705772325e-02,-2.294359624329101593e-02,-8.393343932110377756e-03,1.004648656260225328e-03,6.417542706401444322e-03,8.685853552734218094e-03,1.127148491955865060e-03,1.708905985295301440e-03,2.883457632914673829e-02,-4.611846529502387423e-03,-3.421003768154819852e-03,3.329016578879040456e-02,6.095381771247284503e-02,3.747944669884546720e-02,2.489782724812826531e-02,3.175316060444482308e-02,3.950137885921900516e-02,4.198015691360764551e-02,-4.239030208916414605e-02,-5.452950398577181834e-02,1.950327207510683600e-02,2.757386844010643184e-02,-2.116087241838500443e-02,-5.207664673834801888e-02,-6.645526062877453455e-02,-4.993100253970290947e-02,8.967542894749172761e-04,2.547562417557941526e-03,-7.827572773608303808e-03,-1.026462803139049224e-02,-1.107408229931784727e-02,3.102174515181740228e-03,9.914338852969181368e-03,1.626154326102592293e-03,-1.400039565613883912e-03,4.001802193131702087e-03,4.583630803428340172e-02,8.856903531241529237e-03,8.825979482233395216e-04,2.252426505594726930e-02,2.253032020508605876e-02,2.773667689506406023e-03,-5.618880015288253010e-02,-8.694072075909047015e-02,-1.221213402693383659e-01,-1.473296790194751349e-01,-1.372496845569699531e-01,-1.222699856745918384e-01,1.314969605442753084e-02,4.038612508415724556e-02,-2.122226027205024665e-02,-6.046152737313290754e-02,-6.317547989221411475e-02,-3.048074944466841463e-02,-1.828710335185589758e-02,6.668870139833843642e-03,5.740065254323049523e-03,6.906112387504399069e-03,4.241260171482783871e-03,1.402481839473146506e-03,1.753995420707423706e-03,3.957123246413875306e-03,-8.717963136483146224e-06,6.240271039197432985e-03,3.420619787811714219e-02,1.472688771802569720e-02,-1.020668423881126649e-02,5.446470321164956739e-03,-1.396290285463214383e-02,-2.283900667707700061e-02,-7.176387707955032835e-02,-1.089874101726575617e-01,-1.596484994512719080e-01,-1.635770475216772324e-01,-1.255312215588107183e-01,-2.826104519555251715e-02,5.056639211987867116e-02,6.979850889373213907e-02,-1.958442191677061892e-02,-2.906724234660004735e-02,-5.062023912609777548e-02,-2.098802888148718765e-02,-1.944022290253375265e-03,-8.043115988089588435e-04,3.982638421174808721e-03,8.586254508776189343e-03,3.224996604192546194e-03,8.954461071383559151e-03,9.586121885286307334e-03,5.207060694132479260e-03,9.458235852922894371e-03,7.722534607815123402e-03,-1.200409177827657138e-02,-2.601947731946117545e-02,-2.666786321858146194e-02,-1.050359258097540750e-02,-1.922325107860634388e-02,-4.953409691285569350e-02,-8.849082732071397728e-02,-1.250439683010360625e-01,-1.482102001760660925e-01,-8.538332784854232860e-02,-2.070792452464805325e-02,5.407704021545502865e-02,5.910860659064789274e-02,3.196062268710566506e-02,-2.149474972642389028e-02,-3.527302366602137057e-02,-5.926100800197673518e-02,-2.656822390948894788e-02,-2.337513094610909128e-02,-1.237361517464317939e-02,8.827576117041779219e-03,7.502406946272601601e-03,4.000756060887385689e-03,2.485717908951015284e-03,6.941855795163568918e-03,7.476096675797974656e-03,3.320901794299686589e-03,5.041704847966097663e-03,-7.761886924133423390e-03,-1.982526001411860986e-02,-1.397794166736306652e-02,-1.175092895076696939e-02,-2.071453703254121440e-02,-5.024091297018373065e-02,-8.570415217768438676e-02,-8.859118204161520183e-02,-2.186190381318235676e-02,3.963102330964642789e-02,1.707534983808189216e-02,5.961896275752064100e-02,3.820284357603417891e-02,-4.689961526218405091e-02,-3.039273092693898365e-02,-5.629385307271992517e-02,-4.077909764106708856e-02,-2.892318886921511206e-02,-3.345109856575442797e-02,-1.103819827608305999e-02,8.016982237120788904e-03,2.042136944601353685e-03,8.411438431525430220e-03,3.249695818013431658e-03,8.918452083730021721e-04,3.683002559555478232e-03,7.416017157167597088e-03,5.283104378665074395e-03,-9.324130723494456971e-03,-2.033355065238677886e-02,-7.327125962032403697e-03,-1.152697344072271812e-02,-3.164868387003653971e-02,-4.846493769705730731e-02,-6.139478772135596729e-02,6.023109915991402968e-03,8.319934713514323676e-02,1.223600855195713794e-01,6.987270836117710771e-02,4.857317505696406856e-02,-5.044548807295375775e-02,-7.368439568234820547e-02,-9.544062125947364375e-03,-1.997438399946406106e-03,-3.189993710226856488e-02,-3.757476204669116943e-02,-3.360754795360455793e-02,-6.128454489214989025e-03,8.660144227496967273e-03,5.497180579725317179e-03,4.971724650139880582e-03,8.444411598649153444e-03,6.187563698156019198e-03,3.253428480534848073e-03,6.018303277159423037e-03,1.796927665220449067e-04,-1.280347631275889457e-02,-2.036664883841735399e-02,-4.163620628665763365e-03,-5.193864381083765532e-03,-3.302928195764353453e-02,-3.572749616970575387e-02,-1.569153446825468853e-02,-3.356641836915922467e-02,3.385583419927518101e-02,8.378690847415726228e-02,3.332907069180045256e-02,-2.521640623212434776e-02,-5.750403588886641992e-02,-4.968688569580359538e-02,1.100101991973965673e-02,3.509647336312385346e-02,1.104814481827112900e-02,-1.358468464787480900e-02,-3.305288274554257777e-02,-1.008226051975485982e-02,-3.829411172201787131e-03,-2.503806833421746893e-03,2.218981014335640826e-03,2.300915464047619506e-03,7.577224171955093852e-03,3.939799513974029041e-03,8.803264139270287891e-03,3.706061466862176166e-03,-1.312852599345736351e-02,-2.195106548015528930e-02,-2.507358772657446513e-02,-3.315815070051116725e-02,-5.700237684505116142e-02,-6.095522479505326857e-02,-5.976952368651521075e-02,-1.079481522518481867e-01,-6.452522141578317938e-02,-4.291133314113868696e-02,-1.054791071060102864e-01,-1.052353712350504455e-01,-9.093349382362299338e-02,-1.323901637797994003e-02,5.192387945879775590e-02,4.440783182011279195e-02,-6.922920195582521041e-04,6.868639608877099081e-03,-3.359931273439092686e-04,-1.806848867081402299e-02,-1.267303954996979592e-02,-1.556743703128779174e-02,-2.438573784703892879e-03,7.135191339486284499e-03,8.680190099741108556e-03,4.848499782457165071e-03,8.065998950529536596e-03,9.511516693442235082e-04,1.850781579494177381e-03,-6.636649442353848537e-03,-1.867665089827550209e-02,-2.951113521490437985e-02,-5.833592159604664845e-02,-7.328479586806349588e-02,-9.858951550221735360e-02,-1.069071999282550922e-01,-1.141803185730849851e-01,-1.103008294542548035e-01,-1.361574615462095850e-01,-1.640346378366839275e-01,-1.406254755267787315e-01,-5.739829499077959973e-02,7.122803945885046450e-02,9.098105367608991245e-02,-4.355291069207863075e-02,2.411016343307286619e-02,3.708366321361849377e-02,1.643592620641719584e-02,5.850076515727005433e-03,5.015732321065355902e-03,1.486356474337110481e-03,4.876028119667732454e-03,9.574105740281063301e-03,2.116241764523618825e-04,2.977167487153153935e-03,5.750192191737522884e-03,6.488389431469267221e-03,8.798434851219534905e-03,-3.371437406538310960e-03,-1.895565754438357370e-02,-6.788846355857677817e-02,-9.728145653702072182e-02,-9.516034837309990391e-02,-1.330274229845356815e-01,-1.167127490209774743e-01,-1.043983429735810264e-01,-1.488534457199257310e-01,-1.788438954237829559e-01,-1.885143029461638087e-01,-8.710290153221965370e-02,3.467726336236453405e-02,9.621454065469607631e-02,3.744997866144533175e-03,1.257881600285568231e-02,5.932517358755977355e-02,5.823439348196553927e-02,2.753976123544333177e-03,2.568340662551336505e-04,2.318346837932577700e-03,7.706240909614189144e-03,3.390270785179263537e-03,1.403658649747641226e-03,8.662424786698498178e-03,7.553034224434321958e-03,4.688853704375974853e-03,3.461963043063939326e-03,-8.337072067916799847e-03,-3.482618132697189867e-02,-8.555815895542540073e-02,-8.814387450398016022e-02,-7.445976138862016314e-02,-1.229203315095964977e-01,-8.282886342912593181e-02,-6.607712718178626599e-02,-1.077577804468815015e-01,-1.579894810432836416e-01,-1.704465287665200557e-01,-8.317653807528564702e-02,7.531469642626327857e-03,5.900084103934131324e-02,-6.030040075366413163e-03,3.333802627882814177e-03,3.849011251206137935e-02,3.715404588233142680e-02,-1.094970055592881832e-02,-2.646856204211086357e-03,3.856103152095824698e-03,8.668258579614493420e-03,4.110857556652361237e-03,2.986738639783870480e-03,7.218769417054555701e-03,2.616847432870657124e-03,4.670189666149245078e-03,5.194371121828689208e-03,-2.059616529655691058e-02,-6.011603683388085095e-02,-2.838499816490390459e-02,-4.948597062482094910e-02,-6.328654292494782785e-02,-1.191919807798642594e-01,-1.145830353044636346e-01,-1.192993165573068004e-01,-1.407307821656198499e-01,-1.670409566101749566e-01,-1.044408630012811784e-01,-3.767542330511605697e-02,-2.045743685495541881e-03,4.769672211964005350e-03,2.846482290903841819e-02,2.191465185201184329e-02,4.201530033277139226e-02,3.173714796863921772e-02,-6.938887571647313172e-03,3.301835300843604186e-04,9.212033978907414877e-03,5.335614436288706360e-03,1.703881893813098377e-03,8.027209741383852307e-03,2.001605689385038689e-03,8.034285583891617732e-03,9.742263820299770088e-03,7.518150807170969306e-03,1.701149512818754192e-02,4.332528800770131527e-02,7.334396286462217807e-02,1.353672996790290621e-02,-7.241034029797188687e-02,-1.413038727674149897e-01,-1.629793756988359155e-01,-1.598943026978808246e-01,-1.416496250945051827e-01,-1.002961995299449099e-01,-2.173879292601764088e-02,6.238129921105919212e-02,3.973118656618936095e-02,7.410426212002600710e-02,6.336491694600897284e-02,4.694771592842474084e-02,3.742167207571474308e-02,4.903644814489149274e-03,-2.009028638176526757e-03,5.161363489108779061e-03,9.557841431005780625e-03,2.741877305491458180e-04,9.981444269514253703e-03,7.706397149101796261e-03,3.079054176320972268e-04,3.538815393881295044e-03,8.833266469812169411e-03,1.659245761098583974e-02,7.019913288883582181e-02,7.738417119603972771e-02,8.069970649362583071e-02,6.468196811068396834e-02,4.023285114405038103e-03,-6.642962065623146672e-02,-9.793432703295470998e-02,-8.708238999388608070e-02,-6.042027726104035046e-02,-3.426652960612828341e-02,2.751418952673956309e-02,1.153733160056138601e-01,7.272114287366411578e-02,5.460515465941410268e-02,3.856514522548357138e-02,5.065140744007195356e-02,1.203766658903108328e-02,-9.355854797882392571e-04,3.009415370982315274e-03,6.421407247445547195e-03,4.892390901700201418e-03,4.565607464156465171e-03,5.413276471169620532e-03,5.424589276360747281e-03,3.344647588817776292e-03,3.923497414700659845e-03,3.849943647959049031e-03,1.442524789273249251e-02,6.741377518802631197e-02,8.419552597527329985e-02,8.313423251763230049e-02,5.081521833348354861e-02,4.043647546993812264e-02,-5.345110082981505487e-03,-1.781839322656536898e-02,-1.743667184810611739e-02,-2.975199434149346581e-02,-1.361982716141548963e-02,5.555715571931901797e-02,6.311401948445086174e-02,1.378812362403809312e-02,1.447550088478987904e-02,1.910598776919922651e-02,7.833243940122630936e-03,-1.475722110773442647e-02,-9.543605406648145856e-03,1.427695832223993804e-03,6.380095263898628334e-03,8.016184093430745545e-04,6.611149254338456738e-03,8.037444658871776074e-03,3.434385747388174655e-03,2.514102079193832745e-03,5.902782361739003850e-03,2.690187956626247535e-03,5.950165660416090185e-03,1.590714073831439937e-02,2.742120319971352166e-02,7.765545081787988968e-02,7.257354590214702694e-02,6.206035398282865739e-02,9.493712814575320028e-03,6.346797938983212740e-03,6.287488702801354024e-02,5.386589095773503671e-02,1.080387998862401312e-02,-1.577249579057099158e-02,-1.585139131378607291e-02,-5.084695320757813553e-02,-2.114677405198461466e-02,-2.149276204003830806e-02,-1.764160940514909043e-02,-1.326465423802800254e-02,3.404047224265683170e-04,-4.309786464720039706e-03,1.593906262943843967e-03,4.502724994741255996e-03,8.756446495047708750e-03,3.025005656447912403e-03,7.029358471081933318e-03,5.900097185711418446e-03,9.844888341001552939e-03,1.232178507253428720e-03,-7.084066182713654944e-03,-1.971165034469222338e-02,-2.840072741510006084e-03,2.491353884807580993e-02,6.711191269399127690e-02,6.817433451322928162e-02,1.716263750843550345e-02,2.889138788501051033e-02,2.517521324583701925e-02,-1.674910096228199308e-02,-3.838946251356057521e-02,-2.984071978845331125e-02,-3.734622373839191489e-02,-2.449239116911121686e-02,-3.410901201090700552e-02,-1.121077423620917175e-02,4.416691102641468608e-03,5.323062057344551783e-03,2.306713535243855046e-03,2.599505933957488388e-03,5.510027913675029539e-03,3.609589140508830986e-03,7.643477275891227482e-03,7.620305152564152244e-03,4.635510880196115450e-03,1.186885910051681519e-03,4.855044437012732625e-03,8.869778618968100770e-03,7.964003506841649260e-03,8.379760953670935611e-03,6.393107123601916332e-03,-2.400765305662277190e-03,-1.005686054541064106e-02,-8.408563755317673832e-03,-2.125620207729068609e-02,-5.908829936742013809e-03,2.814194915860420906e-02,-2.226523679798359315e-03,-5.922077618497102909e-03,-2.364695909084703774e-03,-1.423617225244618164e-03,1.688112153291364867e-04,6.334039699453133943e-03,4.571140977121015622e-03,5.602895404128854610e-03,4.102836108709531290e-03,8.230235456977657779e-03,7.860716228793192956e-03,1.386157873091247144e-03,8.834197095545580358e-03,3.816606568228124875e-03,6.398129271280819652e-03,6.956176267111460233e-03,6.507732034003320572e-03,1.328285911522786300e-03,4.462317218734953260e-03,9.696422775414910780e-03,5.545585542494816875e-03,4.555024796465958689e-03,1.627350357560095745e-03,-2.858794544402196505e-03,-3.813245477047387966e-03,3.570256523109177887e-03,1.619344183044822130e-03,-7.624439930712672946e-03,-9.198753076310847016e-03,5.167053277248040075e-04,9.150438330565807687e-03,6.387296133543344558e-03,5.486061631495506470e-03,1.815118164261377183e-03,5.778761214710561277e-03,3.570364673713907061e-03,2.086586296249611731e-03,5.502098709884948105e-03,8.370436297292061607e-04,1.629246476304409101e-03,1.959201098759463106e-03,5.984900597463186159e-03,1.815016565621668885e-03,8.683055627263446333e-03,8.944810808358695173e-03,3.247679544200430223e-03,1.014882277714423877e-03,5.676314144408924067e-03,4.544834060953273878e-03,4.086256742654196736e-03,2.513730254428889893e-03,2.641858514360486895e-03,4.607945468279412218e-03,1.343868978748620144e-03,1.867992613235504003e-03,5.107929644099039497e-03,5.672813126475207118e-04,1.247113197611093881e-04,4.077067262302826352e-03,4.991493378225959725e-03,4.737668691065107483e-03,3.095969019695685685e-03,2.477179751742695363e-03,2.308612440151628503e-03,2.792162013528899298e-03,9.628630446301232951e-03,1.657025719538629538e-03,2.669775034663501769e-03,3.346171177871410090e-03,4.035985354971793893e-04,2.225276364329263797e-03,-2.004431373810165173e-01
4.716769248631913665e-03,1.482407983627486141e-03,5.471355789449321681e-03,7.585991018800128383e-03,6.345327395432197835e-03,4.192476444396786399e-03,1.274032582586298677e-03,9.827906568889236902e-03,3.642530734971963658e-03,1.476557612390301316e-03,4.148242320085841414e-03,8.213349572647427738e-03,6.925535145741880394e-03,9.452838845548424546e-03,7.436742889120325634e-03,1.351189828141758980e-03,1.324129871227759485e-03,7.460461734818280705e-04,1.648176891840361655e-03,8.507720220439298625e-03,5.288285603758291833e-03,3.758203676389516770e-03,1.457494742963818656e-03,1.233326794355392745e-03,2.660405084161951948e-03,4.908115520637503816e-03,2.519433391821488625e-03,2.774680537067687486e-03,4.502709598903946973e-03,8.228704008542711557e-03,8.703970903693099628e-03,5.525905385258937826e-03,4.804346407713658978e-03,5.145620843088298015e-03,7.022823843645327295e-03,5.419394835440730605e-03,1.955734655704875150e-03,8.252167663632023822e-03,3.119061221161290357e-04,6.982921333003123780e-03,5.392343298285647880e-03,7.649449529130228354e-03,2.213266087917256132e-03,1.321889570414753762e-03,8.353329970900044005e-03,6.675201068114948108e-03,2.442208560194455459e-03,5.155510149406452788e-03,9.195251948923633453e-04,3.176311086871599562e-03,5.124351906346469310e-03,9.865659074959742120e-04,8.259381399828103019e-04,3.820432323843604618e-03,9.014946340918728387e-04,5.816561942865259432e-03,2.295391286050236807e-03,7.106626753981729050e-03,3.375651582463087223e-03,4.293925911904583614e-03,9.003468016241900768e-03,1.583467939447421625e-03,9.979070248671857019e-03,9.330159744767741598e-03,2.996912537185297994e-03,9.598944009900066757e-03,9.751389497207442816e-03,7.004848089166221432e-03,2.254768153109549655e-03,2.907124243247911476e-03,6.471901111977276799e-03,3.918939609585937039e-03,-4.289816404045601779e-03,-7.449815868816848582e-03,-3.991617230700168426e-03,2.830581928269703274e-03,7.968378002781120739e-03,3.360811169451102462e-03,2.629980401027497312e-03,9.625203407356321128e-03,5.524024421911941790e-03,3.490992923793521333e-03,4.927869232369624063e-03,3.713222329639338792e-03,5.770101825662108698e-03,2.837922425750927236e-03,7.796385779763227372e-03,5.422524917355182016e-03,4.931722225813156731e-03,8.660875145250872265e-03,3.937398180267532612e-03,5.761320011763944315e-03,2.810835238075804973e-03,3.542125234996196248e-03,4.383139508978570534e-03,6.670574556254989414e-03,9.337888023536492985e-03,1.350818752259237698e-03,-2.335219340929657258e-03,-1.486845401238864189e-02,-1.165887215089348068e-02,-1.944716410982487778e-02,-1.905706960495219190e-02,6.419415352332397996e-03,4.214289952529327518e-03,5.598658160411044103e-03,6.244253869347048298e-03,3.340323362619606294e-03,7.184335086229127164e-03,2.351051505346694014e-03,1.396031883533495116e-03,7.867789742426361740e-03,2.290722779435959595e-03,1.422273369517376273e-03,7.095807109665142401e-03,7.811895120911535248e-03,5.177761465877365674e-03,4.483646469705187924e-03,7.707245308132036968e-03,6.285801099321602740e-03,5.916770107499227417e-03,9.000781140100371641e-03,7.982311137938358399e-04,4.582789542003044315e-03,-2.881903562145769933e-03,-5.558009335932065191e-03,-1.871143824160036856e-02,-2.433775141009949031e-02,-2.834448527460878275e-02,-2.370437678173547419e-02,2.202172927490751719e-02,1.801835566229697790e-03,8.900137961286466682e-04,1.703595996417257320e-03,4.864307590620577104e-02,4.566648518773321064e-02,8.353615347212193024e-03,4.936275289329073021e-04,1.954828125716715718e-03,3.666000032572892722e-03,4.005945384316070626e-03,1.555053381989439680e-03,5.909816701747431025e-03,3.336528702419128134e-03,8.960270654863419781e-03,4.410333335839037791e-03,-1.917418195427845725e-03,3.813722048735390582e-03,-1.591523436343920159e-04,1.247680333117908835e-03,-4.718682421216188749e-03,-2.036581498803693643e-02,-4.038030379225918814e-02,-6.123972609816989709e-02,-6.958021593885210798e-02,-7.319433258015264898e-02,-5.877552377016546231e-02,-2.312675986449704013e-02,1.035646246403742338e-02,-1.204373999179357557e-02,-1.505886406716044727e-02,5.411625746554087069e-02,6.047266897698354987e-02,3.952697492313057837e-02,7.788509460714769170e-03,3.008735611300728148e-03,8.694425540610881131e-03,3.542200212596929767e-03,3.043579452495800627e-03,5.794886708341249332e-03,8.822556340635134744e-04,2.342586938103847008e-02,3.926362641856124408e-02,2.674273346862187858e-02,-1.356750509318018286e-02,-1.034560448927608102e-02,-4.056764790785687830e-03,-1.474816583207208195e-02,-3.046567176862564202e-02,-4.039139923386684400e-02,-5.742874695307922939e-02,-8.770366267776938396e-02,-1.026825496494401940e-01,-9.814023918839270832e-02,-7.495259856012397026e-02,-6.027230444384491098e-02,2.141802862707071348e-02,-9.543838426583295398e-03,5.363770259192876706e-03,4.709096251461535737e-02,4.733579225070291829e-02,3.509280815452533227e-03,-1.435621236686043974e-02,9.357371378077692812e-04,3.781079506196047008e-03,4.594236179015243082e-04,8.619018645217361302e-03,5.792325953118177342e-03,8.694731090779991844e-03,1.839060988826149781e-02,5.133495637607093931e-02,4.556261865015234780e-02,-6.531903370687316274e-03,-1.867962322247507245e-02,-2.253562595182611802e-02,-3.999669079645046949e-02,-3.661214228298072249e-02,-5.244486497668929270e-02,-8.288238864732114242e-02,-1.306146325088564930e-01,-1.544510404986219332e-01,-1.381669019928897235e-01,-1.269654338533590943e-01,-6.253274687625554051e-02,-8.332769362284411091e-03,-5.745051643257936824e-02,-4.374143368449188302e-03,3.818090947359725068e-02,2.184268992191039024e-02,-2.888917242875548019e-02,-2.735197142326309741e-02,-1.723044990874010238e-02,1.228659356619481559e-03,3.174874290306264543e-03,8.417257011081456103e-03,4.721386285491958358e-03,8.121584201554548493e-03,2.034300366096917015e-02,5.940731073699091758e-02,4.624209168039652290e-02,1.474511384197034827e-02,-1.043632819608595816e-02,-2.677204549863174479e-02,-2.659160527191997345e-02,4.259454050834845205e-03,-4.682857355775846969e-02,-1.074672309198063391e-01,-1.252512616827136105e-01,-1.646504983576824732e-01,-1.406577156037782106e-01,-1.217359452759280009e-01,-4.505089128149753624e-02,-5.508546420310869718e-02,-5.769524772634102711e-02,1.269956681516630319e-02,8.264716959543103036e-03,-2.115914515982613917e-02,-1.416836199420416949e-02,-1.579181511623744052e-02,-8.095921312069060544e-03,1.164440353429301326e-03,1.853658378826540448e-03,6.358481482453138232e-03,3.792078082148550491e-03,7.055309388325982541e-03,1.005710843686880712e-02,5.368344643157044876e-02,3.842685160483580442e-02,2.324258257985831883e-02,2.068965370959342104e-02,-1.485060730548372690e-02,9.631172902098111832e-03,-1.829109956823372907e-02,-9.331970324903114677e-02,-7.781869711197782202e-02,-8.674565927816381417e-02,-1.150009515514214264e-01,-1.111179826583192504e-01,-1.005001580669496603e-01,-4.713819196498671843e-02,-8.697367344153891788e-02,-1.573237347383980508e-02,3.015989657595305809e-02,-4.915576401522553547e-03,-1.437537760142588474e-02,1.251607899193169426e-03,6.931697261227412650e-03,3.906366918931473975e-03,4.765271920420799216e-03,5.705335325188636182e-03,8.736065252616168758e-03,5.968826910693683652e-03,1.675092985531015941e-03,4.723083368628552478e-03,4.071035253618283251e-02,6.151978901361569718e-02,3.966649184773457515e-02,4.045123637481545104e-02,4.380293776936939644e-04,1.605563331012970288e-02,-3.534272021169711925e-02,-1.037261015319251301e-01,-6.876157712962795154e-02,-4.393241669202567479e-02,-6.891123404863597202e-02,-1.050337152452206213e-01,-6.933669181315001151e-02,-2.009892410233681675e-02,-6.137490634747997525e-02,2.328195776515132667e-02,4.192521059620404889e-02,2.345606819809548452e-03,-2.976210500989989044e-03,5.548220508949952903e-03,2.340088967512556767e-03,3.717097589353532058e-03,5.891612858246820031e-03,9.059306461834996937e-03,8.709942905756920886e-03,3.435531102789674256e-03,6.973455004276503562e-03,1.347803251047473630e-02,3.546300805146382351e-02,5.392995930236473695e-02,4.469086396578619141e-02,3.307767372082134200e-02,6.057718635376790374e-03,7.505768533640169715e-03,-5.108325096674662391e-02,-8.214105389701238658e-02,-4.174223528220184776e-02,-4.468235110978503039e-02,-8.919018847594541166e-02,-1.077105655076377733e-01,-2.997317390256755767e-02,-5.207342548269742327e-03,-1.077394715368358569e-02,4.457523362703157827e-02,3.916549657533399675e-02,-8.978739633838352802e-03,-3.791382357097502001e-03,9.630047054120358455e-03,1.742556754099885540e-03,3.473481886271895334e-03,1.233398705951547136e-03,8.241194929846261050e-03,1.407271606873088327e-03,4.496751858896061264e-03,9.520660545087772028e-03,2.496395581254240784e-02,3.455243330186871104e-02,4.395015818766008497e-02,4.342936885002639941e-02,2.228866225656509631e-02,7.418508875237006875e-03,8.548473492547808972e-03,-4.587926253404296661e-02,-5.489928488479613872e-02,-2.816944283804273183e-02,-9.309144147263422042e-02,-8.556247670813880990e-02,-1.116290206765632037e-01,-3.184515495290125842e-02,1.561655100128666804e-02,2.104868263554532382e-02,6.072113705829131763e-02,-2.403163833667726259e-03,-9.384431971440584594e-03,-1.960254894849221448e-03,7.710764721101924860e-03,2.528017776379122474e-03,6.256797992842344502e-03,1.035579422494290434e-03,5.974233161031488291e-03,4.493962543439988105e-03,3.056490815057540805e-03,4.896480641034126752e-03,1.927225045548590712e-02,3.090053472977200705e-02,2.266052779234101894e-02,3.886381338618572628e-02,2.148442810017604440e-02,1.055870393466946076e-02,1.489651410851892954e-02,4.232079123571785839e-02,4.625996870948012769e-03,-2.326725553751302425e-02,-1.022098534745383286e-01,-9.593340164885962029e-02,-1.223414832767643484e-01,-2.511287669139731712e-02,5.370966996348664618e-02,8.243784582303276265e-02,6.210863453980035309e-02,-1.479879762023991220e-02,-1.130586766837360195e-02,-2.835220562519692126e-03,7.223765470818190905e-03,9.545635164939151110e-03,5.582008242861243551e-03,6.478326260194985746e-03,4.617147881737545222e-03,1.154526483469641178e-03,3.529843683328085478e-03,1.222568263900431071e-03,2.475006997556849359e-02,3.007690769792875640e-02,1.528538730695166645e-02,2.322150803939226557e-02,2.242045499684175436e-02,2.717824994107734260e-02,7.208200186573740509e-02,6.908280850191023115e-02,6.906639538316025617e-02,6.089409131892737498e-02,-4.172959131810971382e-03,-3.452354865862972133e-02,-4.598470853451128854e-02,2.088182351414445692e-02,6.601785767296663998e-02,5.015817191330602942e-02,2.207119037344766610e-02,-2.296595531095639922e-02,-2.130505378065986055e-02,-2.586195924449045426e-03,3.642531508986419919e-03,-1.427062715198237214e-03,7.926291129398773186e-03,6.821673307654896670e-03,5.412331838120444834e-03,4.654496967248295501e-03,9.500860456588678185e-03,5.067594492493325553e-03,1.904217096125862541e-02,2.967603668067199385e-02,2.417977957003017431e-02,3.353671826896972852e-02,6.820450227261885823e-02,9.053705914975365698e-02,6.849939196581780743e-02,2.496648345347939404e-02,5.640967011937575437e-02,6.682343043665901761e-02,3.916182177074824244e-02,1.301908687963757548e-02,-1.215096083466884157e-02,1.719795215102670402e-02,2.262611667534510790e-02,-7.603291524890384498e-03,3.263099136592024791e-03,-3.635590620866713946e-02,-3.603278787582123860e-02,-1.377125867869699594e-02,-1.277821202381283425e-02,-3.368516848872361077e-03,1.489269584862019371e-03,7.687003694787948073e-03,3.591162081819787664e-03,4.496859667801619311e-03,5.299559629536845090e-03,7.752259769739928107e-03,3.370644320604132549e-03,1.964107296820865461e-02,1.934520842417648129e-02,4.315183745459978681e-02,1.059723645592108854e-01,8.567749294708283669e-02,6.157425089811228991e-02,-2.393713850285019221e-02,-1.827074735596569133e-02,-3.840770574917123318e-03,-3.418411642281735802e-02,-7.389151157826946703e-02,-6.533155173306449959e-02,1.406210944069646515e-02,3.442642122330543536e-02,5.426319286052753987e-02,-1.584881363498507993e-03,-3.062386616581279364e-02,-2.953443870896131293e-02,-2.003009058554108650e-03,6.598260382622978329e-03,8.257493813580270292e-03,3.405781937881760188e-03,3.273011306321149585e-03,5.094938436471701908e-03,7.639681419760777949e-03,9.090520852383069880e-03,7.125548470496556857e-04,1.891992229733526799e-03,3.447727703489589105e-04,2.369168714717088519e-03,5.434030878778534079e-02,5.195065683522687161e-02,8.573799699950448300e-03,-1.180180299892958674e-02,-3.225295964711358959e-02,-4.246812620562083473e-02,-5.046481617694647398e-02,-6.648424640464921376e-02,-1.160655401712529788e-01,-5.273286295570112775e-02,3.463400364490894223e-02,5.978300769414496979e-02,5.476908876983178215e-02,-1.615767490500994233e-02,-1.752901338242972284e-02,-2.133729644536312350e-02,-4.877712309042265930e-03,1.329593733792718436e-03,4.274617136602008871e-03,5.607419312638551104e-04,6.077735061071202691e-03,6.863342886130796919e-03,2.836558141129709356e-03,7.109469470427898718e-05,9.902507507531067149e-03,6.940154388437105859e-03,7.919959312138436479e-04,-4.092695962215157739e-03,3.373188328878362532e-03,-1.531527125332089213e-02,-1.176296860519693462e-02,-1.847182379848649053e-02,-6.538221893908426063e-02,-5.881854229302649339e-02,-4.338166665700638608e-02,-5.449631156597161546e-02,-8.590024127576853519e-02,-5.507930516890554434e-02,-1.097584322525935012e-02,5.567562628914129834e-03,5.910792398397552577e-03,-1.327302164802891121e-02,6.592146751033613888e-03,-2.050704632283933265e-02,-1.438567053976152685e-02,-4.337263000808009965e-03,-4.722315248005077779e-03,8.987994870906134554e-03,2.572968706833604798e-03,6.051995100173281246e-03,8.769428715606333857e-03,9.076678467797735794e-03,9.110623917343003628e-03,2.633460863369652041e-03,8.820088757163813435e-04,-1.571611465880122169e-02,-2.795723322971465502e-02,-4.468860053696750018e-02,-4.244274476278336178e-02,-5.175928860561787581e-02,-9.506872624460956100e-02,-7.769300557738972879e-02,-6.234145158023308986e-02,-5.787147367879022508e-02,-7.961038813883111742e-02,-4.867682622810151627e-02,-4.564685907157052525e-02,-1.719079493729138569e-02,-5.785438597817548455e-03,6.453996399351912688e-03,2.343069688308343362e-02,-1.220555298919332073e-02,-1.153084890980655627e-02,4.772813983738000121e-04,5.118735290036004887e-03,6.219924314340624649e-03,7.008803737308348138e-03,2.135953267639012466e-04,1.177730627844583277e-03,4.364436623906615791e-03,2.820028671073583452e-03,3.073631566779794384e-03,2.239433134472484672e-03,-1.676321253591042323e-02,-3.831991902358272001e-02,-6.001177624202009425e-02,-6.730965858430316973e-02,-8.017526284727011232e-02,-1.030482335293548823e-01,-8.548278691543542696e-02,-6.282698938128450372e-02,-6.756271841776327614e-02,-1.092102983753461959e-01,-6.376681342171820754e-02,-6.836005186687015012e-02,-3.855087785817738755e-02,4.867461698171731375e-03,2.989020273937481251e-02,1.859675380102514611e-02,1.246739546777335741e-02,1.877746238001161980e-03,7.340483376130392534e-03,8.731822014085326850e-03,6.203024419348202555e-03,2.105824900280295309e-04,4.226248971189819695e-03,3.689855782085769108e-03,1.744946866154017907e-03,1.739632828539394634e-05,7.591917061865358432e-03,5.041750711107441385e-03,-1.075163882582808733e-02,-3.044031211465764858e-02,-5.995204014031856737e-02,-6.724596960841559834e-02,-9.121838060218295796e-02,-9.325144134185557598e-02,-6.317942233985419931e-02,-5.852345334572397334e-02,-9.024852252948610543e-02,-8.654778383545690124e-02,-4.364487454006386880e-02,-8.134760825451442523e-02,-4.413118308734691880e-02,2.781689227570230058e-02,3.296473626108521043e-02,2.490944270950957995e-02,3.210195337773034951e-02,1.423457918677969135e-03,-2.472069910325253963e-05,2.513960233725284332e-03,1.315439851210048472e-03,7.569634649958220489e-03,9.602986746361353784e-03,3.291331327894917586e-03,6.760607921046058941e-03,4.732150907082360684e-03,8.530178895472373792e-04,7.297140975038294598e-04,1.597980492155335729e-03,-1.907117459283138791e-02,-3.812227045837374151e-02,-5.557317983082329244e-02,-8.710197830706577216e-02,-4.243044078976571098e-02,-4.481409086469637093e-02,-7.088347628854514693e-02,-9.161411593820867338e-02,-3.562706995194693527e-02,-4.035714330268487526e-02,-6.499534685823764313e-02,-2.140498183492147224e-02,1.690513905607164691e-02,4.044873676121239076e-02,3.247511915097577723e-02,4.155829533189622782e-02,1.334900353531205328e-02,2.959914953312264754e-03,6.445974223167188003e-03,5.088461501838759419e-04,4.362415969531178994e-03,2.544550163231568043e-03,5.359442663685634947e-03,8.174343121198624634e-03,4.036760104933986328e-03,3.917269999409439887e-03,2.214118794944849259e-03,1.749908546031663946e-04,-9.742457228090724633e-03,-2.373994740792653366e-02,-3.674304178849444047e-02,-5.755243371606429126e-02,-5.392239503136784379e-02,-3.004939969606105696e-02,-4.217402820325753116e-02,-4.180644279819439174e-02,-1.839379739894524482e-02,-2.568625311631953650e-02,-4.447812921764492111e-02,-1.319311498595024954e-03,2.694694794900148391e-02,3.065932122746278105e-02,3.569388667870919407e-02,2.533351325629472697e-02,8.698260394023570041e-03,2.670285850645966424e-04,6.323601532531746006e-03,9.220231404516414028e-03,8.688702170669441657e-03,6.214861510683073430e-03,9.048285259429961550e-03,9.822789007482351717e-03,1.601785127762021116e-03,6.577460103327836989e-03,4.717954397460740433e-03,-1.645310219923035817e-03,-3.791613312160098653e-03,-2.840444208412732947e-03,-2.119935822182333895e-02,-3.796752868800735981e-02,-5.774038983299850658e-02,-5.239419268933398488e-02,-2.658076816812456056e-02,-1.337769846958879812e-05,6.353000103129169407e-03,-3.445258044308078388e-02,-1.956893241449874851e-02,2.069014473332188211e-03,2.860210339882177794e-02,1.692870958515108049e-02,2.379175474922997388e-04,1.949679093784509190e-03,1.997208628144475390e-04,6.967855837867036398e-03,9.626889126745041781e-04,7.114062110546067082e-03,9.726601106425503259e-04,1.017976209507864913e-03,9.157529644744281591e-03,6.338503074715768834e-03,3.511339792272017996e-03,6.733922171536367400e-03,9.940959772642147391e-03,3.847662687191802117e-03,6.806365108843430781e-03,3.962081509675817285e-03,-9.318547089532565331e-03,-1.478870113545438687e-02,-2.056144272240166895e-02,-1.227299747559510573e-02,-1.559220444313222549e-02,2.258351090715036286e-02,4.190761499200881812e-02,3.277373132507110411e-03,2.538456239488664275e-03,3.849687057914130163e-03,4.789985838985746404e-03,6.814896550881221690e-04,4.970881472908289696e-03,5.014602565403304853e-03,4.405458301403643480e-03,3.348886991869695021e-03,7.456652420499707348e-03,9.945259636482942436e-03,5.718226256222901267e-03,9.143855326125908609e-03,5.964858912669095646e-03,2.598415525321761104e-03,9.134112010329199088e-03,3.716564565012473332e-03,5.335840784073485506e-03,3.953565719941786773e-03,-1.240511320687182452e-03,6.544950283208795508e-04,-3.410195368412270289e-03,-8.527286425607688222e-03,-4.765464993453864817e-03,7.336634585822789881e-04,-4.667631226785965218e-03,-1.012496182221628988e-02,2.097946074333415130e-03,9.535273938581357092e-03,1.012068529004477892e-03,-4.123651677102307261e-03,3.520118914563418085e-03,9.660543164517402040e-03,5.538907474439948297e-03,2.958099883495268675e-05,5.117992042294938412e-04,3.426031019262956202e-03,1.597566087998149049e-03,2.513396241197080310e-03,7.330983529223599089e-03,3.672146065091210897e-03,5.698041876100460451e-03,9.183755435718516866e-03,6.369962130073466601e-03,4.106746086617684907e-03,7.865212678396375431e-03,5.243629972071291168e-03,7.095960846253502284e-03,9.639739573383338672e-03,3.924076480598261141e-03,1.176923942187174709e-03,4.088264598865449725e-03,5.905704962838141149e-03,9.417344983984290985e-03,4.230825222967037752e-03,4.681637347182002543e-03,7.887856383079339465e-03,5.002104899765649412e-03,7.723467530468105559e-03,7.963029205773434691e-03,6.648455234220596640e-04,5.661552681975418229e-03,6.960692239355458291e-03,6.030088856705083898e-03,3.730080149093335535e-03,9.794106493276610870e-04,8.223325644875115192e-03,9.642442359239189161e-04,1.577483207138705677e-03,-9.653645092086554635e-02
