3.745401188473624927e-03,9.507143064099162627e-03,7.319939418114051327e-03,5.986584841970366347e-03,1.560186404424365172e-03,1.559945203362026519e-03,5.808361216819946061e-04,8.661761457749352772e-03,6.011150117432088186e-03,7.080725777960455124e-03,2.058449429580244650e-04,9.699098521619943167e-03,8.324426408004218306e-03,2.123391106782761533e-03,1.818249672071006132e-03,1.834045098534338100e-03,3.042422429595377422e-03,5.247564316322378582e-03,4.319450186421157876e-03,2.912291401980419015e-03,6.118528947223794874e-03,1.394938606520418388e-03,2.921446485352181474e-03,3.663618432936917215e-03,4.560699842170359147e-03,7.851759613930135717e-03,1.996737821583597326e-03,5.142344384136116227e-03,5.924145688620425024e-03,4.645041271999772459e-04,6.075448519014384208e-03,1.705241236872915298e-03,6.505159298527951866e-04,9.488855372533333207e-03,9.656320330745593594e-03,8.083973481164611133e-03,3.046137691733706750e-03,9.767211400638386217e-04,6.842330265121569430e-03,4.401524937396012783e-03,1.220382348447788309e-03,4.951769101112702375e-03,3.438852111521839452e-04,9.093204020787821681e-03,2.587799816000169346e-03,6.625222843539819648e-03,3.117110760894109631e-03,5.200680211778108131e-03,5.467102793432796620e-03,1.848544555255270507e-03,9.695846277645586361e-03,7.751328233611146090e-03,9.394989415641891856e-03,8.948273504276488266e-03,5.978999788110851352e-03,9.218742350231168975e-03,8.849250205191950148e-04,1.959828624191451828e-03,4.522728891053806642e-04,3.253303307632643675e-03,3.886772896894820275e-03,2.713490317738959101e-03,8.287375091519293482e-03,3.567533266935892997e-03,2.809345096873807571e-03,5.426960831582484934e-03,1.409242249747626446e-03,7.917748299431965828e-03,1.362114663176192987e-04,9.190093390119462649e-03,4.973483262779806492e-03,-5.481995667132544443e-03,-2.000013272786710025e-02,-1.209500245083198512e-02,-1.575061656830998788e-02,-8.504303324057686450e-03,5.130352267090724887e-03,7.404465173409035877e-04,3.584657285442726087e-03,1.158690595251297235e-03,8.631034258755936051e-03,6.232981268275579120e-03,3.308980248526491915e-03,6.355835028602363100e-04,3.109823217156621952e-03,3.251833220267470476e-03,7.296061783380641125e-03,6.375574713552131616e-03,8.872127425763265407e-03,4.722149251619492741e-03,1.195942459383017055e-03,7.132447872229949817e-03,7.607850486168974205e-03,5.612771975694962230e-03,7.575504536991656268e-03,2.928901035785189729e-03,1.120108980025686122e-03,-5.292487900414450698e-03,-1.814609420156987341e-02,-2.064570610062579567e-02,-3.801773887430437426e-02,-5.214130485021026967e-02,-5.512675866020048249e-02,-4.858077875958110442e-02,-3.236946786794640818e-02,-4.931515449345998114e-02,4.103829230356297215e-03,7.555511385430487004e-03,2.287981654916224680e-03,7.697990982879299258e-04,2.897514529137680192e-03,1.612212872540044143e-03,9.296976523425730041e-03,8.081203795644168950e-03,6.334037565104234935e-03,8.714605901877177374e-03,8.036720768991144001e-03,1.865700588860358345e-03,8.925589984899777451e-03,5.225487091248190441e-03,7.574546987395873107e-03,-2.222166045106123509e-03,-5.595634310948661289e-03,-1.894172628973070371e-02,-6.499231525260405762e-02,-5.629773326771066871e-02,-5.380927058948577896e-02,-1.610943061510122093e-02,-1.907536247605845503e-02,-2.939835666218878693e-02,-6.652970663166429821e-02,-8.509295200000967230e-02,-8.464260075016136198e-02,-5.224842696343376391e-02,-4.866849594895344272e-03,1.932052129351274124e-03,5.187906217433661295e-03,7.030189588951778895e-03,3.636296023792940073e-03,9.717820827209606646e-03,9.624472949421113144e-03,2.517822958253641656e-03,4.972485058923854957e-03,2.710254101427444183e-03,1.002972563621569316e-03,-1.983886045555164918e-03,1.662799996414814985e-03,-1.237350638112115573e-03,-7.712822037533896384e-03,-4.088514558884986938e-02,-3.427218414604602664e-02,-7.149244400842148794e-02,-7.083331695915423554e-02,-7.775259799325855148e-02,-3.598429576306077377e-02,3.833074799488692119e-02,4.210580155995948676e-02,6.447067713973701764e-02,8.397060256620737795e-02,4.361059967987680058e-03,-7.886628447100280104e-02,-6.994897308886824372e-02,-3.378050446305590898e-02,2.140536567708756482e-03,5.502430065224669844e-04,7.216517523714065588e-03,3.207800649717358274e-03,1.865185103998542307e-03,4.077514155476391925e-04,5.908929431882418114e-03,6.775643618422824699e-03,-3.306149792367637629e-03,-4.292893685629455003e-03,-1.080081107688501615e-02,-8.362885268695276555e-03,-6.061945943653233686e-03,-3.215204661166724820e-02,-5.056360119918868606e-02,-6.836724176561259636e-02,-8.297292522176771823e-02,-5.967154536038610929e-02,-6.710965279520521298e-02,-1.387910914452049338e-02,6.768518577314892870e-02,8.661895004044492530e-02,1.111055786166094961e-01,1.424645439431559690e-01,9.188997405231970339e-02,-4.016740566743077362e-02,-9.539833954687967910e-02,-5.828812121859511947e-02,-1.856518763028786739e-02,-5.966720417146794547e-03,2.383603994152963274e-03,3.390297910487006985e-03,3.492095746126609029e-03,7.259556788702393668e-03,8.971102599525770938e-03,8.870864242651172599e-03,-4.556167451121100401e-03,-1.878450119454976031e-02,-3.127587994427229179e-02,-2.560203325259754331e-02,-3.746146060436505998e-02,-2.466562539350492314e-02,-6.612011021480881934e-02,-1.137081201379325779e-01,-6.646288575590300618e-02,-6.021345387377359526e-02,1.310100906102291615e-02,3.431494535724567696e-02,7.782486862568355201e-02,8.995091018413801931e-02,1.015340444501013489e-01,1.624110620549224504e-01,1.851998784767766304e-01,7.240954403518191917e-02,-7.843080694005724607e-02,-8.864299725458778256e-02,-3.361506848112811446e-02,-1.703583140741524865e-02,-1.715156317258503815e-02,9.367476782809247343e-04,3.677158030594335474e-03,2.652023676817254465e-03,2.439896433790835709e-03,9.730105547524455639e-03,-9.227234527708190470e-03,-2.183427376862217412e-02,-2.827775620429448175e-02,-1.509874910901706259e-02,-5.353340296758585248e-02,-6.602463048156173575e-02,-1.193688075804106158e-01,-1.088329508524077255e-01,-6.820110376326599111e-02,-1.060279621413686424e-01,-3.582384227195890662e-03,5.759393107932225114e-02,6.860320509037848291e-02,7.331498777069235528e-02,9.676852494215724965e-02,7.998062626530913488e-02,8.956219811115950780e-02,7.321118483162279700e-02,-6.022821846831741960e-02,-5.885549142455796107e-02,-2.163593778372987358e-02,-1.464279387305004315e-02,-2.103722838826184438e-02,2.944488920695857107e-03,3.850977286019252772e-03,8.511366715168569574e-03,2.435414291734932547e-03,1.694927466860924855e-03,3.070619470206904789e-03,-8.243750309355486749e-03,-2.473676692054163975e-02,-1.715029492347353371e-02,-5.987300029716143002e-02,-8.375138854645629294e-02,-6.412872513917668160e-02,-6.318612947972894467e-02,-2.592808719198263362e-02,1.400996202347301080e-02,6.061610841912567355e-02,8.995034399169747619e-02,3.044056526444038208e-02,3.049499257438312641e-03,-1.523357831014093139e-02,-1.312657157178185804e-02,1.163920459671208621e-02,2.075802573799829728e-02,-1.436267391334310542e-02,5.041069396229099463e-03,7.271186823204192108e-03,1.670050001646024296e-02,-1.513760252737021911e-03,7.019668772577033339e-03,7.957926694361010245e-03,8.900053418175664019e-03,3.295281673150606168e-03,3.755829526399440121e-03,-2.307280725149304847e-03,-1.033570402392058538e-02,-2.265071379315346939e-02,-1.152065301473071020e-02,-5.642109415932720917e-02,-6.816716368025445283e-02,-8.607156411113307815e-03,-6.976589397205522868e-03,2.107757202690006305e-03,2.437574312537572896e-02,5.253734735518019588e-02,3.083420046271151752e-02,-5.730821607825122704e-02,-1.113776880953226550e-01,-1.132506977724926228e-01,-6.030336939344667357e-02,1.718234403995336224e-02,2.139104532389574445e-02,3.108120289693331803e-02,5.028441059279939451e-02,6.274833171952241828e-02,3.849145114124890438e-02,9.758520794625346120e-03,5.163003483011953561e-03,3.229564729412459558e-03,7.951861947687037524e-03,2.708322512620742282e-03,4.389714207056361062e-03,-4.968560291424163784e-03,-1.712302259965060858e-02,2.072634211149155040e-02,2.614368178562810965e-03,-5.997916392383593337e-02,-5.624452796705065039e-02,1.035088583297041377e-02,1.550900699172516259e-02,4.298699449540141493e-02,-2.248853324009031027e-02,-5.073639903505793025e-02,-9.186216253929292697e-02,-2.267425388022318022e-01,-2.267188859883735308e-01,-1.549717577629912968e-01,-3.622060604223232422e-02,1.282954338076615179e-02,3.940407737153405615e-02,3.454000637022645870e-02,7.423260653604239756e-02,8.714265390609132744e-02,4.312313848937919525e-02,1.160726405069162403e-03,4.600264202175274853e-04,4.072880231897013604e-04,8.554605840110071635e-03,7.036578593800237209e-03,4.741738290873252250e-03,-8.070609219414978663e-03,-2.546219310283302784e-02,2.088906845318817818e-02,1.014883372131319961e-02,-4.030090902555370780e-02,-1.837465194293021534e-02,7.736398143418449225e-02,8.718681592960091098e-02,6.495569250610598762e-03,1.381326694862981645e-02,-5.239709813137651689e-02,-1.757564429600621814e-01,-2.922350565222411878e-01,-3.036594804284556415e-01,-1.853834753067828967e-01,-4.581495955192626396e-02,3.007207673312077556e-02,5.708593338575601583e-02,4.853800256055076229e-02,9.281659286558388566e-02,1.026803064995531201e-01,5.578165243469810491e-02,6.432882184423532011e-03,4.582528904915166013e-03,5.456167893159349046e-03,9.414648087765251083e-03,3.861026378007742770e-03,9.611905638239142541e-03,-1.849240566750948080e-03,-4.106599579532473759e-02,1.861614539367208859e-02,3.429645429684072266e-02,-2.025646178388553972e-02,-2.182290497264981286e-03,5.018678640818261677e-02,2.427026423462635280e-02,1.941996829135676783e-02,3.002882285554184585e-02,-9.009277138146092045e-02,-1.982586213083117610e-01,-2.812426248397901229e-01,-2.686880861600876580e-01,-2.110083515787078423e-01,-7.890170432294965619e-02,-2.228567110711623250e-02,9.263577775396392155e-02,1.404071141525390087e-01,1.204658108195530708e-01,8.564386160934286951e-02,5.937986800767546675e-02,8.068347392672640950e-03,9.905051420006734039e-03,4.126176769114264960e-03,3.720180857927831656e-03,7.764129607419968312e-03,3.408035402530178691e-03,-6.172925566842093342e-03,-3.496455667079104157e-02,3.842584259787731882e-02,5.152956602354607368e-02,2.032068429334090917e-02,1.299523917885285137e-02,-1.173547832193283947e-03,7.853051815308995098e-02,1.743283040913342144e-02,-6.344675463701018869e-02,-1.579662435296718404e-01,-2.423134986409293257e-01,-2.439274270721336624e-01,-2.425712825667328820e-01,-1.498519839442139789e-01,-1.020641434278045379e-01,-9.547180044836103829e-02,9.175955350854110570e-02,1.589334381891349957e-01,8.510894787517703231e-02,6.011618815739923349e-02,5.391272439202857147e-02,2.276962497310603285e-03,6.448822311425945683e-03,7.523745294376799932e-03,7.915790437258485301e-03,7.896181427945538761e-03,9.120610304869037266e-04,-8.159056182840233873e-04,-3.199254614701093485e-02,3.669628472519941009e-02,5.273193812687290705e-02,5.454096819018842968e-02,4.879216875716287094e-02,2.765339722366541922e-02,-9.577820996510173768e-03,-7.707153491067486595e-02,-1.321496533071362389e-01,-2.395592673187165456e-01,-2.520630082209517897e-01,-2.234906707008056381e-01,-2.219162909967173081e-01,-1.342933609824145669e-01,-9.772459348160979220e-02,-1.122167340880973613e-01,7.209225658587894991e-02,7.747866170041184386e-02,6.962784750435656311e-02,4.337500719545050315e-02,4.937788834252526682e-02,1.849231585274946571e-03,5.225628303068165573e-03,7.533781852589416413e-03,3.762595855309157789e-03,8.350071669866876304e-04,7.771469159274368467e-03,5.584042497358050576e-03,-1.308423840867055897e-02,1.874752294016870935e-02,4.220850802320788575e-02,1.182716950041036719e-01,8.626336185827007674e-02,2.037713699492031162e-03,-2.732773240928484254e-02,-9.047544199690653322e-02,-1.478455605382895666e-01,-2.345467407730956744e-01,-2.439189685714990841e-01,-2.348440856067958715e-01,-2.045561564225687745e-01,-1.451647847142351067e-01,-7.937410516774845437e-02,-7.371822631036005491e-02,4.497697808374890444e-02,8.450111866274885586e-02,4.312586926311048896e-02,5.824778880604309511e-02,4.201052869871028939e-02,2.540260154196530024e-03,2.917302654152813604e-03,9.929647961193003441e-03,7.379656473539885969e-04,5.538542844013207879e-03,9.693025356190989109e-03,5.230978441701488596e-03,1.358316856727194780e-02,1.498732126614948923e-02,6.124271308592697978e-03,9.349849736264731481e-02,1.092423461217626596e-01,9.204137269745389649e-02,1.306514032646211194e-02,-5.676150517077619903e-03,-5.217195644924103176e-02,-1.842676492830896684e-01,-2.617342200840719335e-01,-2.565217070756427575e-01,-1.768494182419759753e-01,-1.201806208487222333e-01,-3.099498810011378294e-02,-5.072289738337542458e-02,1.158906582185515420e-02,3.476408501123436079e-02,3.209053025461281600e-02,5.058403296750095535e-02,3.302376906938566531e-02,2.285049683721026344e-03,3.095276162863277655e-03,8.137950197069487163e-03,6.847311725538793130e-03,1.626169393448912998e-03,9.109271844938425164e-03,8.225372429231690014e-03,1.968297521973205733e-02,4.323257599593130496e-02,-1.841547515801826573e-02,1.157392360451988123e-01,1.528632504630035305e-01,9.305637399594195169e-02,7.529836707673624816e-04,-3.629239376253207833e-02,-7.679405576222028684e-02,-1.797330307823749307e-01,-2.241696768736644030e-01,-1.974013421298575488e-01,-1.502827943729407589e-01,-2.370633334091028915e-02,3.640626821989347006e-02,-3.954701919817471545e-02,-4.160583484306376589e-02,-5.093441608505317603e-02,-8.315768420549918098e-04,3.055292251301515091e-02,1.069585614818266243e-02,8.195478619236929926e-03,8.129010091300774982e-03,9.997176732861306342e-03,9.966368370739053795e-03,5.554317056026274353e-03,7.689874151805105133e-03,9.447657298824281222e-03,1.659286184215408647e-02,1.194977490394764919e-02,-4.089290694714538266e-02,7.543936473879610249e-02,1.494100366016134218e-01,1.051843826019516898e-01,2.613076409401749681e-03,-3.059493174538091900e-02,-1.496488835786139171e-01,-1.875902079923201238e-01,-1.966852291480530035e-01,-1.460141412644145320e-01,-8.831735548496878752e-02,1.081102988138994865e-02,-7.752372715714432594e-03,-5.315743467606601907e-02,-1.055564331608759010e-01,-4.982234382820754232e-02,-5.707274840384762675e-03,2.419979245299020906e-02,-2.124279265950041254e-03,2.878267631333897379e-04,7.551372556736189907e-03,6.203095513534646714e-03,7.040797680992236240e-03,2.129641615089107511e-03,1.340233992136246992e-03,-3.706763420539430716e-04,4.015852171107415006e-03,-2.201480752780177880e-02,-3.367929523989703772e-02,1.399763867270938794e-02,9.162894962425643941e-02,8.075184843841771987e-02,3.821888237535232824e-02,-7.589369400821093653e-03,-1.132865376268302887e-01,-8.813141176939488786e-02,-1.026602391891882210e-01,-2.677880671407861443e-02,-1.411486002827279688e-04,-4.369383340040240878e-03,-6.965185987340032081e-02,-7.994383718332644106e-02,-6.139778557562495381e-02,2.505942034026357405e-03,2.246281516187741828e-02,1.900918421664330935e-02,1.759969008665039723e-03,2.401456187781930793e-03,7.586332810866391928e-04,1.288797219106492227e-03,1.280458389577724407e-03,1.519026935122943633e-03,1.246213105918823330e-03,5.599842886518223255e-03,-1.166217448897042142e-03,-1.610716341859795217e-02,-3.204551807665958346e-02,3.533961990513814766e-02,8.297407849277797787e-02,6.497070698755430529e-02,1.837254447920869463e-02,-1.139672024168722139e-02,-3.970817597834663815e-02,-4.662928795551726097e-02,-7.260333275990966950e-03,2.755388777945768849e-02,4.297709894739835251e-02,-5.119880370588025115e-02,-4.482741167469279225e-02,-2.993238616392363688e-02,-2.569066144048382221e-03,3.446223021930960861e-02,2.071348663490782741e-02,7.835045148346854449e-03,3.692810053950705811e-03,8.175903194887191010e-04,8.735786241067772240e-03,9.208724005318132816e-03,6.107795985486375078e-04,2.768776481472037289e-03,8.002136850415413408e-03,6.387463280810414326e-03,6.808666141557444046e-04,3.652083479866838518e-03,-1.480315994854477894e-02,2.826543331866407990e-03,1.012992220350119599e-01,1.104866530026318572e-01,9.121624619983521864e-02,4.833982465947267437e-02,3.112370178030171922e-02,6.196260359997200068e-02,7.639429017764695629e-02,6.052494892030192003e-02,4.139839247664382771e-02,-1.685323420874698316e-02,9.310758711320371236e-03,1.601407515519402691e-02,8.692415688857240558e-03,5.286643565989961220e-03,8.628806229950053072e-04,3.150886219293397988e-03,2.007119777772636794e-04,3.220791655831782736e-03,2.114480069965446376e-03,3.274973521779146399e-03,1.197621318192512111e-03,8.905272807398950316e-03,5.935924535540486498e-03,6.372463159851460279e-03,3.432648930242925608e-03,-4.801544443567086257e-05,-1.046857075071025087e-02,-6.593764796927183321e-03,1.526670764073580558e-02,1.004436379437902288e-01,1.433089913927288184e-01,1.202069955103956950e-01,9.428532537668554703e-02,7.523571637385938204e-02,1.096774547524675958e-01,8.486883359394185172e-03,-5.542459511502387769e-03,7.489070504352865476e-03,5.981090420062769829e-03,-2.597138527254347698e-02,-2.486431638957423487e-02,-8.119615565342718985e-03,3.612136649703079154e-04,-6.077244759183015373e-04,1.865670240513057649e-03,2.850951686938470956e-03,1.733735952947548266e-03,8.967654246264252296e-03,8.023374566164220541e-04,5.245113895702546887e-03,4.103968269896614979e-03,9.796188804365623531e-03,-1.584567757222445387e-03,-1.803932119270561154e-03,6.251224682216910238e-03,1.811155580535258117e-02,-7.970647526087473039e-03,-3.807498576787050198e-02,-5.065572401563684171e-03,9.624327540620108978e-02,1.007783648806711285e-01,2.711200183761018276e-02,2.067374249723084867e-02,-3.242710484244274577e-02,-6.073048997413334898e-02,-4.908977036819396622e-02,-5.014354877206460975e-02,-4.042701031402005235e-02,-1.430223217126817825e-02,-1.082048826929530756e-05,9.167193344709650060e-04,5.173267306787079738e-03,2.886305532402557838e-03,5.812382214226122570e-03,1.543627152742023129e-03,4.811401018548175021e-03,5.325894325515858480e-03,5.182353682242691380e-04,3.366042781939205739e-03,1.344146769389742511e-03,6.337497047276774388e-04,9.883495924871664451e-03,1.725841714837408327e-03,-2.399523801889581840e-03,-2.292542056713838330e-02,-3.015102207796628922e-02,-3.164744157757218984e-02,-2.572831480276205687e-02,-4.608645761625681375e-02,-5.630433741493331284e-02,-4.488715042833591601e-02,-3.794665793669360632e-02,-3.322807987668878471e-02,-2.439986629124790696e-02,-3.316016126875345749e-02,-2.612509102588550861e-02,8.408525077276464768e-03,1.812330661656601487e-03,6.649626736677749462e-04,7.411206492900591046e-03,5.744731131799118810e-03,8.418287767582721334e-03,1.397723766262894953e-03,7.952673118598901914e-03,2.016273200477445258e-03,1.636559428657045076e-03,1.642657979309929432e-03,8.145747202313822002e-03,6.651972206962001276e-03,4.639286463578609805e-03,-2.389774108605880690e-03,-5.304795113764911724e-03,-1.244651037624581146e-02,-3.528942788082800163e-03,-1.142647503515596859e-02,-1.020781387033494261e-02,-2.598622948811031216e-02,-3.467725751863814931e-02,-2.918683270682996891e-02,-2.993417703770824903e-02,-1.231073390913322435e-02,-3.315867348868814166e-03,-1.965283012543370469e-02,-2.145246424139962346e-02,9.064721109645469330e-03,6.242379959139921289e-03,1.168980407083640687e-03,9.398321236134751788e-03,6.277080530714178319e-03,3.349056146570861345e-03,1.392720726633872716e-03,7.940251892702959030e-03,6.200727559285135193e-03,5.334610919763215289e-03,8.938925830509576384e-03,7.885972112245308308e-03,1.516748797327511795e-03,4.618679617661332879e-04,-3.868219623306898280e-03,9.147291332893425927e-05,-3.500855247755132581e-03,5.698896848713165021e-03,7.624586857406905928e-03,8.767656367617494145e-03,3.420817487159074841e-03,8.212573046720128556e-03,1.106317369552072211e-03,4.106834549816224846e-03,-6.391416986221860712e-03,2.607679999308572640e-04,7.972953657795536428e-03,1.499174273487737918e-03,2.292513952326414705e-03,7.222525683930662577e-03,7.200365365460743503e-03,6.411476328852972785e-03,6.939484444671000646e-03,5.427244433475962061e-03,2.517990589069527430e-03,3.456959935039194409e-03,-3.457650226439240582e-01
9.084505613336284202e-03,5.833917947661204813e-03,4.008514167636399034e-03,4.620058036441327190e-03,9.472833396118153851e-03,1.533514031160801948e-03,5.862298320167972157e-03,5.058886788844660018e-03,6.114542354346478095e-03,1.811018382084050827e-04,8.721239089441515380e-03,9.321182824836123787e-03,5.651331835892089810e-03,6.966508238768922764e-03,9.224993811772956923e-03,7.072386343133986453e-03,1.525390429142613538e-03,5.762883601668131878e-03,6.067150463828559215e-03,4.241306713023860683e-03,7.364442356247228455e-03,9.343670147690148406e-03,9.255685129067763028e-03,4.508393714041321158e-03,1.132380458407552474e-03,9.848411989623346435e-03,8.388980864459341658e-03,1.246626812032668565e-03,9.208418826173722649e-03,8.698963620621282325e-03,5.188380571260721268e-03,5.912754357449292487e-03,3.990027038701302736e-03,5.476163882203133283e-04,3.351972416459009143e-03,8.028534485980114155e-03,4.632023004602858979e-05,3.334991716911441927e-03,3.981686935909433192e-03,5.373956029379229130e-03,9.198556164127605697e-03,3.463459943659612586e-03,3.469532018962277059e-03,7.375012481097484134e-03,4.522179408898071955e-03,2.246048229399819508e-03,4.524395161326934083e-03,1.408570203797998707e-03,1.763869865062233158e-03,4.983677727394797766e-03,4.189254495045479330e-03,9.148459010681000633e-03,3.623938991166331027e-03,5.805883502780434871e-03,6.322642879195304079e-03,1.309445658833363634e-04,6.635373720167106470e-03,1.780359668697514266e-03,9.610703174694552181e-03,1.486627277531129502e-03,4.146241237270237474e-03,8.534966807864386449e-04,9.968742518459474192e-03,5.021950103312426174e-03,5.953850173200437614e-03,6.707647738842748225e-04,7.499604703991778060e-03,-2.931670503804593465e-03,-2.042985780111550298e-02,-3.071282191387620861e-02,-4.366959432769795812e-02,-2.220710669621191527e-02,-2.540739985659647149e-02,-2.520151457463955941e-02,-8.901856409781059437e-03,4.730536742984360263e-03,3.923172727586878711e-03,5.243902693275800421e-03,4.407627469382281206e-03,4.007630608753259480e-03,5.596403313082178900e-03,1.552402459307125138e-03,1.819281304952711370e-03,8.617856210135173278e-03,9.461154621336327272e-03,3.733093162797529625e-03,2.707446731435537643e-03,6.439995432390157974e-03,4.087341710980963751e-03,2.538635566034486125e-04,1.561525973661903729e-03,7.159722288473975051e-03,6.589239419101514117e-03,2.709599250348348966e-04,2.177047382311527151e-03,-2.568143198593142787e-02,-3.469387340516505436e-02,-7.162232983631176830e-02,-7.433117297195662720e-02,-2.175478129149434857e-03,3.966772831017019441e-02,-1.147896141402009705e-02,-1.277238372635703181e-02,-7.181562465490566941e-03,-6.471445192694379915e-04,5.416300480176516365e-03,8.556964681062857389e-03,8.302198645669915320e-03,3.971835296184548190e-03,6.680851365706461445e-03,2.049842954158209545e-03,2.931477302610132740e-03,8.963358185211198204e-03,1.300192351073603547e-04,8.550853085446808019e-04,2.078862551460273177e-03,2.653220387381971849e-04,1.814354350897973232e-03,5.830415609696921672e-03,3.639451406711895903e-02,1.047103400046764526e-01,5.275035671499864881e-02,-4.971570213453940096e-03,-4.692125714367638076e-03,4.616122331669179207e-02,-1.948832657055813572e-02,-7.717607752538682697e-02,-3.013423954927114262e-03,8.725076369498746542e-02,1.153840018468592910e-01,4.162195270071117337e-02,4.802785105188785153e-02,2.689229634165696964e-02,1.020348784024674741e-03,-3.896545672138703484e-04,7.340180280492636031e-03,4.874311982495136558e-03,8.945522268940913832e-03,7.998552559473152621e-03,4.252135044692334671e-03,2.246930832011739896e-04,2.686773593849460864e-03,5.416342146608668986e-03,6.171391699549068008e-03,1.700767902656734895e-03,2.186318147107825895e-04,3.479241554172572692e-02,9.134986192077240719e-02,7.928384073039614066e-02,4.584979819131256712e-02,-8.688293733761823581e-03,-6.672915820352789962e-02,4.038922570525411114e-03,-6.855790355966959182e-02,-7.372330417470716879e-02,-4.155345508666466112e-03,3.375675695316625313e-02,1.183391610686260337e-01,1.123428641402500344e-01,1.422244019911839130e-01,6.638662581241618066e-02,-1.022671300449137788e-02,-4.505938495235969551e-03,1.570165240432676041e-03,4.901144547166409911e-03,5.213342022364098570e-03,6.650366745462554970e-03,1.753712786234495847e-03,9.144119459249597584e-03,4.187705248920731149e-03,3.831385282494974547e-03,3.202168593232957577e-03,-4.185043254181858123e-03,-8.748115068605708672e-03,3.064965098498672810e-02,4.703840395294710264e-02,1.610681874912212042e-02,-2.503403152476609689e-02,-5.411622938882638262e-02,-5.919006358532383910e-02,-1.054275440287680277e-01,-1.179723773624197780e-01,-1.056878768383135159e-01,-4.154710037550210511e-02,2.000250894423196389e-03,3.160087332829695367e-02,9.497140187985997350e-02,8.936781501316555520e-02,4.102779392079317078e-02,-3.244242906753806721e-02,-3.447861084743010507e-02,-3.662584242756915937e-02,-2.386260423988518023e-02,3.777790244782510288e-03,5.968428489168892473e-03,3.342438908169608185e-03,7.709122037458219362e-03,1.065982531337718005e-03,7.513778173580875838e-04,-2.992174186058284453e-03,-9.705295277207183491e-03,-2.228633696794512023e-02,-6.292423894984994215e-02,-2.057051803289961650e-02,-4.394182833949553807e-02,-6.184318192517358065e-02,-3.661506847479154697e-02,-4.338683467328078441e-02,-1.297501917695532969e-01,-1.438402243111596979e-01,-1.361319728916360328e-01,-7.986840923485524768e-02,-6.701238981357891811e-02,-5.280490094157899716e-02,-1.187173895126316867e-02,-1.321380757893491492e-02,-7.010574612139656991e-02,-7.281327265825501827e-02,-6.288219316876476894e-02,-7.361331060775734569e-02,-5.306332058612114877e-02,-1.708848498549049924e-02,8.491956515653193913e-03,2.496680088591859362e-03,4.894249636431404794e-03,2.212094418196022469e-03,9.876680079966469739e-03,-3.456311812225778494e-03,-2.257971291722684834e-02,-4.315231788210427410e-02,-4.915125624432097051e-02,-7.834795132374841597e-02,-2.212994454029688918e-02,-7.711933789996617411e-03,-1.980186982508691865e-02,-5.331184667751894674e-02,-1.389403639858169670e-01,-9.734060732852405085e-02,-3.842572514721572657e-02,-2.044439125015038577e-02,-5.002082726887865233e-02,-1.119102057960815605e-01,-4.261718432080949942e-02,-1.422947298139550787e-01,-2.197519965914892237e-01,-1.710550129682897880e-01,-1.144339830781385126e-01,-1.051440545040834562e-01,-7.320000249856686847e-02,-5.322109069281247273e-02,6.962887758781398026e-03,3.398749637680661267e-03,7.247667715287614901e-03,-6.955224466353598402e-03,3.152903378306103326e-03,-5.727487858673706647e-03,-1.103459542321589409e-02,-4.105911377158858594e-02,-3.993825588474325672e-02,-3.916993156630899781e-02,5.215296836154914312e-04,1.550886183788315748e-02,3.780302227151366434e-03,-5.452326613871820438e-02,-2.989162594953174643e-02,3.758714872505552335e-02,8.239046340199855656e-02,8.652170798318699341e-02,-2.510898266241488180e-03,-1.525421078068968928e-01,-1.527044697292264386e-01,-2.607070865209052402e-01,-2.336027957636340191e-01,-1.550535632411633169e-01,-9.167953614831138298e-02,-6.450636589332282844e-02,-2.331473800643920485e-02,-1.318384033720053014e-02,4.177667821673337369e-03,4.213570022770701806e-03,7.375823015888915285e-03,1.509834395258830052e-03,1.104741131313946708e-03,-5.957614357017723510e-03,-9.786326915058261508e-03,-1.801422430655065868e-02,-2.319734966485852493e-02,-3.985990531900379663e-02,-6.268340135926155077e-02,-4.885256369157595785e-02,-8.039376264382971926e-02,-8.946486590641880565e-02,-2.321281513796968204e-02,7.862321804280712756e-02,2.285727958387697156e-01,1.678367916707410590e-01,-2.114682862617884782e-02,-1.388142382337997083e-01,-2.206923891235740565e-01,-2.352298620775646054e-01,-1.640277158750464703e-01,-7.150925129518928558e-02,-4.005107164061742775e-02,-3.039604089186275643e-02,-4.272045454430546500e-03,9.427317741351257455e-03,6.496466489923684307e-03,6.077367948788591281e-03,5.126885110165085684e-03,2.306698117177586899e-03,1.765280320055082628e-03,8.207641170172143633e-04,-1.647187507364283876e-03,-9.434943054413703900e-03,-1.600765099148935069e-02,-1.849265396857411800e-02,-1.759217332322494942e-02,-5.915835277741874482e-02,-1.554275828784377166e-02,-6.421060687997659500e-02,-1.406362119105673270e-01,4.057260399649201960e-02,1.889703418550416625e-01,2.129835880251050029e-01,-4.016545856277690257e-02,-1.262002578930071783e-01,-2.093600424023365492e-01,-1.793768941772802272e-01,-9.703005363983199794e-02,-3.587225292100103269e-02,-1.284840544952290178e-02,-1.948308389826084938e-02,6.730360937047310740e-03,2.656000425887060801e-03,1.295149212828041862e-03,8.887480798689771991e-03,9.556514982297533572e-03,8.621276172654505909e-03,8.095160747248780764e-03,4.641572505042507006e-03,1.278014006331127739e-03,-1.251881114119214253e-02,1.796897104690754537e-03,6.373375776562949235e-02,4.167802613971329645e-02,-2.290977309258578412e-02,-9.490250376278777655e-02,-1.543695478495335782e-01,-1.798073561161410983e-01,5.073864774325916038e-02,2.629803738850298167e-01,1.959119715651686799e-01,-2.955950216408242959e-02,-1.501551053964349236e-01,-1.999390476815291195e-01,-1.058274771695265071e-01,-5.939312680088023461e-02,-2.073580813511316859e-02,-5.949686022541998687e-03,-5.000564343916006661e-03,4.620174104213779429e-03,7.974260216069280899e-03,6.584518346584255361e-03,8.505817290942420048e-03,8.672942009598023222e-03,7.083629767150347728e-03,8.370133283636720101e-03,5.081157333181022910e-03,1.407218585488292624e-03,-6.201706654726328247e-03,-1.259961736731387942e-02,-3.947638436385141752e-02,-6.048401527919747972e-02,-1.201016624135452099e-01,-2.244201146219194365e-01,-2.706370454606160103e-01,-1.865901746974956421e-01,1.749083507391062109e-01,2.772493033650226257e-01,1.459435790687838019e-01,-7.480605955628374937e-02,-2.142053792370089971e-01,-1.539518079817930873e-01,-8.498665732472056311e-02,-6.237338770661409598e-02,-3.811391624303981512e-02,-2.893036891387466142e-02,3.194987361385684876e-04,-2.150834707289369773e-03,6.340057030996113299e-03,5.399853797158554909e-03,7.798453951511435944e-03,1.069806388269584204e-03,7.610279025020280294e-03,5.412665786761102979e-03,7.592198391756116785e-03,-1.974723754225345216e-03,-6.230661866332090452e-03,-2.953577047292561125e-02,-5.526691768052609949e-02,-7.711895981378935616e-02,-1.082285384360101438e-01,-2.110988549726907082e-01,-3.046469176775881138e-01,-2.027091056318535700e-01,1.866096025134752756e-01,2.624440942477603289e-01,8.688735117768481286e-02,-1.722854348529442303e-01,-1.020958480507757199e-01,-1.457656987895761536e-01,-1.209803858097379531e-01,-1.024065447285127523e-01,-8.472594063832963873e-02,-6.074040420871201079e-02,-1.255613869366211353e-02,-9.030313826343909847e-03,-4.547677734881136924e-04,2.994810953446153719e-03,4.886431904046657955e-03,7.704074178077932600e-03,6.832953766065051789e-03,4.459027063767483437e-03,1.092410748471384953e-03,4.983939656657400928e-03,-2.900287155376111287e-02,-4.704005407638409825e-02,-6.646776462134851293e-02,-9.276656076136709228e-02,-1.073392980828219018e-01,-1.598057546002608353e-01,-2.352607341021221432e-01,-9.655205096517739671e-02,2.126661972660090216e-01,2.372223241582655240e-01,7.306861707354557305e-03,-1.750575502489403745e-01,-1.108936505514922927e-01,-1.360588303593650850e-01,-1.511177207882095086e-01,-1.196030038606465812e-01,-1.112862721746215727e-01,-7.977043937802705265e-02,-3.054382026233860153e-02,-1.693559332510386622e-02,3.128422634738093309e-03,-1.746722394530589653e-03,2.131047040250833111e-03,3.113408288451135933e-04,6.516668253758850504e-03,3.685263437237611388e-03,8.643582498396371397e-03,2.007997292402283890e-03,-1.525378570270197881e-02,-7.034421582458415256e-02,-8.660284429545815621e-02,-1.201072026629949469e-01,-1.382339789609313696e-01,-1.612652993210506314e-01,-1.113360822210963108e-01,-4.267089917203463478e-02,1.977995387574051633e-01,2.197316452127236197e-01,-5.226244471909614886e-02,-9.898701986603475333e-02,-1.322721758314141516e-01,-9.934297545334483392e-02,-1.177398643152326591e-01,-1.103804760203418861e-01,-1.035153812891308062e-01,-6.472759745247319563e-02,-3.602715959685532515e-02,-1.259364101186021684e-02,-4.356470640578094349e-03,3.759458063492606382e-03,2.689934044350976612e-03,7.975591006371881078e-03,3.103619589235737629e-03,4.552201490818011745e-03,1.162053990810063629e-04,3.979134216596611363e-04,-3.158857414337393199e-02,-8.060570292098048761e-02,-1.021225260893359882e-01,-1.303715305999451624e-01,-1.507693372953516353e-01,-1.625974973349404995e-01,-9.157906781340327540e-02,2.758342872442926322e-02,2.090452933001436253e-01,1.212267605644494484e-01,1.528579231093380592e-02,-2.692272640971199796e-02,-1.126306802803570956e-01,-5.256096319604218470e-02,-6.013565899753225974e-02,-7.928907823306906300e-02,-9.041775452047567940e-02,-5.458867201313597622e-02,-2.103993344987805866e-02,-9.241138987180477424e-03,-6.032284571322497294e-04,3.506269312091807484e-03,3.320310879136656522e-04,7.857849715502074556e-04,3.969232762015960370e-03,1.327157540430603513e-03,5.675408482615581889e-03,6.277725332965275636e-03,-5.900501091158812800e-02,-1.126588580181993315e-01,-1.336410176491452384e-01,-1.428136666589155113e-01,-1.846008129029927392e-01,-1.060275915091050958e-01,-3.316384402846739299e-02,8.782588882218846094e-02,1.286709714179494202e-01,7.326334296172969107e-02,-5.154811020706721522e-03,7.067856108503393908e-02,-1.648140121917794979e-02,-9.160144514576716579e-03,-3.050783940944046604e-02,3.121148469314962565e-03,-5.454392317221848363e-02,-3.013963252631214965e-02,-7.312422944974078867e-03,5.591468694984828196e-04,4.280448299991441476e-03,6.435776951965249508e-03,5.264026609361132508e-03,7.315895217553318453e-03,8.162998203058957321e-04,6.035208399056379543e-04,2.471032340101464529e-03,1.018960789554766147e-03,-5.658303828669156849e-02,-1.599857481995067277e-01,-1.778851674359304691e-01,-1.763152747681991650e-01,-1.307447425588978973e-01,1.677998519766698768e-02,7.535897161775442776e-02,1.208492476460157478e-01,9.214218144470601168e-02,9.048401062688080088e-02,4.072016811816099591e-02,1.214143045387394843e-01,7.760162732627778892e-02,4.335410970080720572e-02,8.073176057032414865e-02,8.444419642994614728e-02,-1.172806965332908076e-02,-2.373005144810090214e-02,-6.876836113876631101e-03,1.725532572045667453e-03,8.682725054083805655e-03,7.271690697663080009e-03,7.427065211999810124e-03,4.254933344480753624e-03,3.459349925469629335e-03,3.609845640524881813e-03,8.945653271739874984e-03,-1.721505764218211193e-03,-2.135661139228169428e-02,-1.010119832252374533e-01,-7.797646156847898302e-02,-6.468977009460434580e-02,-6.540353348185205806e-02,2.450935598757668019e-02,7.040897835674542193e-02,8.609608351983145946e-02,-1.757266622796335373e-02,7.004827760214923926e-05,-1.320056101183965380e-02,3.644975265208449944e-02,7.861949856090632432e-03,6.521175305783481584e-03,6.878892206668089926e-03,4.908921443013559982e-02,3.306514539443310835e-02,-1.899256760879009659e-02,-1.332631946517055972e-02,-7.158975714005492465e-03,9.713950940416396507e-03,1.809769527094897811e-03,8.543850933695791225e-03,4.922778564480347931e-03,2.472310744031770355e-03,8.099219977332176509e-03,3.146547131244004786e-03,2.313249302761740886e-03,-1.347799728002565395e-02,-4.851140696873912188e-03,1.638090784758746300e-03,-1.554998502953545969e-02,4.502546419823369450e-02,4.706040103471174907e-02,-1.707655447027682212e-03,-7.381549894591422911e-02,-1.306377012761814060e-01,-1.586493484863383541e-01,-1.035207088971437511e-01,-1.367399876691662020e-01,-1.192263781670812317e-01,-1.188452935760906382e-01,-5.878339604787688466e-02,2.152756573906903365e-02,2.237797224665546980e-02,-2.149129290516605534e-02,-1.567686068699421578e-02,-1.691912785086177595e-02,6.171449866040300963e-03,7.067772168854458137e-03,1.670419079009498623e-03,1.676192162883176741e-03,3.667142693354297450e-04,7.107638077887478908e-03,5.816427104057176820e-03,2.011399596821406618e-03,-1.660199819949274933e-03,6.330837402760884722e-04,5.446774340829425853e-02,3.725411681519847501e-02,5.436931598145741673e-02,-4.110417998588684202e-02,-9.731154184715094801e-02,-1.734885012294819506e-01,-1.732730564314079735e-01,-1.072086523915675854e-01,-4.947943701609288508e-02,-8.019430899756721520e-02,-1.728152456504174553e-02,-6.580058439545181243e-03,1.283234272432066080e-02,5.300612695897653770e-02,3.955207280611897774e-02,-5.948926621839576573e-03,9.501711558073855715e-03,9.651186964360455173e-03,4.939980934409615612e-05,9.518117854232389236e-03,6.391199378155004024e-03,8.679182945200220739e-03,4.547398556338590886e-03,5.155960285792502741e-03,4.882804790440099796e-03,4.597003443589660343e-03,-6.016494747525963707e-03,-1.887749106593229753e-02,-4.159459547860722833e-02,-5.430082801867125442e-02,3.150272532769624045e-02,-3.422057916186073412e-02,-8.271061379204688868e-02,-1.590473881775588127e-01,-1.174733014743313264e-01,-6.814105713394401354e-02,1.047033292022627772e-02,-9.087286863989312360e-03,-6.572366580439200669e-03,-3.982137326599132464e-03,6.840858010132441769e-02,8.732094494800217432e-02,6.093186771524411460e-02,4.856729137183917605e-03,7.390889650757890596e-03,5.706097466388297158e-03,3.038705969683685938e-04,9.309486955069777234e-03,6.895267510315611879e-03,6.765133857772465467e-03,2.156751523977171701e-03,6.588854702326571791e-03,3.938270802994612435e-03,4.110022157261693752e-03,-3.418851720115957844e-03,-5.401118738446461856e-04,-2.539588219091691579e-02,-5.602463650239881965e-02,1.873503944055337003e-02,-3.054172891932272968e-02,-4.012824020421128929e-02,-5.154753896633899879e-02,-1.159942715432986104e-01,-1.096396308681212295e-01,-4.536535491761066463e-02,-6.763440831969336209e-02,-4.591326525256501229e-02,-2.329910104045261610e-02,-8.037935126013256645e-03,-9.459929678287141899e-04,5.345677406362456772e-03,4.204590614238593385e-03,7.631457654478305229e-03,1.202090553706084515e-03,5.444890979608495857e-03,5.758660498121570494e-05,3.245858299002703142e-03,3.664615348713978673e-03,3.961726916092553862e-03,6.954672066898621476e-03,3.885581012703457574e-03,4.486936226225306246e-03,2.258096374626341468e-03,-2.573330883384368668e-03,-1.412282305618354702e-02,-2.678676633237572074e-02,-7.359070250900714982e-02,-4.606030960043902556e-02,-3.441430392201021843e-02,-7.200412546503977274e-02,-8.135485146242958654e-02,-3.873236428115899715e-02,-5.717050696632313030e-03,-7.200370166616018065e-03,-1.288081461711839543e-02,-8.783273342307842957e-03,-2.143816002698743783e-03,3.666129591909604839e-03,5.801723692273322817e-03,5.336025467268784746e-03,6.079050927934446201e-03,7.648832615421282885e-03,8.129857387160934271e-03,7.181230762264944126e-03,9.555236959549347903e-03,1.823258267636163087e-04,1.957779856835460859e-03,7.562874978142119630e-05,6.474747141546030420e-03,8.980305489499868649e-03,-1.119310133082937345e-03,-2.433879146628673083e-03,-1.361341853643036406e-02,-4.323312253164607322e-02,-2.851506442113945633e-02,-5.300465727645399527e-03,-1.578345712720733275e-04,-2.088065841665329159e-02,-3.483973778882474420e-02,-1.170623004003451886e-02,3.091558852723524931e-03,-5.775234896188714134e-04,-2.236065110768209897e-03,1.578190411001869622e-03,2.804288136794100619e-03,2.726240007335337633e-03,4.135491015253515285e-03,1.218860933369475671e-03,1.811493495346803246e-03,6.811178539649828494e-03,1.814383476956269543e-03,5.251633836670602067e-03,7.090462617224326837e-03,1.068769230947438486e-03,5.673122196289035434e-03,2.565627837013637665e-03,9.629268752375798671e-03,4.835456467199247300e-03,6.865916908688693421e-03,1.932224100648251633e-03,-3.594820657202024445e-03,4.909207637235768994e-03,9.514033422066570794e-03,6.016118201463312165e-03,8.191888594267901849e-03,8.842064633484077868e-03,2.280797719489324662e-03,2.120448399082266403e-03,6.019943528294746313e-03,3.952186471762567273e-03,8.322060203298724257e-03,9.000231233980112225e-03,3.534213793027181274e-03,2.368705589744820716e-03,7.805255152438618678e-03,2.748060355481361013e-03,8.226143185136784372e-03,4.237382536487628235e-03,6.675498992914704645e-03,9.553531383466818067e-04,6.238593246765729988e-03,-3.538636008995218324e-02
5.866084631754741111e-03,1.680142077448634232e-03,7.368737449441821637e-03,8.627970775432284786e-03,2.167398000907756576e-03,9.571455552016172770e-04,2.363858604633639799e-04,6.419715004432660285e-03,6.070940360887807849e-03,5.466974127140700190e-03,2.319470961159754343e-03,3.909059959055146381e-03,5.944763351861730334e-03,4.967668588591694218e-03,9.877855202148873651e-03,1.364397525567331241e-03,6.951445540475937983e-03,4.043187681042921013e-03,4.281996149256147959e-03,7.175977656581762100e-03,6.924361513243696212e-03,9.912559937021883302e-03,1.283942894541252426e-03,1.041096493841663344e-03,7.243388171287411248e-03,5.783869170064090924e-03,2.741606665598058604e-03,7.941936898898660502e-04,8.565824959643053701e-04,8.941908746641183056e-03,1.918673247187429026e-03,3.233715621155207852e-03,2.266564022269880376e-03,3.549963058319373366e-03,6.942384274609336367e-04,5.190597909082703999e-03,6.761256359221490004e-04,8.003565078223615764e-03,2.337120819104330192e-03,5.400119146045105796e-03,8.800790875614581885e-03,6.508773690471941591e-03,5.329577865513353101e-03,3.243337531153756177e-03,3.330019130581979292e-03,6.694869551981901153e-03,9.941393612211675210e-03,6.618391898493786694e-03,5.577834173700248893e-03,7.306505102392461294e-03,4.652056122837181298e-03,6.014234260078521683e-04,5.622968158779098266e-03,9.576252845053801616e-03,1.753029423576596456e-03,6.900048908206657221e-03,2.009336886590564874e-03,5.358276844730812567e-03,9.667644964671961863e-04,4.503709362581851533e-03,7.561633288952460813e-03,3.475715242389820769e-03,6.649117244872180220e-03,7.954499607897291824e-03,9.271778194794527347e-03,2.346420818554535454e-03,3.993159158093081626e-03,8.833555378018723842e-03,5.265668414453036211e-02,5.687478896533259415e-02,6.560332184041316184e-02,1.408405841429737938e-02,-1.351752025392879801e-02,-5.778748838270940727e-03,-2.225170498932822760e-02,-1.220886694799246629e-02,-3.235627946254059518e-03,8.260676302525284120e-03,7.820280876703859449e-03,7.087446977429764580e-03,3.616038052476211332e-04,3.031283559453286282e-03,2.631125699108428483e-03,3.601364074715191193e-03,8.764274676383854157e-04,9.369578230310628142e-03,5.538022407123762737e-03,3.055243106580235544e-03,3.969815170742834604e-03,4.472025405048356966e-03,6.005943333606172767e-03,5.156794276964977997e-03,9.193919732144173462e-03,4.969634829058302596e-03,1.069811852866620235e-02,5.066527596829879798e-02,5.338501811604320219e-02,1.235218729019553624e-01,1.661274529746589179e-01,8.669122658947739368e-02,-1.781515419527861938e-02,-3.089963304246885062e-02,-3.561954841439986252e-02,1.875692292131437081e-02,5.860365464343428310e-02,7.881667567870259683e-02,8.091928305125218462e-04,4.029801787651614460e-03,1.735245149865086763e-03,6.949510889024616833e-03,3.460997265377855486e-03,9.756102008599150041e-03,6.409720773453320315e-03,8.224805636343609713e-03,1.325246727418484365e-03,8.620144822726225411e-03,9.227571905133943875e-03,4.870619188189358705e-03,6.062529377509774837e-03,6.910501367634935832e-03,-4.470484364892805037e-04,2.292343609682007469e-02,8.075636986548862320e-03,-1.172934155066866942e-03,1.879604052376809831e-02,5.445231031975925756e-02,3.782459404624691213e-02,4.804845793497426742e-02,-3.005296097546973286e-02,-5.410757683302893500e-02,-3.377698534519178730e-02,3.857304936646764690e-03,3.197497385131767289e-02,7.727567417386742299e-02,2.169904917180094303e-02,-6.652386996087409103e-04,6.408263146902062543e-03,2.160381825095996147e-03,6.195879548978295605e-03,6.502010923981533554e-03,1.520248531286481040e-03,6.134962711066816420e-04,7.807615860684398272e-03,4.187058277556759273e-03,-8.908314312485371205e-04,3.440001418295891150e-02,5.641339001543167059e-02,7.612036483338861792e-02,4.491475445732812793e-02,6.393623296487577212e-02,3.053324792475517815e-02,2.480715820314368172e-03,-3.684267779760875845e-03,7.065938696200255338e-03,-4.541282112245914604e-03,-7.396100453828154814e-03,-2.706924533228445909e-02,3.105127678245869771e-02,-5.144794007971363603e-02,-3.843997722025371822e-02,1.317125343258976865e-02,6.651119943289041103e-02,3.162399890958163262e-02,-7.467746481848976450e-03,-1.569962120101539441e-03,6.257048433129657437e-03,4.497846488213225712e-03,1.946225118207650694e-03,3.677593508772896043e-03,4.141297525289270795e-03,8.275378955668743694e-03,2.766346873550720297e-03,2.070627431254900772e-02,7.303105559834782712e-02,7.868455413875254101e-02,6.510177972278000103e-02,6.859627825194507256e-02,8.715545002098848415e-02,6.888091769570600653e-02,4.361467159829026524e-02,4.312933221076866580e-02,4.136810137103129337e-02,8.657546987595285404e-02,1.170981233317401754e-01,1.314141458699833453e-01,5.998518639354265269e-02,-6.657888838433365097e-02,-8.220122781334028572e-02,-2.177471427457236194e-02,5.281291010250374618e-02,-1.934963349311542152e-02,-4.531738741956779087e-02,-3.665876596487346178e-02,3.204712799529088087e-03,1.500486646939842503e-03,3.246759268900599807e-03,7.373570773877996705e-03,4.760181293687665814e-03,3.758882851457693262e-03,-1.470281247895438570e-02,-1.715797146866614858e-02,4.901925287200761122e-02,9.170102560544668435e-02,7.956720657381805006e-02,9.232731377797903649e-02,1.153041278153963678e-01,7.695172435821230617e-02,7.290398365072378595e-02,5.064638682605858422e-02,3.283634135519156866e-02,4.036016069742355550e-02,7.514346063565461795e-04,9.822255413555468218e-02,6.072240657973934641e-02,-2.042433665427567657e-02,-1.112302388295217381e-01,-8.881040091110017909e-02,2.982605018956234477e-02,-1.097980904743725908e-02,-9.945268192535543228e-02,-8.957775095335197835e-02,-2.673451173815603182e-02,5.122219208126744909e-03,6.802277792083533114e-03,4.167290060238426803e-04,8.479201604580322233e-04,7.163233880626822953e-03,-2.830417488698832792e-02,3.544645839486795791e-02,6.179524647715503582e-02,2.938583399631387871e-02,6.276280906759722222e-02,9.158663801162438001e-02,1.359234809565680879e-01,6.387215799454380727e-02,2.723346156960477008e-02,4.353931605800286792e-02,-6.903912077174624573e-02,-7.688379809014878920e-03,-6.212981945699001113e-02,-2.379688599469965277e-02,2.262162901597906950e-02,8.819127710971119694e-02,-1.439641074672070586e-01,-1.533485984597550145e-01,-4.101665798037079647e-02,-1.119129224100444409e-01,-1.209161438490383988e-01,-9.700319923518019305e-02,-6.318746744234424173e-02,2.056872621955551251e-03,1.213864181594064267e-03,6.150129680388666253e-03,6.683160291873546655e-03,6.439042535411307160e-03,-8.433905768950514595e-03,4.009759657176278913e-02,6.530741788295954531e-02,3.664192761449746455e-02,-2.074213756134545700e-02,-4.290931425454043435e-02,-2.957416998947191844e-02,-4.852930417676866448e-02,-6.080767699647698921e-02,-7.039993732900923229e-02,-5.066626071055027603e-03,-7.976819957252677742e-03,1.829404901489884924e-02,-1.809934326279782901e-02,6.623646858904486123e-02,1.225935013915586680e-01,-3.625041542588006149e-02,-1.110480605636932488e-01,-6.030273538849160314e-02,-1.585881506841781419e-01,-9.107367689277608147e-02,-5.405343786476798223e-02,-1.591665681646937600e-02,8.869249002092694997e-03,6.458108126552060228e-03,2.859067892391601445e-03,8.036795061089521686e-03,8.613699963634360510e-03,-4.578874329786829060e-03,1.147742741568900417e-02,-3.775954217675941711e-03,-2.832891691368825612e-02,-5.209488552008964546e-02,-5.818345228700391725e-02,-1.075291177228131084e-01,-1.515605450551718580e-01,-2.154452992308552028e-01,-2.272829299061108754e-01,-1.794371934258467693e-01,-1.280968131621938177e-01,-4.413021713277643504e-02,9.924897751520913441e-03,1.080775336160432892e-01,7.965000546566097794e-02,4.439275236191420754e-02,3.163754412297114377e-02,-3.313516776275804432e-02,-1.189143245568777124e-01,-8.815782045634658337e-02,-2.307024216747886880e-02,5.422372054918482912e-03,5.903476904587728891e-03,5.083605469162799477e-03,2.975484513188205934e-03,5.650219928590161089e-03,6.888853020500906865e-03,2.054970393287435101e-04,-1.276713541603711685e-02,-9.179582569198675712e-02,-1.225123698385379711e-01,-1.070059052349807832e-01,-1.470256293924240565e-01,-2.039234631690398647e-01,-2.486234628450751938e-01,-2.938276167678887663e-01,-2.517615884389670100e-01,-2.519819231306902885e-01,-2.063318021839240235e-01,-8.070899335584776069e-02,-4.002015943929447886e-03,5.789027951123336402e-02,7.761122610188893323e-02,8.229767408953203578e-02,5.558172767524336561e-02,1.703749374796630772e-02,-9.223416355107007247e-02,-1.120917281746930394e-01,-3.164907299759055909e-02,3.531135494023907202e-04,7.457337827312321595e-03,2.024805601652373936e-03,9.580734801193802747e-03,3.679407513020844980e-03,3.269316163380791077e-03,-9.868524543028864976e-03,-2.552867958296825904e-02,-1.385853950711642690e-01,-1.583761525520788194e-01,-1.573319541970882307e-01,-1.743847871742411626e-01,-2.122798171581400939e-01,-2.510738176400673094e-01,-2.239802394242031147e-01,-1.593290299233848240e-01,-1.858095292279938471e-01,-1.245764199135000888e-01,-7.273501536134342749e-02,-3.821917678081505898e-02,-2.389667888179047850e-02,-3.750924989582093971e-02,3.606980505245060281e-02,4.990321016072834376e-02,2.133582235242920469e-02,-9.714151948370459977e-02,-1.255120307596403473e-01,-5.873643669045103266e-02,5.614845879595237177e-03,5.606600944161709531e-03,6.034876665964548047e-03,6.764679372263622710e-03,8.049889996807698192e-03,2.698207201282143506e-03,-3.121727122373231696e-03,-3.336402473483698894e-02,-1.454698478643418058e-01,-1.563214172752381004e-01,-1.052304273636869431e-01,-9.672924832106555293e-02,-1.540193218650501572e-01,-1.901764022650413999e-01,-1.843499181685716859e-01,-6.827905722519700404e-02,-1.193952483598927639e-01,-1.648337250405406407e-01,-8.038104813793806036e-02,-1.045553971794478676e-01,-1.473053863166388366e-01,-7.029152770194856126e-02,5.192551890332344766e-02,1.105105992930873783e-02,-1.448823253974466235e-02,-1.013743536963123831e-01,-1.080383378778254910e-01,-7.635620061075705511e-02,7.856516180802320184e-03,1.183361909233873266e-03,4.099048896962882542e-03,8.398022856356171517e-03,3.838329519330440330e-03,5.718722712271865488e-03,-5.627969151681273471e-03,-3.858901926347016453e-02,-1.318450194618025761e-01,-1.072539524939413180e-01,-6.372957020065278533e-02,-2.065855471165972679e-02,-3.348868750716138543e-02,-1.701211862675321151e-01,-1.341297322909801304e-01,-4.979940844691906066e-02,-8.730728671409525299e-02,-1.426672140671521871e-01,-1.697068498504022693e-01,-1.675937138019770456e-01,-2.056768482718987767e-01,-1.243916461017892661e-01,-3.662801791454139283e-02,-5.660696719869170307e-02,-1.223070079188828818e-01,-9.445403083144034151e-02,-1.266753749914917015e-01,-7.362810783672642245e-02,1.817393080767873773e-02,9.165167214893276890e-03,7.295082286523967355e-03,7.655128989911097297e-03,1.589081676693535625e-03,6.102251494776412925e-03,-9.243051322243161366e-03,-3.252191032179973379e-02,-9.911466453280023958e-02,-1.133995915901343660e-01,-7.405991146300180961e-02,3.171181944199321506e-03,1.783562659635765102e-02,-2.255101422815010762e-02,7.334077006354651485e-02,-1.428277204181176846e-02,-2.043747832050892832e-01,-2.503231821755347863e-01,-2.055805037960121706e-01,-1.830448485897166744e-01,-2.038757898662289791e-01,-9.002241454463130732e-02,-2.645370998403300325e-02,-1.443021837447860944e-01,-1.387270133803764072e-01,-3.111094281900560546e-02,-5.533357437159411307e-02,1.030053568414382621e-02,1.187201396084226201e-01,8.390973488917642664e-02,8.998333456872724401e-03,2.182339677548950150e-04,6.637896861755891373e-03,9.633944342135504144e-03,5.601681834618419363e-03,-1.405163967320859769e-02,-3.282525466978460787e-02,-7.170997089037443872e-02,-9.046126188559230896e-02,-2.804680591630053996e-02,1.455114432212218367e-01,1.411208670029520384e-01,1.587002348316411127e-01,-1.412322143703750865e-02,-2.756201294737139484e-01,-2.334895848721700307e-01,-1.148861139704824841e-01,-8.743549780449078046e-02,-5.631916348528389488e-02,4.935236108049200626e-02,4.172709352005556788e-02,-3.530265588310083774e-02,1.745970757014775679e-02,1.000452849119318199e-01,7.428643148640834415e-02,7.451436483297821378e-02,1.092645257218548688e-01,4.955749546813321971e-02,7.228143032084837633e-03,6.766836190000158216e-04,7.078350972297686554e-03,5.435382173426460579e-03,8.172534574677826121e-04,4.076134137841170256e-03,6.768051883086508014e-02,-3.492225674407116454e-02,-1.109773632140610145e-01,4.558675488340109550e-02,1.654165794554196267e-01,2.193433067221435551e-01,1.270271027357924298e-01,-6.007592476935051315e-03,-1.105300180425982381e-01,-2.936979577562587318e-02,3.396891070694409848e-02,2.793705289945809175e-02,8.588699949619027496e-02,6.343057465328191813e-02,-1.282891879902035327e-03,6.006924076423323516e-02,1.656886085966875477e-01,1.483892085296779073e-01,1.195637623906031233e-01,6.912206459030888206e-02,5.671164611190946531e-02,2.048812741507125782e-03,8.778300781520408450e-03,8.795818549515291296e-03,8.705784250460068749e-03,2.387962113815392858e-03,4.512393441809881174e-03,8.906191068025993626e-03,5.547239854015661997e-02,1.257294125855070444e-01,4.797560980617446291e-02,8.143312511444555923e-02,1.573443275790454565e-01,1.615101329820078924e-01,1.678229100847520305e-01,1.360207271661424688e-01,1.192094782907662937e-01,6.023638377340877897e-02,8.802304201725842658e-02,1.004910965546659540e-01,9.896712694857150161e-02,-2.791786501353983943e-02,-1.760168591888318368e-02,1.174082610012205652e-01,2.051877483216541231e-01,1.840392029921098516e-01,1.396962704825004675e-01,7.759273200501595746e-02,1.129369643511252651e-02,9.150900684070432251e-03,5.330288672461399799e-03,1.579548228353480068e-03,6.958991181688024309e-03,7.932613504382544228e-03,3.167616770675266927e-03,6.624971305023100859e-03,9.449232917460449743e-02,2.834825473314726563e-01,1.673244254408025600e-01,2.823079493923879094e-02,-2.736587738881297860e-02,-4.015299080160687067e-02,1.649412111344777943e-01,1.827191391432353429e-01,1.109456578719025949e-01,1.335811761412201704e-01,6.531058154473531885e-02,1.136382709075584377e-02,-8.421807788087702640e-03,-6.380252942499002600e-02,3.125431887405893949e-02,7.592540563986872881e-02,1.218155465881628347e-01,1.413267224188680948e-01,7.152602160419063715e-02,3.224178389532525446e-02,1.659548952957850057e-03,8.819277583046439620e-03,4.274896879206151711e-03,1.622334057824793580e-03,1.260751997575904212e-04,5.293088210660292642e-03,1.605894262939954820e-03,-2.824206304747721961e-03,1.300455200862137839e-01,2.665265153493664996e-01,2.065021936417334170e-01,5.133650409179817131e-02,-8.484430875541183747e-02,3.792516312183614319e-02,9.033470381018990358e-02,1.040952890271296255e-01,9.919077124817704538e-02,-2.916153579776337851e-02,-6.049369492023368849e-03,-4.940197433914102904e-02,-6.571689628709510844e-02,-6.730756023989892256e-02,2.583027174341435625e-02,-2.210077239290027945e-02,1.885994851679730772e-02,3.678464692207410180e-02,4.750297929905648170e-02,4.453251452982455449e-02,2.398741127559447187e-03,1.419719897609939127e-03,3.479414115821666178e-03,4.503509789054126883e-03,7.488263369633064818e-03,4.669440663189350187e-03,1.872995411923723992e-03,-1.942581218479783045e-02,7.197720793457813848e-02,1.395395288879526519e-01,1.704959411126096003e-01,8.369163625068073986e-02,-2.483663178205522057e-02,1.043266038133850576e-02,-1.574633661897461515e-03,-1.778308822187922925e-02,-1.355660826777100106e-02,-2.041364585840069884e-02,-3.063643271614298336e-02,5.892314680406999031e-03,6.561283015745154878e-02,7.008748036617085120e-02,3.733188054032828690e-02,-2.903374325914927917e-02,-2.311767646565555251e-02,4.309139803577771016e-02,7.339958486057251985e-02,7.366518471775766741e-02,3.039464012407237965e-03,6.531627905312829829e-03,9.383048184484826457e-03,8.712044822630519644e-03,7.660647765353026210e-03,7.108078436937973962e-03,4.022771647859401181e-03,-1.910336101141547546e-02,-2.579609277472118701e-03,1.691839996896682755e-02,4.591486291598365077e-02,3.998397275585426069e-02,-1.202425759300874628e-02,2.639762425499140794e-02,-1.579419104579374549e-03,-2.549581303713134919e-02,-1.025057571325080075e-01,-1.025226315498073137e-01,-5.239810013650889053e-02,-1.406331549686381556e-02,-5.547819519181561992e-02,-7.270039787654875019e-02,-1.563052012871959592e-02,2.428073521472594656e-02,9.138446604822830777e-02,6.972212599986526982e-02,3.014700110859562868e-02,7.539619035967839826e-03,8.049067768414385968e-03,1.800655560045449812e-04,9.628103570740259576e-03,7.266709920703232940e-03,3.047510953861333471e-03,8.293946648588469348e-03,2.733864012402221957e-03,-2.002678634419540697e-03,-2.016696499166690387e-02,-2.491167662619475295e-02,-5.294255613260644838e-02,-1.074829373354995454e-01,-2.167362900657844871e-01,-2.226075144910580061e-01,-1.668983603271962934e-01,-1.133332759449071636e-01,-1.445589453950918701e-01,-1.777147027169774240e-01,-1.253828762918034745e-01,-7.991300402374366951e-02,-5.690332457883120337e-02,-9.390389716179670110e-03,3.778803181024648766e-02,4.778738330225533459e-02,6.558835929415346433e-02,7.256078932123319336e-02,7.676595907796551765e-02,7.896916219082861796e-04,2.395101699095381152e-03,7.945782787001903075e-03,3.467026672648332330e-04,5.828068350834896341e-03,9.954375161913098929e-03,8.556960938375393622e-03,5.209093287903122059e-03,-3.926835508516150243e-03,-3.154407583442597317e-04,-5.859280907758430620e-03,-3.660887487203250829e-02,-7.279209571814306001e-02,-1.306781389413791683e-01,-1.328329434627908145e-01,-1.121738577084765154e-01,-6.028480087604524973e-02,-6.848101006441446870e-02,-1.274312778976472160e-01,-3.585879912972731592e-02,-9.916683012936517230e-03,1.353653648997816920e-02,1.688410431227990380e-02,-5.913844172714699012e-03,-1.193071554557716780e-03,1.979645698100978429e-02,1.304800014009041206e-02,3.787202476915459831e-02,5.916971623063255539e-03,7.026337730855163402e-03,2.374334683748063023e-03,5.123637775457906551e-03,1.042248028083476693e-03,3.845113276448125506e-03,4.876670686212644483e-03,6.522242595454724734e-03,9.505310525862035662e-03,6.001802882013742083e-03,6.699031738461427680e-03,-5.604706400334857159e-04,-6.056014200885902719e-03,-2.003664683782170261e-02,-2.111325041184481527e-02,-1.770242500318658374e-02,-4.751784254568029719e-02,-9.368847157409368465e-02,-8.464317566875693977e-02,-6.144588789677152968e-02,-4.630643839095595349e-02,-1.416238994686371336e-02,-1.794104615359955190e-02,-2.392829248592593869e-02,-1.643650508469205352e-04,2.806832155159743117e-03,2.069925784384267844e-03,5.165726284459790617e-03,5.505799160420821425e-05,7.664032649225327508e-05,2.190688091018577754e-03,3.672136250082114412e-04,1.080257541306913838e-03,3.388606493387515909e-03,8.025856795798128399e-03,5.720486433693008042e-03,5.126677259564164056e-03,2.726172363627617831e-03,6.097509747101468452e-03,-3.239001687599317794e-03,-1.016557774552882473e-02,-2.224445208625821287e-03,-5.943948762627276547e-03,-2.425248023477028989e-03,-1.671527788919855220e-02,-5.681567122411142895e-02,-5.998387661410072708e-02,-4.769217209128810697e-02,-2.937348633781957253e-03,-3.930231574320873153e-03,-1.011596450485689747e-02,-1.189687910466474471e-02,4.218281785388313353e-03,4.110210752655457482e-03,9.076110025565549758e-03,7.140326444668564781e-03,6.079052140907037494e-03,3.093727178627820977e-03,8.237903842212946498e-03,9.550605114849890220e-03,8.211982825502265118e-03,1.565105191472904275e-05,6.364013701834070856e-03,5.113538144210072857e-04,2.576072203337218588e-03,-4.787136266478519042e-04,3.535127762577099444e-03,4.231613098709460265e-03,-5.096804912952041574e-05,3.838388830449794738e-03,4.562365089555420021e-03,3.690530217609165956e-03,1.210250004851930444e-03,4.189477901874754176e-03,7.511780478084181638e-03,-3.877815216246218799e-04,-1.129617004753776010e-03,2.612500405766691753e-03,9.417257116189250987e-03,6.685726467229140269e-03,6.786699566725648385e-03,3.619199908378649671e-03,5.936607912085384645e-03,1.013118402774337807e-04,6.360960464095422387e-03,9.132869475762367059e-03,6.125734683448192004e-03,8.736985934663449999e-03,-3.584925085027768077e-01
1.205584164036902547e-03,9.024533072858416730e-03,6.644384435577488498e-04,5.339674725477638016e-03,1.421371237934576605e-03,1.170661073090406616e-04,4.220342601276389979e-03,2.950407076541562527e-03,4.860004937976030413e-03,5.771998867345508322e-03,4.373907230894735635e-04,1.230032951237456469e-03,5.586423964504253457e-03,3.431673531726582571e-03,7.291734875494480100e-03,6.522916485919396865e-03,8.456043629899068562e-03,6.924928266692252816e-03,4.299310773901481725e-03,6.729666223944323622e-03,2.753811742554185347e-03,3.063134987782126836e-03,7.889851599207933081e-03,4.464195164015821553e-03,7.983803405183525007e-03,8.224223736682783475e-03,8.575623376612837370e-03,9.166352358412073464e-03,4.309852205132962133e-03,3.188668183211388306e-03,5.821987465941138792e-03,3.711724234376275779e-03,6.010741668002329667e-03,7.055858626438246683e-03,6.884050184921369081e-03,3.745528870201213743e-03,1.668602016987528287e-03,4.305293384622075475e-03,1.425941440819087410e-03,8.900970351838084077e-03,3.458774607378574048e-03,1.544597472233237958e-03,2.544775990575087548e-04,6.458223862864842860e-03,6.369023174547432629e-03,3.406041665812916796e-03,7.171188884765101242e-04,4.096288948952320381e-03,3.112174950633935823e-03,6.771206397350093900e-03,6.057792494526904013e-03,3.645937281975399763e-03,2.178925542549901232e-03,9.880359661555919437e-03,4.540016211961149170e-03,6.882742357802370918e-03,1.405529675783607872e-03,4.855896996593978519e-03,2.753671986946548537e-04,5.054551179104499470e-03,9.640174071177023962e-03,3.842067129858002181e-03,3.899601257491158864e-04,3.095579091934352921e-04,3.879867599468695121e-03,1.600249364631940513e-03,2.335209632818591185e-04,7.452836658470816077e-03,3.946248507407173860e-03,2.180599817627506144e-03,7.779675803953779202e-03,-2.795264028034243325e-03,6.832162529096284060e-04,-5.132315692707292709e-03,4.216161981460998798e-03,3.487445588998845832e-03,7.730421329616063951e-03,9.840131632104643158e-03,2.884054378187457090e-03,9.611354854075930543e-03,3.894818949024203818e-03,3.855119047369223294e-03,3.403871042545057041e-03,5.414076073475852444e-03,1.541450431784871077e-03,5.537114853580112073e-03,5.417048124100039969e-03,7.619018126048700094e-03,8.336499619375855111e-03,4.404413503124240438e-03,3.023332493514937352e-03,2.593348973170944965e-03,1.946238367048719418e-03,5.764758219902488831e-04,3.355632108345732011e-03,1.014385628572243543e-03,5.416498533314093901e-03,-3.261562465346993112e-03,-1.280396192219608077e-02,-1.344296566265341768e-02,-2.021190387895983875e-02,-2.417424949632060796e-02,-2.256737689899100674e-02,-5.894742309141040582e-03,-1.597001511753435654e-03,3.387076820190505072e-03,8.803147621489270519e-03,6.234059581594401239e-03,5.693773611822827707e-03,6.206604798245841069e-03,2.013121078224332488e-03,3.951377432643185875e-03,3.945953289089931663e-04,4.755460374868267052e-03,5.430245839576631518e-03,2.277497361032096001e-03,9.640288471655137151e-03,9.094546109372421069e-03,7.221432354559059047e-03,-5.281896610337964530e-03,-2.289781444107459596e-02,5.153906136558517731e-03,5.271841150861744651e-02,4.022649556524933445e-02,1.051321225907170254e-02,1.254410897180318826e-02,-5.889326792010153057e-03,9.078539440068046293e-03,6.265577004433223358e-03,7.612031443487710970e-03,2.912241425961391642e-02,1.393543403991980185e-02,-8.914840358602186404e-03,-4.662512523262271787e-03,7.599246755524509313e-04,1.501597773334350681e-03,2.032230910860872725e-03,7.617981913776972723e-03,3.865405068230278775e-03,5.112754622007511206e-03,4.923254800011819116e-03,5.772790292331312668e-03,8.655771456245521869e-03,9.961124146807876639e-03,7.089206582478341408e-03,1.009032331760392406e-02,1.184857431434085430e-02,1.171902148232312896e-02,1.998432062193606501e-02,1.993279037040695742e-02,4.421850415726614331e-02,5.598269439454795632e-02,1.505852263220352344e-02,2.847175968907439750e-02,5.725785209019833288e-02,-1.492965701607136715e-02,-3.347793899157625042e-02,-4.467196217990895835e-02,-2.393820602108884601e-02,1.905869995571433939e-02,-6.212837005458940291e-03,-9.760244476566627692e-02,-7.665840429849020421e-02,-2.622181451713529593e-02,6.733679306759539872e-03,6.475820133278359023e-03,1.344351294081218501e-03,2.993955883716812368e-03,3.587155254170134450e-03,8.044372076795050508e-03,2.787598724145530071e-03,5.882064663813503513e-03,1.182285767385375663e-03,2.216026350849563745e-02,1.066848173892049889e-01,1.125093650082966551e-01,1.287471930403184250e-01,1.148341209202161511e-01,6.845002193932049617e-02,1.183762749179699258e-01,7.434474287650989777e-02,-1.301706091486800991e-02,-5.003905600737797166e-02,2.157126294160110341e-02,3.505762055415401202e-02,1.369355144075280403e-02,-4.615637608907907641e-02,2.090368963472115024e-02,3.207943762772614421e-02,-4.067065802005425529e-02,-7.029611622625125955e-02,-4.320149481782439849e-02,-1.321478851493751959e-02,2.686342627364626378e-03,6.600984414024158335e-04,3.488205339694793426e-03,1.109980987913148417e-03,8.082352100092221950e-03,9.476880259644708537e-03,6.556291595253035953e-02,1.374540892519506702e-02,4.486234341230165013e-02,1.310945558516159459e-01,9.875835881404762540e-02,1.088622440350821424e-01,8.543448585717831889e-02,8.406942589469673655e-02,1.321117049542684108e-01,1.513350784189534948e-01,4.362109971481944320e-02,-4.267901576518974560e-02,8.350776392297698525e-03,-5.527316929177373932e-03,-7.165348960070681839e-02,-1.017412267146281524e-01,-1.798081876756543393e-02,6.011135116615970442e-02,5.030358310764423274e-02,2.669247261008339187e-02,-1.764740770583281618e-02,-1.849509017120320661e-02,2.346078051058830426e-04,6.034930960433786302e-03,3.578140841135488571e-03,6.478174459905283733e-03,1.229206784653875777e-03,8.886590802653986446e-03,9.076129269413933665e-02,3.412693714312938637e-02,5.296885088466982139e-02,9.063668682474869398e-02,4.487275557779801805e-02,-1.732154208279519658e-02,-4.099685643737369101e-02,-3.027843357858914231e-02,-4.501316234699655194e-02,1.568302776480539826e-02,-1.014933808030223789e-02,1.406010634789390396e-02,7.290298288145004302e-02,4.514893928082069907e-02,-6.886685772732485666e-02,-7.326999547614113095e-02,-5.149066972795962593e-02,-2.770031176774119877e-02,3.312351820577925932e-02,5.309295405533501905e-02,2.019397224480966660e-02,-2.048112366299781675e-02,-1.653115812174205806e-02,5.111291392372298292e-03,4.685190852760312769e-04,2.761695578208994781e-03,6.483526880676573206e-03,6.268962162186586962e-04,8.425178502065230890e-02,3.797836695267610418e-02,5.602999427490896328e-02,2.243528361518898340e-02,3.414008398866696242e-02,-4.090403875180945864e-02,-1.682059439344935070e-01,-2.276099633365365749e-01,-2.209717842597423987e-01,-1.886071045508487531e-01,-1.224303235108736010e-01,-1.902916722283157225e-02,8.528932773305999970e-02,9.684189900339629231e-02,-4.784325026289414778e-02,-6.976741015168604065e-02,-1.187372847776312357e-01,-3.202091527867853560e-02,-1.027661080224650560e-02,4.640821286257260092e-02,6.525940307703095855e-02,-1.003400390668966920e-02,-6.152871550464446455e-03,1.669530887471987191e-03,7.130460506343186920e-03,6.663854135782064717e-03,9.592832205839013290e-03,7.610377902507830389e-03,6.650835012876124552e-02,1.569455389671207263e-02,-2.993467013591733991e-02,-6.879855075634697115e-02,-2.906873903616977867e-02,-3.823513679407323368e-02,-1.825471155035854331e-01,-2.527206384315643928e-01,-2.892744760851655439e-01,-2.514389826043250675e-01,-2.255519580562379556e-01,-7.764078449344380406e-02,6.530500635128420883e-02,5.787523562375718883e-02,-7.725732388407267892e-02,-8.586000410804850436e-02,-1.410354788037727625e-01,-1.131180396789571857e-01,1.309588358986535535e-02,6.217458372660778637e-02,2.809749374632142943e-02,-4.302439423053265946e-03,4.722818041629816936e-03,8.801567379214850217e-03,2.157406791764541251e-03,6.778132003100442726e-03,6.077521222527225604e-03,2.953014775718328013e-03,-2.288912521146129614e-02,-4.629854646559934672e-02,-6.556660148262495602e-02,-8.640980082335608659e-02,-9.042106830610747992e-02,-9.309468918965868589e-02,-1.640999684874982212e-01,-2.203510215673396277e-01,-2.062120198985308572e-01,-1.634507125869352484e-01,-1.057170170624693456e-01,-1.094732803660513482e-02,8.792584471934677959e-02,4.189044820331165597e-02,-5.762661435662169707e-02,-7.047496188986429599e-02,-1.448383446600587376e-01,-5.774055091161903186e-02,3.914200172716742615e-02,5.622238500585863274e-02,9.230936044009766884e-04,-9.568065726416601080e-03,4.928645844474466645e-03,4.042897472548691307e-03,5.309376784120938518e-03,5.951316749056815604e-03,9.923821127835630198e-05,4.640951594535039186e-03,-2.257819319989028822e-02,-4.845553479821403109e-02,-6.070318464066026126e-02,-8.831636867489095488e-02,-9.957996034695400234e-02,-1.072090640726095362e-01,-1.508380717858195386e-01,-1.226324944898168345e-01,-1.113510041373568307e-02,4.824523149369874808e-02,9.779866847182601755e-03,5.838757614882813390e-02,7.675050219526567685e-02,-4.704571583379855981e-03,2.898206005078845723e-02,-5.771128765422241930e-02,-8.505858824001459595e-02,-2.022636208091527568e-02,5.038659887158369877e-02,3.980860008515763049e-02,-2.797885843680681522e-02,-1.828783637855809982e-02,6.464587416379305104e-03,9.741944438163572043e-03,8.470608269838995896e-03,2.359496464552912620e-04,8.985606046748393499e-03,7.831984132986259325e-03,-2.476156270132665038e-02,-5.093512415983916103e-02,-4.903465799296853611e-02,-6.716458618854645457e-02,-1.049216196198135692e-01,-1.232485067578562576e-01,-1.636580636610396045e-01,-1.714282171999587101e-02,1.562463140680964147e-01,2.007152424202422181e-01,7.080693841886701034e-02,4.639192519418201127e-02,-2.183578788742073992e-02,9.465968935923265923e-03,7.930787179908210804e-02,1.800481461056232732e-02,-2.120821604881054437e-02,-1.561241016461394591e-02,1.067503493070678586e-02,-2.586936535549427818e-02,-2.586601377412949335e-02,-2.124572509786839050e-02,6.224136415659966420e-03,7.813218557473050607e-03,5.782983994203606815e-03,1.469627095882096793e-03,8.111237699334708506e-03,6.359547071637284762e-03,-2.914778582426226158e-02,-4.906595922648786245e-02,-5.285283611446604801e-02,-6.120804070583867745e-02,-6.662444068911502204e-02,-1.022707381093189843e-01,-9.621658596659801721e-02,-1.107240559500580895e-02,1.344759409741680678e-01,2.440109856920036624e-01,1.174554273861090486e-01,-1.355117694542131400e-02,-1.535528946668709982e-02,5.226721217517962814e-02,1.168501881135728948e-01,1.416408559093400577e-01,5.282624399924558400e-02,-3.996636321395355407e-02,-5.901895550585852662e-02,-3.033778725560908746e-02,-2.790838952019113195e-02,-2.715750410303396922e-02,7.002202302348472553e-03,4.396769340560982217e-03,5.465771420322949534e-03,4.328160022094692562e-03,4.389994264300511851e-04,1.657497798201559283e-03,-2.580776579929938350e-02,-5.241521417308175890e-02,-8.440663139040303908e-02,-1.032605828546883792e-01,-1.004026771685059688e-01,-1.165858008156869519e-01,-1.244423145864019253e-01,-1.130333437068821584e-01,-2.233884751404015614e-02,3.628694371876538260e-02,-7.028612446110801826e-02,-7.182739868422748086e-02,-6.220469476542829501e-02,3.289990327449189567e-02,1.225918996259870719e-01,1.324563978600217240e-01,4.698524747540543806e-02,-2.837037804274827879e-04,7.971113592891298713e-03,-3.711096214593902209e-02,-2.476310127096674474e-02,-3.356712502548962751e-02,1.029045765263063121e-03,5.727164765834127751e-03,9.437015928202207790e-03,9.601356044054472003e-03,5.214596387214719651e-03,9.773079079915036882e-03,7.573102071344388689e-03,-2.446612820448204953e-02,-6.409705897472629810e-02,-9.753910229742888960e-02,-1.155061122879376123e-01,-1.444561273602850138e-01,-1.670918880623776248e-01,-1.709142653364942588e-01,-1.399339551121031033e-01,-1.009048673319064976e-01,-1.822630774751184679e-01,-1.995427805061408821e-01,-1.283663106792703457e-01,-6.420342640687845548e-02,8.145780525021253937e-02,1.523223228423418729e-01,1.599674992145228968e-03,1.984251553084472736e-02,6.250848621509282055e-02,-1.173757493747569838e-02,-2.266550281877784470e-02,-3.200234565756281124e-02,4.923648563097494718e-04,-1.414964620830792916e-03,4.808901466030090360e-03,6.624340117010680921e-03,1.185026235981515626e-03,2.888849389091656655e-03,3.978366255021569507e-03,8.429658184321038930e-03,-1.882832862048328462e-02,-7.436560677172389389e-02,-1.098099631675026611e-01,-1.379730805141607952e-01,-1.562749385982605266e-01,-1.977160452040251093e-01,-1.749795327633786035e-01,-1.629172911036765037e-01,-2.313093208963911684e-01,-2.428641838614576665e-01,-2.537863236736380146e-01,-1.075062161221123636e-01,1.832086672283660470e-02,1.614835684873992261e-01,4.739678443697705607e-02,2.626606323052586714e-04,7.378203662633116278e-02,5.326883930046171639e-02,-3.241199106029327148e-02,-2.450404447303767760e-02,1.361234185276943972e-03,3.892996332566744889e-04,3.601881829142639232e-04,1.752217721058273560e-03,8.667703545060002901e-03,2.824787439770266688e-03,9.504591705752957545e-03,3.881622351020595340e-03,-2.423101363742219405e-02,-7.675469447773190790e-02,-1.339068729731509588e-01,-1.379868350282147382e-01,-1.702227525835003363e-01,-1.599369748665280533e-01,-1.219796131464944977e-01,-1.458148841082746450e-01,-1.843299597245612320e-01,-2.510118458400842356e-01,-2.626524784877450891e-01,-1.353708673270347940e-01,-1.653890607544085053e-02,9.988852750347558540e-02,3.467555868971042288e-02,2.518096194678996758e-02,6.828390990759278245e-02,7.100750085135408562e-02,-5.013745032952877934e-02,-2.967136856172253659e-02,5.884995259860551983e-04,9.407845205031078670e-03,5.069204379618346204e-03,4.094120718170183616e-03,8.108785810079184586e-03,8.358259279105160686e-03,3.321910331156046128e-03,1.881226720141631129e-02,-2.295951997898426633e-02,-7.934251037399686624e-02,-8.579787870384456006e-02,-9.647031847012771388e-02,-1.542207487878184680e-01,-1.642075629576502105e-01,-1.713041616563492076e-01,-2.104826975925188637e-01,-2.432041359878443498e-01,-2.411582038038719566e-01,-1.215472794809231150e-01,-8.501484118946167623e-02,-6.607447498037677738e-03,4.279874709153707463e-03,7.705307507569515713e-03,3.377897981464753063e-02,6.331508158293630562e-02,5.939319445855723023e-02,-4.973510071717970188e-02,-2.191949261163054011e-02,7.293447940879963995e-03,9.668454997992853225e-03,2.242934832850450744e-03,6.630471918034223922e-03,7.418963269587150987e-03,1.140159474185844374e-02,4.368794565893405896e-02,1.106037958937574617e-01,1.003843237999783866e-01,4.550239014864252557e-02,1.875313204466341407e-02,-8.549852746584369126e-03,-9.793620496981837731e-02,-1.877672643902318639e-01,-2.262484226735617387e-01,-2.651484063523088519e-01,-2.251166700829971001e-01,-1.353815375723378678e-01,-3.950455098969964801e-02,6.391625319815354145e-02,8.119273137070552593e-02,5.481957883459803033e-02,3.155265581997294955e-02,5.064722185369735508e-02,5.930836963786688398e-02,2.002017119754202247e-03,-4.157118807062850502e-02,-1.794889692771524034e-02,2.653261375554669902e-03,6.015538792998240819e-03,2.965599122059306859e-03,7.144241640712422313e-03,7.590052825219310330e-03,1.867507239393157575e-02,5.350890768764537259e-02,1.849291611177383277e-01,2.156491584939276562e-01,1.719687820746612916e-01,1.085776266505501658e-01,1.030308034171860398e-01,2.861531272525231345e-02,-9.227826656697822594e-02,-2.129566002649548317e-01,-2.038570784238178113e-01,-1.089522939975961918e-01,-2.420198163642869188e-02,4.755611120373189060e-02,1.632976429781671790e-01,7.142651489949909671e-02,-4.976824748413459162e-03,-1.503188151588925880e-02,4.188925164163743303e-02,1.112440818871966372e-02,-1.888552107581981804e-02,-2.804706493959413516e-02,-2.695410262436148674e-02,9.470906671085190312e-03,4.962587528823615181e-03,3.805177098698945149e-03,1.630353369315910069e-03,7.862056522610580758e-03,1.478365874568656792e-02,4.101090067052580446e-02,1.781170660261190142e-01,2.252925855502060093e-01,2.221399931501583658e-01,2.013631337646794028e-01,1.200570570133516896e-01,1.340730618962158727e-01,2.954566751622447404e-02,-8.347917771166772638e-03,-1.314192800855487793e-02,-3.729261482663284721e-02,-1.726944282127822888e-02,5.084984459473341351e-02,4.078577766060890314e-02,-6.414152808805829997e-02,-7.376638454288290958e-02,-5.785455140028036153e-02,-4.983058905216030017e-03,6.590341925641390788e-04,1.046031500178040176e-02,3.023040415183876704e-04,8.652957589089124019e-03,1.572732081797153549e-03,3.097878592090992644e-03,2.900455319624368773e-03,8.714140341908543572e-03,6.727029942088980433e-03,7.966813971913722786e-03,8.825139710463676679e-03,8.209072383991559974e-02,1.314871552405639521e-01,1.618651110077594935e-01,1.787740744133890503e-01,1.547983891454320915e-01,1.269079830548511811e-01,7.586583383709250006e-02,6.630291145211371362e-02,1.312622185395081742e-01,6.345849272427075971e-02,-2.569141061064180234e-03,-3.795298348189156401e-02,-1.761150391739451163e-02,-4.046970488270670158e-02,-5.441335604127297415e-02,-5.163375023429623428e-02,1.843713176574989648e-02,3.405848788956849366e-02,2.172055971622454795e-03,3.240971144278881853e-03,3.324561571487120396e-03,5.658565614671562946e-04,3.739210470128135830e-03,9.444485826943033874e-03,6.417343972985581693e-03,6.714791486672069300e-03,6.322821536376398328e-03,2.406655063607907302e-03,-1.641768526093335262e-02,-1.772927196691026150e-02,9.858274943505036456e-03,4.084793859089243251e-02,2.675788262211075894e-02,1.571776507023440322e-02,1.540396362570487301e-02,5.550666955854897944e-02,6.932850696569078930e-02,1.940651385860717518e-02,-2.242872972862678185e-02,-2.557474842397274017e-02,-3.477597493420934993e-02,-2.172128941551425968e-02,-2.136636664536741698e-02,1.695468199307946511e-02,4.313827341098757512e-02,2.132733999948994291e-02,2.538168682649579160e-03,5.310600206591758413e-04,4.830396975588900285e-03,2.685337560676073158e-03,2.874616648972501149e-03,6.567560634745570405e-03,9.685373316998922497e-03,6.036372005593751075e-03,7.697946706496628343e-04,7.558361385406697861e-04,9.514232208455659923e-03,2.966303663993298707e-03,1.402260844828799428e-04,3.871975036566385493e-03,-1.151455798131038270e-03,-9.173180436909712798e-03,1.622240663113922246e-02,1.200898853753253580e-02,2.167979109911004343e-02,-5.599227697067053061e-02,-8.677081611029878461e-02,-8.334627262534459458e-02,-7.348251045231644907e-02,-1.070950669954491216e-02,1.080629989016470942e-02,-1.091731048452514218e-03,6.668723410821943837e-03,9.467337289233955511e-03,1.059058044037576411e-03,1.548286125977198571e-03,9.447362587830797007e-03,7.365352283347926209e-03,8.829938248297730316e-03,2.026326341353431801e-03,5.875858711094019034e-03,7.011395944174736786e-03,6.801118854469726839e-03,4.081516908666981379e-03,1.539489169130847624e-04,5.564420087673283173e-03,-6.524619394400849818e-04,-2.048133291691391251e-03,-6.222381326719124764e-03,-7.888243895951042167e-03,1.640210229668788346e-03,-7.925776552795141955e-03,-1.474582527937024976e-02,-4.478575734007928660e-02,-6.766202272396235062e-02,-5.894376014299856220e-02,-3.068099479717907238e-02,-1.852053708173596533e-02,-3.773630160690142656e-03,2.226127837375180968e-03,4.340209727087588308e-03,2.587116421554409417e-03,4.344033190066098025e-03,7.234478178500009828e-03,9.054161580370978187e-05,5.894539894846971551e-03,6.132916848873791113e-03,6.376882468959355239e-03,2.420220799808772000e-03,7.140527233781267594e-03,9.139148633177641111e-04,1.992703364668008213e-03,8.774700466544819999e-03,6.284574899223234305e-03,-2.209760147266675266e-03,5.318091056976850372e-04,1.571298289819640995e-03,2.708063280369725837e-03,2.475597702798864198e-03,6.252629574284573888e-04,4.589405165968203117e-03,7.327334747861651530e-03,6.067317247174364332e-03,4.937373252500472029e-03,-2.339945736501144753e-03,7.988947880654996558e-03,8.384918338430248988e-03,8.050903184956628017e-03,8.229838050417674980e-03,9.327105081327613512e-03,5.442539661136977340e-03,2.002820178676258892e-03,6.167836078525411325e-03,7.428814936679390031e-03,7.379173933540253937e-03,5.214490241668800867e-03,-3.385636125376735306e-01
3.711129384301278377e-03,9.207666084633574222e-03,5.844489097574260758e-03,5.383319432557134333e-03,2.688535143821935407e-03,3.684489199165789323e-03,8.953460891531692112e-03,6.664630475268357168e-03,7.873870267523327970e-03,4.543454230676551367e-03,6.302472194561579456e-03,2.483836087432075151e-03,7.054608302834862628e-03,4.276013337033372948e-03,4.425455148147456122e-03,6.493223245768816980e-03,9.362806214689265924e-03,6.400634660862091927e-04,8.247432373470076766e-03,2.923831104121931129e-03,4.439194545063778440e-03,2.191332877500895614e-04,3.010460778343130358e-03,5.026312426301304814e-03,5.617607734743901293e-04,4.910957293831651367e-03,9.271106288584273977e-03,1.053932181078052121e-03,7.644407280755043978e-03,4.096710533759926817e-03,6.551737145243380876e-03,2.602365979852293634e-03,1.594922625413582821e-03,1.604626142712264371e-03,7.049194564314464895e-04,1.856467049012430282e-03,6.642193849889683165e-03,8.816906118435080542e-03,8.141256855911618850e-03,6.851343098744841487e-03,1.104318634111026674e-03,2.891874462959498435e-03,3.098068753224689914e-03,2.499569463976212148e-03,5.150056597097231112e-03,5.355538148796725774e-03,3.568859751711101966e-03,3.537891587364360314e-03,8.285555979060813328e-03,7.892928483196856235e-03,3.077958316807456567e-03,9.137884438732592554e-03,9.528150170025060858e-03,3.267425420300408209e-03,3.544249487930548580e-03,5.056341534219588492e-03,9.411208125336734814e-03,8.763194331423114838e-03,1.025679625835898123e-03,3.927307432714161918e-03,5.533711897497718690e-03,5.031324725515400574e-03,1.938630679368926781e-03,8.588167711681547745e-03,6.769407829968373397e-03,8.379083748518036459e-03,8.587642793494722551e-03,7.160180718437255364e-03,2.501589536748660952e-03,3.999365862258972941e-03,-4.791459255988443633e-04,-3.674888985988015045e-03,-2.296610548019790976e-02,-2.537191819369192733e-02,-2.281698462155148585e-02,-1.302265047850516104e-02,-1.847581904103061346e-03,1.992135219070267902e-05,7.187396178535302403e-03,7.324010490583791194e-03,5.149333499132594492e-03,1.613628010553837082e-03,8.355433751068974809e-04,1.912896643728700908e-04,1.657481769652207129e-03,8.908555349831467907e-03,2.415368417016817548e-03,3.542713272172156626e-03,1.053454844813331813e-03,2.223613047481702749e-03,5.192245707802051191e-03,6.077526830956525572e-03,2.453523141662110850e-03,5.773215922511720386e-04,3.854566728719051490e-03,-4.715662867438515787e-03,-2.235604966265178697e-02,-2.059629028528930234e-02,-2.044139039133551633e-02,-3.787107444505549703e-02,-5.427957884355687213e-02,-5.969839124475040393e-02,-4.652852030657289584e-02,-3.855981117382475259e-02,-2.346448165879138834e-02,-2.784471834287759878e-02,5.001127520766269693e-03,4.119580950341019711e-03,8.705269662693842364e-03,6.314189212183764048e-03,5.325040664159817923e-03,1.153946421789173778e-03,6.056378893234114560e-03,1.172039056802334257e-03,3.372065755657520543e-03,1.428419648143318746e-03,6.920736470243688855e-03,2.062521138361526115e-03,3.918593731880260118e-03,2.161456717923659725e-03,-1.818282013943176359e-02,-6.490309264068780393e-03,1.232445750782054997e-03,-2.290075986120659185e-02,-4.092161785162523602e-02,-6.254092845744707585e-02,-8.126725620191417587e-02,-8.720677686323358158e-02,-9.564076683588426664e-02,-8.401487946727348444e-02,-5.954934376911368704e-02,-4.465127111077230038e-02,-2.361785027153091333e-03,-2.493997903184722725e-02,1.784067189949418639e-02,2.520218699145023930e-02,8.433261677878832116e-03,4.850946599795401791e-03,3.336283958368656787e-03,7.915582025913700873e-03,4.512941130292549667e-03,1.834421964034345116e-03,8.549740195614743271e-03,9.636525235534074835e-03,5.781190255019563913e-03,4.572928502903739569e-04,-4.598294132588346718e-03,-7.395624771252713552e-03,-7.954223850739315649e-03,-1.892878087262840972e-02,-8.523687661568812163e-03,-4.524725524785845263e-03,-8.018765563235409621e-02,-1.000780088064655016e-01,-1.532282009602013717e-01,-1.845753035953890397e-01,-8.822548823464004819e-02,-1.320902813550095013e-02,-6.412247966342406527e-03,1.756968050011342708e-02,2.449390257315243319e-02,7.203063966753775471e-02,8.314866240482125803e-02,6.151343124468650059e-02,2.855562092784128675e-02,3.918498964288036346e-02,3.725332737595508144e-03,6.871367772396097789e-04,3.695741994267731732e-03,4.642385197392248988e-03,7.227377522388046989e-03,1.454141807014362221e-02,2.630080953124133009e-02,8.001539556430539019e-03,-2.291618156099345729e-02,-1.601175976698565942e-02,6.920878245802085382e-03,-9.880089364976576624e-03,-6.902773975945777907e-02,-5.003779487399404036e-02,-1.299674892307447482e-01,-1.741058336338442147e-01,-1.988639717648440497e-01,-2.090898914687158161e-01,-9.432756797960277495e-02,-6.303164098852846731e-02,1.864870722079651696e-02,9.507362346757232408e-02,1.138855739392153205e-01,1.713523556748025034e-01,1.834334092317396747e-01,7.215517798209099276e-02,1.083786056393810232e-02,9.485197475834677983e-03,8.904095172193284696e-03,7.499777984520708020e-03,9.082284887003229043e-03,7.587153211639207154e-03,5.971553059903018414e-03,7.678207637810461825e-03,2.259783053648467543e-02,1.587982783778112833e-02,-2.303569335877791308e-02,-7.582394820889312714e-02,-3.334453962209287664e-02,-4.244743521832763239e-02,-8.892039494670761490e-02,-6.766905254179050866e-02,-1.828883077218786124e-01,-2.877864076375087898e-01,-3.445592845869185905e-01,-2.977500227650343168e-01,-2.102030650750571772e-01,-9.949341723383921254e-02,7.282193616740677278e-02,5.287515098176109873e-02,9.316231572718036702e-02,1.070221288130265014e-01,1.045308343205846868e-01,2.044259080562352976e-02,-4.487410409916672838e-02,-4.450698961326229885e-02,6.923589224610580961e-03,2.640619846937187782e-03,9.390684794502916419e-03,6.363742815333743585e-03,3.245118001753421154e-03,3.387940995558172234e-03,1.973377133501163713e-02,-3.428415939325001657e-03,-2.747597635191529469e-02,-8.111991202633672682e-02,-9.091127716803769354e-02,-3.223117557054577115e-02,-4.457185938451466156e-02,-1.012373262514351946e-01,-2.450410077541215759e-01,-3.443117834497873009e-01,-3.427173269560257474e-01,-2.949194298651817148e-01,-1.566720647931002242e-01,-1.206935879890924795e-01,-8.283894755673400223e-02,-7.193760835390337893e-02,-5.683707722522158418e-02,-1.763136587466823668e-02,1.443683213906864389e-02,-6.341715643220067859e-03,-7.967632726880551075e-02,-6.226766507257065764e-02,3.230273457540938815e-03,8.979191869576658158e-03,8.881181889340358446e-03,-4.029047181372305206e-03,9.009608956904679306e-03,1.425180487390994254e-02,3.497086768761685505e-02,4.438100350103048168e-04,-2.037028775997285282e-02,-3.007176372081061394e-02,-6.572419904140093527e-02,-3.564885170252822533e-02,-1.313304349891399880e-01,-1.851414178335923089e-01,-1.079834642547083945e-01,-1.208616910952489548e-01,-1.350623045929653376e-01,-2.681975062029127721e-01,-1.090792628787265184e-01,-9.874869114177085849e-02,-1.574127696676166366e-01,-1.243317230198434098e-01,-1.082143272267328538e-01,-4.612926347351808259e-02,-1.432623716659816400e-03,-9.126909600914763152e-03,-2.800994085578954740e-02,-1.288861180782342221e-02,2.320181803088107019e-03,1.438144607208502533e-04,7.643533864364273830e-03,5.397205460372039507e-03,7.623026245009600042e-03,1.676454441516627694e-03,2.903115689700636742e-02,2.787238644013614181e-02,1.376878337890290291e-04,-9.022869429931990384e-03,-2.599137945483186163e-02,-3.635234928705092378e-02,-1.462300615745724952e-01,-1.593918037200254267e-01,2.268289825511257338e-02,1.951370234215477062e-02,-4.248883278056222318e-02,-1.920879801828747624e-01,-6.997238511009340987e-03,-7.073613634745151701e-02,-1.311528076233449136e-01,-9.219166845530689380e-02,-7.209424844902437290e-02,-2.947196278160872304e-02,7.106850802685733479e-03,2.894734698761524880e-02,6.214455469869704582e-03,6.495089297074473425e-03,8.044140596774733767e-03,7.151001612837000476e-03,5.931582190394682139e-03,5.334799698889769719e-04,4.547643425526610994e-03,1.401971430510770035e-02,2.500970312155914241e-02,2.323727549567306677e-02,-9.739917910729121303e-03,-3.436298526907310275e-02,-8.589741229064409844e-02,6.462138997085101200e-02,1.979793351789736408e-02,-7.910991768528320006e-03,3.214703599990598182e-02,-1.066986376300979866e-01,-2.316460521183893728e-01,-1.629085647179257246e-01,5.213684199386427881e-02,-4.550114738368828821e-02,-6.006101911602289983e-02,-7.310862491069038127e-02,-4.323327055116450712e-02,4.479612958552573257e-03,2.780263660007418342e-03,2.770903219173836279e-02,3.076054623247235446e-03,6.996395696221216834e-03,8.381549749886425815e-03,8.028109348245004301e-03,9.609201469288246658e-03,5.359350788521182081e-03,4.884956326599053551e-03,1.255497359630391649e-02,1.480995927498405217e-02,5.053982162373187156e-05,-2.150162898842670686e-02,-5.595159756472944251e-02,-4.112425398360363554e-02,1.946208493145303031e-01,1.863161090082467997e-01,3.557796464882972270e-02,-5.679431528027362175e-02,-2.017359898056197420e-01,-1.587936309403313873e-01,-3.933663186418559846e-03,4.433978404041399174e-02,-1.660676982612992528e-02,-5.095124142636252990e-02,-1.800568943553453038e-02,-4.922668442224176905e-02,9.834882329582085234e-03,2.044681125636793194e-04,-3.972401717608525090e-03,-3.247231789454524051e-03,8.026403123529295830e-03,9.972378999036026273e-03,3.002600532939281373e-04,8.973658657909319714e-03,6.226305335986580258e-03,9.733826191648212167e-03,1.103862385740918446e-02,2.101036411475803306e-02,-1.115736225773230304e-02,3.821853201084537965e-02,-1.189992640905173683e-02,4.718412246481201722e-02,2.192702583895212998e-01,3.041837618827396006e-01,6.722463851019865044e-02,-4.569880869860138556e-02,-1.499599450252727950e-01,-9.401250752908159314e-02,-5.244845352865357829e-02,1.618489007503593619e-02,-1.661472598873767192e-02,-2.281927409630286202e-02,-6.715531994055808085e-02,-3.683609021487244117e-02,7.550227219239322510e-03,1.688091217627582519e-02,8.881122480301434450e-04,2.564577281129319652e-03,4.397404865079085345e-03,2.783684816626566094e-03,7.982931972091867473e-03,3.262539180411467947e-03,2.993833737053482914e-03,2.325059922078312122e-03,3.527394177035566864e-03,1.894002665087337819e-02,1.771465824839610348e-02,1.453894987275053952e-01,1.608210568826093090e-01,1.366377988070241745e-01,1.692978324837686177e-01,1.112289992888235574e-01,9.924838545679895430e-02,9.315312645271139891e-02,-8.342133411630175965e-03,4.460132507694990894e-02,1.140967867702434024e-01,1.237601986615100569e-01,6.134615205286264583e-02,6.078177808757698197e-02,6.608982636061942750e-02,6.584038773576304793e-02,6.921288684851489847e-02,4.639189816542717282e-02,3.558479422865942071e-02,-1.538196334791231377e-02,-3.253757356691151792e-04,-1.670006443632385306e-03,4.595840572136230227e-03,3.064634680428203473e-03,8.223812111853544271e-03,5.697872699736828252e-04,1.432345263229706928e-02,3.151192733124309753e-02,1.007976435721664593e-01,1.905687722064788869e-01,2.672887398558084215e-01,2.677937858367539503e-01,1.117132382608290453e-01,1.275721982701398700e-02,4.432492941609031400e-02,1.230106033476291022e-01,1.000057390988525891e-01,1.171749599713703266e-01,2.013223555505909979e-01,1.944996667315174732e-01,1.516792114277007164e-01,1.925740131718928216e-01,1.342480695632060628e-01,7.160000329159336985e-02,7.542672750950617233e-02,6.144323329213403906e-02,4.527292224631813966e-02,-3.920999454761113501e-02,-4.946383685894996385e-02,-3.726126024460722080e-02,7.624469586748684399e-03,1.260020278639942867e-03,1.964192158720173744e-03,9.514448256630919643e-03,1.754916273813573839e-03,2.296504849761268896e-02,5.318878635581726633e-02,1.910534943689377319e-01,2.615321308620134899e-01,2.228159231298138809e-01,1.356919007066886562e-01,6.864484423749001030e-02,7.107886822318996989e-02,4.796485310531023449e-02,3.132359937315375847e-02,7.166748404073165768e-02,1.216612336958776408e-01,2.115450201860468726e-01,1.461217579594550064e-01,1.597479376190722444e-01,7.707227269923826174e-02,-9.327410249171622092e-03,4.959102965523142642e-02,6.029116240795608095e-02,3.268999608403108138e-03,-5.729263386040466671e-02,-3.583240277200325924e-02,-1.761016926616264591e-02,8.701721830278874451e-04,5.567849109281879268e-03,8.451208514960348653e-03,7.959263871435024243e-03,1.751231401303532517e-03,6.359645797134431955e-03,-1.776653859454215695e-02,8.958925350699589729e-02,1.181214438043326903e-01,5.061864666065178653e-02,4.562855860205756314e-02,3.496930945704891658e-02,3.166050102837544584e-03,7.083344420902819294e-02,1.312698617960957881e-01,-2.701686169509854522e-03,1.214172172575755937e-02,1.268852405981712173e-01,1.257530939159975936e-01,1.489304624831373214e-01,3.591079370321273445e-02,-1.382022300230527009e-02,-3.172929056871148790e-02,-3.271327365650832097e-02,-1.846352034045839127e-02,-2.077332253591025399e-02,6.648421325580140817e-03,4.680690542342900995e-03,4.662994129398188511e-03,7.605756424552823428e-03,1.544922040049257969e-03,4.872653541000507640e-03,4.299852141210597743e-03,5.277283193013754085e-03,-2.554336036960219020e-02,-1.679577394402990628e-02,3.392266161407327292e-03,1.379093687330748552e-02,1.915403155801976079e-02,-8.491266052408093234e-02,-4.416891375689254579e-02,-6.544611368023724000e-03,6.327297877918562630e-02,2.710930274262611170e-02,-1.794043140750533824e-02,-4.231010619152035523e-02,-3.322209168607834218e-02,-4.592793705704938112e-02,-1.138585439248308295e-01,-6.323928488195648678e-02,-4.664788723439339951e-02,-1.380379080612269098e-02,-1.336769956350211327e-02,-1.013155865696154997e-02,4.344076490041400354e-03,2.374785567522574858e-03,4.961437333883744402e-04,7.245982868476289786e-03,1.115929999572474801e-03,6.083195000077716921e-03,2.810497501668891666e-03,1.092773764015687312e-03,-4.144281353799381118e-02,-7.431214931352439490e-02,-4.415036377506699472e-02,-2.479131150165315989e-02,-6.483886021446015613e-02,-1.274902529364589088e-01,-1.506936835573251254e-01,-7.099632901346712710e-02,-1.643098557296585049e-02,-7.501162969611706310e-02,-9.032164720097245192e-02,-1.250646689038922010e-01,-5.018036659007758110e-02,-2.396677909840621776e-02,-1.114305941398083255e-01,-9.269658344153190732e-02,-3.672908295479102025e-02,-8.904777247016401262e-03,-1.269408036209775624e-02,5.662301310485721127e-03,6.678679067008134150e-03,9.332050877593062177e-03,2.654964074290723421e-03,6.114636112256608205e-03,6.784999682926378534e-03,3.156277684072268316e-03,7.900806227773424922e-03,6.773491984053072075e-03,-3.030568507295038072e-02,-1.003599509050721178e-01,-1.366610059039576053e-01,-1.350493707549094424e-01,-1.579176801033792821e-01,-2.305112416738076819e-01,-1.512234755045998857e-01,-1.623544560393841985e-01,-1.069792760773292523e-01,-1.317524759801687595e-01,-1.848415670084934681e-01,-1.241163167957220065e-01,-1.057318811916165696e-02,-4.497382927341003755e-02,-1.062811225136162524e-01,-9.729966206615511815e-02,-1.097890132046205718e-02,-2.425291205443474291e-03,-6.371096324673725109e-03,3.007491295061844472e-03,9.286305621153940690e-03,6.180846068922263336e-04,9.236052811137851135e-04,1.627909892062293692e-03,5.952128341268747742e-03,1.388445833113098344e-03,8.251115506330184216e-03,-1.376289987232156859e-03,-2.019634436993833493e-02,-7.077396771214561344e-02,-1.272329265650712915e-01,-1.662056650286733717e-01,-2.205229903205500053e-01,-1.869053443856302787e-01,-1.203174009274725342e-01,-2.009394655175495426e-01,-1.677853060301665311e-01,-1.199561450347856051e-01,-1.439857549963166616e-01,-1.024154856100617655e-01,-2.156356686093234207e-02,-4.098687205016373486e-02,-9.611327883341425071e-02,-8.157983263445967026e-02,1.798876865316373060e-03,-1.122888141819974005e-03,6.859223169968149160e-03,1.695458988841355317e-03,6.910558127392617961e-03,2.716331812743696342e-03,1.906098330744497929e-03,1.846324573473692244e-03,3.421076208635940447e-03,4.250566935613993291e-03,5.778691971718478114e-03,-4.151087595821324056e-03,-3.179885110415314829e-03,-3.327737635922863729e-02,-6.954553465670745838e-02,-1.161808184630078594e-01,-1.427594780717954259e-01,-3.673669076172204201e-02,-9.646922058169148106e-02,-1.647778681100903198e-01,-2.701480247022979703e-02,-8.404930618884209198e-03,-4.980042251709711904e-02,-5.522730350531089571e-02,1.015953984085240895e-02,-4.781954478331804093e-02,-5.370071677224249468e-02,-5.631068005195440790e-02,-2.058955768037007590e-03,6.885957906581289915e-03,8.614160778120607057e-03,3.995187845869348393e-03,3.267947058577773921e-03,1.081108363519633995e-04,8.265510741914642787e-03,8.009807004033649147e-03,1.044545181001513929e-03,5.768573811327002906e-03,3.542234928552594198e-03,-3.046880286141929236e-03,2.530095259205394128e-03,-2.181215262975015959e-02,-4.668802767234282031e-02,-7.927388449362698930e-02,-2.824866047104337280e-02,-1.449534759888442513e-02,-1.022517940379418649e-01,-5.977024639339816037e-02,6.693242612336833264e-02,2.997118333240983076e-02,7.366974850553363943e-03,-6.603385380903577587e-04,8.576485973286293585e-02,1.497510029784198705e-02,-5.134368389987181008e-02,-4.504380967007481917e-02,-2.546205007208885568e-03,3.813057390754025829e-03,2.158818049893001037e-03,5.034952696935324429e-04,5.276525785960262159e-04,6.920112559466546839e-03,4.579289944340278994e-03,2.265216260361056951e-03,6.139703063252326815e-03,2.528581182501111677e-03,5.703949495986009900e-03,2.425956505869014592e-03,4.464973488710138015e-03,2.695747039037088739e-03,-2.149417423507116523e-02,-4.002093559548981772e-02,3.768746742113397719e-02,-2.175670389047554276e-02,-1.300829997972089702e-01,-7.317661055206921283e-02,4.229688242739417653e-02,2.275124497414766217e-02,-1.105493112886516416e-01,3.403852339296849216e-02,8.102272745960677203e-02,6.020293902607165570e-03,-4.877412526857680120e-02,-3.114555383784551809e-02,1.677235318710436308e-03,4.444292966192735922e-03,2.478303076913212187e-03,9.325548784193121374e-03,1.186437657415803041e-03,9.337494230014699997e-03,6.838664518353432600e-03,5.315721526867311746e-03,3.265906078449587490e-04,4.755961918220082824e-03,4.077481050027322550e-03,1.612188119751225505e-03,6.434016230972994937e-03,2.618502469632647857e-03,-1.634329301811097285e-02,-3.253847963677006065e-03,9.431177750583394359e-02,-4.239717674172296252e-02,-7.878643990324969704e-02,-4.191513079040613127e-02,-5.541216257381796281e-03,-1.280396207507478266e-03,-9.537673358829189263e-02,-5.255601228393334823e-02,-2.435584104966952157e-02,-4.127133448652710312e-02,-5.716297399775262245e-02,-3.993343379649485353e-03,6.118310201032214381e-03,3.734579451327052577e-03,2.553363737632441573e-03,1.058743182131293131e-03,3.548976834865540542e-03,4.131725172077195529e-03,6.758229251040736088e-03,6.581598242975735154e-03,7.010813964125695366e-04,3.952593154311578177e-03,1.817788672173619152e-03,1.568127053168056869e-03,4.288593787131768885e-03,-1.441439305262209522e-02,-1.744425390958256189e-02,3.417183298258628932e-02,-2.337356767450604438e-03,-4.920954015350747363e-02,-2.423798958528860376e-02,-1.460058499867759700e-02,-2.071477546696945046e-02,-4.546079216108697002e-02,-4.415324440459358901e-02,-2.308770390080748178e-02,-1.692352298987389800e-02,-2.863026608550232194e-02,-3.774088365937679213e-02,6.298206544347076732e-03,4.032106331838227614e-03,7.523978823037878912e-03,5.312940183509319222e-03,6.774380712282944417e-03,4.284579038487954308e-03,7.314964640431390400e-03,8.244715176045490368e-03,1.464362566028161276e-03,8.329297155742279579e-03,5.402965317903072814e-03,8.446659090902242789e-03,4.313017063410146644e-03,7.856793701235458092e-04,-1.136991995786766071e-04,-8.394707245634637147e-03,4.294872299365348409e-03,4.840205725094041435e-03,5.140954425512597042e-03,3.084682814894840457e-03,5.730422006190156667e-03,3.252111962762113326e-03,3.926941424165231458e-04,-5.162860957195657607e-04,-5.629651309832187957e-03,7.026723447207382581e-03,9.657472098197474736e-03,3.951552974723050206e-03,7.283708543396459623e-03,3.458060984104249693e-03,6.710931570859760345e-03,8.054300430459791424e-03,9.467562446922407615e-03,4.002122758496719744e-03,7.832979829560476198e-03,2.659284506321187708e-03,-1.655322353215727682e-01
