3.745401188473624927e-03,9.507143064099162627e-03,7.319939418114051327e-03,5.986584841970366347e-03,1.560186404424365172e-03,1.559945203362026519e-03,5.808361216819946061e-04,8.661761457749352772e-03,6.011150117432088186e-03,7.080725777960455124e-03,2.058449429580244650e-04,9.699098521619943167e-03,8.324426408004218306e-03,2.123391106782761533e-03,1.818249672071006132e-03,1.834045098534338100e-03,3.042422429595377422e-03,5.247564316322378582e-03,4.319450186421157876e-03,2.912291401980419015e-03,6.118528947223794874e-03,1.394938606520418388e-03,2.921446485352181474e-03,3.663618432936917215e-03,4.560699842170359147e-03,7.851759613930135717e-03,1.996737821583597326e-03,5.142344384136116227e-03,5.924145688620425024e-03,4.645041271999772459e-04,6.075448519014384208e-03,1.705241236872915298e-03,6.505159298527951866e-04,9.488855372533333207e-03,9.656320330745593594e-03,8.083973481164611133e-03,3.046137691733706750e-03,9.767211400638386217e-04,6.842330265121569430e-03,4.401524937396012783e-03,1.220382348447788309e-03,4.951769101112702375e-03,3.438852111521839452e-04,9.093204020787821681e-03,2.587799816000169346e-03,6.625222843539819648e-03,3.117110760894109631e-03,5.200680211778108131e-03,5.467102793432796620e-03,1.848544555255270507e-03,9.695846277645586361e-03,7.751328233611146090e-03,9.394989415641891856e-03,8.948273504276488266e-03,5.978999788110851352e-03,9.218742350231168975e-03,8.849250205191950148e-04,1.959828624191451828e-03,4.522728891053806642e-04,3.253303307632643675e-03,3.886772896894820275e-03,2.713490317738959101e-03,8.287375091519293482e-03,3.567533266935892997e-03,2.809345096873807571e-03,5.426960831582484934e-03,1.409242249747626446e-03,7.862099612944453003e-03,-1.891193162246666674e-04,8.827663483252184279e-03,4.693744285746283967e-03,-5.324518707673105318e-03,-1.962865045007182799e-02,-1.215010366701592924e-02,-1.639033516022059267e-02,-9.124635857194822799e-03,5.149661438859431256e-03,7.404465173409035877e-04,3.584657285442726087e-03,1.158690595251297235e-03,8.631034258755936051e-03,6.232981268275579120e-03,3.308980248526491915e-03,6.355835028602363100e-04,3.109823217156621952e-03,3.251833220267470476e-03,7.296061783380641125e-03,6.375574713552131616e-03,8.872127425763265407e-03,4.722149251619492741e-03,1.195942459383017055e-03,7.132447872229949817e-03,7.607850486168974205e-03,5.612771975694962230e-03,7.575346439412757212e-03,2.590029300249861201e-03,5.468061404747377946e-04,-5.875268674933916378e-03,-1.782664035811732522e-02,-1.910182000035975589e-02,-3.671301278918409627e-02,-5.213794810995345252e-02,-5.634797537370296594e-02,-4.916349739023222198e-02,-3.190747279167389927e-02,-4.838170195481118069e-02,4.103829230356297215e-03,7.555511385430487004e-03,2.287981654916224680e-03,7.697990982879299258e-04,2.897514529137680192e-03,1.612212872540044143e-03,9.296976523425730041e-03,8.081203795644168950e-03,6.334037565104234935e-03,8.714605901877177374e-03,8.036720768991144001e-03,1.865700588860358345e-03,8.925589984899777451e-03,5.104564662631640333e-03,7.214624935160719038e-03,-1.977895040589653947e-03,-5.287385032278226447e-03,-1.906874486001627900e-02,-6.558502308928715330e-02,-5.659151021221101030e-02,-5.452002177915008657e-02,-1.536183034567974517e-02,-1.788365046619151688e-02,-2.907792365048125077e-02,-6.669669839162097047e-02,-8.526547640803679162e-02,-8.373175791933058776e-02,-5.096404041137053698e-02,-4.344379440597304944e-03,2.221768824148881785e-03,5.187906217433661295e-03,7.030189588951778895e-03,3.636296023792940073e-03,9.717820827209606646e-03,9.624472949421113144e-03,2.517822958253641656e-03,4.972485058923854957e-03,2.734642159855825861e-03,1.084100780098967362e-03,-1.841722343633845835e-03,1.729393900036596760e-03,-1.585666960457796310e-03,-8.397078212619566578e-03,-4.106450984436979534e-02,-3.421701040194128490e-02,-7.234810229293474337e-02,-7.160230944013816490e-02,-7.876128969234770516e-02,-3.598079959530778305e-02,3.754082169931990953e-02,4.056844343007065534e-02,6.347057140590367519e-02,8.377767964078461360e-02,4.472964148642332230e-03,-7.829534253158697277e-02,-6.818098954391467459e-02,-3.290470087934947718e-02,2.086717247081645594e-03,3.639887965756244577e-04,6.951694034487256382e-03,3.207800649717358274e-03,1.865185103998542307e-03,4.077514155476391925e-04,5.908929431882418114e-03,6.775643618422824699e-03,-3.049489640886552874e-03,-3.715060938669644246e-03,-1.043698413402187331e-02,-8.426617154570503060e-03,-6.415832442982355444e-03,-3.339292136153939466e-02,-5.195937274584364746e-02,-7.024240568205825097e-02,-8.547345413524999602e-02,-6.065616315014261961e-02,-6.717402696526637851e-02,-1.390136176947878201e-02,6.796936503098799376e-02,8.586588732360481147e-02,1.097215993780543131e-01,1.431166208375000970e-01,9.262581689884874514e-02,-3.967067076144330934e-02,-9.382711153155463835e-02,-5.702635048461029976e-02,-1.796390090776843473e-02,-6.043040758588956798e-03,2.253106402620165451e-03,3.390297910487006985e-03,3.492095746126609029e-03,7.259556788702393668e-03,8.971102599525770938e-03,8.870864242651172599e-03,-4.202137276464511760e-03,-1.818142444434309515e-02,-3.101614955850577268e-02,-2.496932604227310171e-02,-3.674410977962268288e-02,-2.530508695758403037e-02,-6.681941981007435971e-02,-1.160298110852746728e-01,-6.836598043114530676e-02,-5.987980717668804631e-02,1.412896645621524762e-02,3.439713879021508158e-02,7.637979084199542079e-02,8.956382969279091943e-02,1.022816791751210430e-01,1.651929730589408452e-01,1.854767604794274882e-01,7.066970613951831237e-02,-7.843849423452667335e-02,-8.676668014870131396e-02,-3.316908191337660655e-02,-1.701672602350649474e-02,-1.731367921381047129e-02,9.367476782809247343e-04,3.677158030594335474e-03,2.652023676817254465e-03,2.439896433790835709e-03,9.730105547524455639e-03,-8.828574925423795378e-03,-2.108915211028011480e-02,-2.735125398722986281e-02,-1.402721362953310465e-02,-5.234944893235564389e-02,-6.559725805178584501e-02,-1.194810799763949966e-01,-1.091875246201858968e-01,-6.859312523698742059e-02,-1.045130037664658007e-01,-5.347346001964324103e-04,5.899396892028210826e-02,6.636598686480522924e-02,7.153200012132206187e-02,9.689568867486192394e-02,8.176402629697578084e-02,8.864484143075888889e-02,7.069774487884400438e-02,-5.963649947309883348e-02,-5.729369944770781875e-02,-2.115402961361306095e-02,-1.485102791016147498e-02,-2.130559272235373058e-02,2.944488920695857107e-03,3.850977286019252772e-03,8.511366715168569574e-03,2.532966021289524607e-03,1.694927466860924855e-03,3.608847105942142742e-03,-7.515279368298703744e-03,-2.365362263969251339e-02,-1.673065305992560772e-02,-5.898258433071999068e-02,-8.352856928811891457e-02,-6.461078262147150475e-02,-6.222991932923848529e-02,-2.491449247174327974e-02,1.359142452847429509e-02,6.026939579703186750e-02,8.991446639669703478e-02,2.987306724679075071e-02,2.149228838584392887e-03,-1.577761578911034829e-02,-1.174329301562856802e-02,1.054124123825026307e-02,1.907014104134154009e-02,-1.337207375323401677e-02,6.604204828070010802e-03,8.279619050644327488e-03,1.681122080672053584e-02,-1.544430141369038069e-03,7.019668772577033339e-03,7.957926694361010245e-03,8.900053418175664019e-03,3.306537641945368842e-03,3.755829526399440121e-03,-1.961333168983689455e-03,-9.872366254140015063e-03,-2.226876354465143898e-02,-1.138968293158010986e-02,-5.560512434530805875e-02,-6.848757113482785430e-02,-8.449911695068866233e-03,-6.700620336067837635e-03,2.911347565571753386e-03,2.446245039931271154e-02,5.253687657761949015e-02,3.090123163708306808e-02,-5.852533998283859784e-02,-1.116345738096417850e-01,-1.127702914534838563e-01,-5.932770486800195003e-02,1.624068940140966852e-02,2.051156513491788833e-02,3.237791348836231015e-02,5.127396985999588264e-02,6.361527740248801299e-02,3.906715393537144032e-02,9.758520794625346120e-03,5.163003483011953561e-03,3.229564729412459558e-03,7.951861947687037524e-03,2.708322512620742282e-03,4.389714207056361062e-03,-4.966106235496548123e-03,-1.716463567850281743e-02,2.089677165265942799e-02,3.503137483926844261e-03,-5.878067889039109012e-02,-5.549490999921068840e-02,1.141273276248585059e-02,1.482380853782426164e-02,4.141707106401255195e-02,-2.240086017639080981e-02,-4.845173767273614623e-02,-9.052184863630095835e-02,-2.271883928000204278e-01,-2.256293156748026274e-01,-1.534169789889494595e-01,-3.496706598427360563e-02,1.330468875749615289e-02,3.770999938036730115e-02,3.470407117728209478e-02,7.392388783075558301e-02,8.794887193130526692e-02,4.391738119530760182e-02,1.160726405069162403e-03,4.600264202175274853e-04,4.072880231897013604e-04,8.554605840110071635e-03,7.036578593800237209e-03,4.741738290873252250e-03,-8.070356587115291164e-03,-2.514571298805288666e-02,2.184192005743633772e-02,1.162540529267407606e-02,-3.895782251995334039e-02,-1.690821926574958070e-02,7.622402071426566394e-02,8.526162736727239955e-02,7.111850261102757760e-03,1.393582585664369065e-02,-5.079768429341877806e-02,-1.758187454694111196e-01,-2.917368988509098093e-01,-3.027716157147296583e-01,-1.851400633759696102e-01,-4.706808193846830773e-02,3.098827564222452619e-02,5.559939026335007639e-02,4.788575470336031703e-02,9.248273052041770803e-02,1.031143802018798933e-01,5.638352194414076451e-02,6.432882184423532011e-03,4.582528904915166013e-03,5.456167893159349046e-03,9.414648087765251083e-03,3.861026378007742770e-03,9.611905638239142541e-03,-1.583547095190230951e-03,-4.063319344782182624e-02,1.936679475158074523e-02,3.513734428235835983e-02,-1.869878105089971265e-02,-4.947847369983726607e-04,4.897332708532818601e-02,2.179182458346250184e-02,1.958188910056694529e-02,3.147209500819768413e-02,-8.784890367949298173e-02,-1.980655424187761637e-01,-2.811049157786115749e-01,-2.683238641165928140e-01,-2.093600561914585878e-01,-7.803431970880163326e-02,-2.305937391436206282e-02,9.104664308003256046e-02,1.385837172184596344e-01,1.201687834655771475e-01,8.594323171146765750e-02,5.991631864648305078e-02,8.068347392672640950e-03,9.905051420006734039e-03,4.126176769114264960e-03,3.720180857927831656e-03,7.764129607419968312e-03,3.408035402530178691e-03,-5.680894491298348059e-03,-3.439813307847747886e-02,3.885934230428494951e-02,5.204978163050854451e-02,2.113256510066665456e-02,1.393933334433029858e-02,-1.166754761881699754e-03,7.592117451535809747e-02,1.710318437307373207e-02,-6.063820456931287572e-02,-1.574720187530488924e-01,-2.437740131704893010e-01,-2.450580563566832626e-01,-2.427071935930894264e-01,-1.473138189949390331e-01,-1.002380439745055724e-01,-9.614751244083252768e-02,9.093946813318616595e-02,1.567874530956095414e-01,8.515674695128229443e-02,6.026315112248087358e-02,5.439346322829961833e-02,2.330220224362949694e-03,6.457495849753847744e-03,7.523745294376799932e-03,7.915790437258485301e-03,7.896181427945538761e-03,9.120610304869037266e-04,-7.890056023238687993e-04,-3.192028821935623262e-02,3.732611425699635527e-02,5.219068187519106811e-02,5.442513970654840050e-02,4.802931143665210845e-02,2.775842539591915140e-02,-1.160628578354509950e-02,-7.669800189026142190e-02,-1.323591643523849004e-01,-2.403638029950203314e-01,-2.533807138092353251e-01,-2.237567524097500982e-01,-2.216496972527011999e-01,-1.337379391326475042e-01,-9.601896276390274598e-02,-1.110304608285119787e-01,7.262201208236152006e-02,7.670836819057970379e-02,6.900468585855805415e-02,4.357735345124474219e-02,4.970983862432300920e-02,2.176973770740147068e-03,5.371076868874499928e-03,7.533781852589416413e-03,3.762595855309157789e-03,8.350071669866876304e-04,7.771469159274368467e-03,5.584042497358050576e-03,-1.318343539832135015e-02,1.927359932232932185e-02,4.186181442634308303e-02,1.172806883167151620e-01,8.583494299153970886e-02,2.596160321420081657e-03,-2.830461756078450283e-02,-9.052768920304093969e-02,-1.481065105293730977e-01,-2.336290613676210437e-01,-2.432558368421862127e-01,-2.352702704318091198e-01,-2.043196410998359136e-01,-1.454775293966701910e-01,-7.784881236483366662e-02,-7.305972689946975407e-02,4.572348187506065920e-02,8.349210726655477421e-02,4.156313933796909610e-02,5.771429323850259252e-02,4.135346339126225873e-02,2.457253945406676944e-03,2.991361327567965914e-03,9.929647961193003441e-03,7.379656473539885969e-04,5.538542844013207879e-03,9.693025356190989109e-03,5.230978441701488596e-03,1.364067220474737656e-02,1.628216708263198476e-02,6.138763915164657803e-03,9.202168111106882875e-02,1.084082956827948224e-01,9.123769242319657025e-02,1.078396133472892503e-02,-8.309933130568091311e-03,-5.269989978057609825e-02,-1.833359764758848987e-01,-2.602484139220849757e-01,-2.562028988338700963e-01,-1.770487223671048660e-01,-1.211707126266778067e-01,-3.284437657396208771e-02,-5.146874316619818451e-02,1.173796184471212131e-02,3.402789137487300525e-02,3.089751705702923137e-02,4.950471497578402130e-02,3.255961177375848309e-02,1.626587889634221193e-03,3.095276162863277655e-03,8.137950197069487163e-03,6.847311725538793130e-03,1.626169393448912998e-03,9.109271844938425164e-03,8.225372429231690014e-03,1.967923929227734584e-02,4.364024351553687231e-02,-1.827133146486761145e-02,1.130800829021335330e-01,1.515902650003023155e-01,9.403684297315732799e-02,8.233013944135611885e-05,-3.695563904919534071e-02,-7.797656275268945170e-02,-1.789476844825864388e-01,-2.224576768350305656e-01,-1.972833237929985384e-01,-1.501737731673850329e-01,-2.405828545974420668e-02,3.478568656123336156e-02,-3.968215309964392284e-02,-4.119187679816257303e-02,-5.057915457504236212e-02,-5.437071815813841963e-04,3.024200097767077572e-02,1.121479990409845681e-02,8.119775840679013465e-03,8.129010091300774982e-03,9.997176732861306342e-03,9.966368370739053795e-03,5.554317056026274353e-03,7.689874151805105133e-03,9.447657298824281222e-03,1.663045241857897399e-02,1.301170813246799521e-02,-4.047507631908316833e-02,7.408373310601051864e-02,1.479924336966766119e-01,1.063421596250336554e-01,2.424255979062320526e-03,-3.120715377777165400e-02,-1.494952061144645683e-01,-1.875884749760576564e-01,-1.965435069807495994e-01,-1.447183716641271267e-01,-8.682113756711855312e-02,1.078786865684620150e-02,-8.195537348394874716e-03,-5.133985571337041504e-02,-1.045471899039308039e-01,-4.879564392376974785e-02,-4.627663638187856469e-03,2.443627087664250117e-02,-1.745304112080924225e-03,2.878267631333897379e-04,7.551372556736189907e-03,6.203095513534646714e-03,7.040797680992236240e-03,2.129641615089107511e-03,1.311003046599556500e-03,-7.381435373589561840e-04,3.465887693705665788e-03,-2.047250968557398632e-02,-3.248361404063999230e-02,1.300519041776225515e-02,9.112986176040897834e-02,8.241550314126039334e-02,4.024591795634454433e-02,-6.235654992762881647e-03,-1.110687718142407687e-01,-8.843312058870315961e-02,-1.016347256700666224e-01,-2.435945420359632296e-02,2.947282561485121922e-04,-3.009458502564266690e-03,-6.727564530405266696e-02,-7.738592565793864231e-02,-6.072490583614362919e-02,2.666074107650902563e-03,2.259605290603559219e-02,1.904688754053069852e-02,1.978824842980649815e-03,2.401456187781930793e-03,7.586332810866391928e-04,1.288797219106492227e-03,1.280458389577724407e-03,1.519026935122943633e-03,1.069365885421847025e-03,5.125951555379222764e-03,-2.213964135520130831e-03,-1.595644925290044466e-02,-3.064430917913574248e-02,3.439202405992217160e-02,8.303509517847862398e-02,6.758871858038306701e-02,1.982444086032385602e-02,-1.018841643855954680e-02,-3.865293400811902619e-02,-4.704568864397057348e-02,-6.761717302788106641e-03,2.812875322038217718e-02,4.339743549779922355e-02,-4.897384961093870226e-02,-4.129369713088928279e-02,-3.049135369251945726e-02,-3.139390449227482619e-03,3.407083227411817489e-02,2.054679155479892036e-02,8.037092668322550967e-03,3.947965244895317027e-03,8.175903194887191010e-04,8.735786241067772240e-03,9.208724005318132816e-03,6.107795985486375078e-04,2.768776481472037289e-03,7.927597939296860546e-03,6.015647319750174089e-03,-3.363626735829519914e-04,2.864411434481246854e-03,-1.522759808502416497e-02,2.130755428605490311e-03,1.007650624031238007e-01,1.101814697424073342e-01,9.158266060177486234e-02,4.893390275020203378e-02,2.985558289905823268e-02,5.842176736862492864e-02,7.494160358074318518e-02,5.958397300447594580e-02,4.088184653516639677e-02,-1.533452264967076831e-02,7.975048540619979545e-03,1.507384370460216477e-02,8.245767856400037024e-03,5.566915928733322423e-03,1.166810153142273715e-03,3.222281681479926760e-03,2.007119777772636794e-04,3.220791655831782736e-03,2.114480069965446376e-03,3.274973521779146399e-03,1.197621318192512111e-03,8.905272807398950316e-03,5.935924535540486498e-03,6.309406696381508924e-03,2.994398585317298214e-03,-6.339637650186832505e-04,-1.132767208262056187e-02,-7.718834681503946096e-03,1.332669319586431665e-02,9.858142386085487485e-02,1.424566558026142959e-01,1.189600612793818707e-01,9.366713439580963418e-02,7.483167292266787451e-02,1.092279028291883169e-01,8.066920817124833068e-03,-7.374458014489191499e-03,6.075862528410328964e-03,4.362046917199426284e-03,-2.658743020041358027e-02,-2.474464959504354619e-02,-7.862615927886751691e-03,5.959501467949565459e-04,-3.535133605571735426e-04,1.865670240513057649e-03,2.850951686938470956e-03,1.733735952947548266e-03,8.967654246264252296e-03,8.023374566164220541e-04,5.245113895702546887e-03,4.103968269896614979e-03,9.792031235345615911e-03,-1.564986295541342031e-03,-1.861965293653750119e-03,6.188812417721199777e-03,1.740191515595468710e-02,-7.857040849606720945e-03,-3.682171626813574017e-02,-3.758307974215648918e-03,9.521704375160115752e-02,9.876272431514036831e-02,2.604921953834870782e-02,1.870320106608849495e-02,-3.413041864583048202e-02,-6.163447257702348719e-02,-4.920217329390597083e-02,-4.990805184243066184e-02,-4.023929220360832060e-02,-1.416926124660061563e-02,7.028332385104174552e-05,9.407671051328516569e-04,5.280360500066878966e-03,2.886305532402557838e-03,5.812382214226122570e-03,1.543627152742023129e-03,4.811401018548175021e-03,5.325894325515858480e-03,5.182353682242691380e-04,3.366042781939205739e-03,1.344146769389742511e-03,6.337497047276774388e-04,9.878121323885930352e-03,1.555409931084926391e-03,-2.120239683883654892e-03,-2.194622619202129740e-02,-2.854550583257279422e-02,-2.964530482798425487e-02,-2.482613813041776446e-02,-4.500123430989799028e-02,-5.487992244380752310e-02,-4.438506430625557136e-02,-3.811491425673629169e-02,-3.304587400426692301e-02,-2.381976026826770898e-02,-3.280694072743917111e-02,-2.572313125817098436e-02,8.285183527454897251e-03,1.812330661656601487e-03,6.649626736677749462e-04,7.411206492900591046e-03,5.744731131799118810e-03,8.418287767582721334e-03,1.397723766262894953e-03,7.952673118598901914e-03,2.016273200477445258e-03,1.636559428657045076e-03,1.642657979309929432e-03,8.145747202313822002e-03,6.651972206962001276e-03,4.491510356833465327e-03,-2.339669219082000321e-03,-4.552718388559021633e-03,-1.136614722190493545e-02,-2.868133984210131937e-03,-1.095620542855008442e-02,-1.031077954802453803e-02,-2.550116380228149848e-02,-3.397459683377931916e-02,-2.916767583729261426e-02,-2.985067799901245170e-02,-1.212454552670060026e-02,-2.664935618415874286e-03,-1.916389158427885334e-02,-2.101172983870831790e-02,9.064721109645469330e-03,6.242379959139921289e-03,1.168980407083640687e-03,9.398321236134751788e-03,6.277080530714178319e-03,3.349056146570861345e-03,1.392720726633872716e-03,7.940251892702959030e-03,6.200727559285135193e-03,5.334610919763215289e-03,8.938925830509576384e-03,7.885972112245308308e-03,1.516748797327511795e-03,6.086605183947833885e-04,-3.627364314374973212e-03,1.040083299641912759e-04,-3.642598891332555437e-03,5.698896848713165021e-03,7.624586857406905928e-03,8.767656367617494145e-03,3.420817487159074841e-03,8.212573046720128556e-03,1.106317369552072211e-03,4.323748825044059635e-03,-6.009808539061778018e-03,4.455468269767926068e-04,7.972953657795536428e-03,1.499174273487737918e-03,2.292513952326414705e-03,7.222525683930662577e-03,7.200365365460743503e-03,6.411476328852972785e-03,6.939484444671000646e-03,5.427244433475962061e-03,2.517990589069527430e-03,3.456959935039194409e-03,-3.442656136670865230e-01
9.084505613336284202e-03,5.833917947661204813e-03,4.008514167636399034e-03,4.620058036441327190e-03,9.472833396118153851e-03,1.533514031160801948e-03,5.862298320167972157e-03,5.058886788844660018e-03,6.114542354346478095e-03,1.811018382084050827e-04,8.721239089441515380e-03,9.321182824836123787e-03,5.651331835892089810e-03,6.966508238768922764e-03,9.224993811772956923e-03,7.072386343133986453e-03,1.525390429142613538e-03,5.762883601668131878e-03,6.067150463828559215e-03,4.241306713023860683e-03,7.364442356247228455e-03,9.343670147690148406e-03,9.255685129067763028e-03,4.508393714041321158e-03,1.132380458407552474e-03,9.848411989623346435e-03,8.388980864459341658e-03,1.246626812032668565e-03,9.208418826173722649e-03,8.698963620621282325e-03,5.188380571260721268e-03,5.912754357449292487e-03,3.990027038701302736e-03,5.476163882203133283e-04,3.351972416459009143e-03,8.028534485980114155e-03,4.632023004602858979e-05,3.334991716911441927e-03,3.981686935909433192e-03,5.373956029379229130e-03,9.198556164127605697e-03,3.463459943659612586e-03,3.469532018962277059e-03,7.375012481097484134e-03,4.522179408898071955e-03,2.246048229399819508e-03,4.524395161326934083e-03,1.408570203797998707e-03,1.763869865062233158e-03,4.983677727394797766e-03,4.189254495045479330e-03,9.148459010681000633e-03,3.623938991166331027e-03,5.805883502780434871e-03,6.322642879195304079e-03,1.309445658833363634e-04,6.635373720167106470e-03,1.780359668697514266e-03,9.610703174694552181e-03,1.486627277531129502e-03,4.146241237270237474e-03,8.534966807864386449e-04,9.968742518459474192e-03,5.021950103312426174e-03,5.953850173200437614e-03,6.707647738842748225e-04,7.499604703991778060e-03,-2.805621503755069673e-03,-1.969295595467213458e-02,-2.989188740073315392e-02,-4.295936261455234051e-02,-2.190786665432391256e-02,-2.475340095247606162e-02,-2.517966361416910243e-02,-9.155184915337885587e-03,4.389320114235125206e-03,4.017580518897948677e-03,5.243902693275800421e-03,4.407627469382281206e-03,4.007630608753259480e-03,5.596403313082178900e-03,1.552402459307125138e-03,1.819281304952711370e-03,8.617856210135173278e-03,9.461154621336327272e-03,3.733093162797529625e-03,2.707446731435537643e-03,6.439995432390157974e-03,4.087341710980963751e-03,2.538635566034486125e-04,1.561525973661903729e-03,7.159722288473975051e-03,6.589239419101514117e-03,2.709599250348348966e-04,2.190762396332442737e-03,-2.484288968404439746e-02,-3.340463574072041059e-02,-7.027755289544923567e-02,-7.348374542529524656e-02,-1.594827050417622601e-03,3.995734593750740332e-02,-1.173896299816201520e-02,-1.334011656627714405e-02,-8.205408854181674150e-03,-1.191590184471998841e-03,5.030011819554051390e-03,8.556964681062857389e-03,8.302198645669915320e-03,3.971835296184548190e-03,6.680851365706461445e-03,2.049842954158209545e-03,2.931477302610132740e-03,8.963358185211198204e-03,1.300192351073603547e-04,8.550853085446808019e-04,2.078862551460273177e-03,2.653220387381971849e-04,1.814354350897973232e-03,5.830415609696921672e-03,3.601162353713478065e-02,1.035706776036648957e-01,5.233272177258493918e-02,-4.693907833645172625e-03,-3.485923680185119746e-03,4.810361150213926518e-02,-2.011684891506860737e-02,-7.679253118880824402e-02,-2.184397605149187953e-03,8.636162135605075785e-02,1.141716641216737188e-01,4.110619919864733768e-02,4.747430926745426633e-02,2.557331718410417801e-02,6.036693236104271210e-04,-1.897005972784478677e-04,7.638656055086277298e-03,4.874311982495136558e-03,8.945522268940913832e-03,7.998552559473152621e-03,4.252135044692334671e-03,2.246930832011739896e-04,2.686773593849460864e-03,5.416342146608668986e-03,6.208651243163675754e-03,1.863187856905733743e-03,4.757379936402675617e-04,3.499522931630588696e-02,9.092915368766500694e-02,7.876914038693978715e-02,4.451547126958502187e-02,-9.909256425427854370e-03,-6.614500640689521815e-02,4.978675452092144217e-03,-6.681599411499124230e-02,-7.287052454234912990e-02,-1.207723287034601772e-03,3.725199767387998850e-02,1.199342228882215866e-01,1.138848949253319781e-01,1.407663213456606666e-01,6.412382278135039804e-02,-1.074583527657102695e-02,-4.630634598827339070e-03,1.464212963040928362e-03,4.609232011627674083e-03,4.854764587046703044e-03,6.650366745462554970e-03,1.753712786234495847e-03,9.144119459249597584e-03,4.187705248920731149e-03,3.831385282494974547e-03,3.599324963320309472e-03,-3.214426357333728407e-03,-7.809919044698100492e-03,3.072756360094799216e-02,4.631385246856871418e-02,1.529890228432019897e-02,-2.584023210143342186e-02,-5.425304665178180830e-02,-5.907612552752707080e-02,-1.039748717288309227e-01,-1.169877347590282390e-01,-1.042354888349797948e-01,-3.908851329332983793e-02,4.334722396998007439e-03,3.237758276554227044e-02,9.523836741939810391e-02,8.811735441296365823e-02,3.805909848742861090e-02,-3.234752425230973810e-02,-3.433705396523958897e-02,-3.672301135466398553e-02,-2.436110823834961026e-02,3.695045591476617351e-03,5.968428489168892473e-03,3.342438908169608185e-03,7.709122037458219362e-03,1.065982531337718005e-03,7.513778173580875838e-04,-2.445611329495050047e-03,-8.508697287405029425e-03,-2.122731243813896426e-02,-6.291696812977705389e-02,-2.185340323952107353e-02,-4.361969300933203619e-02,-6.112687574406844987e-02,-3.664320589618808022e-02,-4.368036676441213600e-02,-1.279393582983014144e-01,-1.420708794076799009e-01,-1.343185961247477522e-01,-7.577145566358947648e-02,-6.382923140603292966e-02,-5.210240602674297977e-02,-1.123986729065867135e-02,-1.325187831969035050e-02,-7.179919910872095690e-02,-7.291418629009306651e-02,-6.324310345899476771e-02,-7.386731603889919173e-02,-5.323398779146204518e-02,-1.683216064490309846e-02,8.491956515653193913e-03,2.496680088591859362e-03,4.894249636431404794e-03,2.212094418196022469e-03,9.876680079966469739e-03,-2.842442192441604031e-03,-2.132777232149814933e-02,-4.287561673102038839e-02,-4.962133210315188003e-02,-7.888520965630056725e-02,-2.309138931530585470e-02,-6.574025903388452420e-03,-2.025553526239215127e-02,-5.405857246222237761e-02,-1.370616177227090282e-01,-9.591532771202687657e-02,-3.613278578905197019e-02,-1.525932706399582908e-02,-4.839611070828520045e-02,-1.105649287648642620e-01,-4.262411709696237172e-02,-1.417053146342134862e-01,-2.180777672408233114e-01,-1.709315231168102300e-01,-1.154018333712510391e-01,-1.058432042173043236e-01,-7.335438276312095107e-02,-5.312920438406351642e-02,6.962887758781398026e-03,3.398749637680661267e-03,7.247667715287614901e-03,-7.196601253387965511e-03,3.152903378306103326e-03,-5.213232225562519119e-03,-1.012286969847042695e-02,-4.001457503331351528e-02,-4.016158466857657622e-02,-4.050990522197542298e-02,-1.092912632779882015e-03,1.341137808563200827e-02,4.966875714008866182e-05,-5.686131941320814176e-02,-2.897552758100215009e-02,3.820817238951655648e-02,8.313540409689618160e-02,8.732137654482891032e-02,-3.115416663310170003e-03,-1.516650435770186267e-01,-1.531395070909920830e-01,-2.582929677272226554e-01,-2.317978387827921982e-01,-1.543113400823381831e-01,-9.423028872402600120e-02,-6.717250327621371309e-02,-2.408927528063427997e-02,-1.316876752053983135e-02,4.177667821673337369e-03,4.213570022770701806e-03,7.375823015888915285e-03,1.481983227524094051e-03,1.104741131313946708e-03,-5.591988196424507729e-03,-9.455215969882874855e-03,-1.703327472261195394e-02,-2.413000762536416169e-02,-4.207439243446187832e-02,-6.637376152650439898e-02,-5.201221507345483303e-02,-8.274261313508683713e-02,-9.016897418244547435e-02,-2.182404819319529871e-02,7.793418885584635358e-02,2.271659286264537114e-01,1.658922573492643271e-01,-2.088915240310722579e-02,-1.380026356452692671e-01,-2.207540519717318683e-01,-2.335876999482457139e-01,-1.624070795055195526e-01,-7.065913305120245791e-02,-4.288988938522927952e-02,-3.285556757945383433e-02,-5.242743693748939601e-03,9.427317741351257455e-03,6.496466489923684307e-03,6.077367948788591281e-03,5.126885110165085684e-03,2.306698117177586899e-03,1.765280320055082628e-03,8.699412416038209859e-04,-1.603963786956348310e-03,-9.263039067836860083e-03,-1.730329875787067762e-02,-1.926821991877708876e-02,-2.028680233414406273e-02,-6.089534774881647655e-02,-1.665591607122942491e-02,-6.224863108332647638e-02,-1.381340093740131558e-01,3.994172611233365311e-02,1.879495473562834140e-01,2.101828609754735622e-01,-4.031283786653568763e-02,-1.259931797845794121e-01,-2.093521104250219700e-01,-1.785486129885424655e-01,-9.489493958169638310e-02,-3.519812741670100276e-02,-1.432866170333378826e-02,-2.133241398621487858e-02,5.572760234845580002e-03,2.656000425887060801e-03,1.295149212828041862e-03,8.887480798689771991e-03,9.556514982297533572e-03,8.621276172654505909e-03,8.095160747248780764e-03,4.567176882073342367e-03,1.189512911418114799e-03,-1.358367126475185614e-02,-9.988583291995331494e-05,6.313409545320564087e-02,4.042237091059690951e-02,-2.339328979112477447e-02,-9.375630050112146452e-02,-1.537163762314075199e-01,-1.763218400807258779e-01,5.305592981024678106e-02,2.619454596009679337e-01,1.934875623828412605e-01,-3.097342218710904399e-02,-1.515019480034141830e-01,-2.022011699464728585e-01,-1.053788723599042021e-01,-5.614561074556835563e-02,-1.915710247758261112e-02,-6.196688292964410219e-03,-6.329102308121494110e-03,3.581388722539771523e-03,7.974260216069280899e-03,6.584518346584255361e-03,8.505817290942420048e-03,8.672942009598023222e-03,7.083629767150347728e-03,8.370133283636720101e-03,5.177382722629432325e-03,1.374420866847031984e-03,-6.886904273527552287e-03,-1.343973988772450938e-02,-4.060967908363230516e-02,-6.227488250130219782e-02,-1.205101145723332656e-01,-2.235753927517631634e-01,-2.702137093901370579e-01,-1.866066880668625638e-01,1.740804006878132748e-01,2.768246594205521771e-01,1.428361866617695874e-01,-7.578632542790822435e-02,-2.162817864984026006e-01,-1.557342936710576498e-01,-8.465876213513584547e-02,-5.909052845969740148e-02,-3.526934301867626353e-02,-2.854236484578554292e-02,-6.744163586210055608e-04,-3.077394196935833749e-03,6.340057030996113299e-03,5.399853797158554909e-03,7.798453951511435944e-03,1.069806388269584204e-03,7.610279025020280294e-03,5.412665786761102979e-03,7.548854823708648840e-03,-1.672336339032751487e-03,-6.892310655832562319e-03,-3.029991706439452356e-02,-5.564379166662504483e-02,-7.821199533930446590e-02,-1.099963741448644339e-01,-2.122483969922090707e-01,-3.052941556826344049e-01,-2.051008351963787557e-01,1.836350207408032620e-01,2.606363790608227093e-01,8.683075683190590033e-02,-1.726208060068093186e-01,-1.051684944507230574e-01,-1.464110545248999140e-01,-1.213460157114652355e-01,-9.878315204507602532e-02,-8.215602294299742536e-02,-6.043666772188103359e-02,-1.306486348523680854e-02,-9.459129611146239666e-03,-4.073493645658796472e-04,2.986768979535830374e-03,4.886431904046657955e-03,7.704074178077932600e-03,6.832953766065051789e-03,4.459027063767483437e-03,1.321165344995643828e-03,5.667314969003555032e-03,-2.968448161421749151e-02,-4.675632040773255310e-02,-6.553614373358644662e-02,-9.227929305016573103e-02,-1.073736311384043962e-01,-1.602229678804762969e-01,-2.378973902990876854e-01,-9.890598855158010128e-02,2.115010152522945608e-01,2.350761003654580628e-01,9.700526312222871803e-03,-1.733742776853801348e-01,-1.118721086171665519e-01,-1.363262918904324938e-01,-1.497580196743457104e-01,-1.161823707403023404e-01,-1.096783069405627420e-01,-7.906280407102432572e-02,-3.058812463796642400e-02,-1.701340574451701629e-02,3.221665721852381981e-03,-1.881580110872874785e-03,2.131047040250833111e-03,3.113408288451135933e-04,6.516668253758850504e-03,3.685263437237611388e-03,8.643582498396371397e-03,2.477753534430623961e-03,-1.568638030814909629e-02,-7.030081065781802752e-02,-8.466072103482058520e-02,-1.182803909635224138e-01,-1.381704380801546672e-01,-1.613179207095792322e-01,-1.128396574018147303e-01,-4.217231552151160662e-02,1.973127675164477457e-01,2.185031776523846114e-01,-5.187264744483856965e-02,-9.847687114595156388e-02,-1.317825935632803702e-01,-9.964773261934775639e-02,-1.171661544343406414e-01,-1.085625760926364758e-01,-1.023332831982272789e-01,-6.460412879320963364e-02,-3.707233501679045584e-02,-1.324745841069703209e-02,-4.891972667609299080e-03,3.690791978566029113e-03,2.689934044350976612e-03,7.975591006371881078e-03,3.103619589235737629e-03,4.552201490818011745e-03,1.162053990810063629e-04,4.263330981222296194e-04,-3.260062169832148721e-02,-8.117086006047573299e-02,-1.006001830418860737e-01,-1.297341372153996142e-01,-1.511311461872524298e-01,-1.608921058229975110e-01,-8.947515420951525356e-02,2.899656316286011726e-02,2.084539284396945968e-01,1.218149558798721221e-01,1.506726633526644238e-02,-2.802485339533471523e-02,-1.134917838026702347e-01,-5.407414781557245281e-02,-6.091124547574256615e-02,-7.884007217499751363e-02,-8.944525264088888650e-02,-5.503326639893910827e-02,-2.308033090032679188e-02,-1.077329507687383413e-02,-1.585085812361271967e-03,3.506269312091807484e-03,3.320310879136656522e-04,7.857849715502074556e-04,3.969232762015960370e-03,1.327157540430603513e-03,5.675408482615581889e-03,6.363114780401029832e-03,-5.953754668590605093e-02,-1.132063705564332612e-01,-1.317883750407779775e-01,-1.403406648748946328e-01,-1.828689999311567393e-01,-1.036294413758184346e-01,-3.121992340757741985e-02,8.908108609880648066e-02,1.282767269464292759e-01,7.175956757262490215e-02,-6.908832864410139121e-03,6.872926045451953347e-02,-1.861668399681519481e-02,-1.020265497137804421e-02,-3.186244553158424503e-02,2.785735820701104853e-03,-5.371528670407370309e-02,-3.045169677225745275e-02,-8.724721374085165140e-03,-4.332707086607452966e-04,4.162523947582370647e-03,6.435776951965249508e-03,5.264026609361132508e-03,7.315895217553318453e-03,8.162998203058957321e-04,6.035208399056379543e-04,2.471032340101464529e-03,8.684796899963706041e-04,-5.786311448355023479e-02,-1.604530562778041236e-01,-1.758716790971052157e-01,-1.733944394920564624e-01,-1.274313043516320798e-01,1.912699717356898879e-02,7.679150826066911961e-02,1.200916887752083995e-01,9.241424397246950084e-02,9.015162007138474709e-02,3.952554822357157854e-02,1.213657382909657245e-01,7.639534980100569361e-02,4.344868789317959945e-02,7.940360003311469628e-02,8.319772702231814643e-02,-1.141161019622097608e-02,-2.394161146527023012e-02,-7.829574920813807751e-03,1.247065382091825953e-03,8.682725054083805655e-03,7.271690697663080009e-03,7.427065211999810124e-03,4.254933344480753624e-03,3.459349925469629335e-03,3.589576977977388013e-03,8.602962560208732290e-03,-2.750060062389370497e-03,-2.322787752838113146e-02,-1.015906666056104329e-01,-7.568988499158961492e-02,-6.097077378812951198e-02,-6.282398521955180615e-02,2.478018641382797801e-02,7.028774108188289016e-02,8.433849654246286520e-02,-1.706360952587036850e-02,7.317967872300134343e-05,-1.232896512072669676e-02,3.759215138966109926e-02,5.608283218432702846e-03,5.036456053996902354e-03,5.783416691304023999e-03,4.888662184422172541e-02,3.309793421840245831e-02,-1.911616842839129748e-02,-1.373300735863110071e-02,-7.579747760218931603e-03,9.713950940416396507e-03,1.809769527094897811e-03,8.543850933695791225e-03,4.922778564480347931e-03,2.472310744031770355e-03,7.976594568919838368e-03,2.680494562382543591e-03,4.897907152247789634e-04,-1.488153241223277509e-02,-5.433941568368395175e-03,4.616029534438337127e-03,-1.190326085690428769e-02,4.661235485103928239e-02,4.635090608395248113e-02,-3.963880537620948115e-03,-7.608696075213615406e-02,-1.307211123736588265e-01,-1.581787367656778687e-01,-1.001522028058578484e-01,-1.350422534198078006e-01,-1.200351438840712992e-01,-1.193547960172670619e-01,-5.796371563529129078e-02,2.195233833661331888e-02,2.213226820442371762e-02,-2.189472641270388473e-02,-1.634489706957893349e-02,-1.761367637803335287e-02,6.171449866040300963e-03,7.067772168854458137e-03,1.670419079009498623e-03,1.676192162883176741e-03,3.667142693354297450e-04,7.055952988391370369e-03,5.317698971733395182e-03,4.923484987439560564e-04,-2.988629240144499363e-03,-5.743349182795451976e-04,5.541537702935424997e-02,3.965984221784116248e-02,5.549086887806286422e-02,-4.070494519027099967e-02,-9.721170554846030043e-02,-1.713450726590480810e-01,-1.708947825420520372e-01,-1.044251022914849808e-01,-4.723948725118641556e-02,-7.861780448681210398e-02,-1.796827733534412178e-02,-7.071815588542165049e-03,1.319220573531314569e-02,5.287870079066168960e-02,3.928671166509524471e-02,-5.606667911503778780e-03,9.609529864198204652e-03,9.651186964360455173e-03,4.939980934409615612e-05,9.518117854232389236e-03,6.391199378155004024e-03,8.679182945200220739e-03,4.547398556338590886e-03,5.155960285792502741e-03,4.727797423474120950e-03,3.757313939870151297e-03,-7.156537778622880722e-03,-2.010118903661020640e-02,-4.103343256228866170e-02,-5.282703386359852843e-02,3.209110043559221248e-02,-3.413471445168224372e-02,-8.035246465361102486e-02,-1.540972898623954035e-01,-1.131163797775718294e-01,-6.354213217296046656e-02,1.288539424029301432e-02,-6.582976645753746414e-03,-4.985627020806925914e-03,-3.222607852542883240e-03,6.792434900853368263e-02,8.663206207624143951e-02,6.074172736506108783e-02,5.204127838187778098e-03,7.774788164988498049e-03,5.706097466388297158e-03,3.038705969683685938e-04,9.309486955069777234e-03,6.895267510315611879e-03,6.765133857772465467e-03,2.156751523977171701e-03,6.588854702326571791e-03,3.928050537040804827e-03,4.111095566132346238e-03,-3.662045028651352615e-03,-7.328292498805556460e-04,-2.488541705965598150e-02,-5.533889317630261151e-02,1.882359543062309126e-02,-2.950176703258277147e-02,-3.752176398189579348e-02,-4.775688790371799414e-02,-1.146670518555004403e-01,-1.084640736977288411e-01,-4.532855621960119735e-02,-6.655185087185692960e-02,-4.478847642853158589e-02,-2.266119660180868425e-02,-8.318629591740246340e-03,-1.316761227928275706e-03,5.433406445187497977e-03,4.240460988446578643e-03,7.793185113664815623e-03,1.202090553706084515e-03,5.444890979608495857e-03,5.758660498121570494e-05,3.245858299002703142e-03,3.664615348713978673e-03,3.961726916092553862e-03,6.954672066898621476e-03,3.885581012703457574e-03,4.486936226225306246e-03,2.256950762924006277e-03,-2.597016787830914823e-03,-1.397492997479214336e-02,-2.684016450085089517e-02,-7.418474191254866013e-02,-4.650323973174000369e-02,-3.429741512839556278e-02,-7.079809264759188980e-02,-8.021587837523859454e-02,-3.859598984589505954e-02,-6.603694680831021131e-03,-7.737753618109542708e-03,-1.338417655188089452e-02,-9.273021060100772664e-03,-2.567472714474103475e-03,3.401242884961002983e-03,5.801723692273322817e-03,5.336025467268784746e-03,6.079050927934446201e-03,7.648832615421282885e-03,8.129857387160934271e-03,7.181230762264944126e-03,9.555236959549347903e-03,1.823258267636163087e-04,1.957779856835460859e-03,7.562874978142119630e-05,6.474747141546030420e-03,8.980305489499868649e-03,-1.141210422909749028e-03,-2.189671501668935365e-03,-1.329438114809205172e-02,-4.329252351715356939e-02,-2.840534768966787235e-02,-5.569314548826937578e-03,-9.353611208699270279e-04,-2.062231883912177960e-02,-3.465894316637972705e-02,-1.174925819205284439e-02,2.453994830212892064e-03,-1.323872181732603601e-03,-2.332665506576424731e-03,1.374892776150072335e-03,2.679492024772174227e-03,2.726240007335337633e-03,4.135491015253515285e-03,1.218860933369475671e-03,1.811493495346803246e-03,6.811178539649828494e-03,1.814383476956269543e-03,5.251633836670602067e-03,7.090462617224326837e-03,1.068769230947438486e-03,5.673122196289035434e-03,2.565627837013637665e-03,9.629268752375798671e-03,4.835456467199247300e-03,7.140638918253443268e-03,2.289327850230124875e-03,-3.745857678885175946e-03,4.570791388897666070e-03,9.514033422066570794e-03,6.016118201463312165e-03,8.191888594267901849e-03,8.842064633484077868e-03,2.280797719489324662e-03,2.120448399082266403e-03,5.844237994257494434e-03,3.643074884104439016e-03,8.172385118748466681e-03,9.000231233980112225e-03,3.534213793027181274e-03,2.368705589744820716e-03,7.805255152438618678e-03,2.748060355481361013e-03,8.226143185136784372e-03,4.237382536487628235e-03,6.675498992914704645e-03,9.553531383466818067e-04,6.238593246765729988e-03,-3.726099233303512004e-02
5.866084631754741111e-03,1.680142077448634232e-03,7.368737449441821637e-03,8.627970775432284786e-03,2.167398000907756576e-03,9.571455552016172770e-04,2.363858604633639799e-04,6.419715004432660285e-03,6.070940360887807849e-03,5.466974127140700190e-03,2.319470961159754343e-03,3.909059959055146381e-03,5.944763351861730334e-03,4.967668588591694218e-03,9.877855202148873651e-03,1.364397525567331241e-03,6.951445540475937983e-03,4.043187681042921013e-03,4.281996149256147959e-03,7.175977656581762100e-03,6.924361513243696212e-03,9.912559937021883302e-03,1.283942894541252426e-03,1.041096493841663344e-03,7.243388171287411248e-03,5.783869170064090924e-03,2.741606665598058604e-03,7.941936898898660502e-04,8.565824959643053701e-04,8.941908746641183056e-03,1.918673247187429026e-03,3.233715621155207852e-03,2.266564022269880376e-03,3.549963058319373366e-03,6.942384274609336367e-04,5.190597909082703999e-03,6.761256359221490004e-04,8.003565078223615764e-03,2.337120819104330192e-03,5.400119146045105796e-03,8.800790875614581885e-03,6.508773690471941591e-03,5.329577865513353101e-03,3.243337531153756177e-03,3.330019130581979292e-03,6.694869551981901153e-03,9.941393612211675210e-03,6.618391898493786694e-03,5.577834173700248893e-03,7.306505102392461294e-03,4.652056122837181298e-03,6.014234260078521683e-04,5.622968158779098266e-03,9.576252845053801616e-03,1.753029423576596456e-03,6.900048908206657221e-03,2.009336886590564874e-03,5.358276844730812567e-03,9.667644964671961863e-04,4.503709362581851533e-03,7.561633288952460813e-03,3.475715242389820769e-03,6.649117244872180220e-03,7.954499607897291824e-03,9.271778194794527347e-03,2.346420818554535454e-03,3.993159158093081626e-03,8.784814322194868172e-03,5.237173643356009267e-02,5.655734721714637120e-02,6.503232722198647175e-02,1.415389735962984015e-02,-1.294927801198016148e-02,-6.422662806240743427e-03,-2.253891142800885233e-02,-1.247391055964479703e-02,-2.883526435627118984e-03,8.260676302525284120e-03,7.820280876703859449e-03,7.087446977429764580e-03,3.616038052476211332e-04,3.031283559453286282e-03,2.631125699108428483e-03,3.601364074715191193e-03,8.764274676383854157e-04,9.369578230310628142e-03,5.538022407123762737e-03,3.055243106580235544e-03,3.969815170742834604e-03,4.472025405048356966e-03,6.005943333606172767e-03,5.156794276964977997e-03,9.193919732144173462e-03,4.969634829058302596e-03,1.071070456474649407e-02,5.044517007977347006e-02,5.304213004000878084e-02,1.238343647719939433e-01,1.683767542260399819e-01,8.698380893232542099e-02,-1.819673935040546503e-02,-3.125128711022898825e-02,-3.569636056468146468e-02,1.813796036655719590e-02,5.844658189788092678e-02,7.888503189699321017e-02,8.091928305125218462e-04,4.029801787651614460e-03,1.735245149865086763e-03,6.949510889024616833e-03,3.460997265377855486e-03,9.756102008599150041e-03,6.409720773453320315e-03,8.224805636343609713e-03,1.325246727418484365e-03,8.620144822726225411e-03,9.227571905133943875e-03,4.870619188189358705e-03,6.062529377509774837e-03,6.767000981274195158e-03,-8.741731158924324853e-04,2.275959941406909340e-02,7.874324419751775259e-03,-1.825791546275828394e-03,1.782016030254355080e-02,5.749085331428928358e-02,3.855714055144824487e-02,4.845108052749180078e-02,-3.155875444129236512e-02,-5.853388864319780671e-02,-3.745326161618940664e-02,1.268900105615248857e-03,3.016399845048019571e-02,7.717130515584628980e-02,2.208027117246974189e-02,-2.992464946499375747e-04,6.408263146902062543e-03,2.160381825095996147e-03,6.195879548978295605e-03,6.502010923981533554e-03,1.520248531286481040e-03,6.134962711066816420e-04,7.807615860684398272e-03,4.248720752793650433e-03,-6.492895583187260466e-04,3.470513895047887265e-02,5.670599145988238637e-02,7.578993739374881300e-02,4.384501944881520619e-02,6.277136712288133857e-02,2.964474657773812777e-02,1.907153987519636133e-03,-2.399563191859820088e-03,1.106919618809901890e-02,-3.760206522797411468e-04,-4.796004407117590920e-03,-2.952115361632140153e-02,2.947003556629755605e-02,-5.221356382762123993e-02,-4.006841485269439090e-02,1.222467611868548881e-02,6.718884843262608320e-02,3.192495818272743369e-02,-7.762664177038058541e-03,-2.092590056173480005e-03,5.596961985054242292e-03,4.497846488213225712e-03,1.946225118207650694e-03,3.677593508772896043e-03,4.141297525289270795e-03,8.275378955668743694e-03,3.421002673192177160e-03,2.214751969903798468e-02,7.413321581175620623e-02,7.895838026265167287e-02,6.454486763716016373e-02,6.735680223176153392e-02,8.611645857156496886e-02,6.798066057598342593e-02,4.247032828538058191e-02,4.205157828763342320e-02,4.238262786680292715e-02,8.920464184292450915e-02,1.173240297232093915e-01,1.302695368319403135e-01,5.855448024856177436e-02,-6.680372136390479165e-02,-8.355454029054584786e-02,-2.162526189491252929e-02,5.521055122383679292e-02,-1.774601614020368187e-02,-4.489970630894553338e-02,-3.691450736798115168e-02,3.075505152460664398e-03,1.500486646939842503e-03,3.246759268900599807e-03,7.373570773877996705e-03,4.760181293687665814e-03,3.758882851457693262e-03,-1.381387398761235383e-02,-1.582610708613835238e-02,4.983358548446665398e-02,9.236092032432045851e-02,7.968656801973135473e-02,9.350908338326575919e-02,1.163075573204163660e-01,7.778184818364519693e-02,7.251059100997771234e-02,4.904399938638048101e-02,3.329224604845024138e-02,4.074902533057022519e-02,-8.056345133614351266e-04,9.918194145920287974e-02,6.156737035143283049e-02,-1.799443638320196923e-02,-1.093300263990154841e-01,-9.069883042240936555e-02,3.135196902279992204e-02,-1.053343355672538284e-02,-1.002943914697837779e-01,-8.999865194265749269e-02,-2.619662035395205549e-02,5.122219208126744909e-03,6.802277792083533114e-03,4.167290060238426803e-04,8.479201604580322233e-04,7.163233880626822953e-03,-2.745446119598034945e-02,3.687738991701258046e-02,6.267802850957407412e-02,2.952708149735781135e-02,6.325214755295580082e-02,9.117579810812598273e-02,1.381468767453092883e-01,6.448612690068690478e-02,2.543407853939952043e-02,4.326827981047758759e-02,-6.757614612315564206e-02,-4.748168776909852951e-03,-6.118519281810471527e-02,-2.263538820849160874e-02,2.418166485588091330e-02,8.730819007392907893e-02,-1.451260835946445171e-01,-1.551919447678824504e-01,-4.094307130725526045e-02,-1.148244240133879934e-01,-1.237768157552200238e-01,-9.836947272867571646e-02,-6.338711514040099027e-02,2.056872621955551251e-03,1.213864181594064267e-03,6.150129680388666253e-03,6.807826856274283578e-03,6.439042535411307160e-03,-7.575884588149155857e-03,4.164747512289605075e-02,6.655931674185094904e-02,3.729482396770971570e-02,-2.199979871253308211e-02,-4.559188856475672458e-02,-3.090130478257669192e-02,-5.080853608508337921e-02,-6.357491282122232357e-02,-7.034901869285378750e-02,-3.351460169266922209e-03,-6.075352007941533725e-03,1.877030991648745081e-02,-1.618681939904332429e-02,6.812345474730685524e-02,1.215585458530015206e-01,-3.681360686323875697e-02,-1.118039211401839067e-01,-6.057418355313220343e-02,-1.623332282536791293e-01,-9.426634428383047493e-02,-5.542048599625239852e-02,-1.604454471694070905e-02,8.869249002092694997e-03,6.458108126552060228e-03,2.859067892391601445e-03,8.051179664674220499e-03,8.613699963634360510e-03,-4.050692172716346268e-03,1.242071695105851671e-02,-2.750249676001129389e-03,-2.896091939315556529e-02,-5.459180844626713297e-02,-6.182667051562755478e-02,-1.105855329650317909e-01,-1.543288324782274845e-01,-2.170140230288573058e-01,-2.274291104357961113e-01,-1.816688744265767264e-01,-1.319200993620688322e-01,-4.467850740765905854e-02,1.003065000182785937e-02,1.093041556371100453e-01,8.042764984392493377e-02,4.521684013149532971e-02,3.332393006146879694e-02,-3.246647156644974497e-02,-1.214265097194164450e-01,-9.051886578124794525e-02,-2.425084718223485813e-02,5.422372054918482912e-03,5.903476904587728891e-03,5.083605469162799477e-03,2.975484513188205934e-03,5.650219928590161089e-03,6.888853020500906865e-03,2.179471006175378125e-04,-1.266546739861540080e-02,-9.160847966071668236e-02,-1.242595567984879773e-01,-1.086489252935153443e-01,-1.501655706808853463e-01,-2.044151451653524465e-01,-2.503058598694876680e-01,-2.919615442455891219e-01,-2.510499051172183638e-01,-2.543366714968844366e-01,-2.118356126228648495e-01,-8.185234089384757494e-02,-3.434343442104773655e-03,5.940900827256800909e-02,7.889512417972974201e-02,8.431765898745298415e-02,5.803718548087060530e-02,1.710716227378560744e-02,-9.441218399510205306e-02,-1.141929127085341833e-01,-3.310116200478963044e-02,3.531135494023907202e-04,7.457337827312321595e-03,2.024805601652373936e-03,9.580734801193802747e-03,3.679407513020844980e-03,3.269316163380791077e-03,-1.000414443082237731e-02,-2.553351228738585596e-02,-1.393533073999339011e-01,-1.602945374917401078e-01,-1.583289238616245875e-01,-1.773079911958812538e-01,-2.139411882275077670e-01,-2.497814503964293775e-01,-2.203775082668618379e-01,-1.580257600494879844e-01,-1.866914717107779620e-01,-1.279510581433981886e-01,-7.248316852783279196e-02,-3.800331730766757371e-02,-2.491810486334680719e-02,-3.851620600145837237e-02,3.801895364978604558e-02,5.268843001862873882e-02,2.189497915202313211e-02,-9.835575663428151871e-02,-1.272819793980301539e-01,-5.998187310450540238e-02,5.614845879595237177e-03,5.606600944161709531e-03,6.034876665964548047e-03,6.764679372263622710e-03,8.049889996807698192e-03,2.698207201282143506e-03,-3.065708983566413966e-03,-3.314841412928018483e-02,-1.456619339592217788e-01,-1.570383192845164200e-01,-1.071451898824597460e-01,-1.006313951956058633e-01,-1.560363626744049326e-01,-1.900787369650912551e-01,-1.834601046510338507e-01,-6.867661408273909029e-02,-1.193331187488261558e-01,-1.663937992666645049e-01,-8.039191277240473332e-02,-1.038893968029583337e-01,-1.496167510068137640e-01,-7.040792671487404453e-02,5.180900741968681028e-02,1.301829001378708613e-02,-1.260920804431661310e-02,-1.026195840637002255e-01,-1.095030258762256375e-01,-7.739407075737449182e-02,7.856516180802320184e-03,1.183361909233873266e-03,4.099048896962882542e-03,8.398022856356171517e-03,3.838329519330440330e-03,5.718722712271865488e-03,-5.719123464757208848e-03,-3.796575681759851995e-02,-1.322593316062309898e-01,-1.081372104550140656e-01,-6.460925852789521640e-02,-2.308214610211153234e-02,-3.617313771904916847e-02,-1.730302916573822070e-01,-1.350016578616606289e-01,-5.092245210026181967e-02,-8.847550451236295410e-02,-1.452508857773298911e-01,-1.704057247852992785e-01,-1.676999369109324345e-01,-2.091293896641255035e-01,-1.246052422084371891e-01,-3.794934085634574239e-02,-5.451408249194688443e-02,-1.217392344961672895e-01,-9.564008309785147766e-02,-1.274260679304058397e-01,-7.417241701791436881e-02,1.826576041484212834e-02,9.188891656626800922e-03,7.295082286523967355e-03,7.655128989911097297e-03,1.589081676693535625e-03,6.102251494776412925e-03,-9.044711385611902202e-03,-3.149254119063255031e-02,-9.983372664425266274e-02,-1.133170958929908406e-01,-7.287157404801697380e-02,3.440181082412108009e-03,1.852770227223921040e-02,-2.129391158516424215e-02,7.131608117278064041e-02,-1.645756987976664323e-02,-2.051706515601593728e-01,-2.509147279183730483e-01,-2.041941103531514645e-01,-1.832171623078092393e-01,-2.064221551450224068e-01,-9.052087489832849609e-02,-2.502012507988197673e-02,-1.430900886488442048e-01,-1.398737669950725349e-01,-3.196103536930610528e-02,-5.522337004685558964e-02,1.046165241810999985e-02,1.193957014778704584e-01,8.430757552747700223e-02,8.998333456872724401e-03,2.182339677548950150e-04,6.637896861755891373e-03,9.633944342135504144e-03,5.601681834618419363e-03,-1.333075057276791181e-02,-3.299287115925580299e-02,-7.188097137618552901e-02,-8.963734779093665561e-02,-2.661120938066309158e-02,1.477727314641981704e-01,1.437051207695269894e-01,1.576745711988038756e-01,-1.657909493479588214e-02,-2.754041311811232795e-01,-2.322450020024841577e-01,-1.152922374574399250e-01,-8.850851271468826442e-02,-5.812924289220014473e-02,4.906855358863288635e-02,4.361596345891453202e-02,-3.506570990355018652e-02,1.659383768853048627e-02,9.936857021650825905e-02,7.382993739450616211e-02,7.429217224408789233e-02,1.094168812122777862e-01,4.976006570139632906e-02,7.228143032084837633e-03,6.766836190000158216e-04,7.078350972297686554e-03,5.435382173426460579e-03,8.172534574677826121e-04,4.081434231394727268e-03,6.663488972440553826e-02,-3.717975128566583520e-02,-1.109209903472120340e-01,4.713909264625854717e-02,1.666496468928811703e-01,2.200757742580614629e-01,1.257757034011127983e-01,-7.296261581479720343e-03,-1.092444683037317871e-01,-2.709389434793359544e-02,3.298363363448398450e-02,2.470680440809116737e-02,8.435662427179564660e-02,6.282305529047466086e-02,1.661029297401603788e-04,6.016552181081911282e-02,1.659243204235338609e-01,1.480350047520174184e-01,1.186096654595602123e-01,6.841279954844586841e-02,5.602410236662890702e-02,2.048812741507125782e-03,8.778300781520408450e-03,8.795818549515291296e-03,8.705784250460068749e-03,2.387962113815392858e-03,4.512393441809881174e-03,8.955133900409396885e-03,5.322214832372326038e-02,1.243015862269623295e-01,4.918831915383219816e-02,8.283247518318974378e-02,1.573660033491900145e-01,1.617615054610209713e-01,1.659725844114740279e-01,1.349600604801515502e-01,1.201449813390229188e-01,6.136631888973657217e-02,8.501546343734060762e-02,9.674018734727631019e-02,9.810398061705503936e-02,-2.787001838723766889e-02,-1.801871950770159159e-02,1.159155788808610837e-01,2.062935737988765283e-01,1.857299967397927631e-01,1.409361182713186611e-01,7.833870005242768442e-02,1.119152374633545013e-02,9.150900684070432251e-03,5.330288672461399799e-03,1.579548228353480068e-03,6.958991181688024309e-03,7.932613504382544228e-03,3.167616770675266927e-03,6.372203414382182109e-03,9.289830468393082963e-02,2.827232471768147959e-01,1.679275241572605326e-01,2.760763744370375514e-02,-2.927604053346402613e-02,-4.049864046522385491e-02,1.657481057202669361e-01,1.843178061099949305e-01,1.119435515643813356e-01,1.334294692895909851e-01,6.337210462403693179e-02,1.067565658509018328e-02,-6.539358242079688216e-03,-6.323361995595019880e-02,2.898343799200408730e-02,7.400182436284033494e-02,1.236072478602459751e-01,1.442806002004323740e-01,7.286151171240226598e-02,3.260756853660908700e-02,1.659548952957850057e-03,8.819277583046439620e-03,4.274896879206151711e-03,1.622334057824793580e-03,1.260751997575904212e-04,5.257370352913090170e-03,1.083971227318282450e-03,-4.358049155192783228e-03,1.298339738248861785e-01,2.670552428712585358e-01,2.091774556944898944e-01,5.323633327680938471e-02,-8.540935836051134766e-02,3.915368271106248188e-02,9.278183286830207765e-02,1.051264647139625585e-01,9.631847327655999880e-02,-3.345662467182110994e-02,-5.924077904392130445e-03,-4.951308699358414334e-02,-6.416506948088473994e-02,-6.917177333388341287e-02,2.109652825057945283e-02,-2.311081555642091612e-02,2.206961054076884976e-02,3.903522687968680183e-02,4.861862269323621172e-02,4.498516511272345614e-02,2.398741127559447187e-03,1.419719897609939127e-03,3.479414115821666178e-03,4.503509789054126883e-03,7.488263369633064818e-03,4.453347623818762133e-03,1.175084419471923193e-03,-2.196703018089748646e-02,7.147522245007389974e-02,1.409247466378780178e-01,1.739534539561454762e-01,8.679062408714660615e-02,-2.418784835367202013e-02,1.073777106615770617e-02,-1.994010322329262726e-03,-1.932627083590570879e-02,-1.730859682263858820e-02,-2.247972465957135194e-02,-2.926949869138389254e-02,5.959448491272020462e-03,6.687288705298434499e-02,6.806529370499354858e-02,3.673838600344842692e-02,-2.708076059393887264e-02,-1.989221392095113367e-02,4.465297668946557885e-02,7.430153227586235032e-02,7.450613973694979186e-02,3.039464012407237965e-03,6.531627905312829829e-03,9.383048184484826457e-03,8.712044822630519644e-03,7.660647765353026210e-03,7.016997899682591959e-03,3.357454214343350962e-03,-2.119507017600404455e-02,-3.733520052367119910e-03,1.719177034446048996e-02,4.748168518307438468e-02,4.229638085307620837e-02,-1.026637076973874185e-02,2.722588808367715565e-02,6.102734591760929170e-05,-2.582143897038805674e-02,-1.046433638505497726e-01,-1.011443255930696283e-01,-4.971811920364897081e-02,-1.275685627180571033e-02,-5.461050823619852806e-02,-7.413313787032665969e-02,-1.526264142677821040e-02,2.562137479847044139e-02,9.316361521960486725e-02,7.043270821705138740e-02,3.025034378095651719e-02,7.539619035967839826e-03,8.049067768414385968e-03,1.800655560045449812e-04,9.628103570740259576e-03,7.266709920703232940e-03,3.047510953861333471e-03,8.293946648588469348e-03,2.559352490791841177e-03,-3.018368606801869174e-03,-2.122291054397140372e-02,-2.508408264354346565e-02,-5.304345257498668809e-02,-1.087566043738973504e-01,-2.180950927333109302e-01,-2.214687635724049419e-01,-1.673904852570686774e-01,-1.153639447768900483e-01,-1.446558985036606182e-01,-1.768373898450167903e-01,-1.255704210212655048e-01,-8.046596763889532489e-02,-5.643292253412895976e-02,-1.041063581680417953e-02,3.786517911577214068e-02,4.815487444637841369e-02,6.616807616701349259e-02,7.291294812789043955e-02,7.713392162349286263e-02,7.896916219082861796e-04,2.395101699095381152e-03,7.945782787001903075e-03,3.467026672648332330e-04,5.828068350834896341e-03,9.954375161913098929e-03,8.556960938375393622e-03,5.197587033731005009e-03,-3.744474413475391752e-03,-2.531495555430292072e-04,-5.592266500344885566e-03,-3.577755634570015109e-02,-7.172497877189917825e-02,-1.287651516006156349e-01,-1.306830749348783238e-01,-1.108157138241606249e-01,-5.885487668401226391e-02,-6.538920543046858325e-02,-1.260099820232778722e-01,-3.644161303571211152e-02,-1.095943669382100361e-02,1.315975722445758382e-02,1.643502491694922435e-02,-6.403035170795783396e-03,-1.492881896219128797e-03,1.991225833775934345e-02,1.308278809327459088e-02,3.802703877769594842e-02,5.916971623063255539e-03,7.026337730855163402e-03,2.374334683748063023e-03,5.123637775457906551e-03,1.042248028083476693e-03,3.845113276448125506e-03,4.876670686212644483e-03,6.522242595454724734e-03,9.505310525862035662e-03,5.993540459618890148e-03,6.403100901350523844e-03,-4.517462562043054325e-04,-5.381187365893077938e-03,-1.922647585093155767e-02,-2.033432529854441520e-02,-1.863885252892137287e-02,-4.724284522678848242e-02,-9.304661840106086268e-02,-8.438482054409031374e-02,-6.353745571155013094e-02,-4.838537798480412738e-02,-1.609891342068803591e-02,-1.919748090971299184e-02,-2.447458526002564694e-02,-3.463503173434420951e-04,2.806832155159743117e-03,2.069925784384267844e-03,5.165726284459790617e-03,5.505799160420821425e-05,7.664032649225327508e-05,2.190688091018577754e-03,3.672136250082114412e-04,1.080257541306913838e-03,3.388606493387515909e-03,8.025856795798128399e-03,5.720486433693008042e-03,5.126677259564164056e-03,2.498954048884555971e-03,6.085048717500796643e-03,-2.312461506671455256e-03,-9.051730517271294393e-03,-1.614221081668579119e-03,-6.178941380587943399e-03,-3.396949000170364826e-03,-1.545222125842529541e-02,-5.538035929862426127e-02,-6.024439643285880996e-02,-4.934494682592938108e-02,-4.411043626443313798e-03,-4.391542273190351432e-03,-1.059235910525192260e-02,-1.220100169635764814e-02,4.218281785388313353e-03,4.110210752655457482e-03,9.076110025565549758e-03,7.140326444668564781e-03,6.079052140907037494e-03,3.093727178627820977e-03,8.237903842212946498e-03,9.550605114849890220e-03,8.211982825502265118e-03,1.565105191472904275e-05,6.364013701834070856e-03,5.113538144210072857e-04,2.576072203337218588e-03,-1.680712708094785719e-04,4.022179070285803078e-03,4.118895427745194321e-03,-5.067231590738038730e-04,3.838388830449794738e-03,4.562365089555420021e-03,3.690530217609165956e-03,1.210250004851930444e-03,4.189477901874754176e-03,7.511780478084181638e-03,-6.344063967748018269e-04,-1.563494099925390787e-03,2.402412549157276547e-03,9.417257116189250987e-03,6.685726467229140269e-03,6.786699566725648385e-03,3.619199908378649671e-03,5.936607912085384645e-03,1.013118402774337807e-04,6.360960464095422387e-03,9.132869475762367059e-03,6.125734683448192004e-03,8.736985934663449999e-03,-3.600716321909838702e-01
1.205584164036902547e-03,9.024533072858416730e-03,6.644384435577488498e-04,5.339674725477638016e-03,1.421371237934576605e-03,1.170661073090406616e-04,4.220342601276389979e-03,2.950407076541562527e-03,4.860004937976030413e-03,5.771998867345508322e-03,4.373907230894735635e-04,1.230032951237456469e-03,5.586423964504253457e-03,3.431673531726582571e-03,7.291734875494480100e-03,6.522916485919396865e-03,8.456043629899068562e-03,6.924928266692252816e-03,4.299310773901481725e-03,6.729666223944323622e-03,2.753811742554185347e-03,3.063134987782126836e-03,7.889851599207933081e-03,4.464195164015821553e-03,7.983803405183525007e-03,8.224223736682783475e-03,8.575623376612837370e-03,9.166352358412073464e-03,4.309852205132962133e-03,3.188668183211388306e-03,5.821987465941138792e-03,3.711724234376275779e-03,6.010741668002329667e-03,7.055858626438246683e-03,6.884050184921369081e-03,3.745528870201213743e-03,1.668602016987528287e-03,4.305293384622075475e-03,1.425941440819087410e-03,8.900970351838084077e-03,3.458774607378574048e-03,1.544597472233237958e-03,2.544775990575087548e-04,6.458223862864842860e-03,6.369023174547432629e-03,3.406041665812916796e-03,7.171188884765101242e-04,4.096288948952320381e-03,3.112174950633935823e-03,6.771206397350093900e-03,6.057792494526904013e-03,3.645937281975399763e-03,2.178925542549901232e-03,9.880359661555919437e-03,4.540016211961149170e-03,6.882742357802370918e-03,1.405529675783607872e-03,4.855896996593978519e-03,2.753671986946548537e-04,5.054551179104499470e-03,9.640174071177023962e-03,3.842067129858002181e-03,3.899601257491158864e-04,3.095579091934352921e-04,3.879867599468695121e-03,1.600249364631940513e-03,2.335209632818591185e-04,7.389821994633079434e-03,3.577855088048077954e-03,1.770196622376585087e-03,7.257783060632082110e-03,-2.539262788490247082e-03,1.717098968226979296e-03,-5.018169926962225136e-03,3.972666742977878571e-03,3.156506547527488955e-03,7.833713943188519435e-03,9.840131632104643158e-03,2.884054378187457090e-03,9.611354854075930543e-03,3.894818949024203818e-03,3.855119047369223294e-03,3.403871042545057041e-03,5.414076073475852444e-03,1.541450431784871077e-03,5.537114853580112073e-03,5.417048124100039969e-03,7.619018126048700094e-03,8.336499619375855111e-03,4.404413503124240438e-03,3.023332493514937352e-03,2.593348973170944965e-03,1.946238367048719418e-03,5.764758219902488831e-04,3.369720034805043056e-03,7.926794257591545127e-04,5.138256857845682410e-03,-3.712539579188997487e-03,-1.307884345444627373e-02,-1.363726137170781505e-02,-1.981126053673018528e-02,-2.416278155938555647e-02,-2.305581324316640160e-02,-7.084618680518392497e-03,-2.327144469181894031e-03,2.814309907601790679e-03,8.803147621489270519e-03,6.234059581594401239e-03,5.693773611822827707e-03,6.206604798245841069e-03,2.013121078224332488e-03,3.951377432643185875e-03,3.945953289089931663e-04,4.755460374868267052e-03,5.430245839576631518e-03,2.277497361032096001e-03,9.640288471655137151e-03,9.094546109372421069e-03,7.221432354559059047e-03,-5.163749215980958408e-03,-2.254615219669433429e-02,5.311626072734762505e-03,5.261378976562495341e-02,4.002371535578901074e-02,1.048538733953198292e-02,1.368120635418077977e-02,-5.896852919601566941e-03,9.002099777151077384e-03,6.138035243472369888e-03,5.432841150533402469e-03,2.680878980105423637e-02,1.196111804973775013e-02,-1.066711359200108941e-02,-5.377034022932365362e-03,9.240898239062777381e-04,1.811145383974911011e-03,2.032230910860872725e-03,7.617981913776972723e-03,3.865405068230278775e-03,5.112754622007511206e-03,4.923254800011819116e-03,5.772790292331312668e-03,8.655771456245521869e-03,9.984290107998899585e-03,7.072244834025943894e-03,1.013843944111773691e-02,1.205413257775986985e-02,1.193516544668476315e-02,1.984752364018936913e-02,1.987945116176660643e-02,4.409481511273308924e-02,5.599505235024523908e-02,1.642573926970809783e-02,3.045301217169585004e-02,5.859830619773676030e-02,-1.355618248574629210e-02,-3.377759987580433720e-02,-4.482318356648579832e-02,-2.358205547926630827e-02,1.814546339130613736e-02,-7.178643394524510460e-03,-9.753944549647959594e-02,-7.683705757195710695e-02,-2.634549138326688564e-02,6.403158845710731420e-03,6.070435955634861068e-03,1.344351294081218501e-03,2.993955883716812368e-03,3.587155254170134450e-03,8.044372076795050508e-03,2.787598724145530071e-03,6.094152520711327604e-03,1.800194016738240104e-03,2.229281199339816152e-02,1.064476097275854349e-01,1.116999758816645399e-01,1.276548299957150634e-01,1.138828773487130935e-01,6.778553484467071677e-02,1.169501690075259309e-01,7.303572845402313274e-02,-1.413626245062464884e-02,-5.025017733180419527e-02,2.042092694927634400e-02,3.397943820163962236e-02,1.355947145020676078e-02,-4.498810789159513046e-02,2.013728672188829644e-02,3.130274579665150853e-02,-3.949086526880224435e-02,-6.934198161026119966e-02,-4.244482514502428278e-02,-1.297713985036283608e-02,2.624040935954747526e-03,6.600984414024158335e-04,3.488205339694793426e-03,1.109980987913148417e-03,8.082352100092221950e-03,9.476880259644708537e-03,6.536929089119312974e-02,1.408273872541180964e-02,4.484542396037942413e-02,1.300990422954819703e-01,9.811646767292050986e-02,1.097115830584125401e-01,8.625017656698384660e-02,8.420905878249854148e-02,1.309263936783107429e-01,1.501645996374899594e-01,4.347536119108838526e-02,-4.294223323255144664e-02,7.800211897279090041e-03,-5.441889469837568258e-03,-7.082903052568545466e-02,-9.919902255508464273e-02,-1.613862932477828915e-02,5.789545798651167530e-02,4.995301811970125766e-02,2.669514055986206905e-02,-1.748276797019870585e-02,-1.831680372208636248e-02,6.403419840383721634e-04,6.034930960433786302e-03,3.578140841135488571e-03,6.478174459905283733e-03,1.229206784653875777e-03,8.886590802653986446e-03,9.092689861810755725e-02,3.490589610111209662e-02,5.378538167773254386e-02,9.055403988950087857e-02,4.539128800947858644e-02,-1.637141416475816624e-02,-3.927071108767432595e-02,-2.998191337667038478e-02,-4.631115600503025315e-02,1.514027500310611077e-02,-9.464794840895268679e-03,1.656874160066452994e-02,7.380618148615297747e-02,4.533532795034300733e-02,-6.803269789312887950e-02,-7.395210772761801055e-02,-5.223857209503800225e-02,-2.846938307991955103e-02,3.293599742082876231e-02,5.117944325444478970e-02,1.884191961134676352e-02,-2.130510178856075479e-02,-1.654600593528282940e-02,5.111291392372298292e-03,4.685190852760312769e-04,2.761695578208994781e-03,6.597463672103578113e-03,6.268962162186586962e-04,8.492443124702660218e-02,3.909654758983736184e-02,5.701847158663803095e-02,2.217621508099287819e-02,3.350491864800727443e-02,-4.154826678887924007e-02,-1.686234392749718369e-01,-2.288810957216636244e-01,-2.220237442705128850e-01,-1.876363547359456707e-01,-1.212742723678214285e-01,-1.781865641362748859e-02,8.428866138037169331e-02,9.707323694425987193e-02,-4.741645074757560446e-02,-7.029282622627075483e-02,-1.188858164884387114e-01,-3.174708701861347210e-02,-1.013029244074428736e-02,4.369335930307918087e-02,6.308125348556468948e-02,-1.101578414712966678e-02,-6.169854665724614114e-03,1.669530887471987191e-03,7.130460506343186920e-03,6.663854135782064717e-03,9.605978758695982167e-03,7.610377902507830389e-03,6.695120238746925245e-02,1.631323505953781103e-02,-2.964190793746307104e-02,-6.999490245190728710e-02,-3.059837919119041960e-02,-4.050710075779728053e-02,-1.842608027697058837e-01,-2.544501226000966398e-01,-2.888728435495788727e-01,-2.496399080584755237e-01,-2.256874275406709485e-01,-7.978093102945099657e-02,6.452326478291763034e-02,5.749723739595512945e-02,-7.654990438969357103e-02,-8.532052061527056752e-02,-1.399677247725118201e-01,-1.113914466701124428e-01,1.376747538276231093e-02,5.999210804991282620e-02,2.653234558969360182e-02,-5.053298291057128390e-03,4.722818041629816936e-03,8.801567379214850217e-03,2.157406791764541251e-03,6.778132003100442726e-03,6.077521222527225604e-03,2.953014775718328013e-03,-2.283387440650850794e-02,-4.622607813538796157e-02,-6.560301610433649788e-02,-8.727217759404770625e-02,-9.054336630375245387e-02,-9.459768161171958067e-02,-1.638630653003931292e-01,-2.204663137405061257e-01,-2.039404092609621022e-01,-1.620246335665350146e-01,-1.066768204264718356e-01,-1.345914805520109434e-02,8.692890859355607847e-02,4.201554705842890092e-02,-5.689067104332511809e-02,-6.990851910989347162e-02,-1.428044744540188649e-01,-5.530359672943415544e-02,3.939892980839553721e-02,5.482416477408930816e-02,-2.632630523050636718e-04,-1.040840791624245490e-02,4.928645844474466645e-03,4.042897472548691307e-03,5.309376784120938518e-03,5.951316749056815604e-03,9.923821127835630198e-05,4.640951594535039186e-03,-2.265090103982933187e-02,-4.853657355590049877e-02,-6.127448306939312778e-02,-8.865587446662291649e-02,-9.858152518404157683e-02,-1.079644046146575609e-01,-1.514832961496239416e-01,-1.215280838054965395e-01,-9.728922270828041508e-03,4.865912659248398942e-02,1.035529903762170099e-02,5.757058373142268093e-02,7.729029063705514235e-02,-4.766849657099639544e-03,2.738282240197973880e-02,-5.796486298203330778e-02,-8.313435552475685608e-02,-1.829412962856993841e-02,5.110849626386473887e-02,3.942824042927736000e-02,-2.884479078904726365e-02,-1.897825927969799473e-02,6.464587416379305104e-03,9.741944438163572043e-03,8.470608269838995896e-03,2.359496464552912620e-04,8.985606046748393499e-03,7.831984132986259325e-03,-2.465208809923967806e-02,-5.097139975158289371e-02,-4.931246101111635277e-02,-6.693432397318892224e-02,-1.046757050083233498e-01,-1.250862625632866709e-01,-1.645696453903992273e-01,-1.722401387120810201e-02,1.568645086223100227e-01,2.011342252079870163e-01,7.248399293325497039e-02,4.707721314255276790e-02,-2.184052589756441468e-02,9.884533665767143706e-03,7.736312319422768147e-02,1.795867470402886037e-02,-2.173225840195372807e-02,-1.407056260709832994e-02,1.287368766467561140e-02,-2.574004794548335334e-02,-2.657730602330237932e-02,-2.188086422672689754e-02,6.224136415659966420e-03,7.813218557473050607e-03,5.782983994203606815e-03,1.469627095882096793e-03,8.111237699334708506e-03,6.359547071637284762e-03,-2.918092390966443850e-02,-4.874037136381589169e-02,-5.303305221575803363e-02,-6.157747908869510428e-02,-6.684997068357251271e-02,-1.041705057326756390e-01,-9.840398072388457928e-02,-1.213925636276970595e-02,1.344165499373774775e-01,2.432534731849870513e-01,1.175071010075105365e-01,-1.385372336940566065e-02,-1.454200653841607876e-02,5.276604457065266901e-02,1.156967699181775111e-01,1.412355573501488937e-01,5.089480309297296501e-02,-3.795941987848749921e-02,-5.728462259883190105e-02,-3.025511504235754018e-02,-2.813765581994789877e-02,-2.718982808249446881e-02,7.080976398067980598e-03,4.396499319960801670e-03,5.465771420322949534e-03,4.328160022094692562e-03,4.389994264300511851e-04,1.657497798201559283e-03,-2.556350295649566923e-02,-5.169436236041691224e-02,-8.479602188669239926e-02,-1.028657170065431642e-01,-9.988808273231515600e-02,-1.173569582801019945e-01,-1.246798749459495509e-01,-1.125187389006439553e-01,-2.464004678654920302e-02,3.431750225427258882e-02,-7.000428143295409078e-02,-7.098651897534562216e-02,-6.068748787296115305e-02,3.325586008351129330e-02,1.227039091332417092e-01,1.319131089585612315e-01,4.739259977635261467e-02,1.666482963569405635e-03,8.418904443356127476e-03,-3.665702583128026271e-02,-2.441448131540288960e-02,-3.316533106707621886e-02,1.348820454698467170e-03,5.722636728077109582e-03,9.437015928202207790e-03,9.601356044054472003e-03,5.214596387214719651e-03,9.773079079915036882e-03,7.573102071344388689e-03,-2.397449195871046920e-02,-6.444274377969338996e-02,-9.781641608116029007e-02,-1.145550044525399519e-01,-1.432477477555674783e-01,-1.665314450738173413e-01,-1.706344617319623391e-01,-1.422447399453077022e-01,-1.030906737310482713e-01,-1.812062319105190167e-01,-1.978798612301019832e-01,-1.276045037098056112e-01,-6.463026029086012259e-02,8.018951932177165176e-02,1.517373591207686889e-01,2.498545539525768699e-03,2.049946358879812386e-02,6.202728059330268884e-02,-1.289741741797877095e-02,-2.410170893656683397e-02,-3.312528441020824721e-02,-1.997844671977936325e-05,-1.417270181340096139e-03,4.808901466030090360e-03,6.624340117010680921e-03,1.185026235981515626e-03,2.888849389091656655e-03,3.978366255021569507e-03,8.438125192324697280e-03,-2.015531407902714650e-02,-7.614160773565084583e-02,-1.089831916923069272e-01,-1.369872904220197640e-01,-1.560991402079068002e-01,-1.980663462499279714e-01,-1.760811025865806623e-01,-1.633826428646775741e-01,-2.290717938101950735e-01,-2.404985623775168779e-01,-2.533876941763172908e-01,-1.084723640670611916e-01,1.657119854288722702e-02,1.599472870484821563e-01,4.786246690686473543e-02,-4.955182923538716021e-04,7.219161079178917917e-02,5.089460190790301430e-02,-3.530805583161363698e-02,-2.664500578143208509e-02,1.789357197022739261e-04,3.892996332566744889e-04,3.601881829142639232e-04,1.752217721058273560e-03,8.667703545060002901e-03,2.824787439770266688e-03,9.504591705752957545e-03,3.916077526706352591e-03,-2.565403238999937330e-02,-7.875486099499449943e-02,-1.328828575257831879e-01,-1.372054086902519954e-01,-1.698951063007431983e-01,-1.596851080953709534e-01,-1.239995723591403448e-01,-1.479874836241887870e-01,-1.845311924548656557e-01,-2.508327672852724288e-01,-2.647943137351406184e-01,-1.372107149240347213e-01,-1.776254012443338054e-02,9.873828855083444100e-02,3.425313742700430986e-02,2.281298501573282567e-02,6.701167678732194988e-02,6.989978778488764588e-02,-5.118903271312231357e-02,-3.050942873339546058e-02,4.342110256623699007e-04,9.407845205031078670e-03,5.069204379618346204e-03,4.094120718170183616e-03,8.108785810079184586e-03,8.358259279105160686e-03,3.321910331156046128e-03,1.870822965727987966e-02,-2.422784014143665454e-02,-8.130874452454314727e-02,-8.554997967590495522e-02,-9.728784053323985548e-02,-1.542240860910917832e-01,-1.638691852846728136e-01,-1.718761421154970104e-01,-2.115811748378149670e-01,-2.441851471540033014e-01,-2.424718659781392727e-01,-1.225726039688716934e-01,-8.448058066189249871e-02,-4.831750141792379161e-03,4.638749777191996694e-03,5.872634632428127936e-03,3.170921637889266564e-02,6.242622475380547181e-02,5.948612467178753666e-02,-5.042847517284763242e-02,-2.251391720685757755e-02,7.293447940879963995e-03,9.668454997992853225e-03,2.242934832850450744e-03,6.630471918034223922e-03,7.418963269587150987e-03,1.138718991430509413e-02,4.347764200066466661e-02,1.098382791698360311e-01,9.900652616484838242e-02,4.385315516775219885e-02,1.876543253241734488e-02,-8.360778225202227659e-03,-9.756740416991036002e-02,-1.863418874898648825e-01,-2.252379440062448057e-01,-2.652893665562019998e-01,-2.281076918407103360e-01,-1.375523598421330429e-01,-3.872775329086064477e-02,6.544868164359002316e-02,8.225249670686658743e-02,5.327717786158949614e-02,2.874500454036663100e-02,4.947244326145559118e-02,6.035803975130535348e-02,2.848481389130360242e-03,-4.105955643478018113e-02,-1.782737956539542576e-02,2.653261375554669902e-03,6.015538792998240819e-03,2.965599122059306859e-03,7.144241640712422313e-03,7.590052825219310330e-03,1.858792318723379022e-02,5.302416303062965075e-02,1.832370920723590535e-01,2.141397178665989109e-01,1.715237613805309647e-01,1.097026133508205020e-01,1.043135638795835568e-01,2.950979106502474303e-02,-9.166368948505425329e-02,-2.125314479284696467e-01,-2.040253842419707808e-01,-1.109349716995104290e-01,-2.491421401858704907e-02,4.875222294781655225e-02,1.627025355300675269e-01,7.095253641414099588e-02,-6.053104016016264827e-03,-1.506625880456617314e-02,4.325558569662457664e-02,1.336760282557213943e-02,-1.785953395534206622e-02,-2.748628165148485694e-02,-2.645483133557933672e-02,9.470906671085190312e-03,4.962587528823615181e-03,3.805177098698945149e-03,1.630353369315910069e-03,7.862056522610580758e-03,1.474692643542550169e-02,4.027324626567131693e-02,1.766173190007980787e-01,2.240419757963474645e-01,2.213705039744123249e-01,2.013243340385934832e-01,1.213815816078921972e-01,1.355548284821992966e-01,2.967547172851458734e-02,-7.247881086893890809e-03,-1.342448530351393436e-02,-3.824994506210661893e-02,-1.599177373017286394e-02,5.211838051532938221e-02,4.092808614747062146e-02,-6.319063612347325387e-02,-7.318536474349618404e-02,-5.686534909314117786e-02,-3.423641807342657842e-03,2.058465392436152359e-03,1.087316506793946543e-02,3.819530794422771182e-04,8.652957589089124019e-03,1.572732081797153549e-03,3.097878592090992644e-03,2.900455319624368773e-03,8.714140341908543572e-03,6.727029942088980433e-03,7.966813971913722786e-03,8.537960550983731550e-03,8.113645172741944245e-02,1.307004836402786974e-01,1.617501691668868646e-01,1.787639626078911526e-01,1.545096466478934338e-01,1.268922604480594851e-01,7.669951977602353088e-02,6.620612185545174389e-02,1.294379832845885536e-01,6.347514057010118782e-02,-6.561476601480942207e-04,-3.676320534847105082e-02,-1.677489375866420690e-02,-3.916920437825640450e-02,-5.429765548438621192e-02,-5.115318245469973463e-02,1.902892711593550529e-02,3.454475981461922057e-02,2.435274692289218432e-03,3.524569991432122563e-03,3.324561571487120396e-03,5.658565614671562946e-04,3.739210470128135830e-03,9.444485826943033874e-03,6.417343972985581693e-03,6.714791486672069300e-03,6.322821536376398328e-03,2.387720173971865853e-03,-1.612045593054410933e-02,-1.760238934541296513e-02,1.002596394041391399e-02,4.164881890407846898e-02,2.781588233347407832e-02,1.740309395701621423e-02,1.610426236212927562e-02,5.476912416562500219e-02,6.870489033527610312e-02,2.013243020432822425e-02,-2.187389048132703726e-02,-2.603170211390782793e-02,-3.508515389841956184e-02,-2.177051455889827264e-02,-2.134599037567257163e-02,1.632002337906239206e-02,4.258294936965657806e-02,2.128416260616340649e-02,2.563282910690796272e-03,6.505335775450092270e-04,4.830396975588900285e-03,2.685337560676073158e-03,2.874616648972501149e-03,6.567560634745570405e-03,9.685373316998922497e-03,6.036372005593751075e-03,7.697946706496628343e-04,7.558361385406697861e-04,9.514232208455659923e-03,2.958756546780170939e-03,-1.249546523270053840e-04,3.963550358723219244e-03,-7.325498927174454132e-04,-9.127899090840317989e-03,1.651587028085131637e-02,1.100155826438684384e-02,2.171242732159875399e-02,-5.492761891043370509e-02,-8.548203428880692123e-02,-8.348820163456119325e-02,-7.352191446087004423e-02,-1.115459479241411207e-02,1.021546726942117872e-02,-1.479186454542681661e-03,6.514673947686466966e-03,9.467337289233955511e-03,1.059058044037576411e-03,1.548286125977198571e-03,9.447362587830797007e-03,7.365352283347926209e-03,8.829938248297730316e-03,2.026326341353431801e-03,5.875858711094019034e-03,7.011395944174736786e-03,6.801118854469726839e-03,4.081516908666981379e-03,1.539489169130847624e-04,5.357274123622864093e-03,-6.416091965613626887e-04,-1.137872391842570819e-03,-5.363026697152017443e-03,-7.514974846860725428e-03,1.319054004161808978e-03,-8.910704061143002314e-03,-1.377243566034524677e-02,-4.320223648115709136e-02,-6.704439470011476498e-02,-5.929953414826200780e-02,-3.098754219201213175e-02,-1.833395646796274342e-02,-3.916355596964877540e-03,2.051592089306579578e-03,4.340209727087588308e-03,2.587116421554409417e-03,4.344033190066098025e-03,7.234478178500009828e-03,9.054161580370978187e-05,5.894539894846971551e-03,6.132916848873791113e-03,6.376882468959355239e-03,2.420220799808772000e-03,7.140527233781267594e-03,9.139148633177641111e-04,1.992703364668008213e-03,8.774700466544819999e-03,6.577219811728055032e-03,-1.747148743715881214e-03,4.586780975822964796e-04,1.181922906509670678e-03,2.708063280369725837e-03,2.475597702798864198e-03,6.252629574284573888e-04,4.589405165968203117e-03,7.327334747861651530e-03,6.067317247174364332e-03,4.845914433813901245e-03,-2.500845510116405518e-03,7.911038516588676794e-03,8.384918338430248988e-03,8.050903184956628017e-03,8.229838050417674980e-03,9.327105081327613512e-03,5.442539661136977340e-03,2.002820178676258892e-03,6.167836078525411325e-03,7.428814936679390031e-03,7.379173933540253937e-03,5.214490241668800867e-03,-3.377866626385840343e-01
3.711129384301278377e-03,9.207666084633574222e-03,5.844489097574260758e-03,5.383319432557134333e-03,2.688535143821935407e-03,3.684489199165789323e-03,8.953460891531692112e-03,6.664630475268357168e-03,7.873870267523327970e-03,4.543454230676551367e-03,6.302472194561579456e-03,2.483836087432075151e-03,7.054608302834862628e-03,4.276013337033372948e-03,4.425455148147456122e-03,6.493223245768816980e-03,9.362806214689265924e-03,6.400634660862091927e-04,8.247432373470076766e-03,2.923831104121931129e-03,4.439194545063778440e-03,2.191332877500895614e-04,3.010460778343130358e-03,5.026312426301304814e-03,5.617607734743901293e-04,4.910957293831651367e-03,9.271106288584273977e-03,1.053932181078052121e-03,7.644407280755043978e-03,4.096710533759926817e-03,6.551737145243380876e-03,2.602365979852293634e-03,1.594922625413582821e-03,1.604626142712264371e-03,7.049194564314464895e-04,1.856467049012430282e-03,6.642193849889683165e-03,8.816906118435080542e-03,8.141256855911618850e-03,6.851343098744841487e-03,1.104318634111026674e-03,2.891874462959498435e-03,3.098068753224689914e-03,2.499569463976212148e-03,5.150056597097231112e-03,5.355538148796725774e-03,3.568859751711101966e-03,3.537891587364360314e-03,8.285555979060813328e-03,7.892928483196856235e-03,3.077958316807456567e-03,9.137884438732592554e-03,9.528150170025060858e-03,3.267425420300408209e-03,3.544249487930548580e-03,5.056341534219588492e-03,9.411208125336734814e-03,8.763194331423114838e-03,1.025679625835898123e-03,3.927307432714161918e-03,5.533711897497718690e-03,5.031324725515400574e-03,1.938630679368926781e-03,8.588167711681547745e-03,6.769407829968373397e-03,8.379083748518036459e-03,8.587642793494722551e-03,7.123469576086781906e-03,2.286970550699751574e-03,3.760272781309752406e-03,-8.982377731411469958e-04,-3.734454867441002173e-03,-2.267406191312505703e-02,-2.592889119192936381e-02,-2.339791831589419988e-02,-1.345531422140384785e-02,-1.793280835490550403e-03,1.992135219070267902e-05,7.187396178535302403e-03,7.324010490583791194e-03,5.149333499132594492e-03,1.613628010553837082e-03,8.355433751068974809e-04,1.912896643728700908e-04,1.657481769652207129e-03,8.908555349831467907e-03,2.415368417016817548e-03,3.542713272172156626e-03,1.053454844813331813e-03,2.223613047481702749e-03,5.192245707802051191e-03,6.077526830956525572e-03,2.453523141662110850e-03,5.773215922511720386e-04,3.866849346805582843e-03,-4.719277468091578540e-03,-2.207186860521164959e-02,-2.053975057731262724e-02,-2.083894924689110029e-02,-3.834063537057754573e-02,-5.405892647924331190e-02,-5.989804018781772627e-02,-4.712128245055163811e-02,-3.905614334962959067e-02,-2.352868804979331083e-02,-2.782963910987240608e-02,5.001127520766269693e-03,4.119580950341019711e-03,8.705269662693842364e-03,6.314189212183764048e-03,5.325040664159817923e-03,1.153946421789173778e-03,6.056378893234114560e-03,1.172039056802334257e-03,3.372065755657520543e-03,1.428419648143318746e-03,6.920736470243688855e-03,2.062521138361526115e-03,3.918593731880260118e-03,2.259321159904918632e-03,-1.789152950624048333e-02,-6.552367347378749811e-03,8.608048061504499499e-04,-2.281044273137187647e-02,-4.047104631026300636e-02,-6.161651690598450581e-02,-8.184874311558423821e-02,-8.799367542375036155e-02,-9.645729100921215937e-02,-8.648706547110822374e-02,-6.258091129597684321e-02,-4.582082514706366239e-02,-2.587688829142224811e-03,-2.502626943177686802e-02,1.767922495960468077e-02,2.503608121883920540e-02,8.433261677878832116e-03,4.850946599795401791e-03,3.336283958368656787e-03,7.915582025913700873e-03,4.512941130292549667e-03,1.834421964034345116e-03,8.549740195614743271e-03,9.641327740170046665e-03,5.912110205741436843e-03,7.249898543202182950e-04,-4.048934893354091784e-03,-6.417199186405638488e-03,-7.036902156534998766e-03,-1.837015796353272737e-02,-7.202140951392986198e-03,-2.535038382217516192e-03,-7.890327772795061034e-02,-9.901001188855115820e-02,-1.515651674765632617e-01,-1.828975093791578299e-01,-8.712485887815264729e-02,-1.266998628906487213e-02,-7.314844768676838360e-03,1.676282671165569074e-02,2.485008001973097388e-02,7.256788919098333679e-02,8.376006205590795506e-02,6.187051840396845526e-02,2.896995969872449492e-02,3.979254732268761724e-02,3.725332737595508144e-03,6.871367772396097789e-04,3.695741994267731732e-03,4.642385197392248988e-03,7.227377522388046989e-03,1.461275053426363581e-02,2.646739683662235540e-02,8.217379489458241648e-03,-2.241502659626181879e-02,-1.497051297195316211e-02,6.669342907701315999e-03,-9.325118592391132971e-03,-6.854831313688404537e-02,-4.954780923763761613e-02,-1.312478547099761306e-01,-1.751623915876137083e-01,-1.988310138194824273e-01,-2.087305952689860189e-01,-9.456846590368986338e-02,-6.213904841124063411e-02,1.857941211537448081e-02,9.378228612789686613e-02,1.136225884660533314e-01,1.711449587286358598e-01,1.828128923144809737e-01,7.192342360633181830e-02,1.114676286493939891e-02,9.681325768526830022e-03,8.904095172193284696e-03,7.499777984520708020e-03,9.082284887003229043e-03,7.587153211639207154e-03,5.971553059903018414e-03,7.829074700557136710e-03,2.259626231677373809e-02,1.520695840688900992e-02,-2.319028439694532928e-02,-7.540436875047396015e-02,-3.343199479217052322e-02,-4.214276827054312669e-02,-8.754606870360440163e-02,-6.665911004374952542e-02,-1.843539272665359607e-01,-2.874510083153287709e-01,-3.441018953525062929e-01,-2.979861244216269189e-01,-2.097714734960371696e-01,-9.779271326855946966e-02,7.334012775486280222e-02,5.346789452966510536e-02,9.195641380219589378e-02,1.061684940339069211e-01,1.036397820342285364e-01,2.047536422563817765e-02,-4.435551927115816140e-02,-4.411168068541890253e-02,6.923589224610580961e-03,2.640619846937187782e-03,9.390684794502916419e-03,6.363742815333743585e-03,3.245118001753421154e-03,3.570195806811879424e-03,1.940541112724923981e-02,-4.102146790376702545e-03,-2.817036490891131062e-02,-8.213099097242124169e-02,-9.154604085745210451e-02,-3.159406664320159319e-02,-4.229428179463643606e-02,-9.971375036935135883e-02,-2.446498182068277405e-01,-3.435037506971522769e-01,-3.408361646696621561e-01,-2.935622079057842448e-01,-1.558051399202651233e-01,-1.197164494849997929e-01,-8.381065536056205023e-02,-7.135325038097461992e-02,-5.636446482261769225e-02,-1.823511720672019512e-02,1.291075655599577612e-02,-6.892175685032244856e-03,-7.948176567541284654e-02,-6.156414910471375707e-02,3.230273457540938815e-03,8.979191869576658158e-03,8.881181889340358446e-03,-4.166525157116712785e-03,9.009608956904679306e-03,1.457058713083487188e-02,3.446031533867386504e-02,-9.517079839339951395e-05,-2.143733230876527368e-02,-3.249873717018277042e-02,-6.737973191643208126e-02,-3.638081831796316501e-02,-1.305119128337104972e-01,-1.845457475916326695e-01,-1.072654335807115972e-01,-1.199563876397564816e-01,-1.338440469551871459e-01,-2.679820276341340346e-01,-1.080400698726798198e-01,-9.865176048938532893e-02,-1.570932025144422539e-01,-1.225641663229822820e-01,-1.062984802212654650e-01,-4.642251977233239485e-02,-3.795692120989080116e-03,-1.063622855519811769e-02,-2.869952615651086975e-02,-1.272969268158704627e-02,2.320181803088107019e-03,1.438144607208502533e-04,7.643533864364273830e-03,5.381342617016911418e-03,7.623026245009600042e-03,1.973400883150814786e-03,2.846117495629693975e-02,2.679005442423241026e-02,-1.952874424256197724e-03,-1.214665486116494643e-02,-2.732659280137484173e-02,-3.703186418366303384e-02,-1.456621179260652321e-01,-1.584281688941703292e-01,2.282895942453593702e-02,2.021319207576264751e-02,-4.250854982099051133e-02,-1.909479326828907308e-01,-7.610541485217969283e-03,-7.038774293523672454e-02,-1.289054117789161791e-01,-8.987495383305854624e-02,-7.021105230265015096e-02,-2.977654360660424507e-02,4.794852299751182698e-03,2.725551310133333266e-02,5.258114604693614989e-03,6.495089297074473425e-03,8.044140596774733767e-03,7.151001612837000476e-03,5.931582190394682139e-03,5.334799698889769719e-04,4.547643425526610994e-03,1.373676071320138227e-02,2.421596519112990953e-02,2.184819069744051850e-02,-1.107505833611173614e-02,-3.561854772731230800e-02,-8.584509780328528072e-02,6.388269088032196008e-02,2.006857153673423030e-02,-6.915007415730763107e-03,3.424986248970581654e-02,-1.058891194199440139e-01,-2.323807869027015305e-01,-1.625853375865277117e-01,5.024132368596857801e-02,-4.649512474695573216e-02,-5.874313630443073198e-02,-7.146059276087893264e-02,-4.112334221451274807e-02,3.680020804141137351e-03,1.359926162765667064e-03,2.631479379015184625e-02,2.023162125850926259e-03,6.996395696221216834e-03,8.381549749886425815e-03,8.028109348245004301e-03,9.609201469288246658e-03,5.359350788521182081e-03,4.884956326599053551e-03,1.206053087642366788e-02,1.373763735220039084e-02,-1.535723557692093150e-03,-2.274385488655263424e-02,-5.574931132795927363e-02,-4.121700574149055746e-02,1.944645605974290592e-01,1.873171754988433024e-01,3.878220718142363216e-02,-5.354476171164560677e-02,-1.997933721480370794e-01,-1.598348653741748504e-01,-5.010317785023255845e-03,4.167828113339338419e-02,-1.818308055069459139e-02,-5.077296452025859691e-02,-1.705748015279359361e-02,-4.734276825390051208e-02,9.801231958741649097e-03,-4.131406967575073676e-04,-4.879422981191608444e-03,-4.067812203271658697e-03,8.026403123529295830e-03,9.972378999036026273e-03,3.002600532939281373e-04,8.973658657909319714e-03,6.226305335986580258e-03,9.733826191648212167e-03,1.063788509470298821e-02,1.988033292072903524e-02,-1.235336995920251549e-02,3.703999778223118766e-02,-1.172492390499872000e-02,4.740705461243542584e-02,2.196488074319658257e-01,3.047704149416072816e-01,6.917542100658798099e-02,-4.409345030651096176e-02,-1.486495716491080810e-01,-9.365736257861978498e-02,-5.270238585187759367e-02,1.550161405312337932e-02,-1.820780756600967956e-02,-2.320359347417344509e-02,-6.606760930523912501e-02,-3.413916152498579909e-02,9.838436164054381941e-03,1.646248287327230220e-02,1.134094499529965855e-04,1.926334958485575446e-03,4.397404865079085345e-03,2.783684816626566094e-03,7.982931972091867473e-03,3.262539180411467947e-03,2.993833737053482914e-03,2.325059922078312122e-03,2.961178636110843761e-03,1.791594533751299928e-02,1.650689621127523349e-02,1.445005680043649487e-01,1.609727486240481731e-01,1.371504783277053829e-01,1.701978796516207537e-01,1.117216239255550414e-01,1.002312561151819659e-01,9.266627822987548446e-02,-7.906651258828794118e-03,4.436769323537470555e-02,1.144832011582930936e-01,1.231721136668278288e-01,5.999124069740987414e-02,6.030889920088072786e-02,6.666003224872499300e-02,6.872364077261440551e-02,7.170042009186521070e-02,4.587956486069221657e-02,3.485426242156473842e-02,-1.567877607835838419e-02,-3.109039692705462725e-04,-1.682658833544661749e-03,4.595840572136230227e-03,3.064634680428203473e-03,8.223812111853544271e-03,5.697872699736828252e-04,1.410898523369453865e-02,3.087298195008956678e-02,9.936595245894239148e-02,1.897829039882962254e-01,2.665706348389921820e-01,2.675598345185452587e-01,1.126320000948946159e-01,1.442799429762216777e-02,4.281139497211878392e-02,1.213951378409014042e-01,9.954552461787201378e-02,1.150202179201433444e-01,2.003859259168335460e-01,1.932885173917106847e-01,1.518727440063749323e-01,1.909033793197728313e-01,1.345816230674203862e-01,7.447073641760236506e-02,7.658644309930189020e-02,6.143914691854916038e-02,4.490158623373016744e-02,-3.923410113836330038e-02,-4.956383072062799794e-02,-3.747343109082847817e-02,7.624469586748684399e-03,1.260020278639942867e-03,1.964192158720173744e-03,9.514448256630919643e-03,1.754916273813573839e-03,2.270760991804741599e-02,5.218384628721978863e-02,1.901435591211851628e-01,2.601326038391095774e-01,2.225398321786087596e-01,1.365583696661117896e-01,6.956344616813281423e-02,7.062148997240358383e-02,4.750605911631380907e-02,3.141995975227004217e-02,7.156797743065836104e-02,1.198218985341459181e-01,2.109884145939751043e-01,1.453013509283079818e-01,1.596659131309698665e-01,7.867061567745944894e-02,-7.429722013512660324e-03,5.028085425365262651e-02,5.976240038437345692e-02,1.658812869667093725e-03,-5.837757299132997207e-02,-3.655462843350750640e-02,-1.771820121079823937e-02,8.701721830278874451e-04,5.567849109281879268e-03,8.451208514960348653e-03,7.959263871435024243e-03,1.751231401303532517e-03,6.382051557142462937e-03,-1.895703159620699269e-02,8.815613381059282661e-02,1.179110602056172852e-01,5.181376388512074632e-02,4.778625364132078196e-02,3.701518434012240205e-02,4.835796371743190762e-03,7.102546663929235060e-02,1.317001679689103755e-01,-2.510325755722650574e-03,9.756487611721575623e-03,1.253337175524285585e-01,1.258319449202479345e-01,1.499161750001398730e-01,3.782976619714945032e-02,-1.329426342533839879e-02,-3.235250836053775447e-02,-3.454221805246359550e-02,-2.134546722232266366e-02,-2.277774195731318771e-02,5.538902776608546630e-03,4.680690542342900995e-03,4.662994129398188511e-03,7.605756424552823428e-03,1.544922040049257969e-03,4.872653541000507640e-03,4.299852141210597743e-03,5.349571146751922260e-03,-2.655280781901768125e-02,-1.833046247698137329e-02,3.773437151683002241e-03,1.347583406421525194e-02,1.875536510543546198e-02,-8.452290443540842746e-02,-4.500123209158026633e-02,-9.463845962788505414e-03,6.008637195866955300e-02,2.537464895149487906e-02,-2.082599048743635425e-02,-4.487170736745214189e-02,-3.394704895061542715e-02,-4.603799119478633323e-02,-1.140659950305435016e-01,-6.529880406324883868e-02,-4.754214378838720473e-02,-1.509294259661400281e-02,-1.488323190583683807e-02,-1.105144349864279653e-02,4.201385434540411655e-03,2.374785567522574858e-03,4.961437333883744402e-04,7.245982868476289786e-03,1.115929999572474801e-03,6.083195000077716921e-03,2.810497501668891666e-03,9.211552557079235844e-04,-4.254911823212667588e-02,-7.586212828691328569e-02,-4.394646876905196342e-02,-2.531286847184649469e-02,-6.578917068257736367e-02,-1.285345075992536390e-01,-1.523299074280917709e-01,-7.316309229025962091e-02,-1.896271607062544398e-02,-7.686045729098044121e-02,-9.199461920837713469e-02,-1.266830109745115951e-01,-4.956824439042507857e-02,-2.393719959677973255e-02,-1.127888391524469042e-01,-9.450471107181600272e-02,-3.737591998720030811e-02,-9.271728623303131245e-03,-1.343422738605114936e-02,5.258697723645459204e-03,6.678679067008134150e-03,9.332050877593062177e-03,2.654964074290723421e-03,6.114636112256608205e-03,6.784999682926378534e-03,3.122895684232498883e-03,7.456448238067172815e-03,5.660087635836218156e-03,-3.143703823544486547e-02,-1.003626795935144006e-01,-1.340156807174362474e-01,-1.321274231275735289e-01,-1.573714068732682547e-01,-2.306333082430752635e-01,-1.515996257203084951e-01,-1.640230534770165949e-01,-1.107691562291393816e-01,-1.332848298049988944e-01,-1.847734345828454805e-01,-1.237323476215358153e-01,-1.041897768985722110e-02,-4.498610344416861806e-02,-1.082360422905911113e-01,-9.756999872966080900e-02,-1.030722916365299328e-02,-1.976758315125180191e-03,-6.035960772925784076e-03,3.119781873282372053e-03,9.286305621153940690e-03,6.180846068922263336e-04,9.236052811137851135e-04,1.627909892062293692e-03,5.952128341268747742e-03,1.186484734082495548e-03,7.645832049369482436e-03,-3.273068597986424338e-03,-2.124079709298540633e-02,-7.050062489519098863e-02,-1.243029010989030320e-01,-1.622450076969242927e-01,-2.190111288165409453e-01,-1.866087778205761660e-01,-1.220019250436998604e-01,-2.028301791804111853e-01,-1.700415269331132240e-01,-1.202611844130628688e-01,-1.437912464082989894e-01,-1.013600080373192464e-01,-2.043974506790127710e-02,-4.115094895680632137e-02,-9.524675728561234067e-02,-8.000612919689648050e-02,2.866784806537757413e-03,-3.326234480400856535e-04,7.308682119619482227e-03,2.097998514708584138e-03,6.910558127392617961e-03,2.716331812743696342e-03,1.906098330744497929e-03,1.846324573473692244e-03,3.421076208635940447e-03,4.165442836022581995e-03,5.227602839496687040e-03,-5.768533722414850330e-03,-4.172158098573111942e-03,-3.394021721470587283e-02,-6.852152761105326229e-02,-1.137257764743485611e-01,-1.405891032263234530e-01,-3.570577747481491065e-02,-9.572531166685484261e-02,-1.657523057554511348e-01,-2.676812829097796609e-02,-5.737411218823674011e-03,-4.731906959211039376e-02,-5.304146920342418109e-02,1.202734046506510543e-02,-4.611579100258086233e-02,-5.205652555487187694e-02,-5.474901943128676618e-02,-1.375047795940205139e-03,7.217549780085299495e-03,8.723843361098611304e-03,3.995187845869348393e-03,3.267947058577773921e-03,1.081108363519633995e-04,8.265510741914642787e-03,8.009807004033649147e-03,1.044545181001513929e-03,5.768573811327002906e-03,3.411802811549750816e-03,-3.838342099011880955e-03,1.674992349882597218e-03,-2.218768075513619445e-02,-4.661648692793619181e-02,-7.943525129221229442e-02,-2.723120761849798580e-02,-1.200716373433330722e-02,-1.006862649661098008e-01,-5.812314046323661249e-02,7.055462496627676328e-02,3.320520758644931320e-02,8.293599921290776764e-03,-2.355306413765213542e-04,8.556087597523927279e-02,1.541888441016664966e-02,-4.979591623137125805e-02,-4.427907747601352723e-02,-2.230264181561782133e-03,4.132507815796083138e-03,2.549354519587411060e-03,5.034952696935324429e-04,5.276525785960262159e-04,6.920112559466546839e-03,4.579289944340278994e-03,2.265216260361056951e-03,6.139703063252326815e-03,2.528581182501111677e-03,5.695349576183622239e-03,2.564480715498942270e-03,4.513879801917044209e-03,2.966363181015791838e-03,-2.084786759973494136e-02,-3.880611970489072221e-02,3.976908523891534847e-02,-1.940815986673808183e-02,-1.276028377017243143e-01,-7.103186158274904516e-02,4.537976611732745524e-02,2.544842519801318245e-02,-1.098088429704766472e-01,3.295165882855664169e-02,7.992939001519161479e-02,5.911613139657202060e-03,-4.811322399060468519e-02,-3.081258008390577730e-02,1.734947739887009871e-03,4.480379295827180072e-03,2.642826951380220293e-03,9.325548784193121374e-03,1.186437657415803041e-03,9.337494230014699997e-03,6.838664518353432600e-03,5.315721526867311746e-03,3.265906078449587490e-04,4.755961918220082824e-03,4.077481050027322550e-03,1.612188119751225505e-03,6.421133105798879082e-03,2.065176335242288955e-03,-1.700652860118048032e-02,-3.658665080889877443e-03,9.285940695054588356e-02,-4.374089354431935639e-02,-7.985884852079021268e-02,-4.204345657640683881e-02,-5.122220863771498149e-03,3.063026476790631279e-05,-9.441158677841611502e-02,-5.225567378460158063e-02,-2.495489257256717358e-02,-4.171975106575838421e-02,-5.702423231121157843e-02,-3.681258752085105751e-03,6.118310201032214381e-03,3.734579451327052577e-03,2.553363737632441573e-03,1.058743182131293131e-03,3.548976834865540542e-03,4.131725172077195529e-03,6.758229251040736088e-03,6.581598242975735154e-03,7.010813964125695366e-04,3.952593154311578177e-03,1.817788672173619152e-03,1.568127053168056869e-03,3.917897692582974524e-03,-1.498704638346911970e-02,-1.739690181046918069e-02,3.385971607619002455e-02,-2.429447883860210659e-03,-4.964550869215603873e-02,-2.528259818215584931e-02,-1.400617301885301140e-02,-1.937727155308281018e-02,-4.459089065384180817e-02,-4.362978523593116081e-02,-2.312660814402673487e-02,-1.696078927190949534e-02,-2.875997402584073645e-02,-3.788937428936192675e-02,6.298206544347076732e-03,4.032106331838227614e-03,7.523978823037878912e-03,5.312940183509319222e-03,6.774380712282944417e-03,4.284579038487954308e-03,7.314964640431390400e-03,8.244715176045490368e-03,1.464362566028161276e-03,8.329297155742279579e-03,5.402965317903072814e-03,8.446659090902242789e-03,4.313017063410146644e-03,9.318297123441978552e-04,-7.531037081116054061e-05,-8.827263528475222040e-03,3.897158627464725970e-03,4.840205725094041435e-03,5.140954425512597042e-03,3.084682814894840457e-03,5.730422006190156667e-03,3.252111962762113326e-03,3.926941424165231458e-04,-4.707316847965273754e-04,-5.549509290615728743e-03,7.065529056512190841e-03,9.657472098197474736e-03,3.951552974723050206e-03,7.283708543396459623e-03,3.458060984104249693e-03,6.710931570859760345e-03,8.054300430459791424e-03,9.467562446922407615e-03,4.002122758496719744e-03,7.832979829560476198e-03,2.659284506321187708e-03,-1.664940446835479482e-01
