3.745401188473624927e-03,9.507143064099162627e-03,7.319939418114051327e-03,5.986584841970366347e-03,1.560186404424365172e-03,1.559945203362026519e-03,5.808361216819946061e-04,8.661761457749352772e-03,6.011150117432088186e-03,7.080725777960455124e-03,2.058449429580244650e-04,9.699098521619943167e-03,8.324426408004218306e-03,2.123391106782761533e-03,1.818249672071006132e-03,1.834045098534338100e-03,3.042422429595377422e-03,5.247564316322378582e-03,4.319450186421157876e-03,2.912291401980419015e-03,6.118528947223794874e-03,1.394938606520418388e-03,2.921446485352181474e-03,3.663618432936917215e-03,4.560699842170359147e-03,7.851759613930135717e-03,1.996737821583597326e-03,5.142344384136116227e-03,5.924145688620425024e-03,4.645041271999772459e-04,6.075448519014384208e-03,1.705241236872915298e-03,6.505159298527951866e-04,9.488855372533333207e-03,9.656320330745593594e-03,8.083973481164611133e-03,3.046137691733706750e-03,9.767211400638386217e-04,6.842330265121569430e-03,4.401524937396012783e-03,1.220382348447788309e-03,4.951769101112702375e-03,3.438852111521839452e-04,9.093204020787821681e-03,2.587799816000169346e-03,6.625222843539819648e-03,3.117110760894109631e-03,5.200680211778108131e-03,5.467102793432796620e-03,1.848544555255270507e-03,9.695846277645586361e-03,7.751328233611146090e-03,9.394989415641891856e-03,8.948273504276488266e-03,5.978999788110851352e-03,9.218742350231168975e-03,8.849250205191950148e-04,1.959828624191451828e-03,4.522728891053806642e-04,3.253303307632643675e-03,3.886772896894820275e-03,2.713490317738959101e-03,8.287375091519293482e-03,3.567533266935892997e-03,2.809345096873807571e-03,5.426960831582484934e-03,1.409242249747626446e-03,7.845450954974955357e-03,-2.864499320463987004e-04,8.719233762117434977e-03,5.834883564745638185e-03,-5.515572184289201790e-04,-6.171879202514457367e-03,5.365907633100926340e-04,9.301151195423250080e-05,2.779459342760788251e-03,6.982044416317496720e-03,7.404465173409035877e-04,3.584657285442726087e-03,1.158690595251297235e-03,8.631034258755936051e-03,6.232981268275579120e-03,3.308980248526491915e-03,6.355835028602363100e-04,3.109823217156621952e-03,3.251833220267470476e-03,7.296061783380641125e-03,6.375574713552131616e-03,8.872127425763265407e-03,4.722149251619492741e-03,1.195942459383017055e-03,7.132447872229949817e-03,7.607850486168974205e-03,5.612771975694962230e-03,7.668283519514122390e-03,3.405396592561091111e-03,2.300419460959531124e-03,-1.207985467492354902e-03,-6.930645272793819686e-03,-6.342473069619851064e-03,-1.236523284601855066e-02,-7.822394576563090549e-03,-9.596997360323869172e-03,-4.167310760832514636e-03,5.008387840701488888e-03,-1.084658369445685696e-03,4.103829230356297215e-03,7.555511385430487004e-03,2.287981654916224680e-03,7.697990982879299258e-04,2.897514529137680192e-03,1.612212872540044143e-03,9.296976523425730041e-03,8.081203795644168950e-03,6.334037565104234935e-03,8.714605901877177374e-03,8.036720768991144001e-03,1.865700588860358345e-03,8.925589984899777451e-03,5.020031658543853449e-03,6.963014934758249112e-03,6.468996121237785731e-03,1.415947994438482163e-03,-2.494542713375955297e-03,-9.060810377135899638e-03,-7.425098264914668962e-03,-4.271163264293440127e-03,4.805625946170044224e-03,1.589879751617372279e-03,9.433513340437356398e-03,4.996924100766615348e-03,-5.229808840816466652e-03,-8.224693514409223485e-03,-2.004838975292076914e-04,7.711189766452666329e-03,2.407685995712857338e-03,5.187906217433661295e-03,7.030189588951778895e-03,3.636296023792940073e-03,9.717820827209606646e-03,9.624472949421113144e-03,2.517822958253641656e-03,4.972485058923854957e-03,2.879060046699614354e-03,2.167000846980887425e-03,-5.235530859636465268e-04,3.920707395255367336e-03,8.279280835794849318e-04,-4.852168044008599301e-03,-7.588693066928779880e-03,1.117809907690599106e-03,-1.302010692782713634e-02,-2.019204868307360873e-02,-2.285359909904551706e-02,-7.192327987983042695e-03,2.445423708372497333e-03,1.928010441880103829e-02,2.902437454370856984e-02,2.943728181720910858e-02,1.947721214181043908e-02,1.241327931976417233e-03,-1.208065160155206508e-03,-1.964002207710929793e-04,3.436901085936516168e-03,2.255378863765458567e-04,7.194552841338540394e-03,3.207800649717358274e-03,1.865185103998542307e-03,4.077514155476391925e-04,5.908929431882418114e-03,6.775643618422824699e-03,-1.304048388728587006e-03,1.456797888956371315e-03,-2.998143281319890982e-03,-1.385135112664471731e-03,-7.531343599957230836e-03,-7.376988406175910735e-03,-1.442105904336729062e-02,-1.478574557059641678e-02,-2.800550551412119352e-02,-2.624560206599272499e-02,-3.401124507349840426e-02,-9.354817731375820664e-03,1.091342139812741426e-02,1.563445911626297480e-02,2.780240974579481494e-02,3.290731295577910970e-02,2.287813952716161517e-02,5.007159135614797129e-04,-1.217786442018276537e-02,-1.099604449389374010e-02,2.810331983878308366e-03,6.091397658940507324e-03,5.453961598329683767e-03,3.390297910487006985e-03,3.492095746126609029e-03,7.259556788702393668e-03,8.971102599525770938e-03,8.870864242651172599e-03,3.442193796695437562e-03,-2.230040246728582851e-03,-1.183840822001661942e-02,-1.177579163279583729e-02,-9.913619731352728628e-03,-1.468880991673869249e-02,-2.999635367851765516e-02,-3.886852912610799793e-02,-2.408392249920520214e-02,-2.991560724062818435e-02,-1.758069648896244674e-02,-9.686363785316504452e-03,-3.166904093315907418e-03,7.465362572198774166e-03,1.472075913177499536e-02,2.154791868414196454e-02,2.856340106820921820e-02,1.178504922735765410e-02,-9.594396378981073781e-03,-1.049601985296799711e-02,-2.535553286239544506e-03,1.307191528405215932e-03,9.356353997646182008e-04,9.367476782809247343e-04,3.677158030594335474e-03,2.652023676817254465e-03,2.439896433790835709e-03,9.730105547524455639e-03,-2.691187186126285441e-04,-2.225068030797356603e-03,-8.303593613635855408e-03,-6.041172154697107589e-03,-1.539326704806403580e-02,-1.944967635645695678e-02,-3.071929579326167573e-02,-3.230658099201853817e-02,-1.703809331140777525e-02,-2.922251283303277034e-02,-1.691041127294288376e-02,-1.021450388128065413e-02,-1.670292735300300119e-02,-4.860301736816552247e-03,9.267440097534288207e-04,-1.048442248434680243e-02,-7.567179209069127511e-04,4.426302141792376466e-03,-7.842420267410870477e-03,-1.204892984216939487e-02,-1.308409739130061587e-03,2.167279151235619334e-03,-6.522756831440843905e-04,2.944488920695857107e-03,3.850977286019252772e-03,8.511366715168569574e-03,2.763103510883212297e-03,1.694927466860924855e-03,3.927887186634994483e-03,2.207093164729530613e-03,-4.777123907629366069e-03,-6.334378702339882317e-03,-1.634679619560224645e-02,-9.841267368171405586e-03,-1.192329628480442820e-02,-1.652992972691104054e-02,-7.507176230247893404e-04,-3.297489485815221838e-04,-3.620792033753028431e-03,-5.177758050751686894e-03,-1.490880435214974285e-02,-2.419623112446138077e-02,-3.331052235630870689e-02,-3.073191804944850475e-02,-1.994220803024805699e-02,7.376430032143878497e-03,6.910228177873620377e-03,2.955306693543702928e-03,3.256542773355417322e-03,8.812764692507326497e-03,3.402665377120015367e-03,7.019668772577033339e-03,7.957926694361010245e-03,8.900053418175664019e-03,3.333091967667717054e-03,3.755829526399440121e-03,-5.402135621928162799e-04,-3.592107762333585671e-05,-6.958111598089401252e-03,-1.578902588307324814e-03,-6.130859678213689858e-03,-8.358355945482393370e-03,4.557207754111828289e-03,-2.536762296454924109e-03,-8.070863123189300076e-03,6.471696562687387876e-03,-1.881507564528045982e-03,-1.478298152252559110e-02,-3.287464028827117440e-02,-4.917789867025397499e-02,-5.629951644189865739e-02,-4.365922311874042422e-02,-2.450980773551965711e-02,8.360225633193697770e-03,2.710792126790998943e-02,1.793808627450597243e-02,1.940455933413828826e-02,1.601989385938005703e-02,9.758520794625346120e-03,5.163003483011953561e-03,3.229564729412459558e-03,7.951861947687037524e-03,2.708322512620742282e-03,4.389714207056361062e-03,-8.714866902796780191e-04,-4.434227124008368465e-03,1.076444911891581702e-02,5.709015370344413566e-03,-6.847534974831156508e-04,-3.605563618029444892e-03,6.541088790710959840e-03,-4.806969148068307093e-03,3.199468235318267059e-04,-5.766487990626715035e-03,-2.429188136932645958e-02,-4.423824169126689548e-02,-6.929837521438081405e-02,-7.086359236050253363e-02,-6.722810315818411597e-02,-4.501964210645245656e-02,-1.678350054928487781e-02,1.753862461460733990e-02,3.095358063876887597e-02,2.761935405800919688e-02,2.674535347094506715e-02,1.283855726250171525e-02,1.160726405069162403e-03,4.600264202175274853e-04,4.072880231897013604e-04,8.554605840110071635e-03,7.036578593800237209e-03,4.741738290873252250e-03,-1.668194645203959501e-03,-1.517744879636789097e-03,8.521624091120321570e-03,1.300863167875809367e-03,3.077297536690227738e-04,7.067256818365533384e-03,2.091176864313912601e-02,9.796189721447764662e-03,-1.346837130986347324e-02,-1.830876139741798025e-02,-4.203335045444474283e-02,-7.325116104622328428e-02,-9.274591014767682995e-02,-9.788006310774402530e-02,-8.204353705103051286e-02,-5.133457881963888331e-02,-1.359329282262366177e-02,2.231981258551072114e-02,3.809610743767771063e-02,4.263291222521804757e-02,2.974377572460857808e-02,1.807769763006170441e-02,6.432882184423532011e-03,4.582528904915166013e-03,5.456167893159349046e-03,9.414648087765251083e-03,3.861026378007742770e-03,9.611905638239142541e-03,6.769750655724715571e-03,-6.469968920219904170e-03,4.344401717917810608e-03,9.593179875571952037e-03,6.286550411220331348e-03,1.276231462226304694e-02,1.740787681264433645e-02,-7.547509180596913281e-03,-2.135911697692450747e-02,-2.357711194636584809e-02,-7.396394834129216278e-02,-9.577088470608118020e-02,-1.190409770069178752e-01,-1.158618374709402266e-01,-9.199978183860159364e-02,-4.725450543194024966e-02,-6.581847245153380280e-03,3.955106964622049498e-02,5.451134202491286773e-02,4.512705147063551803e-02,2.534151646333969443e-02,2.136033734225783326e-02,8.068347392672640950e-03,9.905051420006734039e-03,4.126176769114264960e-03,3.720180857927831656e-03,7.764129607419968312e-03,3.408035402530178691e-03,6.404901878753013235e-03,8.080635810297296783e-04,1.243488230038613737e-02,2.779409257801490271e-02,2.974881058849542306e-02,2.162495541617466543e-02,8.300581104433041660e-03,-1.497737311133065519e-02,-3.295984444436816929e-02,-6.531137922197617629e-02,-9.707245853217658094e-02,-1.214592108380479069e-01,-1.304686334836438755e-01,-1.116971534589650539e-01,-9.313211007336061331e-02,-4.601594757104146560e-02,-5.917269783230970706e-03,3.802043887243831966e-02,4.957661300405002969e-02,3.836174380814123125e-02,2.183671672650694048e-02,1.479556758784562713e-02,2.902739841343636787e-03,6.632853460261263316e-03,7.523745294376799932e-03,7.915790437258485301e-03,7.896181427945538761e-03,9.120610304869037266e-04,3.401567831543021378e-03,-5.544117764521077837e-03,1.905812011101286688e-02,3.285367080950609558e-02,4.108432849781695761e-02,3.237840861219147548e-02,7.992974298124111681e-04,-2.708815783183811041e-02,-5.169100759525117883e-02,-8.011547972709653909e-02,-1.186280638519382064e-01,-1.251009153800827500e-01,-1.163204105031524216e-01,-1.112055669184792844e-01,-7.667604940908885613e-02,-4.269565651346172996e-02,-1.313456504533416606e-02,2.681059225270820273e-02,3.888371342623075239e-02,2.850696927477039053e-02,1.587492533795059613e-02,1.456830621655234338e-02,6.734517171174420752e-03,8.311689106614257930e-03,7.533781852589416413e-03,3.762595855309157789e-03,8.350071669866876304e-04,7.771469159274368467e-03,5.584042497358050576e-03,1.002101372880940785e-03,2.425033922761659147e-02,2.930679308350164769e-02,5.210671822388403263e-02,3.444140757588178697e-02,-3.998378148426046108e-03,-2.865298998603644370e-02,-5.513631541458747370e-02,-7.709825651429470794e-02,-9.626504035929665803e-02,-1.066495779472362571e-01,-1.100657227746147243e-01,-9.409446436392090996e-02,-7.866887143999755361e-02,-3.659334374965606679e-02,-8.829550934274438875e-04,2.381623512369174245e-02,3.910330638078861332e-02,1.636569647919717055e-02,2.142468691491437871e-02,4.431164352303870561e-03,5.999729898719077976e-03,4.488645540362055757e-03,9.929647961193003441e-03,7.379656473539885969e-04,5.538542844013207879e-03,9.693025356190989109e-03,5.230978441701488596e-03,8.662034354607843836e-03,2.626671783844940558e-02,2.683280301532317905e-02,4.654543571198341972e-02,3.877491288110707784e-02,1.757448992983666816e-02,-2.598088739689878579e-02,-4.010214272576463623e-02,-4.784327098523772498e-02,-8.019094290545451809e-02,-1.056986083560420980e-01,-1.011168846028850793e-01,-8.353660403496775133e-02,-6.261683632117998055e-02,-2.330597941283648472e-02,2.527825383154430096e-03,2.228565767334025546e-02,1.724929729070297929e-02,1.835407716926459876e-02,1.659021554053348446e-02,8.049439836200940335e-03,2.492553662553627196e-03,3.095276162863277655e-03,8.137950197069487163e-03,6.847311725538793130e-03,1.626169393448912998e-03,9.109271844938425164e-03,8.225372429231690014e-03,1.328159077429019730e-02,2.744804462326785877e-02,2.231268398447159088e-02,4.786906286673247440e-02,4.759988774079765977e-02,1.606803970857862210e-02,-2.878089936970427282e-02,-4.534629645602691883e-02,-5.360004063745245351e-02,-7.953730175457297824e-02,-9.436658509839587761e-02,-9.633681781049892312e-02,-6.386227670903327214e-02,-2.563120130417442105e-02,1.010471547662511634e-02,1.458200329376843629e-02,1.155179872564334950e-02,1.714549770397259332e-03,4.128170378201484469e-03,7.206143326457560561e-03,7.986443175578215566e-04,8.248508538200768556e-03,8.129010091300774982e-03,9.997176732861306342e-03,9.966368370739053795e-03,5.554317056026274353e-03,7.689874151805105133e-03,9.447657298824281222e-03,1.109383734434881558e-02,1.472844011590825758e-02,1.301318851868298564e-02,4.018300469042585671e-02,5.645306450267250503e-02,1.852913747672963601e-02,-2.285101327023118453e-02,-4.445121813089800838e-02,-6.963142079186906974e-02,-9.034411062005028026e-02,-9.867309774884849838e-02,-6.994119104076244875e-02,-3.527829235649180412e-02,1.436284417035016674e-03,8.068606209314486619e-03,9.023928704240982007e-03,-5.000303993800774525e-03,1.157788635545520164e-03,7.753773177875607735e-03,9.088265896724196519e-03,1.671429959628354745e-03,2.878267631333897379e-04,7.551372556736189907e-03,6.203095513534646714e-03,7.040797680992236240e-03,2.129641615089107511e-03,1.301942166098972627e-03,-7.652750363737137679e-04,2.085234906701340356e-03,6.967205831938398999e-03,9.701617934298127632e-03,3.026401607836415319e-02,4.672946410379658078e-02,2.038142164793451533e-02,-3.836992082479796871e-03,-3.058163604070094493e-02,-5.874305561059462583e-02,-6.081377149827893458e-02,-5.451060767542006275e-02,-2.163045024116087497e-02,-5.336611800390112480e-03,1.539004770681545904e-02,3.975103105583833139e-03,-8.000257371665426068e-03,-2.810565850764784254e-03,9.915263051314082005e-03,9.614924568112649325e-03,6.164951129840075435e-03,5.398202900327728551e-03,2.401456187781930793e-03,7.586332810866391928e-04,1.288797219106492227e-03,1.280458389577724407e-03,1.519026935122943633e-03,1.014547558393314852e-03,5.149574123836552636e-03,-2.186103790808528041e-03,1.260354357261664251e-03,1.137747335110370420e-02,3.044907918467440466e-02,4.363814505005363109e-02,2.925159703448697995e-02,9.189582277894015050e-03,-1.423142243579255707e-02,-2.916695855494400372e-02,-3.332627342007786486e-02,-2.206548608050020940e-02,-3.404760777419682614e-03,1.090983040585120217e-02,5.053374156065761243e-03,-4.555827304998474533e-03,-3.132502204798224502e-03,2.750950317762684057e-03,1.127486240380946858e-02,2.236621654810773147e-03,7.164629793238659269e-03,5.042695117916362255e-03,8.175903194887191010e-04,8.735786241067772240e-03,9.208724005318132816e-03,6.107795985486375078e-04,2.768776481472037289e-03,7.904492694020371496e-03,6.218576689888549898e-03,-1.492334186366185613e-03,4.200936318875075058e-04,2.555701879892467981e-03,1.594379806461883320e-02,3.641340476880376015e-02,3.086916784766396971e-02,1.875402323670661078e-02,1.134394399907543739e-02,1.922799504304587665e-03,8.086206758028341782e-03,1.662756436541243735e-02,2.025754201315012673e-02,1.739368543348189175e-02,2.531008142513765068e-03,-3.722851788606291491e-03,1.112228626078234873e-03,4.201830682337539917e-03,-8.491780539757696209e-04,1.187136873000639104e-03,3.502704172286309932e-03,2.007119777772636794e-04,3.220791655831782736e-03,2.114480069965446376e-03,3.274973521779146399e-03,1.197621318192512111e-03,8.905272807398950316e-03,5.935924535540486498e-03,6.436838781119051667e-03,5.023285996521454494e-03,9.413626134499970214e-04,-2.918688201059642037e-03,3.413163666983916322e-03,7.863640591025006579e-03,1.742434138586004821e-02,1.259533096052727237e-02,1.164995143320995616e-02,1.616672858779428720e-02,1.260781703893188409e-02,1.565108018948877661e-02,1.295621219060322021e-03,-6.605579871314722074e-03,2.878984570443919762e-03,6.657562967657703647e-04,-4.663940517176857863e-03,-5.434134506144128532e-03,-2.990853708027591332e-03,1.541431634130468195e-03,6.449606597382804771e-04,1.865670240513057649e-03,2.850951686938470956e-03,1.733735952947548266e-03,8.967654246264252296e-03,8.023374566164220541e-04,5.245113895702546887e-03,4.103968269896614979e-03,9.800433350822819467e-03,1.551614741555387396e-04,1.615436465985596723e-03,7.846850815084486716e-03,8.661424677058457075e-03,-2.749471063282482412e-03,-2.204933556236656628e-02,-2.531377484336130509e-02,2.639805173011589706e-04,1.143469175137278374e-02,-1.348470322045538291e-03,-5.490459410571022977e-03,-1.306089303786064047e-02,-1.067752346836899763e-02,-1.045460653873021666e-02,-7.347133949087890359e-03,-4.375760108510125604e-03,5.691601186990971877e-04,1.512894920979657208e-03,1.049631378182245590e-03,5.700994236276448954e-03,2.886305532402557838e-03,5.812382214226122570e-03,1.543627152742023129e-03,4.811401018548175021e-03,5.325894325515858480e-03,5.182353682242691380e-04,3.366042781939205739e-03,1.344146769389742511e-03,6.337497047276774388e-04,9.881934433284056407e-03,2.057484835972288404e-03,2.735009016109178712e-03,-9.100794231557586197e-03,-1.107752988350818070e-02,-8.926812869118543742e-03,-5.253506431081248623e-03,-7.714745175537593425e-03,-1.144505337775169468e-02,-1.072935714974404195e-02,-4.213458606626339226e-03,-2.474956375475873861e-03,3.125035007187854010e-03,-4.793370301887645880e-03,2.645801050051117473e-03,8.510438556545601649e-03,1.812330661656601487e-03,6.649626736677749462e-04,7.411206492900591046e-03,5.744731131799118810e-03,8.418287767582721334e-03,1.397723766262894953e-03,7.952673118598901914e-03,2.016273200477445258e-03,1.636559428657045076e-03,1.642657979309929432e-03,8.145747202313822002e-03,6.651972206962001276e-03,4.662327756401764105e-03,3.667058213307375185e-04,2.877374959183315491e-03,-3.841147839471074736e-03,2.163758979456451275e-03,-1.228912234129198641e-03,-1.082362788410015132e-03,-1.505794651618112302e-03,-4.944314469071563710e-03,-1.235141728570019566e-03,-3.500740108724985627e-03,-3.446335506917704451e-03,4.992268932336291730e-03,4.006394702221076137e-04,2.385539475285928558e-03,9.064721109645469330e-03,6.242379959139921289e-03,1.168980407083640687e-03,9.398321236134751788e-03,6.277080530714178319e-03,3.349056146570861345e-03,1.392720726633872716e-03,7.940251892702959030e-03,6.200727559285135193e-03,5.334610919763215289e-03,8.938925830509576384e-03,7.885972112245308308e-03,1.516748797327511795e-03,2.174673934451761860e-03,2.243846780968057825e-04,4.600629526501555204e-03,-1.344407501233313472e-03,5.698896848713165021e-03,7.624586857406905928e-03,8.767656367617494145e-03,3.420817487159074841e-03,8.212573046720128556e-03,1.106317369552072211e-03,7.530932499127334680e-03,-3.675409642856458745e-04,3.177592178973655691e-03,7.972953657795536428e-03,1.499174273487737918e-03,2.292513952326414705e-03,7.222525683930662577e-03,7.200365365460743503e-03,6.411476328852972785e-03,6.939484444671000646e-03,5.427244433475962061e-03,2.517990589069527430e-03,3.456959935039194409e-03,-1.297219351752622041e-01
9.084505613336284202e-03,5.833917947661204813e-03,4.008514167636399034e-03,4.620058036441327190e-03,9.472833396118153851e-03,1.533514031160801948e-03,5.862298320167972157e-03,5.058886788844660018e-03,6.114542354346478095e-03,1.811018382084050827e-04,8.721239089441515380e-03,9.321182824836123787e-03,5.651331835892089810e-03,6.966508238768922764e-03,9.224993811772956923e-03,7.072386343133986453e-03,1.525390429142613538e-03,5.762883601668131878e-03,6.067150463828559215e-03,4.241306713023860683e-03,7.364442356247228455e-03,9.343670147690148406e-03,9.255685129067763028e-03,4.508393714041321158e-03,1.132380458407552474e-03,9.848411989623346435e-03,8.388980864459341658e-03,1.246626812032668565e-03,9.208418826173722649e-03,8.698963620621282325e-03,5.188380571260721268e-03,5.912754357449292487e-03,3.990027038701302736e-03,5.476163882203133283e-04,3.351972416459009143e-03,8.028534485980114155e-03,4.632023004602858979e-05,3.334991716911441927e-03,3.981686935909433192e-03,5.373956029379229130e-03,9.198556164127605697e-03,3.463459943659612586e-03,3.469532018962277059e-03,7.375012481097484134e-03,4.522179408898071955e-03,2.246048229399819508e-03,4.524395161326934083e-03,1.408570203797998707e-03,1.763869865062233158e-03,4.983677727394797766e-03,4.189254495045479330e-03,9.148459010681000633e-03,3.623938991166331027e-03,5.805883502780434871e-03,6.322642879195304079e-03,1.309445658833363634e-04,6.635373720167106470e-03,1.780359668697514266e-03,9.610703174694552181e-03,1.486627277531129502e-03,4.146241237270237474e-03,8.534966807864386449e-04,9.968742518459474192e-03,5.021950103312426174e-03,5.953850173200437614e-03,6.707647738842748225e-04,7.499604703991778060e-03,1.806464585140372166e-03,7.270008872716607860e-03,1.458014859192140005e-04,-8.085088688695815260e-04,-2.181619300994138994e-03,-6.136472581501772753e-04,-6.368869891373640573e-04,-4.306652677774944898e-03,4.769533916314541017e-03,4.112854642485931633e-03,5.243902693275800421e-03,4.407627469382281206e-03,4.007630608753259480e-03,5.596403313082178900e-03,1.552402459307125138e-03,1.819281304952711370e-03,8.617856210135173278e-03,9.461154621336327272e-03,3.733093162797529625e-03,2.707446731435537643e-03,6.439995432390157974e-03,4.087341710980963751e-03,2.538635566034486125e-04,1.561525973661903729e-03,7.159722288473975051e-03,6.589239419101514117e-03,2.709599250348348966e-04,2.201261358202692264e-03,3.366261248465478935e-04,3.182103418252211005e-03,-4.480889611038615591e-03,-3.126278616532234683e-03,2.750238555348433808e-03,-4.588533787095439714e-03,-4.701075788418831829e-03,-6.849041845971874307e-03,-5.047771071806075351e-03,2.510986928817595634e-04,5.759092670604663323e-03,8.556964681062857389e-03,8.302198645669915320e-03,3.971835296184548190e-03,6.680851365706461445e-03,2.049842954158209545e-03,2.931477302610132740e-03,8.963358185211198204e-03,1.300192351073603547e-04,8.550853085446808019e-04,2.078862551460273177e-03,2.653220387381971849e-04,1.814354350897973232e-03,5.830415609696921672e-03,6.686169371526426430e-03,1.628432579308935341e-02,1.065123309899024956e-02,9.157612929959604636e-04,9.436889688397427341e-04,1.054969550331365247e-02,8.681494390566214456e-03,-3.170489050755839495e-03,-7.687398410756826790e-04,-1.676844330711114994e-03,3.202581909826562965e-03,2.372916998887551754e-03,8.299941941496169137e-03,1.046364723510387167e-02,5.119943013122290644e-03,2.144850195214760872e-04,7.861027047620363847e-03,4.874311982495136558e-03,8.945522268940913832e-03,7.998552559473152621e-03,4.252135044692334671e-03,2.246930832011739896e-04,2.686773593849460864e-03,5.416342146608668986e-03,6.241654419265715154e-03,2.079953654286726631e-03,7.491699151276343116e-04,9.240508476750453060e-03,1.414668896935322023e-02,6.932698215198501539e-03,-3.598871156144771172e-03,-9.243036499385988772e-03,-2.106139033073322134e-02,1.998138682808291676e-03,-8.643282621311301414e-03,-7.683259030948214920e-03,-8.073511270584322538e-03,-2.150864505176063469e-03,8.092100898835944550e-03,1.566916885643951374e-02,1.465183041164231856e-02,-7.151977943301386555e-04,-9.788274518603343882e-03,2.003249989250850422e-03,5.365000354273748336e-03,5.050381214238267372e-03,4.877374288383176139e-03,6.650366745462554970e-03,1.753712786234495847e-03,9.144119459249597584e-03,4.187705248920731149e-03,3.831385282494974547e-03,4.118583658603702270e-03,-2.136944896283671409e-03,-2.396798347766352939e-03,5.601142488039167165e-03,-1.907988406434286618e-03,-4.303988590579291111e-03,-1.884848359358740760e-02,-2.908580763165835928e-02,-3.081742534665341676e-02,-2.799560982280582463e-02,-2.295380100150275562e-02,-2.437163435215657092e-02,-2.046553361829003825e-02,-1.005844312830656354e-02,-8.391714725346579445e-03,3.009718182666498883e-03,3.479401120759020426e-03,-1.525596102113386740e-02,-2.166338390926685065e-02,-1.220276473829309122e-02,-4.063421500111769925e-03,-5.102126706578014211e-03,4.180663151042133922e-03,5.968428489168892473e-03,3.342438908169608185e-03,7.709122037458219362e-03,1.065982531337718005e-03,7.513778173580875838e-04,3.663283414094016706e-03,-1.654198468055841651e-03,-3.313230118157530543e-03,-9.151424149050638168e-03,-1.265735700505333898e-02,-1.614706038930567231e-02,-2.594709804546758633e-02,-3.149653211304149353e-02,-3.954075725662534180e-02,-4.255523905061470852e-02,-4.788300140780402114e-02,-4.343495275458373467e-02,-2.500641041917363999e-02,-2.551645535164243778e-02,-2.414244159348073390e-02,-2.401590244730680834e-02,-3.300561410837438148e-02,-3.978805909444749905e-02,-2.586215510842035034e-02,-1.428257108374051190e-02,-7.926288344620864915e-03,-4.289601721198222327e-03,2.005509850181550098e-03,8.491956515653193913e-03,2.496680088591859362e-03,4.894249636431404794e-03,2.212094418196022469e-03,9.876680079966469739e-03,5.716354934302667230e-03,-8.330633437014596868e-03,-6.047857090782524959e-03,-7.884435542850294631e-03,-2.502446938897203918e-02,-2.236501633205463871e-02,-2.420826369480537366e-02,-4.543815039870578720e-02,-5.312644723441873468e-02,-6.551972767989423796e-02,-4.654913385305679829e-02,-1.945926496878491382e-02,-5.675144005251928254e-03,-1.654901597122307791e-02,-3.125075167320717773e-02,-3.917859012748630548e-02,-6.931484416993069497e-02,-7.114271220259600625e-02,-5.506639180952900559e-02,-2.406088292661427361e-02,-1.873955966666095499e-02,-1.262730980535180236e-02,-9.444864884960784204e-03,6.962887758781398026e-03,3.398749637680661267e-03,7.247667715287614901e-03,3.157848565393812760e-05,3.152903378306103326e-03,3.410119422000059547e-03,2.152009501024751501e-03,-8.818809195733093298e-03,-1.206433106791787897e-02,-1.596326088781213973e-02,-1.865420892749219961e-02,-3.374724524102001855e-02,-4.878072884921252905e-02,-5.718665983299786593e-02,-6.377600660358158369e-02,-2.756388575926459195e-02,1.069591823290187704e-02,2.230149039107355222e-02,4.407608435721226819e-03,-3.253998731473688177e-02,-6.157824778292986939e-02,-8.030372234606032722e-02,-7.833643255279944262e-02,-4.976186341213597458e-02,-2.181851377897239472e-02,-6.916588971309647720e-03,2.193730043671394698e-03,4.126601969414261245e-03,4.177667821673337369e-03,4.213570022770701806e-03,7.375823015888915285e-03,2.316003966644315445e-03,1.104741131313946708e-03,1.810811674721299509e-03,-1.563015830268101513e-03,-6.019183414001464186e-03,-1.456105274772519394e-02,-2.317247886841957913e-02,-3.023952774633002771e-02,-3.429107144895979231e-02,-5.824766421155996160e-02,-7.137680499088767949e-02,-5.242113108068945787e-02,-1.238464335099082742e-02,5.085748590199079544e-02,4.940401065405933267e-02,3.896653376397934878e-03,-4.139332235655603792e-02,-7.412138545224597475e-02,-7.662474537829398746e-02,-6.158201564275667811e-02,-3.059185192920414742e-02,-1.616025420761178430e-02,-2.072443627836305390e-04,-8.284210177813283596e-04,9.427317741351257455e-03,6.496466489923684307e-03,6.077367948788591281e-03,5.126885110165085684e-03,2.306698117177586899e-03,1.765280320055082628e-03,1.120522191282356589e-03,-1.082182922478218704e-03,-2.720261499588783397e-03,-1.422672851068293616e-02,-2.282492969147891654e-02,-2.207981283991238344e-02,-4.051908496253971148e-02,-5.179934577441196175e-02,-5.853368215010151809e-02,-6.647981433580546495e-02,8.577949721502077128e-04,5.271263988316954308e-02,5.511975308295697512e-02,-5.023001872544650276e-03,-4.627852059446136562e-02,-7.814169222605844844e-02,-7.220645877004809587e-02,-4.746112914203481220e-02,-2.160392690740075075e-02,-8.406896761539887214e-03,-6.576077336083688274e-03,5.534158479691016902e-03,2.656000425887060801e-03,1.295149212828041862e-03,8.887480798689771991e-03,9.556514982297533572e-03,8.621276172654505909e-03,8.095160747248780764e-03,4.836603698085834881e-03,1.638998918077544560e-03,-1.109822533967971293e-02,-1.330018455550439731e-02,-1.623310898430221569e-02,-3.045620055171610607e-02,-4.291449548656178781e-02,-6.265357456176916251e-02,-7.288840453229306071e-02,-5.813115747929656352e-02,1.262873919187383967e-02,5.824473460580174844e-02,4.978379223563517836e-02,-1.853917476761133415e-02,-6.262315678900340354e-02,-7.576979616188528333e-02,-5.252984034981430378e-02,-3.745231043720097242e-02,-1.395561025931637590e-02,-5.421872882987844623e-03,-4.270924958715268359e-03,4.692674712363998496e-03,7.974260216069280899e-03,6.584518346584255361e-03,8.505817290942420048e-03,8.672942009598023222e-03,7.083629767150347728e-03,8.370133283636720101e-03,5.511106474279840219e-03,1.867371607298376783e-03,-4.377668303525527986e-03,-8.643850908100937994e-03,-2.600959654722499390e-02,-3.328835225663405450e-02,-5.057155164768577238e-02,-7.617096744416991527e-02,-7.193890535907558614e-02,-5.330791505164858557e-02,2.947280602192054594e-02,5.927598718864149352e-02,2.321361226714119264e-02,-3.599530461432870476e-02,-7.917016778347094053e-02,-7.445636794074603215e-02,-5.197521260761493039e-02,-3.401435513550877393e-02,-1.338630977935172280e-02,-2.437948735540827142e-03,2.725533632096578023e-04,-1.565645753068482630e-03,6.340057030996113299e-03,5.399853797158554909e-03,7.798453951511435944e-03,1.069806388269584204e-03,7.610279025020280294e-03,5.412665786761102979e-03,7.809265410426325868e-03,-1.034070091379964574e-03,-2.872794240750099672e-03,-6.729428137378875609e-03,-2.407205096104624714e-02,-3.334342941402426014e-02,-5.340454157698776988e-02,-7.477065916346460617e-02,-7.825384421973401172e-02,-4.746465171994154741e-02,2.574683832275579884e-02,4.683911528703232907e-02,1.151592849193895825e-02,-6.096771182106665993e-02,-7.918735449611487287e-02,-6.149262836336782251e-02,-4.315352410796813309e-02,-2.966859636016870236e-02,-1.672449962152952607e-02,-1.169778893873920506e-02,-2.828414627714084177e-04,-5.217076932401909332e-03,-9.565890982844894733e-05,3.147014532993880429e-03,4.886431904046657955e-03,7.704074178077932600e-03,6.832953766065051789e-03,4.459027063767483437e-03,1.708475446593279382e-03,6.496569318002227630e-03,-7.020889849271220833e-03,-1.422424023914391385e-02,-2.626674566053089840e-02,-3.940044907193733514e-02,-5.451874483179282305e-02,-6.986084333620706799e-02,-7.054849795364892540e-02,-2.784448399101222341e-02,3.977471642470752078e-02,4.219910767845788668e-02,-8.006032472555074013e-04,-6.903438470849306008e-02,-6.812416650323399603e-02,-5.533046634271772402e-02,-5.116254424676106027e-02,-3.632890409113959801e-02,-2.486372028506927262e-02,-1.391816546452656102e-02,-1.155487309747723745e-03,-3.331061083553894450e-03,6.518794420544616122e-03,8.056145548082643956e-04,2.131047040250833111e-03,3.113408288451135933e-04,6.516668253758850504e-03,3.685263437237611388e-03,8.643582498396371397e-03,2.949862698725960047e-03,-8.723141125293739587e-04,-1.965628065210362624e-02,-2.137015265589615673e-02,-4.004765541531193213e-02,-5.169313158728199714e-02,-5.476028341296477336e-02,-3.389921841951041431e-02,-7.804935530814780843e-03,4.442048839074082267e-02,4.371131725434122817e-02,-1.455277297123405526e-02,-5.828061743108026160e-02,-6.077147552986330442e-02,-5.476439596249767228e-02,-5.407082069672721619e-02,-4.275246631756516452e-02,-2.369481777661298916e-02,-1.235217996371327197e-02,-8.535204229293396130e-03,-3.627608153901719108e-03,-1.958738516343469082e-03,5.059042473477065420e-03,2.689934044350976612e-03,7.975591006371881078e-03,3.103619589235737629e-03,4.552201490818011745e-03,1.162053990810063629e-04,4.940973105487117285e-04,-5.724155463337747378e-03,-1.969389198458530721e-02,-3.048042043523888078e-02,-4.507841470327052930e-02,-4.590528747080224042e-02,-3.649422077496260186e-02,-1.060384534991145981e-02,8.404718937435065595e-03,5.712926264363194645e-02,2.910820686131103396e-02,-2.295993679265637480e-02,-4.612613955929798643e-02,-5.992880157267207325e-02,-4.684354907916831595e-02,-4.308161719177994869e-02,-3.462010550587747704e-02,-2.394598262790365029e-02,-1.703940477774306198e-02,-8.510169811242277935e-03,-3.838822860963034354e-03,-1.431586451232537546e-03,3.506269312091807484e-03,3.320310879136656522e-04,7.857849715502074556e-04,3.969232762015960370e-03,1.327157540430603513e-03,5.675408482615581889e-03,6.492428057399019306e-03,-2.943025854855351592e-03,-2.676728447924980533e-02,-3.800644161148259564e-02,-4.410422034347055015e-02,-4.413005724255989609e-02,-2.326082416996219995e-02,-1.864650829392484194e-03,3.394931356084171514e-02,4.541203851813577219e-02,2.077199955259938571e-02,-2.573853238808558250e-02,-3.590173150422281551e-02,-4.556709557827733764e-02,-4.155669255218206321e-02,-4.004739162320201246e-02,-2.020768044885115980e-02,-2.230103983624641753e-02,-6.331034898506749178e-03,-4.873752906767429664e-03,1.823603580979828295e-03,4.193922381735707382e-03,6.435776951965249508e-03,5.264026609361132508e-03,7.315895217553318453e-03,8.162998203058957321e-04,6.035208399056379543e-04,2.471032340101464529e-03,9.863481963409469287e-04,-3.863380959715782131e-03,-3.086675967904848467e-02,-3.195452946833143154e-02,-4.269239555575311817e-02,-4.176785786606433681e-02,-7.714113687573025298e-03,1.286531883562466033e-02,2.620220767321264702e-02,2.783685234042530474e-02,4.410041827898836253e-03,-3.140869504059277256e-02,-2.360186150127106808e-02,-3.644654065628524786e-02,-3.743072634179735181e-02,-2.585721194473792478e-02,-1.077555660670096067e-02,-1.608614560833883378e-02,-1.111858939071580683e-02,-4.996270923473585500e-03,2.281399646350706391e-03,8.682725054083805655e-03,7.271690697663080009e-03,7.427065211999810124e-03,4.254933344480753624e-03,3.459349925469629335e-03,3.639759136647044164e-03,8.993839457788279507e-03,-2.253889074159476976e-03,-2.572565829738127346e-03,-2.190212901325511857e-02,-2.962089217654470530e-02,-3.208744147734909208e-02,-3.490110467944577965e-02,-1.152527372947817139e-02,3.715803423315673041e-03,2.424472466731568757e-03,-1.362928878666548084e-02,-1.733965752291032059e-02,-3.072571198698408404e-02,-3.730524283094741045e-02,-3.785160612588921170e-02,-3.226019347860467623e-02,-1.923466017770774153e-02,-1.408612557050834338e-02,-1.981026668365688196e-03,-4.066524832318602566e-04,-2.514982186905463137e-03,1.307435987842689397e-03,9.713950940416396507e-03,1.809769527094897811e-03,8.543850933695791225e-03,4.922778564480347931e-03,2.472310744031770355e-03,8.280196628871272849e-03,3.279045418099472108e-03,1.038705175553338370e-03,-5.521010059007025635e-03,-9.152208770044694894e-03,-2.119864519148912177e-02,-2.824495139983591169e-02,-1.685613274515102011e-02,-1.840770329204267919e-02,-1.724834638745886134e-02,-3.235588897303078720e-02,-2.977492436252538940e-02,-3.557973047270748118e-02,-3.081946314020478708e-02,-4.233809544672106906e-02,-4.109904566236395607e-02,-3.808503109022422228e-02,-2.338558852756340845e-02,-7.466540517577065217e-03,-4.111893175198056728e-03,2.210535325189589249e-03,2.138720589390483238e-03,5.879846696804734560e-04,6.171449866040300963e-03,7.067772168854458137e-03,1.670419079009498623e-03,1.676192162883176741e-03,3.667142693354297450e-04,7.183917492999000731e-03,5.668229173686901989e-03,1.109024490955296720e-03,1.729630265626454439e-03,-2.187236554578554475e-03,-7.865710575292689938e-03,-1.161493344220493676e-02,-8.755978939558251711e-03,-1.824085963065559535e-02,-2.821465956992615098e-02,-4.055655498549497195e-02,-3.069923480927836887e-02,-1.859692878783625325e-02,-2.946667952464463586e-02,-3.338324565592002552e-02,-2.350037127003231502e-02,-1.446399717121356517e-02,-1.069563107166181422e-02,2.497805877407012791e-04,-1.002333787827370181e-03,-4.754892355840367626e-04,9.677957508348255036e-03,9.651186964360455173e-03,4.939980934409615612e-05,9.518117854232389236e-03,6.391199378155004024e-03,8.679182945200220739e-03,4.547398556338590886e-03,5.155960285792502741e-03,4.703113707963013819e-03,4.663470397890630455e-03,-3.159844516740498675e-03,-8.426635397787065468e-03,-1.049789393497696684e-02,-1.203034651501423691e-02,-6.734250844700776992e-03,-1.101387060514002515e-02,-1.497756910956410913e-02,-3.556466594631827599e-02,-2.111551693563901502e-02,-1.207991400394958087e-02,-3.859153365148153617e-03,-1.295583057306667202e-02,-7.029287919102692773e-03,-4.909113859679817456e-03,5.718452572722160232e-03,8.628544450002263028e-03,6.859506450838386178e-03,5.528182784023783804e-03,8.018432049462174624e-03,5.706097466388297158e-03,3.038705969683685938e-04,9.309486955069777234e-03,6.895267510315611879e-03,6.765133857772465467e-03,2.156751523977171701e-03,6.588854702326571791e-03,3.926423039314803215e-03,5.789836902403432822e-03,-5.818986742098563106e-04,3.978800309538082017e-03,-3.728982450536459203e-04,-1.941207348941384817e-02,-1.622725545360286436e-03,-1.127554000017258994e-02,-4.606306161961160744e-03,-9.909633275121135232e-03,-2.037466784015043789e-02,-9.979421454321289395e-03,-6.483436899076841162e-03,-1.649222579670739722e-02,-1.174767484870989018e-02,-4.680243056479229009e-03,9.359425254686982217e-04,4.190119674128943601e-03,7.181012444772601200e-03,4.284917759545560194e-03,7.895826579889887731e-03,1.202090553706084515e-03,5.444890979608495857e-03,5.758660498121570494e-05,3.245858299002703142e-03,3.664615348713978673e-03,3.961726916092553862e-03,6.954672066898621476e-03,3.885581012703457574e-03,4.486936226225306246e-03,2.352271551530350866e-03,2.292112532618476462e-03,-3.280927735009912197e-03,-1.029435735854268390e-02,-1.213354506819596008e-02,-9.737599682156058631e-03,-4.989858600920100799e-03,-7.649371437281645217e-03,-1.101744529433261455e-02,-3.889581148458668564e-03,-4.594388245992011080e-03,-3.260324471541820122e-03,-4.916698157446748076e-03,-1.144016051067802851e-03,9.002371364063709198e-04,3.317192869600024425e-03,5.801723692273322817e-03,5.336025467268784746e-03,6.079050927934446201e-03,7.648832615421282885e-03,8.129857387160934271e-03,7.181230762264944126e-03,9.555236959549347903e-03,1.823258267636163087e-04,1.957779856835460859e-03,7.562874978142119630e-05,6.474747141546030420e-03,8.980305489499868649e-03,1.707289106982568493e-03,5.787495730902155779e-03,-5.145974492376135731e-03,3.334160026959282863e-04,-3.061764939396843105e-03,-4.025962638974363121e-03,3.033931545017312333e-04,-2.976826519311614235e-03,-4.254470174795002904e-03,-3.285391545180003925e-03,2.623916820227025631e-03,9.516736854959743225e-04,2.553456811726146269e-05,3.965403590364911628e-03,5.405902728163637649e-03,2.726240007335337633e-03,4.135491015253515285e-03,1.218860933369475671e-03,1.811493495346803246e-03,6.811178539649828494e-03,1.814383476956269543e-03,5.251633836670602067e-03,7.090462617224326837e-03,1.068769230947438486e-03,5.673122196289035434e-03,2.565627837013637665e-03,9.629268752375798671e-03,4.835456467199247300e-03,7.355143290537168727e-03,3.609844630638537125e-03,-2.011455863334194599e-03,4.994144520099308079e-03,9.514033422066570794e-03,6.016118201463312165e-03,8.191888594267901849e-03,8.842064633484077868e-03,2.280797719489324662e-03,2.120448399082266403e-03,5.714452214670444688e-03,3.414748049645750187e-03,8.061826862063204910e-03,9.000231233980112225e-03,3.534213793027181274e-03,2.368705589744820716e-03,7.805255152438618678e-03,2.748060355481361013e-03,8.226143185136784372e-03,4.237382536487628235e-03,6.675498992914704645e-03,9.553531383466818067e-04,6.238593246765729988e-03,-5.477730771284136657e-02
5.866084631754741111e-03,1.680142077448634232e-03,7.368737449441821637e-03,8.627970775432284786e-03,2.167398000907756576e-03,9.571455552016172770e-04,2.363858604633639799e-04,6.419715004432660285e-03,6.070940360887807849e-03,5.466974127140700190e-03,2.319470961159754343e-03,3.909059959055146381e-03,5.944763351861730334e-03,4.967668588591694218e-03,9.877855202148873651e-03,1.364397525567331241e-03,6.951445540475937983e-03,4.043187681042921013e-03,4.281996149256147959e-03,7.175977656581762100e-03,6.924361513243696212e-03,9.912559937021883302e-03,1.283942894541252426e-03,1.041096493841663344e-03,7.243388171287411248e-03,5.783869170064090924e-03,2.741606665598058604e-03,7.941936898898660502e-04,8.565824959643053701e-04,8.941908746641183056e-03,1.918673247187429026e-03,3.233715621155207852e-03,2.266564022269880376e-03,3.549963058319373366e-03,6.942384274609336367e-04,5.190597909082703999e-03,6.761256359221490004e-04,8.003565078223615764e-03,2.337120819104330192e-03,5.400119146045105796e-03,8.800790875614581885e-03,6.508773690471941591e-03,5.329577865513353101e-03,3.243337531153756177e-03,3.330019130581979292e-03,6.694869551981901153e-03,9.941393612211675210e-03,6.618391898493786694e-03,5.577834173700248893e-03,7.306505102392461294e-03,4.652056122837181298e-03,6.014234260078521683e-04,5.622968158779098266e-03,9.576252845053801616e-03,1.753029423576596456e-03,6.900048908206657221e-03,2.009336886590564874e-03,5.358276844730812567e-03,9.667644964671961863e-04,4.503709362581851533e-03,7.561633288952460813e-03,3.475715242389820769e-03,6.649117244872180220e-03,7.954499607897291824e-03,9.271778194794527347e-03,2.346420818554535454e-03,3.993159158093081626e-03,2.488012341322999327e-03,1.555966331461687210e-02,1.554740611095530196e-02,1.426704485550532066e-02,1.042047811130079014e-02,4.109419991528266182e-03,4.315543749381425646e-03,-4.870865377394018210e-03,3.231800031136568534e-03,6.014154477666036353e-04,8.260676302525284120e-03,7.820280876703859449e-03,7.087446977429764580e-03,3.616038052476211332e-04,3.031283559453286282e-03,2.631125699108428483e-03,3.601364074715191193e-03,8.764274676383854157e-04,9.369578230310628142e-03,5.538022407123762737e-03,3.055243106580235544e-03,3.969815170742834604e-03,4.472025405048356966e-03,6.005943333606172767e-03,5.156794276964977997e-03,9.193919732144173462e-03,4.969634829058302596e-03,1.014382215651839052e-02,1.545349439090605050e-02,1.177358812775325565e-02,2.757554174903303901e-02,2.278456790073793772e-02,1.637719385343786721e-02,-2.975936851461962151e-05,6.395596200145127605e-04,-9.372620343991075985e-04,5.281431241552542351e-03,1.131918476944281798e-02,9.524165393335065274e-03,8.091928305125218462e-04,4.029801787651614460e-03,1.735245149865086763e-03,6.949510889024616833e-03,3.460997265377855486e-03,9.756102008599150041e-03,6.409720773453320315e-03,8.224805636343609713e-03,1.325246727418484365e-03,8.620144822726225411e-03,9.227571905133943875e-03,4.870619188189358705e-03,6.062529377509774837e-03,7.119096725508911733e-03,1.738295110650031887e-04,1.046834393557687093e-02,1.019211467431135019e-02,8.613545360688012673e-03,1.102661842748910680e-02,8.780781012462341578e-03,4.149739100542134025e-03,2.352718162772900364e-03,6.493871328427744003e-04,-8.822383974505182760e-03,-2.663332271917427836e-03,-1.175778851468877546e-03,2.861230622820816710e-04,1.042890236444080770e-02,5.131272362228840762e-03,1.624018989243105910e-04,6.408263146902062543e-03,2.160381825095996147e-03,6.195879548978295605e-03,6.502010923981533554e-03,1.520248531286481040e-03,6.134962711066816420e-04,7.807615860684398272e-03,4.466339646645183306e-03,-1.054498493536568777e-05,1.193423407697147623e-02,4.883690355656240129e-03,1.092713691351538362e-02,1.057214128132797845e-02,1.295581576082346226e-02,1.106055232278865819e-02,6.905275609446405449e-03,5.068199314928221316e-03,-9.102796504489450019e-03,-1.399363908035860561e-02,-2.226909860862291701e-02,-1.704592740434099710e-02,-4.428447653516502484e-03,-1.334124756346451689e-02,-8.471452346569227285e-03,-3.786620473834771856e-03,5.486848379076483644e-03,3.562613621257568024e-03,7.382204804424793553e-04,1.959811201842262790e-04,7.575943021221738689e-03,4.497846488213225712e-03,1.946225118207650694e-03,3.677593508772896043e-03,4.141297525289270795e-03,8.275378955668743694e-03,5.867707199940903895e-03,6.862116329837368058e-03,6.099186324971427736e-03,9.019435342906298100e-03,7.883180769137281690e-03,6.384659274584860052e-03,1.699999338351887782e-02,1.817523563119891050e-02,1.295841180643416204e-02,1.330342188064782133e-02,-3.804941233948543316e-03,-1.488423360658817050e-02,-7.830209197362977824e-03,1.080278659178571590e-02,5.489924895120671354e-03,-1.364623328084913975e-02,-1.951812474554371485e-02,-1.123782215096697998e-02,-1.328871668998303284e-03,-3.737161020304751499e-03,-1.369043633117835845e-03,-5.392877243448973568e-03,4.055239908067121909e-03,1.500486646939842503e-03,3.246759268900599807e-03,7.373570773877996705e-03,4.760181293687665814e-03,3.758882851457693262e-03,-2.558260978273387996e-04,2.681826669762852819e-03,1.317822003637750608e-02,1.923480331097376581e-02,1.956209161109217706e-02,2.048693199067713050e-02,2.187402388818793578e-02,2.302362609673731450e-02,1.604760907177786577e-02,2.928277270339780906e-03,-9.136916543130434859e-03,-2.813239266954168163e-02,-1.878969003276845240e-02,-1.359249347454716131e-04,6.684134429066525794e-03,-5.748641285452628195e-03,-2.255898984842635499e-02,-2.284279364681482752e-02,-4.239788873881553469e-03,-9.467134170830775186e-03,-1.092333853932805909e-02,-1.069143178638319765e-02,2.424652274745042052e-03,5.122219208126744909e-03,6.802277792083533114e-03,4.167290060238426803e-04,8.479201604580322233e-04,7.163233880626822953e-03,-3.710151305825385489e-03,5.961638795570365669e-03,7.898145569508812150e-03,2.199555145278953711e-02,2.137242887321351426e-02,2.338539657118736750e-02,3.622451788971021297e-02,2.108836905615443097e-02,4.180624400161970372e-03,-1.174283660538660845e-02,-4.029661190374386054e-02,-3.994226251093094260e-02,-3.976619622464708237e-02,-2.233800006416316111e-02,-5.632799444873629220e-03,2.424572156029887200e-03,-3.372978040765684665e-02,-4.119035063216433534e-02,-1.510577598668437493e-02,-2.267328893747671062e-02,-1.584972929787242107e-02,-9.146776686989845778e-03,-6.525687461198384672e-03,2.056872621955551251e-03,1.213864181594064267e-03,6.150129680388666253e-03,7.273762489042489253e-03,6.439042535411307160e-03,2.959750438916005245e-03,5.145609423138294142e-03,1.760548585012864861e-02,2.757258250396131191e-02,1.354375076198530321e-02,1.227030467673812311e-02,3.497280762502434637e-03,-1.307123196194382754e-02,-2.782859999598197645e-02,-4.517934453210594586e-02,-4.961903468628064973e-02,-5.407982887051189513e-02,-4.069654664377475584e-02,-3.303982841385554731e-02,-1.619719351578141620e-02,-2.029113579339839046e-03,-2.329846969583645316e-02,-3.214049572933948967e-02,-2.409426162937849947e-02,-2.156667616633645493e-02,-1.621277052909751368e-02,-8.560435404665585682e-03,-1.544559564046932244e-03,8.869249002092694997e-03,6.458108126552060228e-03,2.859067892391601445e-03,8.104941468455167941e-03,8.613699963634360510e-03,6.488348955810754014e-03,1.034851104252780193e-02,5.041083519879605533e-03,1.425236045127231330e-02,5.915248872194395820e-04,-1.070635012658936042e-02,-3.436310935836480590e-02,-5.153865929160141024e-02,-7.126513460763887753e-02,-8.163502108859257977e-02,-7.218633457108684925e-02,-5.431084373742573607e-02,-3.854155753452760680e-02,-2.992790314938065938e-02,-1.050080474978068792e-02,-7.224936328791287977e-03,-7.015249150179204453e-03,-1.044147557517265124e-02,-2.020030237835482301e-02,-1.642265709679334440e-02,-6.470284521363309053e-03,1.621900691102487425e-03,5.422372054918482912e-03,5.903476904587728891e-03,5.083605469162799477e-03,2.975484513188205934e-03,5.650219928590161089e-03,6.888853020500906865e-03,7.227159167410598765e-03,2.982199356696997074e-03,-3.286067813269798882e-03,-1.697187825994220245e-02,-2.164740290088424876e-02,-4.273659242649482243e-02,-6.323029618353384618e-02,-7.624799524422658237e-02,-8.204579909796259896e-02,-8.460675928304912941e-02,-7.629401751618057614e-02,-5.912409214674845676e-02,-3.960043281782725522e-02,-1.981917148839956386e-02,-9.315657536495164023e-03,-6.921487121063933439e-04,-8.511496056301399646e-03,-7.602466956112029391e-03,-8.547876086974650831e-03,-1.132268384772124048e-02,-1.333776116451820121e-02,1.036624502435069773e-03,3.531135494023907202e-04,7.457337827312321595e-03,2.024805601652373936e-03,9.580734801193802747e-03,3.679407513020844980e-03,3.269316163380791077e-03,-7.944210463075720508e-04,-2.382574492258072562e-03,-1.067396249202124878e-02,-1.883691734606130277e-02,-3.430041900819717771e-02,-4.938913349627330196e-02,-6.369965520169110218e-02,-7.703439792638544503e-02,-7.443414937596865011e-02,-5.834374927949079193e-02,-5.685862755122561563e-02,-4.157352207224095791e-02,-4.154313453063448319e-02,-2.898134433636497670e-02,-2.432737104318585808e-02,-2.179476053309679223e-02,-1.390563671706746170e-02,-8.288464303168575908e-03,-9.156584351252487763e-03,-1.058332722932398516e-02,-1.299953688224771836e-02,-2.392750039399374733e-03,5.614845879595237177e-03,5.606600944161709531e-03,6.034876665964548047e-03,6.764679372263622710e-03,8.049889996807698192e-03,2.698207201282143506e-03,6.238528834673097261e-03,-2.080876534213327821e-03,-1.670151409668145862e-02,-2.526261835509238315e-02,-3.122142272638100957e-02,-4.134847762859338721e-02,-5.842096194413222421e-02,-6.753214102439673849e-02,-5.970665518190844401e-02,-3.436813581635006498e-02,-4.264766422917409816e-02,-4.785443413493974812e-02,-4.478569190932626953e-02,-5.443741312394266563e-02,-5.347819183209498450e-02,-3.366525462798272000e-02,-1.316895683216646497e-02,-1.034862318447351409e-02,-6.796110519224875073e-03,-8.661160533755424620e-03,-8.168917950127150066e-03,-2.186903566968412347e-03,7.856516180802320184e-03,1.183361909233873266e-03,4.099048896962882542e-03,8.398022856356171517e-03,3.838329519330440330e-03,5.718722712271865488e-03,3.507434782307266522e-03,-4.902300616705193050e-03,-1.250566419114518615e-02,-1.651386333943365495e-02,-2.546459979516529221e-02,-3.690589819799023480e-02,-4.055477289191857654e-02,-5.548466679049671862e-02,-3.783873616995932915e-02,-2.690542173057231673e-02,-3.167519429491169602e-02,-5.406658498126894197e-02,-7.143121852527456461e-02,-6.518547104377966916e-02,-6.243828971034490888e-02,-5.011452763887692258e-02,-2.592839455098644441e-02,-2.083327862292678329e-02,-2.028251794679537465e-02,-1.170734010066683435e-02,-1.193566196838091904e-02,1.456782025463085415e-03,6.549117406041742896e-03,4.706539294923882226e-03,7.295082286523967355e-03,7.655128989911097297e-03,1.589081676693535625e-03,6.102251494776412925e-03,-1.903355962019541523e-04,1.735651813268297488e-03,-1.006029321758108129e-02,-1.251195410919183140e-02,-1.972065656787138493e-02,-2.485374966934439378e-02,-2.374608454997844884e-02,-1.813798848717140116e-02,-6.447862383861770121e-05,-7.882778697544204696e-03,-5.520468598068749982e-02,-7.469251782026513353e-02,-7.809380447446673257e-02,-7.428003699232024748e-02,-5.984902619729986356e-02,-3.873926781037784206e-02,-2.280542534458135373e-02,-3.244857235372207438e-02,-2.274203118801201157e-02,4.048920114345100352e-03,-2.928370085773869796e-03,8.636510249338038084e-03,1.486923275964638358e-02,9.141974385074172829e-03,8.998333456872724401e-03,2.182339677548950150e-04,6.637896861755891373e-03,9.633944342135504144e-03,5.601681834618419363e-03,6.201333487896918892e-03,-9.745729613725190310e-03,-7.219903508097663507e-03,-8.621632576811510615e-03,-2.471777821186706722e-04,2.250922697334486328e-02,2.078063748618197426e-02,2.475524916674470138e-02,-9.994001541759096538e-03,-5.241079312083288255e-02,-7.347391158880223205e-02,-6.531933411259226163e-02,-5.363859240609768209e-02,-4.069012460675029696e-02,-2.489594807474548865e-02,-2.030130219499357361e-02,-1.631524148176170808e-02,-1.257813054822384249e-03,2.260441372078891495e-02,2.221931529211448528e-02,2.388784966788673469e-02,1.513976961458762989e-02,1.148767245916369577e-02,7.228143032084837633e-03,6.766836190000158216e-04,7.078350972297686554e-03,5.435382173426460579e-03,8.172534574677826121e-04,4.247274221201813478e-03,9.253268840905243264e-03,2.797344386735865340e-03,1.845422251988120335e-02,3.651059167465987854e-02,4.286444408484901825e-02,3.735709050772884759e-02,1.648355872733199209e-02,-9.318752188537816894e-03,-3.915422173978353598e-02,-5.074377828007527180e-02,-4.198462828101876682e-02,-2.541016503961034123e-02,-1.575047084198859942e-02,-1.895925518444081109e-02,-1.052486479590942527e-02,8.309638425504988282e-03,3.665212949179619262e-02,4.292183834544686244e-02,4.530361728113384973e-02,4.092844370152060041e-02,2.340123459879833723e-02,2.048812741507125782e-03,8.778300781520408450e-03,8.795818549515291296e-03,8.705784250460068749e-03,2.387962113815392858e-03,4.512393441809881174e-03,9.236279489500899900e-03,1.528513477852780703e-02,3.103869950724248358e-02,3.937820551402863162e-02,4.623680089498675982e-02,4.218404058485081959e-02,2.552402591231173537e-02,1.637385158331209484e-02,7.946258309922391017e-03,-2.806129562132049331e-03,-2.223371302004928038e-02,-1.482233072775248142e-02,5.506783655588971468e-03,8.642495284123955304e-03,-5.170524695073696643e-03,8.687367941613710273e-03,3.916557706984467868e-02,6.224331417060884053e-02,5.952663553517045097e-02,5.146757457022826249e-02,3.541722059099863817e-02,6.339442105614994868e-03,9.150900684070432251e-03,5.330288672461399799e-03,1.579548228353480068e-03,6.958991181688024309e-03,7.932613504382544228e-03,3.167616770675266927e-03,7.712866406818803117e-03,2.646122561374231186e-02,5.821749753410400408e-02,5.756633445963281470e-02,3.252204596882579679e-02,1.772715474458224499e-02,6.094673552119945353e-03,3.381660546339264328e-02,2.510355085922041582e-02,-4.814132857643776790e-03,-4.220446975748105671e-03,-4.967208204502511146e-04,8.555612358712549447e-04,1.352763818567464128e-03,6.219352869066341934e-04,2.013506660238657819e-02,3.709432165556479644e-02,4.433735269140191837e-02,4.901352351266089619e-02,3.293996911752918033e-02,1.460764893184917680e-02,1.659548952957850057e-03,8.819277583046439620e-03,4.274896879206151711e-03,1.622334057824793580e-03,1.260751997575904212e-04,5.519090617800965701e-03,4.218978480875842582e-03,3.547434398842351858e-03,2.987961848146047927e-02,4.843365017115146276e-02,4.969048743478257646e-02,2.127573488956219575e-02,7.797359700289831566e-03,1.172087157010132628e-02,1.272818753438660286e-02,8.753446565450363412e-03,-1.016352804996787686e-02,-2.090291991011569012e-02,-7.079028784315332529e-03,-1.096818561689977961e-02,-1.538298431416771327e-02,-4.150983135155535651e-03,1.767368297330009982e-02,9.675275290189964614e-03,1.051423500242402650e-02,1.816227985482551238e-02,1.633779829391256155e-02,5.415221788076861158e-03,2.398741127559447187e-03,1.419719897609939127e-03,3.479414115821666178e-03,4.503509789054126883e-03,7.488263369633064818e-03,6.036755226390448474e-03,4.802421997274277342e-03,-2.166414754506329129e-03,1.308163474805719255e-02,1.892872487516435859e-02,2.686660063526291262e-02,8.970640708251001461e-03,-1.279532870470271623e-02,-1.180011345139098632e-02,-2.481935606109616013e-02,-3.231943398670748119e-02,-4.370680861907159931e-02,-3.988834788223809269e-02,-2.672147601683984297e-02,-1.732728308749100984e-02,-2.841421682521287542e-03,-2.769025424049519936e-03,4.412394564445142736e-05,2.229161178595406270e-04,2.620526109664849009e-04,6.925558316908905429e-03,8.269160107821893133e-03,6.579417319509222629e-03,3.039464012407237965e-03,6.531627905312829829e-03,9.383048184484826457e-03,8.712044822630519644e-03,7.660647765353026210e-03,7.684384575146692258e-03,5.400300473442725367e-03,-2.279992581234449676e-03,4.827620160714488073e-03,3.259164013997752334e-03,-2.909592071579600878e-04,-8.142184676265569812e-03,-2.120603233730197421e-02,-3.208531122505372396e-02,-3.930380055212485957e-02,-4.803144833493386279e-02,-6.033688659917819941e-02,-5.118282901845989941e-02,-4.044510687509794006e-02,-2.015337061073355085e-02,-2.441801791757972420e-02,-1.698941814911726980e-02,-3.157987649880117723e-03,-1.009331064076393527e-03,1.293542024635522744e-02,8.562594718710320185e-03,1.113054807855149569e-02,7.539619035967839826e-03,8.049067768414385968e-03,1.800655560045449812e-04,9.628103570740259576e-03,7.266709920703232940e-03,3.047510953861333471e-03,8.293946648588469348e-03,2.529788173707702564e-03,6.048919736857755192e-03,-3.455202721491131262e-03,-6.632464783641972518e-04,-1.156484929529231521e-02,-3.133114869852750284e-02,-5.405799795603037639e-02,-6.850081057777177018e-02,-6.079897289272821748e-02,-5.385100215684263114e-02,-5.245332147097322983e-02,-5.487951207794460745e-02,-3.836921753828165249e-02,-2.136497504115486903e-02,-2.299393166596992721e-02,-4.884794098056849561e-03,2.948819839856412373e-03,5.629549874923135862e-03,8.970703396146591235e-03,1.497500208913370850e-02,9.055861167959878763e-03,7.896916219082861796e-04,2.395101699095381152e-03,7.945782787001903075e-03,3.467026672648332330e-04,5.828068350834896341e-03,9.954375161913098929e-03,8.556960938375393622e-03,5.195637738099085669e-03,-2.317271420495732343e-04,6.241348975520194867e-03,2.736813323262977850e-03,-9.814478731910599579e-03,-2.063516936365982976e-02,-3.133898433975861042e-02,-4.027990418033613323e-02,-3.351794825604401812e-02,-1.797625499613331179e-02,-1.960730420697680623e-02,-3.131073518333745559e-02,-2.043805026590119964e-02,-1.418709713320102928e-02,-6.333633198613524903e-03,1.046575232355198776e-03,3.734856471177260017e-04,5.929529400831642406e-03,5.518797667601640401e-03,6.736690681751604862e-03,9.347345224088409246e-03,5.916971623063255539e-03,7.026337730855163402e-03,2.374334683748063023e-03,5.123637775457906551e-03,1.042248028083476693e-03,3.845113276448125506e-03,4.876670686212644483e-03,6.522242595454724734e-03,9.505310525862035662e-03,5.990370347520054470e-03,6.375787129283931598e-03,4.247589236802921529e-04,-3.471281169262027677e-03,-1.515985292709023241e-02,-1.277980393880881124e-02,-7.143465921244592648e-03,-7.438133115960750968e-03,-1.509554995465941900e-02,-1.320296034701767124e-02,-1.004965017436572697e-02,-5.141771295182950624e-04,-2.462968191227933069e-03,-4.884426471989675514e-04,-2.097043564674728241e-03,5.096179859630333223e-03,2.806832155159743117e-03,2.069925784384267844e-03,5.165726284459790617e-03,5.505799160420821425e-05,7.664032649225327508e-05,2.190688091018577754e-03,3.672136250082114412e-04,1.080257541306913838e-03,3.388606493387515909e-03,8.025856795798128399e-03,5.720486433693008042e-03,5.126677259564164056e-03,2.419820879915283909e-03,6.514052602931462779e-03,-9.423461403959110900e-04,-6.333803596889567983e-03,3.896092437733646293e-04,-4.118738762410720754e-03,-1.205745722962133556e-03,-6.689491398371433381e-04,7.941889435662779877e-04,-3.379940674742611725e-03,-7.164592709739266933e-04,4.612397812068135677e-03,-2.120458426166489229e-03,-1.924209919272555275e-05,1.520310990961418153e-03,4.218281785388313353e-03,4.110210752655457482e-03,9.076110025565549758e-03,7.140326444668564781e-03,6.079052140907037494e-03,3.093727178627820977e-03,8.237903842212946498e-03,9.550605114849890220e-03,8.211982825502265118e-03,1.565105191472904275e-05,6.364013701834070856e-03,5.113538144210072857e-04,2.576072203337218588e-03,-5.308545526323163834e-05,4.352990753565537385e-03,4.601716741332617308e-03,-2.105091942554761523e-04,3.838388830449794738e-03,4.562365089555420021e-03,3.690530217609165956e-03,1.210250004851930444e-03,4.189477901874754176e-03,7.511780478084181638e-03,6.656265443402014943e-05,-3.303078061320905584e-04,2.999534333520349674e-03,9.417257116189250987e-03,6.685726467229140269e-03,6.786699566725648385e-03,3.619199908378649671e-03,5.936607912085384645e-03,1.013118402774337807e-04,6.360960464095422387e-03,9.132869475762367059e-03,6.125734683448192004e-03,8.736985934663449999e-03,-1.123999978308080766e-01
1.205584164036902547e-03,9.024533072858416730e-03,6.644384435577488498e-04,5.339674725477638016e-03,1.421371237934576605e-03,1.170661073090406616e-04,4.220342601276389979e-03,2.950407076541562527e-03,4.860004937976030413e-03,5.771998867345508322e-03,4.373907230894735635e-04,1.230032951237456469e-03,5.586423964504253457e-03,3.431673531726582571e-03,7.291734875494480100e-03,6.522916485919396865e-03,8.456043629899068562e-03,6.924928266692252816e-03,4.299310773901481725e-03,6.729666223944323622e-03,2.753811742554185347e-03,3.063134987782126836e-03,7.889851599207933081e-03,4.464195164015821553e-03,7.983803405183525007e-03,8.224223736682783475e-03,8.575623376612837370e-03,9.166352358412073464e-03,4.309852205132962133e-03,3.188668183211388306e-03,5.821987465941138792e-03,3.711724234376275779e-03,6.010741668002329667e-03,7.055858626438246683e-03,6.884050184921369081e-03,3.745528870201213743e-03,1.668602016987528287e-03,4.305293384622075475e-03,1.425941440819087410e-03,8.900970351838084077e-03,3.458774607378574048e-03,1.544597472233237958e-03,2.544775990575087548e-04,6.458223862864842860e-03,6.369023174547432629e-03,3.406041665812916796e-03,7.171188884765101242e-04,4.096288948952320381e-03,3.112174950633935823e-03,6.771206397350093900e-03,6.057792494526904013e-03,3.645937281975399763e-03,2.178925542549901232e-03,9.880359661555919437e-03,4.540016211961149170e-03,6.882742357802370918e-03,1.405529675783607872e-03,4.855896996593978519e-03,2.753671986946548537e-04,5.054551179104499470e-03,9.640174071177023962e-03,3.842067129858002181e-03,3.899601257491158864e-04,3.095579091934352921e-04,3.879867599468695121e-03,1.600249364631940513e-03,2.335209632818591185e-04,7.377240516261418350e-03,3.504301829875305224e-03,1.688255711956036277e-03,7.289204629014415723e-03,-9.351578477976251174e-04,4.943699086440391487e-03,-2.464727690551433200e-03,4.243929714501888661e-03,3.142426981005755175e-03,7.866944583925360168e-03,9.840131632104643158e-03,2.884054378187457090e-03,9.611354854075930543e-03,3.894818949024203818e-03,3.855119047369223294e-03,3.403871042545057041e-03,5.414076073475852444e-03,1.541450431784871077e-03,5.537114853580112073e-03,5.417048124100039969e-03,7.619018126048700094e-03,8.336499619375855111e-03,4.404413503124240438e-03,3.023332493514937352e-03,2.593348973170944965e-03,1.946238367048719418e-03,5.764758219902488831e-04,3.393203267137039070e-03,1.172759608982930921e-03,6.640198838912558278e-03,1.331351860011935784e-04,-5.130303764104569668e-03,-5.987395765446691664e-03,-1.162681689103277176e-02,-8.427660508973840517e-03,-3.418745929574411747e-03,-1.472728372109881291e-03,1.430713558256197469e-03,7.891912563440354328e-03,8.803147621489270519e-03,6.234059581594401239e-03,5.693773611822827707e-03,6.206604798245841069e-03,2.013121078224332488e-03,3.951377432643185875e-03,3.945953289089931663e-04,4.755460374868267052e-03,5.430245839576631518e-03,2.277497361032096001e-03,9.640288471655137151e-03,9.094546109372421069e-03,7.221432354559059047e-03,4.513081464501502750e-03,6.256649711094647986e-03,1.468940196873724097e-03,1.153628957003044811e-02,2.264530661817725898e-03,1.198117607012089960e-03,-5.114680162382662792e-03,-6.690885367414213351e-03,-7.735650240549194444e-03,-1.649703102580635933e-02,-1.262096567171386297e-02,2.456256292429843772e-03,-1.112259045140098030e-03,3.681154718132065816e-04,2.595346542856529371e-03,2.389369002809321046e-03,2.003055912512217377e-03,2.032230910860872725e-03,7.617981913776972723e-03,3.865405068230278775e-03,5.112754622007511206e-03,4.923254800011819116e-03,5.772790292331312668e-03,8.655771456245521869e-03,9.985313843977458234e-03,6.016879305390348577e-03,9.751927502873609585e-03,1.029575898905738147e-02,8.761007217895746060e-03,1.557219113988034774e-02,1.221691130043040148e-02,1.367522543639948344e-02,2.456164604438279553e-02,1.829110901574608136e-02,2.092421721567479589e-02,1.780862616487365047e-02,-8.113470638595604578e-03,-7.909350995974973389e-03,-1.298380025943731038e-02,-5.378782147063673660e-04,2.069769040505002079e-03,8.715768246246721404e-03,-9.092691717069875668e-03,-4.357351256900762575e-03,2.861587525123501612e-03,6.338301544361974946e-03,5.885389233757891067e-03,1.344351294081218501e-03,2.993955883716812368e-03,3.587155254170134450e-03,8.044372076795050508e-03,2.787598724145530071e-03,4.406801183221284619e-03,1.245552934409107498e-02,6.725800630412251575e-03,2.838091106937061514e-02,2.775029968887258308e-02,3.534351909811121045e-02,3.325871630978623900e-02,3.467359694987630359e-02,5.281214829892031531e-02,4.275610187284429459e-02,2.261526704526703110e-02,8.381810491241061672e-04,8.311165848568689840e-03,5.146477611601907136e-03,-6.638816160977720378e-04,-6.180506571725218924e-03,1.002476057122638278e-02,1.950946308241370206e-02,-6.148956915112903550e-04,-4.698746381066173580e-03,-9.982188870079251181e-03,-1.589541793055729247e-03,3.304459134202343291e-03,6.600984414024158335e-04,3.488205339694793426e-03,1.109980987913148417e-03,8.082352100092221950e-03,9.476880259644708537e-03,1.063952474344546928e-02,1.496688874113290789e-02,1.901754748213844992e-02,3.369742999128785832e-02,2.653810721048721621e-02,3.798026789952507754e-02,4.566798111287104917e-02,4.758398107724375742e-02,3.855338778002292965e-02,2.303721576942109953e-02,-5.857941052427978815e-03,-2.342263653135294790e-02,-1.275636501242204471e-02,-1.621577190150367762e-02,-2.156390437924613282e-02,-2.779499793052200504e-02,-1.940784573875206295e-02,8.752388082693149038e-03,1.368636736618091508e-02,6.141886909675406230e-03,-7.059562477109569863e-03,-3.130632531493181443e-03,5.858718644770058263e-03,6.034930960433786302e-03,3.578140841135488571e-03,6.478174459905283733e-03,1.229206784653875777e-03,8.886590802653986446e-03,1.465458849231001705e-02,1.003992202836566892e-02,1.929170601877881058e-02,2.181754228501599918e-02,1.475641771980114314e-02,1.778517002965481972e-02,8.048501937737857423e-03,5.870979508690860396e-03,-1.605189428737109625e-02,-2.691406899495056571e-02,-4.533747997255309359e-02,-3.655885591647781152e-02,-2.084150311789222457e-02,-1.629812654908396538e-02,-3.770452549730739927e-02,-3.979468671135904384e-02,-4.313510368227762432e-02,-2.406288926928221855e-02,-8.228012953459697522e-04,5.701373884199533934e-04,2.454155616157830343e-04,-8.418108070023211723e-03,-7.755334086287027882e-03,5.111291392372298292e-03,4.685190852760312769e-04,2.761695578208994781e-03,6.684078017271241276e-03,6.268962162186586962e-04,1.455749322105224716e-02,2.431989243254441616e-03,6.936074409885035173e-03,3.966069493885414354e-03,-6.555403791808074685e-05,-1.248903955561043826e-02,-3.529858224085706542e-02,-5.880791626019177959e-02,-6.976544951200597255e-02,-8.223518876999673377e-02,-7.021282931927035065e-02,-5.469466820621428360e-02,-2.233060836373294139e-02,-1.123719132734004797e-02,-3.836283972491844052e-02,-4.512746995711237885e-02,-5.432581123248998722e-02,-2.673825075767985796e-02,-1.468381231145621767e-02,2.007702167753300931e-03,6.169363346125908941e-03,-6.637087163379716288e-04,-2.663109989903421695e-03,1.669530887471987191e-03,7.130460506343186920e-03,6.663854135782064717e-03,9.615972721599941667e-03,7.610377902507830389e-03,1.464185942068901673e-02,7.410063097177139319e-03,-6.408833060483840223e-03,-1.927373770010987197e-02,-1.573439810744500095e-02,-2.345291490600747222e-02,-5.413490716446886508e-02,-7.676637287853718683e-02,-8.605384223702379487e-02,-8.099917778286842840e-02,-7.215987346942424885e-02,-4.157311694469915941e-02,-1.624806610835326931e-02,-1.181674201006213676e-02,-4.060142866531295941e-02,-5.334943419652222324e-02,-4.373976722623543201e-02,-3.273819783932947064e-02,-5.242671062852662274e-03,1.017631337287222895e-02,-1.262336043541737460e-03,2.002705597857017388e-03,4.722818041629816936e-03,8.801567379214850217e-03,2.157406791764541251e-03,6.778132003100442726e-03,6.077521222527225604e-03,2.953014775718328013e-03,-4.201688301470732682e-04,1.928253264583567076e-03,-7.386668631330649097e-03,-2.251451743028216532e-02,-2.748006036638947144e-02,-3.966236729150390827e-02,-5.671009254202530325e-02,-7.882440384958298851e-02,-6.866642658903589214e-02,-5.905615127668841641e-02,-3.922738503552965911e-02,-1.790433105669484923e-02,2.329507825179573301e-03,-8.290680565590170109e-03,-3.447834892243158145e-02,-3.322485407998786860e-02,-4.562100707615268647e-02,-2.393109780532697017e-02,-7.325611267686458171e-03,1.157911053437617145e-03,-4.018963590105300090e-03,-1.059713937120452089e-03,4.928645844474466645e-03,4.042897472548691307e-03,5.309376784120938518e-03,5.951316749056815604e-03,9.923821127835630198e-05,4.640951594535039186e-03,6.978612947684602157e-03,-4.516990409022706788e-04,-9.942942289385744287e-03,-2.363509639733148149e-02,-2.914566657351828211e-02,-4.387445734349904730e-02,-6.139717491529839144e-02,-5.740756557535072607e-02,-3.638098829086667402e-02,-1.202459998020437813e-02,-7.683942916756164284e-04,1.170437015333935724e-02,4.263253888302903291e-03,-1.665947058885644191e-02,-2.811911204020207597e-02,-3.540985089797560326e-02,-2.663611172377377753e-02,-1.794424151969904735e-02,-4.132189190391210264e-03,-2.239673281852129060e-03,-9.808752391331125933e-03,-3.472537267595592319e-03,6.464587416379305104e-03,9.741944438163572043e-03,8.470608269838995896e-03,2.359496464552912620e-04,8.985606046748393499e-03,7.831984132986259325e-03,5.337005101752410885e-03,-2.329671874650200963e-03,-1.063702688957808735e-02,-2.007464908787918653e-02,-3.684494513688255785e-02,-5.051197120016934217e-02,-6.294187013941085485e-02,-2.998773891722115656e-02,1.585814868666301711e-02,3.499106553655963181e-02,1.253917334528311701e-02,9.496550025769661882e-03,-1.454137786322808566e-02,-1.103808930009183426e-02,-5.369436258840431728e-03,-1.705195283703404494e-02,-1.730777197564939418e-02,-2.981068017162987957e-02,-1.449017121485536748e-02,-1.343901898037577064e-02,-7.511409456811238283e-03,-5.179228833087704854e-03,6.224136415659966420e-03,7.813218557473050607e-03,5.782983994203606815e-03,1.469627095882096793e-03,8.111237699334708506e-03,6.359547071637284762e-03,9.810120183323556720e-04,2.661843940898966053e-04,-1.070401725169493889e-02,-1.913620217869788434e-02,-2.244150309508433083e-02,-4.172378357434106816e-02,-4.036688472844271458e-02,-1.574248565316307968e-02,1.897533465334497876e-02,2.664206039759153821e-02,-1.623810520448892153e-03,-2.481376786634732073e-02,-1.830326041732719192e-02,-5.917853082628342582e-04,5.022103208131259607e-03,1.825054034653290219e-02,-5.192992073483285002e-03,-3.012506248246756349e-02,-2.329944776680164392e-02,-9.924697073475411205e-03,-1.023252020077363399e-02,-5.412222129084326948e-03,7.680946335083424677e-03,4.509931234578157255e-03,5.465771420322949534e-03,4.328160022094692562e-03,4.389994264300511851e-04,1.657497798201559283e-03,2.557224490653137779e-03,-3.224096520169445357e-03,-1.564177298083302761e-02,-1.856774002047729272e-02,-2.422705219374943902e-02,-3.685675319474102096e-02,-3.948899984371219418e-02,-3.768451556997363949e-02,-1.446513144806164074e-02,-2.160206905447458609e-02,-4.746401795185128253e-02,-5.150587683206667849e-02,-4.293144074760581880e-02,-5.093840858952600539e-03,2.163853542154981630e-02,2.598098466726192837e-02,-1.120488957795313326e-03,-2.118773551798089350e-02,-2.032343884334066389e-02,-1.372361023989277645e-02,-4.072867634090075566e-03,-7.786009508850741043e-03,5.238985495602981220e-03,7.624802680891247866e-03,9.437015928202207790e-03,9.601356044054472003e-03,5.214596387214719651e-03,9.773079079915036882e-03,7.573102071344388689e-03,-1.063086931268386170e-03,-1.037740703748975951e-02,-2.179855445815067835e-02,-3.558137168446982856e-02,-4.784819610638496590e-02,-5.335922782025392941e-02,-5.565109675492729141e-02,-5.535112614175239504e-02,-6.143178232139345080e-02,-8.761852641798087427e-02,-9.621974439883022867e-02,-7.865745981243464635e-02,-3.311235299327054682e-02,2.218064893919756073e-02,3.544804830418773339e-02,3.792582723712677531e-03,-1.789035351895367290e-02,-1.152947944142022028e-02,-6.778829340617353004e-03,-5.428817351778108223e-03,-9.376681733101344812e-03,1.786366838612591865e-03,-4.487361411457459507e-04,4.808901466030090360e-03,6.624340117010680921e-03,1.185026235981515626e-03,2.888849389091656655e-03,3.978366255021569507e-03,8.838016456812435723e-03,-2.894188684759528823e-03,-2.986044920914308204e-02,-3.762772297319404158e-02,-5.355794019393058519e-02,-5.820360124352518677e-02,-6.112773863486755527e-02,-5.903395793533737501e-02,-6.272323507399192588e-02,-8.856404719151782234e-02,-1.047890292036490617e-01,-8.814994974452912413e-02,-4.837419118692334180e-02,3.906184908916996833e-03,3.701581441706277426e-02,1.515998758103242160e-02,-1.622427097441257737e-02,-9.595255802244434529e-03,4.651775058623051104e-04,-1.363888230995562861e-02,-5.938049722917184380e-03,-1.515492432823036808e-04,3.892996332566744889e-04,3.601881829142639232e-04,1.752217721058273560e-03,8.667703545060002901e-03,2.824787439770266688e-03,9.504591705752957545e-03,5.126284890328861032e-03,-7.459903150947471036e-03,-2.627353702096983309e-02,-4.324350955968825350e-02,-4.695990706051221542e-02,-5.626795843527038904e-02,-5.573189353393558088e-02,-4.820246488348175345e-02,-5.911740835988994053e-02,-7.954592260000807602e-02,-9.727414525429453618e-02,-8.360053998890558391e-02,-4.452083942626500201e-02,-5.069733359692072880e-03,2.556697729401572958e-02,1.580110164651063812e-02,-7.070929636520017353e-03,-5.604260292005656431e-03,3.537800570914614428e-03,-1.241635950947355196e-02,-7.843718059417760166e-03,3.742701068868132630e-04,9.407845205031078670e-03,5.069204379618346204e-03,4.094120718170183616e-03,8.108785810079184586e-03,8.358259279105160686e-03,3.321910331156046128e-03,9.224795074510048348e-03,-9.871133782189830085e-04,-2.309092260580621753e-02,-3.781141688703084508e-02,-3.947424901313847240e-02,-5.077051678015127856e-02,-6.106840008871680658e-02,-6.483866498071419460e-02,-8.112036953877305168e-02,-9.477938569289624804e-02,-9.056276044610397924e-02,-6.702636853134862072e-02,-3.025449066176909632e-02,2.773544603519965956e-04,1.464507015894966381e-02,1.787348716818604535e-02,9.652078350667580827e-04,-1.985007542409918200e-03,7.101334737196671708e-04,-9.080494125795240262e-03,-3.692499287768833197e-03,7.293447940879963995e-03,9.668454997992853225e-03,2.242934832850450744e-03,6.630471918034223922e-03,7.418963269587150987e-03,9.009886211445591875e-03,1.148155564312290135e-02,2.552100995126524788e-02,2.186298502700411914e-02,8.125499747142495011e-03,-6.188579671267540293e-03,-2.634582909141637563e-02,-4.613370039704651343e-02,-6.297523334640416082e-02,-7.648042498289192581e-02,-8.267155599730792448e-02,-8.622287669967559909e-02,-6.955419694476064341e-02,-3.588921204748489469e-02,2.561891819292263540e-03,1.536685119449192165e-02,2.630702596366624180e-02,1.422198805594936111e-02,6.532364151748690576e-03,7.989785858813895983e-03,5.290791250011203564e-04,2.959098534891318587e-03,-9.258051993345087823e-04,2.653261375554669902e-03,6.015538792998240819e-03,2.965599122059306859e-03,7.144241640712422313e-03,7.590052825219310330e-03,4.205235784933807064e-03,1.500285023482188923e-02,4.216495096897825839e-02,5.059138556984859453e-02,4.670949737038484345e-02,2.765651665882538912e-02,1.388299422986223955e-02,-9.800759551477617945e-03,-3.744980493701549618e-02,-5.135621484872706505e-02,-6.116073665940665455e-02,-5.170872926815285597e-02,-3.164093199946131640e-02,-4.450012866077449059e-03,2.717013553767623490e-02,2.221726838958854727e-02,1.312555819176359703e-02,6.037438338595174474e-03,1.393865741428293101e-02,4.494935039485138499e-03,3.383123082768972265e-03,4.655114111712871719e-03,3.427627186307530098e-03,9.470906671085190312e-03,4.962587528823615181e-03,3.805177098698945149e-03,1.630353369315910069e-03,7.862056522610580758e-03,8.684801993133780748e-03,1.306630742360359587e-02,3.292783373720927637e-02,5.539607071983951997e-02,4.916635535825089609e-02,5.250513239358732542e-02,4.090194477321748567e-02,2.592906663581404786e-02,5.814431350993532095e-03,3.482799308628164656e-04,-5.094317812452293058e-03,-1.021637988635828997e-02,4.330760675339511215e-03,1.307490899264773625e-02,1.816979729344794445e-02,8.970997693189208810e-03,7.060137307629651103e-03,-3.616970134115838394e-03,2.281352393413133613e-03,2.974322006994450755e-03,3.639474755591530063e-03,1.001899851545338038e-03,8.652957589089124019e-03,1.572732081797153549e-03,3.097878592090992644e-03,2.900455319624368773e-03,8.714140341908543572e-03,6.727029942088980433e-03,7.966813971913722786e-03,4.810358484494223208e-03,2.338547136826800432e-02,3.597979929026245971e-02,4.949611394607817544e-02,5.572557635443180918e-02,4.274182475992570340e-02,3.137624700432332936e-02,1.451858328590152625e-02,1.733596698091344201e-02,2.301623156204636936e-02,1.649276364899715519e-02,1.168099623869753995e-02,1.043753457426267565e-02,7.657434932490343044e-03,5.817654646768116722e-03,-3.574215288929031686e-03,-8.213197066980339883e-03,5.774444674591095762e-03,4.864184842830558513e-03,3.413580292287502621e-03,5.731956225435453148e-03,3.324561571487120396e-03,5.658565614671562946e-04,3.739210470128135830e-03,9.444485826943033874e-03,6.417343972985581693e-03,6.714791486672069300e-03,6.322821536376398328e-03,2.141944213543988274e-03,4.539038813495301951e-03,1.185858418542626823e-02,1.090056168649857805e-02,1.990518260851364268e-02,1.693685996716503758e-02,7.794501590267126530e-03,1.041516254986898753e-02,6.297162898163770166e-03,1.556222479067142540e-02,8.160720056079259072e-03,1.060978356411002195e-02,5.713111129626318894e-04,-2.088261623574338543e-03,-2.018613846634472863e-03,-1.210537768525601259e-03,2.144612803644950234e-03,5.330505893574533950e-03,5.408577762615157138e-03,2.559534483193669566e-03,1.580453735699603127e-03,4.830396975588900285e-03,2.685337560676073158e-03,2.874616648972501149e-03,6.567560634745570405e-03,9.685373316998922497e-03,6.036372005593751075e-03,7.697946706496628343e-04,7.558361385406697861e-04,9.514232208455659923e-03,2.956700899312246240e-03,-1.382696650146334762e-04,2.676433973737254654e-03,-1.193269580504486118e-03,-6.831599113382797774e-03,-7.113903051562093550e-03,-5.476627224214145918e-03,6.375327385167002536e-03,-9.067834405741917805e-03,-7.608917705880677458e-03,-7.634470991990647583e-03,-5.334987992768783216e-03,-1.421019931597173247e-03,1.174670477576788283e-03,2.788211814862645316e-03,7.724394808249312842e-03,9.467337289233955511e-03,1.059058044037576411e-03,1.548286125977198571e-03,9.447362587830797007e-03,7.365352283347926209e-03,8.829938248297730316e-03,2.026326341353431801e-03,5.875858711094019034e-03,7.011395944174736786e-03,6.801118854469726839e-03,4.081516908666981379e-03,1.539489169130847624e-04,5.310528724354683129e-03,-2.937772420650546358e-04,-2.908743236926142643e-04,2.255968331276720154e-03,-2.046161806062689586e-03,3.068405079426328539e-03,-3.031821338391192319e-03,7.476396009777259467e-04,1.336823778566044755e-03,-8.471376755760614760e-03,-8.693630454323808543e-03,-1.799848473543377196e-03,-2.931098458665597293e-03,4.775772676091434750e-03,7.030268593060542623e-03,4.340209727087588308e-03,2.587116421554409417e-03,4.344033190066098025e-03,7.234478178500009828e-03,9.054161580370978187e-05,5.894539894846971551e-03,6.132916848873791113e-03,6.376882468959355239e-03,2.420220799808772000e-03,7.140527233781267594e-03,9.139148633177641111e-04,1.992703364668008213e-03,8.774700466544819999e-03,6.713049003324199869e-03,-1.527937360101450873e-03,3.881801525828126095e-04,9.407721857622003111e-04,2.708063280369725837e-03,2.475597702798864198e-03,6.252629574284573888e-04,4.589405165968203117e-03,7.327334747861651530e-03,6.067317247174364332e-03,6.017784326474534019e-03,-4.392225508060370828e-04,8.909298054781057685e-03,8.384918338430248988e-03,8.050903184956628017e-03,8.229838050417674980e-03,9.327105081327613512e-03,5.442539661136977340e-03,2.002820178676258892e-03,6.167836078525411325e-03,7.428814936679390031e-03,7.379173933540253937e-03,5.214490241668800867e-03,-1.196504587478095932e-01
3.711129384301278377e-03,9.207666084633574222e-03,5.844489097574260758e-03,5.383319432557134333e-03,2.688535143821935407e-03,3.684489199165789323e-03,8.953460891531692112e-03,6.664630475268357168e-03,7.873870267523327970e-03,4.543454230676551367e-03,6.302472194561579456e-03,2.483836087432075151e-03,7.054608302834862628e-03,4.276013337033372948e-03,4.425455148147456122e-03,6.493223245768816980e-03,9.362806214689265924e-03,6.400634660862091927e-04,8.247432373470076766e-03,2.923831104121931129e-03,4.439194545063778440e-03,2.191332877500895614e-04,3.010460778343130358e-03,5.026312426301304814e-03,5.617607734743901293e-04,4.910957293831651367e-03,9.271106288584273977e-03,1.053932181078052121e-03,7.644407280755043978e-03,4.096710533759926817e-03,6.551737145243380876e-03,2.602365979852293634e-03,1.594922625413582821e-03,1.604626142712264371e-03,7.049194564314464895e-04,1.856467049012430282e-03,6.642193849889683165e-03,8.816906118435080542e-03,8.141256855911618850e-03,6.851343098744841487e-03,1.104318634111026674e-03,2.891874462959498435e-03,3.098068753224689914e-03,2.499569463976212148e-03,5.150056597097231112e-03,5.355538148796725774e-03,3.568859751711101966e-03,3.537891587364360314e-03,8.285555979060813328e-03,7.892928483196856235e-03,3.077958316807456567e-03,9.137884438732592554e-03,9.528150170025060858e-03,3.267425420300408209e-03,3.544249487930548580e-03,5.056341534219588492e-03,9.411208125336734814e-03,8.763194331423114838e-03,1.025679625835898123e-03,3.927307432714161918e-03,5.533711897497718690e-03,5.031324725515400574e-03,1.938630679368926781e-03,8.588167711681547745e-03,6.769407829968373397e-03,8.379083748518036459e-03,8.587642793494722551e-03,7.289590257624387407e-03,3.258137611996496808e-03,4.842186963631561758e-03,-1.975319570903400629e-05,4.485393664974720966e-03,-3.657502800662371448e-03,1.526975418032797976e-05,-3.939213177416291296e-03,-2.728424015108885190e-03,1.026390187302054797e-03,1.992135219070267902e-05,7.187396178535302403e-03,7.324010490583791194e-03,5.149333499132594492e-03,1.613628010553837082e-03,8.355433751068974809e-04,1.912896643728700908e-04,1.657481769652207129e-03,8.908555349831467907e-03,2.415368417016817548e-03,3.542713272172156626e-03,1.053454844813331813e-03,2.223613047481702749e-03,5.192245707802051191e-03,6.077526830956525572e-03,2.453523141662110850e-03,5.773215922511720386e-04,3.886520849965148690e-03,7.806989236726016466e-04,-9.598365961406300686e-04,4.613373597191014995e-03,-1.314333630689788800e-03,-6.486722664723275009e-03,-1.051864836881799721e-02,-1.046054966720543974e-02,-5.676823943152693210e-03,-8.001352945716335742e-04,3.869195462336248465e-03,-6.876019431751567148e-04,5.001127520766269693e-03,4.119580950341019711e-03,8.705269662693842364e-03,6.314189212183764048e-03,5.325040664159817923e-03,1.153946421789173778e-03,6.056378893234114560e-03,1.172039056802334257e-03,3.372065755657520543e-03,1.428419648143318746e-03,6.920736470243688855e-03,2.062521138361526115e-03,3.918593731880260118e-03,8.329314371657363728e-03,1.756267593285559673e-04,3.041148558448544380e-03,1.956928169334988012e-03,-4.957631070228870132e-03,-4.976866880821025421e-03,-1.860271926329254422e-02,-2.388811197778356252e-02,-3.049701061453171172e-02,-3.175015329762051475e-02,-2.487032750391049082e-02,-1.510565022180225016e-02,-1.097585877197862492e-02,3.300894282704819153e-03,2.191488675206973349e-03,1.230917175555657980e-02,1.278945294447113995e-02,8.433261677878832116e-03,4.850946599795401791e-03,3.336283958368656787e-03,7.915582025913700873e-03,4.512941130292549667e-03,1.834421964034345116e-03,8.549740195614743271e-03,9.091992544883230679e-03,4.930581918470884270e-03,4.728510249973107431e-04,2.097273020964395343e-03,7.342707503473164601e-03,7.348139958008536275e-03,-4.055602729179000332e-03,-7.676865769700768130e-03,-7.124363351007834654e-03,-3.097495156081506509e-02,-4.230429894983776112e-02,-5.134983985894742142e-02,-6.807292883799867522e-02,-5.239170702409946812e-02,-3.582164758145426481e-02,-1.461630324549575977e-02,-7.217153045500342232e-04,2.681238471696271736e-03,2.520204367944400489e-02,2.487687401462538792e-02,1.565782941508255671e-02,6.470856487189757811e-03,9.379849680496850708e-03,3.725332737595508144e-03,6.871367772396097789e-04,3.695741994267731732e-03,4.642385197392248988e-03,7.227377522388046989e-03,9.162964412080089674e-03,1.301866184565767318e-02,1.468080129079432118e-03,-4.531068388307931023e-03,2.846319887655264329e-03,1.397215598388447562e-03,-4.786691422721378771e-03,-1.311579723122394299e-02,-2.233513410927087661e-02,-4.684263172578247147e-02,-6.993387311351902114e-02,-7.722506287445644879e-02,-8.056249952405146464e-02,-5.903234980682082328e-02,-4.219882890544923021e-02,-1.503165000565095596e-02,8.338515707950343650e-03,1.676963990369097560e-02,3.779398950381438610e-02,3.591313503865643797e-02,1.917973389517575386e-02,5.803721274376771704e-03,3.744583318648009133e-03,8.904095172193284696e-03,7.499777984520708020e-03,9.082284887003229043e-03,7.587153211639207154e-03,5.971553059903018414e-03,6.658033975223595288e-03,1.211882652934889032e-02,6.451396756439745778e-03,-3.456503105619158044e-03,-8.783938564679681302e-03,-5.363873566202961157e-03,-4.581348920524773438e-03,-2.185644741417464357e-02,-3.310219158639208376e-02,-6.424786909292913573e-02,-9.156466908870614096e-02,-1.060759863975440642e-01,-9.795182223645348962e-02,-7.911047221248269923e-02,-5.727778564091477731e-02,-2.164800259479714509e-02,-2.965259717623873557e-03,1.486920835846737565e-02,1.898133994042707981e-02,2.139583358046483197e-02,8.781040187823149767e-03,1.824826395427166801e-03,-2.243329404777361872e-03,6.923589224610580961e-03,2.640619846937187782e-03,9.390684794502916419e-03,6.363742815333743585e-03,3.245118001753421154e-03,2.688118696778846184e-03,5.421927257103871176e-03,5.010263715704008254e-03,-3.591613779254739305e-03,-2.819888120047084681e-03,-1.294441260633578429e-02,-6.845378554446783677e-03,-2.543185990063137267e-02,-4.264582726493873488e-02,-6.709457776489220759e-02,-9.448895679081335819e-02,-1.008029425392834716e-01,-9.305471888770569522e-02,-8.113340407571492663e-02,-6.431667327640895604e-02,-3.809909475753965602e-02,-1.791482126834286273e-02,-1.395822288568389878e-02,-3.872159630331368715e-03,-2.789145038127876976e-03,-8.281999842149689135e-04,-1.249527888236657246e-02,-3.209836532656183683e-03,3.230273457540938815e-03,8.979191869576658158e-03,8.881181889340358446e-03,2.614802769812223787e-03,9.009608956904679306e-03,1.104190786767786890e-02,1.514737917600504635e-02,7.353189908179092252e-03,-1.813253872140217814e-03,1.985143116459652229e-03,-1.011164817502719672e-02,-1.650796823934946866e-02,-3.519965544453194928e-02,-5.579848303090329670e-02,-3.987682235460960484e-02,-4.002781995902830736e-02,-5.607790080140925143e-02,-7.463132220422645513e-02,-6.836844614055134772e-02,-5.404590205944299203e-02,-3.511023479066847919e-02,-1.752642174912997716e-02,-2.230364189425180707e-02,-2.058751533105715459e-02,-5.387410960719046446e-03,-4.786572259290943973e-03,-4.228480839204254438e-03,3.166435658386426103e-03,2.320181803088107019e-03,1.438144607208502533e-04,7.643533864364273830e-03,6.163803531662561883e-03,7.623026245009600042e-03,2.353321059036390646e-04,1.344085867492057253e-02,1.056789937976732041e-02,3.167085147973909207e-03,6.196661787663333872e-03,2.125168156277589589e-03,-1.328311757193116789e-02,-3.516762339795464348e-02,-3.757513816060013140e-02,-1.351962632625275211e-02,-2.204339722074787067e-02,-4.031820011193482101e-02,-6.848599831930606008e-02,-5.220929854880396181e-02,-3.420006358842813537e-02,-2.002653813232371793e-02,-2.842864639577395453e-03,-1.146539160480140526e-02,-1.530976696947253246e-02,-8.631289802632908376e-03,3.178206175527739739e-03,6.622697343248021458e-03,6.495089297074473425e-03,8.044140596774733767e-03,7.151001612837000476e-03,5.931582190394682139e-03,5.334799698889769719e-04,4.547643425526610994e-03,8.511772584830349861e-03,1.139527782200379022e-02,7.999150995118787730e-03,7.250117263026988577e-03,-5.159294367873711777e-04,-7.582636015751429912e-03,4.801862557813165507e-04,-4.744509613941868750e-03,-1.339954076918886509e-02,-1.452482997914391477e-02,-4.582762562394970818e-02,-6.832586821426261947e-02,-6.544116416078091247e-02,-3.864059909347965227e-02,-2.004618754630389799e-02,-6.295785398589926612e-03,-2.448854945574756715e-04,-2.707593153054722000e-03,-1.221751692080642708e-02,-7.420542699508406517e-03,2.581539461161652151e-03,2.554245506151116372e-03,6.996395696221216834e-03,8.381549749886425815e-03,8.028109348245004301e-03,9.609201469288246658e-03,5.359350788521182081e-03,4.884956326599053551e-03,5.930040962548882751e-03,6.117454899634306754e-03,5.133529781946965034e-03,7.692716852917671003e-04,7.115761801204203638e-03,3.349566210119843835e-03,2.364808144798056025e-02,1.236440426710017429e-02,-1.311804836897605478e-02,-3.402665466787559156e-02,-6.562109357813418475e-02,-7.270875140066267173e-02,-5.606033205467188252e-02,-3.269400095276039919e-02,-8.638926416353260793e-03,7.820370365673438460e-04,-5.363072113771343019e-04,-4.848960769579441221e-03,-2.563516474538213904e-03,-4.838670582887775150e-03,-1.208108484399646372e-04,-1.534522879635575720e-03,8.026403123529295830e-03,9.972378999036026273e-03,3.002600532939281373e-04,8.973658657909319714e-03,6.226305335986580258e-03,9.733826191648212167e-03,6.926688208083542006e-03,1.449382612280540258e-02,-1.320694283890035473e-03,1.038353815673891123e-02,9.447679825112126686e-03,2.684395969381007940e-02,3.715626716723700179e-02,3.202149538805127565e-02,-4.231977142122538178e-03,-3.291339521604563778e-02,-6.206424683226952760e-02,-6.376529559652983903e-02,-5.613653047857162376e-02,-2.503201091177853846e-02,-6.293915570542082082e-03,-6.035201609081761176e-03,-9.557940174480991299e-03,-1.099841626182184243e-02,-7.124536158624023528e-03,3.512476693444068713e-03,1.700415271770110148e-03,5.232446721062822270e-03,4.397404865079085345e-03,2.783684816626566094e-03,7.982931972091867473e-03,3.262539180411467947e-03,2.993833737053482914e-03,2.325059922078312122e-03,3.011169181927651501e-03,1.000811685713228275e-02,4.831402947270764699e-03,2.898606221701741439e-02,3.067568850899143190e-02,3.914010682191407936e-02,4.762206635863015097e-02,2.401615399338913326e-02,2.349491013887519599e-03,-5.334747422744501658e-03,-4.108930599392179167e-02,-3.943956265889820428e-02,-1.904843925075287367e-02,-2.324592176428470682e-03,4.521360168169620032e-03,7.763726913191810672e-03,6.716911904754696398e-03,7.449896719409982229e-03,7.238924518500006698e-03,7.995523166862651340e-04,6.861868399897319386e-03,-2.807721895712398785e-03,4.454864445557852985e-03,7.078231775366369783e-04,4.595840572136230227e-03,3.064634680428203473e-03,8.223812111853544271e-03,5.697872699736828252e-04,6.889598591703355833e-03,1.353207126124944017e-02,2.046632076397469219e-02,3.171604442372247257e-02,5.168347710400245792e-02,6.628993787026073170e-02,4.902230936363349140e-02,2.902475847726912472e-02,1.971544035095627520e-02,2.006542845181098420e-02,4.288361459270801160e-03,-3.876311933850848986e-04,1.046495116128766910e-02,1.933450074255538623e-02,2.323889079886193657e-02,3.205483355297058384e-02,2.094718213400854553e-02,1.038219947281110792e-02,1.173813187871039151e-02,7.576964400711658568e-03,1.206447821931843495e-02,-1.809787454896211612e-03,9.774013855986012826e-05,2.613113402688672579e-03,7.624469586748684399e-03,1.260020278639942867e-03,1.964192158720173744e-03,9.514448256630919643e-03,1.754916273813573839e-03,1.115551649611409499e-02,1.459115985254196002e-02,2.970203272554131774e-02,4.308565806516156255e-02,4.361093583066207729e-02,4.433810808976466206e-02,3.200513220557289068e-02,3.280887321064486495e-02,2.225137588275158396e-02,8.502950197392847298e-03,-2.059660770866416322e-03,2.364882852406471805e-03,2.305828620295528528e-02,3.000486939004695999e-02,3.804839690321428630e-02,1.033737255014730710e-02,1.367167867471059690e-03,5.493399537903192846e-03,1.019403508116363717e-02,-2.764183047868616974e-03,-5.345874240045307008e-03,5.064371599473644139e-03,2.692837499203624193e-03,8.701721830278874451e-04,5.567849109281879268e-03,8.451208514960348653e-03,7.959263871435024243e-03,1.751231401303532517e-03,6.460019420518193188e-03,-1.115244783036503954e-03,1.280998792399693983e-02,1.725244940204148300e-02,1.472829245628026534e-03,5.923512847012482423e-03,5.886603950387103018e-03,1.546275779426454534e-02,1.883543678827127865e-02,7.502837669025634419e-03,-1.656994526084758917e-02,-1.842721652627457227e-02,8.986648180025307020e-03,2.079849699477635469e-02,1.757167666229144873e-02,-5.259917334097301278e-03,-9.238380291447603060e-03,-1.509398320800717924e-02,-7.742878396388322253e-03,-8.667626189592447100e-03,-6.497475163163332623e-03,6.894981793135173537e-03,4.680690542342900995e-03,4.662994129398188511e-03,7.605756424552823428e-03,1.544922040049257969e-03,4.872653541000507640e-03,4.299852141210597743e-03,5.485674423292333755e-03,-2.387231951773825952e-04,-7.639930139645292363e-03,-1.317133914626914155e-02,-1.150826103156258121e-02,-2.116149249367990995e-02,-2.769563716616802243e-02,-1.479750047460245792e-02,-1.454327890941076520e-02,-1.606411722987120122e-02,-2.614735110553654054e-02,-2.839134253251697493e-02,-2.198560155097731283e-02,-1.287440074429558115e-02,-2.240352248724525666e-02,-3.813419883132341398e-02,-1.903248116410070565e-02,-1.367719508291382474e-02,-4.166556742858314004e-03,-8.791894288029648494e-03,-6.081203793492511583e-03,4.188250406025734868e-03,2.374785567522574858e-03,4.961437333883744402e-04,7.245982868476289786e-03,1.115929999572474801e-03,6.083195000077716921e-03,2.810497501668891666e-03,1.065595476305185307e-03,-8.433606146935862524e-03,-2.030703464961941887e-02,-2.900491183708693577e-02,-3.127199208881932535e-02,-4.648525286349103336e-02,-4.365769233249058162e-02,-4.085300324659995458e-02,-2.978988521307046958e-02,-3.394030074704430799e-02,-4.209212912073199281e-02,-5.376105433068197048e-02,-5.276636451403028671e-02,-3.220442047109751960e-02,-1.901297888067727399e-02,-2.789650553762559188e-02,-1.168007729077123573e-02,-1.117949704716554755e-02,-5.385020578122898423e-03,-7.371784034067909233e-03,7.334386822783303325e-03,6.678679067008134150e-03,9.332050877593062177e-03,2.654964074290723421e-03,6.114636112256608205e-03,6.784999682926378534e-03,3.121175974162022655e-03,7.685376138238974794e-03,6.662706969378702319e-03,-2.989309245760226729e-03,-2.112466226162699329e-02,-3.692848491160658636e-02,-4.599767825414821654e-02,-5.223835392954559453e-02,-6.733031025119462498e-02,-5.006672917787712007e-02,-5.422141457683933574e-02,-5.212916588364290699e-02,-6.187132371516709112e-02,-7.109561676774900363e-02,-5.355383723611507885e-02,-2.647080092001792909e-02,-1.571283229463872264e-02,-1.878009318655044294e-02,-1.042523953116854425e-02,3.643214647448485104e-03,2.845409634947304936e-03,-1.930992022444424873e-03,3.161464176487590282e-03,9.286305621153940690e-03,6.180846068922263336e-04,9.236052811137851135e-04,1.627909892062293692e-03,5.952128341268747742e-03,1.176080488156094461e-03,8.571843262247091227e-03,-5.198072451653293683e-05,-4.855053053762719770e-03,-1.700766462801488535e-02,-3.013338403918211506e-02,-4.205427349722597880e-02,-5.829255009899749623e-02,-5.788116406717634665e-02,-5.723745533587902556e-02,-6.572214703190847052e-02,-6.842578594787300517e-02,-7.230294165705351828e-02,-7.364276673517015925e-02,-5.152996723770877224e-02,-2.237016796722562234e-02,-5.092735973866523158e-03,-8.777346880404702373e-03,-5.125825954311190487e-03,7.807261555221997953e-03,4.822549582987398567e-03,7.911715989548566072e-03,2.230300553941042506e-03,6.910558127392617961e-03,2.716331812743696342e-03,1.906098330744497929e-03,1.846324573473692244e-03,3.421076208635940447e-03,4.161057575342858549e-03,7.189693923362129417e-03,-2.714437912393845471e-03,3.770413214140763409e-04,-6.260628829612197369e-03,-2.111593147634880513e-02,-3.432756030522356866e-02,-4.628934544579833138e-02,-3.564023475059795165e-02,-5.050623908039617721e-02,-6.707427973029167489e-02,-6.403920042062413720e-02,-5.997306366220430535e-02,-4.497161292835688551e-02,-3.313024118325004486e-02,-4.098554089866615797e-03,1.389881832322438981e-03,8.034907536246489040e-03,3.849360438702206528e-03,5.990774696905933928e-03,6.455496870362008831e-03,8.797907647399273723e-03,3.995187845869348393e-03,3.267947058577773921e-03,1.081108363519633995e-04,8.265510741914642787e-03,8.009807004033649147e-03,1.044545181001513929e-03,5.768573811327002906e-03,4.324544244259826385e-03,-1.060137611777569417e-03,5.202974212925138425e-03,-6.437817303190770425e-03,-1.540109571635211137e-02,-2.401953632216283219e-02,-2.239086695342767594e-02,-3.304036460514352125e-02,-3.570378754205726091e-02,-3.875924104055830655e-02,-3.875693538581347075e-02,-4.283910306440145283e-02,-2.449723811328689480e-02,-1.222831124321636063e-02,1.498103570596268780e-02,1.485342402897111592e-02,1.001712823204250168e-02,1.454212416823850908e-03,8.780452148478095492e-03,3.963334228935242939e-03,2.813068266264018812e-03,5.034952696935324429e-04,5.276525785960262159e-04,6.920112559466546839e-03,4.579289944340278994e-03,2.265216260361056951e-03,6.139703063252326815e-03,2.528581182501111677e-03,5.755530329988685703e-03,2.970456076995392058e-03,6.585076913891797779e-03,5.638672441782122124e-03,-5.138635994223216680e-03,-1.376761855247850101e-02,-4.506472242304526352e-03,-9.726423969785215340e-03,-2.278685912064865038e-02,-2.152141709711443557e-02,-1.630469895176407322e-02,-1.693088125850134365e-02,-2.061443248618020571e-02,4.647340157938957723e-03,1.439486590672798064e-02,1.068150838002127415e-02,7.099761679951047295e-03,4.156434674758627962e-03,3.048537446747317994e-03,4.521088225824382995e-03,2.753923380831215656e-03,9.325548784193121374e-03,1.186437657415803041e-03,9.337494230014699997e-03,6.838664518353432600e-03,5.315721526867311746e-03,3.265906078449587490e-04,4.755961918220082824e-03,4.077481050027322550e-03,1.612188119751225505e-03,6.540536764290803828e-03,8.224749872946248222e-03,-5.559533891106487394e-04,6.027524077217193610e-04,5.801948893742977544e-03,-2.063362685794358810e-03,-1.176841182322585846e-02,-6.293321708409560337e-03,-1.985643877483938852e-03,-2.393638488725956855e-03,-1.402928835794552825e-02,-7.674011167205435809e-03,-8.783257486693685830e-04,-1.913462406866548371e-03,3.310850445781159546e-03,6.907954115184722008e-03,6.118310201032214381e-03,3.734579451327052577e-03,2.553363737632441573e-03,1.058743182131293131e-03,3.548976834865540542e-03,4.131725172077195529e-03,6.758229251040736088e-03,6.581598242975735154e-03,7.010813964125695366e-04,3.952593154311578177e-03,1.817788672173619152e-03,1.568127053168056869e-03,7.526704425530838377e-03,-3.387155322621164359e-03,-2.400067348144551034e-03,-1.915094313094615553e-03,4.260332006222083100e-03,-1.870200584839733964e-03,-3.494393988156826916e-03,-7.833542855691423296e-04,-2.206143949707265069e-04,6.434163904338697582e-04,-6.378675895132294993e-03,2.505228529795836077e-03,5.058880890383869039e-03,5.727240074042164522e-03,3.310893038843419015e-03,6.298206544347076732e-03,4.032106331838227614e-03,7.523978823037878912e-03,5.312940183509319222e-03,6.774380712282944417e-03,4.284579038487954308e-03,7.314964640431390400e-03,8.244715176045490368e-03,1.464362566028161276e-03,8.329297155742279579e-03,5.402965317903072814e-03,8.446659090902242789e-03,4.313017063410146644e-03,2.826788434094690966e-03,6.709998272540077316e-03,-5.715797673859854960e-04,6.709649991907509076e-03,4.840205725094041435e-03,5.140954425512597042e-03,3.084682814894840457e-03,5.730422006190156667e-03,3.252111962762113326e-03,3.926941424165231458e-04,1.905191843667192403e-03,-1.369643823874001822e-03,9.089463914092401481e-03,9.657472098197474736e-03,3.951552974723050206e-03,7.283708543396459623e-03,3.458060984104249693e-03,6.710931570859760345e-03,8.054300430459791424e-03,9.467562446922407615e-03,4.002122758496719744e-03,7.832979829560476198e-03,2.659284506321187708e-03,-7.994401133029080397e-02
