3.745401188473624927e-03,9.507143064099162627e-03,7.319939418114051327e-03,5.986584841970366347e-03,1.560186404424365172e-03,1.559945203362026519e-03,5.808361216819946061e-04,8.661761457749352772e-03,6.011150117432088186e-03,7.080725777960455124e-03,2.058449429580244650e-04,9.699098521619943167e-03,8.324426408004218306e-03,2.123391106782761533e-03,1.818249672071006132e-03,1.834045098534338100e-03,3.042422429595377422e-03,5.247564316322378582e-03,4.319450186421157876e-03,2.912291401980419015e-03,6.118528947223794874e-03,1.394938606520418388e-03,2.921446485352181474e-03,3.663618432936917215e-03,4.560699842170359147e-03,7.851759613930135717e-03,1.996737821583597326e-03,5.142344384136116227e-03,5.924145688620425024e-03,4.645041271999772459e-04,6.075448519014384208e-03,1.705241236872915298e-03,6.505159298527951866e-04,9.488855372533333207e-03,9.656320330745593594e-03,8.083973481164611133e-03,3.046137691733706750e-03,9.767211400638386217e-04,6.842330265121569430e-03,4.401524937396012783e-03,1.220382348447788309e-03,4.951769101112702375e-03,3.438852111521839452e-04,9.093204020787821681e-03,2.587799816000169346e-03,6.625222843539819648e-03,3.117110760894109631e-03,5.200680211778108131e-03,5.467102793432796620e-03,1.848544555255270507e-03,9.695846277645586361e-03,7.751328233611146090e-03,9.394989415641891856e-03,8.948273504276488266e-03,5.978999788110851352e-03,9.218742350231168975e-03,8.849250205191950148e-04,1.959828624191451828e-03,4.522728891053806642e-04,3.253303307632643675e-03,3.886772896894820275e-03,2.713490317738959101e-03,8.287375091519293482e-03,3.567533266935892997e-03,2.809345096873807571e-03,5.426960831582484934e-03,1.409242249747626446e-03,8.021969807540395986e-03,7.455064367977081927e-04,9.868869366005172949e-03,7.722447692966574219e-03,-1.796022689895795596e-02,-3.988703513165372389e-02,-3.406959173431873406e-02,-3.078930262002433325e-03,7.290071680409872940e-03,7.712703466859457783e-03,7.404465173409035877e-04,3.584657285442726087e-03,1.158690595251297235e-03,8.631034258755936051e-03,6.232981268275579120e-03,3.308980248526491915e-03,6.355835028602363100e-04,3.109823217156621952e-03,3.251833220267470476e-03,7.296061783380641125e-03,6.375574713552131616e-03,8.872127425763265407e-03,4.722149251619492741e-03,1.195942459383017055e-03,7.132447872229949817e-03,7.607850486168974205e-03,5.612771975694962230e-03,7.709671799545609813e-03,4.937955963643907674e-03,5.227328293819940436e-03,3.822060553715051628e-03,-1.991706987578504423e-02,-5.713746854679473824e-02,-6.398189523984891547e-02,-7.066796036260426794e-02,-7.409760692767117241e-02,-5.117602443900896685e-03,9.075664739260930897e-03,2.492922291488749650e-03,4.103829230356297215e-03,7.555511385430487004e-03,2.287981654916224680e-03,7.697990982879299258e-04,2.897514529137680192e-03,1.612212872540044143e-03,9.296976523425730041e-03,8.081203795644168950e-03,6.334037565104234935e-03,8.714605901877177374e-03,8.036720768991144001e-03,1.865700588860358345e-03,8.925589984899777451e-03,5.393422419156507393e-03,8.074401551640625688e-03,8.960912999234932341e-03,3.180034749718638719e-03,2.258222120293065815e-04,-4.434229394499183789e-03,-2.104456955046728542e-02,-5.369991599264686832e-02,-5.323468460232100297e-02,-4.088749381998338372e-02,-4.994779108684631362e-04,3.424682081160913133e-02,4.602709791330784200e-02,5.944800146412510672e-03,7.873359870819185988e-04,4.491903949442253331e-03,-1.731286484235615430e-03,5.187906217433661295e-03,7.030189588951778895e-03,3.636296023792940073e-03,9.717820827209606646e-03,9.624472949421113144e-03,2.517822958253641656e-03,4.972485058923854957e-03,2.478907287101859459e-03,2.999785093522091260e-04,-3.799173719961334780e-03,-1.757418288026707694e-03,-4.805160934771530307e-03,-1.117673118101895034e-02,-7.818681978915232797e-03,-7.663864131468445771e-03,-4.083505048338331722e-02,-7.657423745643815449e-02,-1.250765060615781910e-01,-1.199025302670592014e-01,-9.952338648381912206e-03,8.264688097380984422e-02,1.680972368961624330e-01,1.882311411677585200e-01,1.272595674896242479e-01,-1.921026346918892555e-02,-5.779270101040957092e-02,-2.523902072929577398e-02,-7.347376104065107306e-03,9.028977005440830825e-04,8.353024955892379699e-03,3.207800649717358274e-03,1.865185103998542307e-03,4.077514155476391925e-04,5.908929431882418114e-03,6.775643618422824699e-03,-5.539810770559257073e-03,-2.101859622449653645e-02,-2.915617060550671283e-02,-1.194433586899275139e-02,-1.813935165688241105e-02,-1.354756358520604539e-02,-2.440736394482403981e-02,-5.628319057462809194e-02,-8.871764302241046118e-02,-1.332507613911328714e-01,-1.892305148588040997e-01,-8.017799261229120733e-02,1.313829083987247924e-02,8.432475570827470401e-02,1.118850486134011224e-01,1.159410815700081254e-01,1.220283412540308365e-01,-1.446513872519597683e-02,-5.532851863347110905e-02,-6.962656852396223450e-02,-4.610341742429467649e-02,-3.534796373616953813e-02,-1.236111807099713475e-03,3.390297910487006985e-03,3.492095746126609029e-03,7.259556788702393668e-03,8.971102599525770938e-03,8.870864242651172599e-03,-6.666486854732674942e-04,-3.428346730835937078e-02,-5.165240270834977471e-02,-2.327514075859189041e-02,-2.326211937819419595e-02,-4.392278667146721355e-02,-8.047631395106469299e-02,-1.034563920608221471e-01,-1.071314530136001641e-01,-1.320619239593328886e-01,-8.216322949036672374e-02,-2.166535603742344648e-02,5.200259151432275184e-02,4.015537921351401696e-02,2.272075720156878365e-02,3.644882314850126509e-02,6.867477069288166480e-02,3.758949072280682452e-02,-3.140798870502218426e-02,-8.435112135931845112e-02,-7.756407474639798183e-02,-7.338341534882399098e-02,-5.002660025151275253e-02,9.367476782809247343e-04,3.677158030594335474e-03,2.652023676817254465e-03,2.439896433790835709e-03,9.730105547524455639e-03,-5.417363723508430810e-03,-5.542842616750272289e-02,-4.857614706358075879e-02,-1.588383069201759756e-02,-2.371932472972780592e-02,-4.387862017744153381e-02,-8.432677627232540440e-02,-1.111211985139925890e-01,-9.262850101010178250e-02,-1.372108670897718430e-01,-8.413117175276915716e-02,7.183878961422121047e-03,3.635604709781370403e-02,2.866265914422645028e-02,1.503245949477834652e-02,-5.443186891816697561e-04,6.288939505498078626e-03,1.001266649859884270e-02,-3.820128544639279228e-02,-7.974546773567760261e-02,-5.467164533276391847e-02,-4.616806890167379079e-02,-4.116563417840557459e-02,2.944488920695857107e-03,3.850977286019252772e-03,8.511366715168569574e-03,-5.109093828808975975e-04,1.694927466860924855e-03,-6.323831493059311505e-04,-5.113006332238122231e-02,-4.701820399080156726e-02,-1.390142230976568541e-02,-1.579763836830590934e-02,-2.188028289974860638e-02,-6.737804230235953928e-02,-8.511868148644838317e-02,-5.716369682367712646e-02,-3.130493459594631961e-02,3.063005446907728861e-03,5.467773652192325223e-02,4.626475934389073785e-02,4.317665100153628491e-03,-8.813296067393151800e-02,-6.960605918041211371e-02,-2.831140331908301583e-02,6.497065016824282724e-02,3.316925089433158530e-02,-2.698291887780521203e-02,-1.599493286058510308e-02,6.696943381354652190e-03,6.499639307777652086e-03,7.019668772577033339e-03,7.957926694361010245e-03,8.900053418175664019e-03,2.955321249156473134e-03,3.755829526399440121e-03,-1.242137047692662942e-02,-5.293845255657115417e-02,-4.182182993832065515e-02,-2.166963136647018836e-03,-1.063090615906636324e-02,-3.878493376230239542e-02,-4.430925027283941914e-02,1.324360354895473589e-03,3.249950079445948492e-02,2.004987732313263590e-02,6.579960410562245288e-02,7.095791410200988358e-02,-8.934942388278320491e-03,-9.968641143184485409e-02,-1.397266938484039156e-01,-9.337570186882235279e-02,1.138283936748788264e-02,1.096899973086696151e-01,1.100458742557574171e-01,8.976974725256955598e-03,4.012108838691034497e-03,7.260913337226615472e-03,9.758520794625346120e-03,5.163003483011953561e-03,3.229564729412459558e-03,7.951861947687037524e-03,2.708322512620742282e-03,4.389714207056361062e-03,-2.500394158240147255e-02,-5.466463326384213978e-02,-3.019048393564761554e-02,1.807898740450019281e-03,-2.213241574059520572e-02,-3.503122211311257561e-02,-2.161152563066765647e-02,-2.942556157790293669e-02,-1.139874539282269630e-02,1.171038929776020395e-03,3.101654106289823340e-02,3.863273973198537437e-02,-1.089852079399192680e-01,-1.257127492952717640e-01,-1.487392379733116221e-01,-7.802827797542789823e-02,3.303332919329253492e-02,1.353688684174081669e-01,1.503442764884937721e-01,2.638352005023223562e-02,7.578461104643691160e-03,1.439348862975586949e-04,1.160726405069162403e-03,4.600264202175274853e-04,4.072880231897013604e-04,8.554605840110071635e-03,7.036578593800237209e-03,4.741738290873252250e-03,-3.319142804295696636e-02,-4.966951100332606811e-02,-2.453365023000871753e-02,-1.113230907806888291e-02,-1.901687375470622471e-02,1.682656516619260995e-02,2.621358151575459497e-02,3.652381018529026607e-02,-4.817501486064425936e-02,1.258306912423981863e-02,-2.216009542946959301e-02,-3.117607722676392357e-02,-1.604423936678706919e-01,-1.774770926426977036e-01,-1.698397708206512147e-01,-5.946421111451502539e-02,2.616359603666333633e-02,1.470485857096429094e-01,1.636905253867071974e-01,4.140277544141926502e-02,5.754741778758789943e-03,3.881699262065219092e-03,6.432882184423532011e-03,4.582528904915166013e-03,5.456167893159349046e-03,9.414648087765251083e-03,3.861026378007742770e-03,9.611905638239142541e-03,-2.511626322990632640e-02,-5.262775840660143672e-02,-1.592144212726514726e-02,-1.532855015912044580e-02,1.676343875433346231e-02,5.488152805746890350e-02,3.943868308970400333e-02,-2.979891037050692512e-02,-6.188950877124833189e-02,3.019363489086214838e-02,-3.702150563575302977e-02,-1.702028203844646315e-01,-2.929654479022638092e-01,-3.118706802074451834e-01,-2.033059048437691474e-01,-5.391648354945841048e-02,5.224565290108144217e-02,1.913212351544472944e-01,1.644677229256268358e-01,5.894453572117662465e-02,1.774395437797228166e-03,7.506147516408583770e-03,8.068347392672640950e-03,9.905051420006734039e-03,4.126176769114264960e-03,3.720180857927831656e-03,7.764129607419968312e-03,3.408035402530178691e-03,-2.486219639343131491e-02,-4.600154223606429948e-02,-1.397691771495856647e-02,6.665628423889546558e-03,4.509492442893988512e-02,6.554006082789523568e-02,-1.491967902685138563e-02,-4.078098348888450214e-02,-6.985598917150945275e-02,-8.042366679805515450e-02,-1.380213273755960257e-01,-2.974556566426864723e-01,-3.288889479491465817e-01,-3.068995138525236199e-01,-1.477754774692938700e-01,-7.921233996754617479e-02,3.381525027384175291e-02,1.651157698803110696e-01,1.356673823230881148e-01,3.439170031862820442e-02,-2.600063945402915355e-03,-8.659394074127097635e-03,2.029204991212087345e-04,6.725184560770384491e-03,7.523745294376799932e-03,7.915790437258485301e-03,7.896181427945538761e-03,9.120610304869037266e-04,-2.729142869775433647e-02,-5.379517794269608744e-02,-3.825235375658272985e-02,3.594417381411048936e-03,4.409459612857820343e-02,4.221925925938958130e-02,2.048617364944335141e-03,-9.802764508483780004e-02,-7.200012574008511634e-02,-1.135112805100816358e-01,-2.767278940479612204e-01,-2.909173319611918496e-01,-2.950009115160349693e-01,-2.820980052530642768e-01,-7.616320306431868803e-02,-1.958782760948083249e-02,-1.501892346044535372e-02,1.005703638683092538e-01,2.186036932393596935e-02,3.040355583905428576e-03,-2.053226183520714954e-02,-1.331746964880810465e-02,-3.178693526994032410e-03,9.860010638228708379e-03,7.533781852589416413e-03,3.762595855309157789e-03,8.350071669866876304e-04,7.771469159274368467e-03,5.584042497358050576e-03,-2.133138109172250108e-02,2.050147474315556877e-03,1.065881382281899485e-02,5.343695449383066565e-02,6.321007556239592595e-02,3.647707737802765443e-02,-2.391893516980810389e-02,5.293241668034767006e-03,-4.498405707930800551e-02,-2.155089649070668634e-01,-2.726595286783551342e-01,-2.979203967599969860e-01,-1.957808834669282905e-01,-5.200988867930944615e-02,-5.773137982713972931e-03,6.771530798135781855e-03,2.934014554707507771e-02,2.416155754313116868e-02,-7.242881483435822249e-03,5.587154994305795243e-03,-2.177706611290965068e-03,8.911431136980710668e-03,5.277011090862998403e-03,9.929647961193003441e-03,7.379656473539885969e-04,5.538542844013207879e-03,9.693025356190989109e-03,5.230978441701488596e-03,6.293986381352625371e-03,3.798213597205499226e-02,4.418857785784231079e-02,2.620270369837568447e-02,5.488673931293797797e-02,7.421913643395712523e-02,-6.915979758846331309e-03,4.804286555588717367e-02,1.483341174005781485e-02,-1.799512708892314905e-01,-2.872032837107074132e-01,-2.468360925136046935e-01,-8.993168306358353958e-02,-2.073503433096744036e-02,4.097245335584532439e-02,-4.415011158220779469e-02,2.096962589364450430e-02,1.955271091357227084e-02,5.610241362072250840e-03,8.979037449084200859e-03,6.098547144485632829e-03,5.360963663441203723e-03,3.095276162863277655e-03,8.137950197069487163e-03,6.847311725538793130e-03,1.626169393448912998e-03,9.109271844938425164e-03,8.225372429231690014e-03,9.497999132919239876e-03,3.205928743452658713e-02,-1.690484173727688612e-03,2.502963162288614207e-02,6.672179293850143134e-02,9.826028063143484037e-02,-1.886984193645229596e-02,2.637049591304364837e-02,-2.356247943264836928e-02,-1.672826670416645289e-01,-2.280261463093830876e-01,-1.364900690766413793e-01,2.207122838966204398e-02,4.114929674744972204e-02,6.393757360851941296e-02,-5.290347799206424062e-02,-1.073988716952564704e-02,-1.617865479036264750e-02,-1.192753021388201322e-02,-6.724497815385161587e-03,-4.932782018127758114e-03,8.647223762550532156e-03,8.129010091300774982e-03,9.997176732861306342e-03,9.966368370739053795e-03,5.554317056026274353e-03,7.689874151805105133e-03,9.447657298824281222e-03,8.496473906774115042e-03,1.225593397108513082e-02,-1.091504261081369109e-02,1.197024740605210670e-02,9.720896574351677033e-02,6.703331101781941082e-02,-5.221294950527399087e-02,-2.049161283716981891e-02,-1.474466464238687879e-01,-1.807844715284016024e-01,-1.217464239906015655e-01,-1.868998594661460191e-02,5.637033299142404918e-02,4.956823338296642567e-02,-6.390407671653602906e-02,-8.522546778008474599e-02,-3.284069925460693373e-02,-2.421767831158250228e-02,-6.126565143529169068e-03,-1.603942223294176680e-03,6.733443285607479270e-04,2.878267631333897379e-04,7.551372556736189907e-03,6.203095513534646714e-03,7.040797680992236240e-03,2.129641615089107511e-03,1.363714755867697671e-03,1.454466566788192893e-04,2.686466996502183922e-03,-8.536943339291541005e-03,-1.516800317383311218e-02,-2.410046892997985343e-02,4.449504403614300274e-02,7.249656769417234248e-02,-1.701560481634235150e-02,-3.886694754837735633e-02,-1.176925975632696630e-01,-6.677030407119222133e-02,-1.621380423447495861e-02,7.250505813414065241e-03,6.746909652972672700e-02,-3.590653751597787380e-02,-1.648008845522025700e-01,-5.743620528080149723e-02,-3.136471109190240580e-02,-1.185352964274678442e-02,-3.116339274214176194e-03,1.793191321416669074e-04,6.334008543167258046e-03,2.401456187781930793e-03,7.586332810866391928e-04,1.288797219106492227e-03,1.280458389577724407e-03,1.519026935122943633e-03,1.388271726494101372e-03,6.408747448032146334e-03,8.255783087626177843e-04,-1.676835387722601378e-02,-5.643702820101426793e-02,-2.453007187266449327e-02,3.703087961503431780e-02,7.969073860367002771e-02,3.594568313699533085e-02,-3.006350225170025675e-02,-1.127393281009564027e-02,2.281177252910555897e-03,-5.182999081772354279e-03,2.289404874786604357e-02,4.668020764464594213e-02,-1.305412110397996539e-01,-1.131238593336713755e-01,-4.668104002450958190e-02,-1.874991081859189723e-02,-5.709086571999481136e-03,-2.783294492713440319e-03,7.815764818638513967e-03,6.279003894909077413e-03,8.175903194887191010e-04,8.735786241067772240e-03,9.208724005318132816e-03,6.107795985486375078e-04,2.768776481472037289e-03,8.062012797930614288e-03,7.482596903836583914e-03,8.519876583349423466e-04,-8.527399997312798061e-03,-4.939336224520098073e-02,-6.918580306457079721e-02,5.254350059566932629e-03,7.523833535269269790e-02,5.620745063959464716e-02,2.572819844835396580e-02,4.209280406864132802e-03,5.216015526210049554e-03,-9.545070527884505322e-04,-2.938553440833865937e-03,-4.527985029761515123e-02,-8.972320934028464590e-02,-8.483873889977459892e-02,-4.842211426622204662e-02,-1.004109458389347738e-02,-9.910604908649613826e-03,-3.960639905172320951e-03,2.029415396728937154e-03,2.007119777772636794e-04,3.220791655831782736e-03,2.114480069965446376e-03,3.274973521779146399e-03,1.197621318192512111e-03,8.905272807398950316e-03,5.935924535540486498e-03,6.791023191444895725e-03,3.512031951297802344e-03,-1.074797838604722722e-02,-4.268611042443949677e-02,-6.578346417395952717e-02,-6.205156139460041992e-02,2.823001843905484365e-02,8.869445773123374455e-02,9.198629603397859289e-02,1.023549436662401502e-01,5.436825114846177698e-02,1.188504105586469031e-02,-8.943640547914528949e-02,-5.597272165190537996e-02,-6.311587038947349959e-02,-6.008656753575417758e-02,-4.029398501890785189e-02,-9.359530345617841224e-03,-7.450564452515385204e-03,-3.093760091356193096e-03,-4.600840283534180647e-03,1.865670240513057649e-03,2.850951686938470956e-03,1.733735952947548266e-03,8.967654246264252296e-03,8.023374566164220541e-04,5.245113895702546887e-03,4.103968269896614979e-03,9.823786169086063877e-03,-8.205085559136158363e-03,-1.336956951650303260e-02,-1.039565827313674445e-02,-2.288622633147837857e-02,-3.712947897596952096e-02,-7.261600530592525471e-02,-2.895353937161340013e-02,5.842918185968079547e-02,8.308875032644075231e-02,-1.921863487630946429e-02,-4.471223983127257939e-02,-5.333702529585619689e-02,-2.591491087219126646e-02,-3.489912022346421810e-02,-5.803201128866827818e-02,-3.184867697209806808e-02,4.045897375657065906e-03,9.184110308767797024e-04,5.672261692862724932e-04,3.491061072940391304e-03,2.886305532402557838e-03,5.812382214226122570e-03,1.543627152742023129e-03,4.811401018548175021e-03,5.325894325515858480e-03,5.182353682242691380e-04,3.366042781939205739e-03,1.344146769389742511e-03,6.337497047276774388e-04,9.899602323899452799e-03,2.659829923907613882e-03,4.002462504111800080e-03,-1.178803230561418884e-02,-1.608257156744962932e-02,-2.421250146050738308e-02,-1.213421883110625890e-02,-1.964171083831725562e-02,-2.991135899410973797e-02,-1.855455676780761592e-02,6.532706132886739910e-03,4.522653327784564858e-03,7.097880505412094976e-03,1.077817678303780126e-03,7.308674752036442915e-03,9.383404568210377758e-03,1.812330661656601487e-03,6.649626736677749462e-04,7.411206492900591046e-03,5.744731131799118810e-03,8.418287767582721334e-03,1.397723766262894953e-03,7.952673118598901914e-03,2.016273200477445258e-03,1.636559428657045076e-03,1.642657979309929432e-03,8.145747202313822002e-03,6.651972206962001276e-03,5.155493110912580910e-03,5.818593700904026601e-04,4.594145849041146416e-03,-5.588021396630965358e-03,-8.635301180974601365e-03,-2.769488639265318269e-03,-2.555257931136438367e-03,-1.060684045635501560e-02,-1.669945258927007375e-02,2.292852985984248412e-03,4.817007192586308766e-03,1.150615139140845344e-04,5.212204982652958798e-03,3.208322088716658582e-03,5.435528611139886328e-03,9.064721109645469330e-03,6.242379959139921289e-03,1.168980407083640687e-03,9.398321236134751788e-03,6.277080530714178319e-03,3.349056146570861345e-03,1.392720726633872716e-03,7.940251892702959030e-03,6.200727559285135193e-03,5.334610919763215289e-03,8.938925830509576384e-03,7.885972112245308308e-03,1.516748797327511795e-03,3.117220677955482525e-03,2.484891398144657357e-03,7.439462925726769531e-03,3.353243473577938042e-04,5.698896848713165021e-03,7.624586857406905928e-03,8.767656367617494145e-03,3.420817487159074841e-03,8.212573046720128556e-03,1.106317369552072211e-03,8.464522917345182820e-03,1.274886623319824172e-03,3.972872905603672469e-03,7.972953657795536428e-03,1.499174273487737918e-03,2.292513952326414705e-03,7.222525683930662577e-03,7.200365365460743503e-03,6.411476328852972785e-03,6.939484444671000646e-03,5.427244433475962061e-03,2.517990589069527430e-03,3.456959935039194409e-03,-3.502741895355848678e-01
9.084505613336284202e-03,5.833917947661204813e-03,4.008514167636399034e-03,4.620058036441327190e-03,9.472833396118153851e-03,1.533514031160801948e-03,5.862298320167972157e-03,5.058886788844660018e-03,6.114542354346478095e-03,1.811018382084050827e-04,8.721239089441515380e-03,9.321182824836123787e-03,5.651331835892089810e-03,6.966508238768922764e-03,9.224993811772956923e-03,7.072386343133986453e-03,1.525390429142613538e-03,5.762883601668131878e-03,6.067150463828559215e-03,4.241306713023860683e-03,7.364442356247228455e-03,9.343670147690148406e-03,9.255685129067763028e-03,4.508393714041321158e-03,1.132380458407552474e-03,9.848411989623346435e-03,8.388980864459341658e-03,1.246626812032668565e-03,9.208418826173722649e-03,8.698963620621282325e-03,5.188380571260721268e-03,5.912754357449292487e-03,3.990027038701302736e-03,5.476163882203133283e-04,3.351972416459009143e-03,8.028534485980114155e-03,4.632023004602858979e-05,3.334991716911441927e-03,3.981686935909433192e-03,5.373956029379229130e-03,9.198556164127605697e-03,3.463459943659612586e-03,3.469532018962277059e-03,7.375012481097484134e-03,4.522179408898071955e-03,2.246048229399819508e-03,4.524395161326934083e-03,1.408570203797998707e-03,1.763869865062233158e-03,4.983677727394797766e-03,4.189254495045479330e-03,9.148459010681000633e-03,3.623938991166331027e-03,5.805883502780434871e-03,6.322642879195304079e-03,1.309445658833363634e-04,6.635373720167106470e-03,1.780359668697514266e-03,9.610703174694552181e-03,1.486627277531129502e-03,4.146241237270237474e-03,8.534966807864386449e-04,9.968742518459474192e-03,5.021950103312426174e-03,5.953850173200437614e-03,6.707647738842748225e-04,7.499604703991778060e-03,2.099055930955857820e-03,8.980542894407137974e-03,2.051396404820071597e-03,1.906877206636665859e-03,-7.532421670958107732e-03,-1.194361420455476719e-02,-1.603344918796112753e-02,-8.391480200856936758e-03,7.755276166950105833e-03,4.532888347480275998e-03,5.243902693275800421e-03,4.407627469382281206e-03,4.007630608753259480e-03,5.596403313082178900e-03,1.552402459307125138e-03,1.819281304952711370e-03,8.617856210135173278e-03,9.461154621336327272e-03,3.733093162797529625e-03,2.707446731435537643e-03,6.439995432390157974e-03,4.087341710980963751e-03,2.538635566034486125e-04,1.561525973661903729e-03,7.159722288473975051e-03,6.589239419101514117e-03,2.709599250348348966e-04,2.219721619329494394e-03,2.310747965880714100e-03,6.718927435987284008e-03,1.760723323820839576e-05,-1.051185125061363489e-02,9.392076697580380162e-02,1.269685946157648737e-01,2.484061127951739563e-03,-3.918589493669363127e-02,-4.173435311946999127e-03,2.431721909994541062e-03,7.222669318556591833e-03,8.556964681062857389e-03,8.302198645669915320e-03,3.971835296184548190e-03,6.680851365706461445e-03,2.049842954158209545e-03,2.931477302610132740e-03,8.963358185211198204e-03,1.300192351073603547e-04,8.550853085446808019e-04,2.078862551460273177e-03,2.653220387381971849e-04,1.814354350897973232e-03,5.830415609696921672e-03,4.214245505924980005e-03,8.926717110769748220e-03,8.174435617384409949e-03,3.418173516978759759e-03,-8.801105397879914602e-04,3.591100059999895872e-02,5.581125022418724491e-02,1.718147376243654711e-02,9.663916134052799589e-02,1.086929822685062663e-01,1.021489727405613113e-01,-2.263163695560936953e-02,-1.042399154369106143e-02,-3.172822137005981268e-03,2.220760899142415479e-03,-1.748591145489709116e-03,5.518291655279112043e-03,4.874311982495136558e-03,8.945522268940913832e-03,7.998552559473152621e-03,4.252135044692334671e-03,2.246930832011739896e-04,2.686773593849460864e-03,5.416342146608668986e-03,5.858386342859357374e-03,-2.708939591802334186e-04,-2.015746303822406587e-03,2.464030465652204595e-03,2.847392862341523081e-03,-4.069338475010794189e-03,-6.083267061097108984e-03,-2.098981336065535233e-02,-5.371492548659627386e-02,5.411607726042206440e-02,5.003375355403676117e-02,6.980895353717594953e-02,1.063081490747695840e-01,5.412971994629250244e-02,8.852811027009022116e-02,5.787542166714753494e-02,1.692500384210361142e-01,1.252774901942996233e-01,-1.201892481618344402e-02,-5.625395349118178859e-03,2.000637722762259318e-03,5.974131021703083487e-03,6.005168604336533905e-03,6.650366745462554970e-03,1.753712786234495847e-03,9.144119459249597584e-03,4.187705248920731149e-03,3.831385282494974547e-03,-5.948273247567469551e-05,-1.239764781389461959e-02,-1.197514914141258394e-02,-3.137140254939909528e-02,-3.427527907771498600e-02,-1.651541274119322500e-02,-2.925503794155052614e-02,-6.620981851685660280e-02,-8.858921398600441699e-02,1.883562653709116089e-02,5.363589315099438759e-02,2.359006910657257192e-02,5.064442954296104887e-02,4.633184874959393740e-02,-2.839113456633219831e-02,2.384719377250776526e-02,1.055365178463530951e-01,1.017340689391757341e-01,-3.146524052900494944e-02,-6.214289139168875653e-02,-5.989910849139772758e-02,-5.017479192095109647e-02,2.369624661202690552e-03,5.968428489168892473e-03,3.342438908169608185e-03,7.709122037458219362e-03,1.065982531337718005e-03,7.513778173580875838e-04,-4.843976401464183674e-04,-1.045976383946883338e-02,-1.246060519445693973e-02,-4.682006483225980425e-02,-6.517568631968534421e-02,-7.170831059945464991e-02,-9.608698802799753302e-02,-1.299127929671843040e-01,-1.583902466753182026e-01,-6.938691374928654398e-02,-5.949254408867504784e-02,4.718599982722527023e-03,-5.459992505425573933e-02,-7.672250448195468142e-02,-1.476602076950297437e-01,-2.572926253651836720e-02,4.987387642795607350e-04,2.531338600755400625e-02,-9.545532132180475915e-02,-1.041310160279624447e-01,-1.211579246303948476e-01,-1.053122599897070855e-01,-4.888249780276483769e-02,8.491956515653193913e-03,2.496680088591859362e-03,4.894249636431404794e-03,2.212094418196022469e-03,9.876680079966469739e-03,-1.806062137899843443e-03,-2.727206114697255934e-02,-2.693828395771823841e-02,-2.650027326877859787e-02,-5.263387791810286709e-02,-6.397992414451535159e-02,-1.216724542324679886e-01,-1.886332655432447492e-01,-2.067597940019124392e-01,-2.137129596831887912e-01,-8.343646971459409145e-02,1.097341868138948691e-02,-1.287814109251926575e-01,-1.104831329747608254e-01,-9.211047122767723749e-02,-4.447154519825806396e-02,-7.438151666040086762e-02,-2.083075349369521712e-01,-2.033769325865190936e-01,-1.175378011561259706e-01,-8.195105063972900339e-02,-7.633347559096058388e-02,-6.590265347817121644e-02,6.962887758781398026e-03,3.398749637680661267e-03,7.247667715287614901e-03,-2.919104063836376953e-02,3.152903378306103326e-03,-1.560811145207526528e-02,-2.403385651656948438e-02,-3.298144888132208130e-02,-2.336237116344329345e-02,-1.911089451245986948e-02,-4.321592649444856021e-02,-1.172181890435365498e-01,-2.061134234190317716e-01,-2.441471384180254334e-01,-1.503388158677639308e-01,7.417360832614797173e-02,1.170847236086704629e-01,-2.829839038487972497e-02,-5.194635710666587608e-02,-1.796238106375161181e-01,-1.353485017187240347e-01,-2.204856538677981981e-01,-2.365866778631429690e-01,-1.424430631983627515e-01,-8.600735056826737390e-02,-4.998205703586667409e-02,7.553053859515037813e-03,7.682734138645182231e-03,4.177667821673337369e-03,4.213570022770701806e-03,7.375823015888915285e-03,-1.055836701511573324e-03,1.104741131313946708e-03,-1.483816002935799301e-02,-2.340271692759477579e-02,-1.288866277262510490e-02,-2.077357980301104343e-03,-3.566572207911376108e-02,-1.275203246995601503e-01,-1.717271307632395050e-01,-2.442694516586103870e-01,-2.088079939464427270e-01,-3.463922916196852941e-02,1.521493409972651256e-01,1.710488817755238533e-01,2.039812457644338828e-01,7.801432379435432884e-02,-1.055299237774688093e-01,-1.687489293136507917e-01,-2.360977731832460402e-01,-2.054097839072614728e-01,-7.652549178111986428e-02,-4.658502828053358302e-02,-5.983553586351134275e-03,2.316717013834433854e-03,9.427317741351257455e-03,6.496466489923684307e-03,6.077367948788591281e-03,5.126885110165085684e-03,2.306698117177586899e-03,1.765280320055082628e-03,-1.913066582813712163e-03,-7.048950496201594577e-03,-6.352059711818721331e-04,8.616783786459455974e-03,-2.589560563693341002e-03,-4.463121453220674634e-02,-1.270977999281361071e-01,-9.013205960033239539e-02,-1.165146448531005630e-01,-1.064946216468691670e-01,4.068175925287000755e-02,2.987959483261386218e-02,3.329839300624587439e-01,1.188060225760181471e-01,-4.430771433676602283e-02,-1.998974592102763237e-01,-2.311538057700621429e-01,-1.459864039907100286e-01,-5.105841388768034284e-02,-1.828071998485277308e-02,9.148683739775486864e-04,8.774608626303803671e-03,2.656000425887060801e-03,1.295149212828041862e-03,8.887480798689771991e-03,9.556514982297533572e-03,8.621276172654505909e-03,8.095160747248780764e-03,1.096164313982222983e-03,-3.207708652849673280e-03,-5.310525682160179006e-03,2.847324716118555463e-02,1.412594774096358197e-01,1.316656856056125091e-01,7.220294287555287238e-03,-8.898900300818354814e-02,-2.235496110414988413e-01,-2.680582041569807283e-01,-6.256087153629748265e-02,2.143283458837879629e-01,2.687690159811191859e-01,6.600067354707925271e-02,-1.279254526999627217e-01,-2.401867624817194957e-01,-1.783561097724119804e-01,-5.377201990700680029e-02,-1.117105264454450533e-02,6.399532794974916285e-04,2.670282701694213102e-03,8.786299863551580089e-03,7.974260216069280899e-03,6.584518346584255361e-03,8.505817290942420048e-03,8.672942009598023222e-03,7.083629767150347728e-03,8.370133283636720101e-03,1.518459124284843266e-03,-1.914874641338065774e-03,2.573265214751896315e-03,7.638628245918607481e-04,-1.514912882382815282e-02,6.607373447469299180e-03,-5.769950691372210949e-02,-1.622596381456116177e-01,-3.092557116481082780e-01,-3.209523421105931473e-01,4.094710577303420362e-02,2.289787584263665576e-01,1.562720476610589826e-01,-1.395198078549998444e-01,-2.693741315269703729e-01,-2.331773551984556436e-01,-8.131378544015352428e-02,-3.319391319989602185e-02,-1.604870195675193317e-02,3.013295953051093809e-03,6.318135270166684060e-03,2.598035810641597960e-03,6.340057030996113299e-03,5.399853797158554909e-03,7.798453951511435944e-03,1.069806388269584204e-03,7.610279025020280294e-03,5.412665786761102979e-03,4.173664546181943963e-03,-5.297560698554212508e-03,3.409352787599358604e-03,4.273051381260240325e-03,-2.504789037638098861e-02,-2.612885086222242748e-02,-5.830789787261627527e-02,-1.893618284268064056e-01,-3.313356148646180444e-01,-3.007316446718719116e-01,1.538161870974047440e-01,1.902349913625625277e-01,9.096587030640600202e-02,-2.416613213639790536e-01,-1.833606230979605012e-01,-1.581719317563158311e-01,-7.048783791842087865e-02,-5.532982160825060391e-02,-2.470131566397797129e-02,-6.645719812762912980e-03,3.711909314772063231e-03,-4.778241599730102297e-03,-5.679247772047334381e-04,3.236102191495412658e-03,4.886431904046657955e-03,7.704074178077932600e-03,6.832953766065051789e-03,4.459027063767483437e-03,-2.411144179077676780e-03,1.289278714915337038e-03,-4.616106504470030882e-03,-8.742793423366502018e-03,-3.192904123241017272e-02,-4.099217115053579996e-02,-9.787028701707863043e-02,-2.156358440952904909e-01,-2.455459983762658671e-01,-1.140066374394946708e-01,1.576110052571998432e-01,1.333713219530559546e-01,6.475021816819365172e-02,-2.385650240671681743e-01,-1.217273104361078079e-01,-1.146284593282383135e-01,-1.093775857116235234e-01,-7.606374050649070129e-02,-5.500822308549994932e-02,-1.235434819519008395e-02,-1.147982213454716658e-03,-4.146680500213054815e-03,5.703411349633577543e-03,2.299546058910861834e-03,2.131047040250833111e-03,3.113408288451135933e-04,6.516668253758850504e-03,3.685263437237611388e-03,8.643582498396371397e-03,6.484864656794017083e-04,3.908991365988512615e-04,-1.189803568346678962e-02,-2.253012287568080529e-02,-6.607448141045285661e-02,-1.063669796761574221e-01,-1.684266182492436259e-01,-6.336058802190863704e-02,-2.577599580799914969e-02,1.306478169616466234e-01,7.620753461285144359e-02,-1.100671821212394347e-01,-1.078280358471515044e-01,-1.271850942615670166e-01,-1.519361613481572670e-01,-1.349536856627238379e-01,-7.945614337515036207e-02,-4.232456677124888517e-02,-6.291152940820277095e-03,9.530335436770930859e-04,4.248194450688078279e-03,6.420893707513408537e-04,5.819714019143987747e-03,2.689934044350976612e-03,7.975591006371881078e-03,3.103619589235737629e-03,4.552201490818011745e-03,1.162053990810063629e-04,7.244688779455887634e-04,7.078452149537929616e-04,-1.259762434354949091e-02,-9.549286848513907633e-02,-1.476884230092479766e-01,-1.180916022417080463e-01,-1.319424872273835259e-01,6.234390711147518287e-04,9.707833287835530497e-03,1.835854113128367326e-01,3.209978384373216465e-03,-2.653647413835904037e-02,3.356299220757626156e-02,-1.229886591327797735e-01,-1.404792111032096280e-01,-1.421493354325304714e-01,-5.927719310431516647e-02,-3.817189607370996551e-02,-2.274829870698684767e-02,2.640340204871732561e-03,4.552843556278921358e-03,8.786649914483335086e-04,3.506269312091807484e-03,3.320310879136656522e-04,7.857849715502074556e-04,3.969232762015960370e-03,1.327157540430603513e-03,5.675408482615581889e-03,6.894649691372657131e-03,-1.277669180395991921e-02,-7.810552222042344006e-02,-1.420033683968255078e-01,-1.162274363659780152e-01,-8.334814909840962405e-02,2.456421348382067243e-02,5.545462114249911229e-02,8.091995490518290313e-02,7.771848105892870118e-02,-3.562772551483447264e-02,-2.538676883026753581e-02,7.493550653248166882e-02,-6.780417044069891874e-02,-1.343119414105707898e-01,-1.096137835936021876e-01,7.601816112744622100e-02,1.187564531524807829e-02,-1.940207465720376889e-02,-2.176592417960720538e-04,4.585701513245083773e-03,4.523182845183001434e-03,6.435776951965249508e-03,5.264026609361132508e-03,7.315895217553318453e-03,8.162998203058957321e-04,6.035208399056379543e-04,2.471032340101464529e-03,1.595446801131883419e-03,-4.844178451411395442e-02,-1.074496495740719371e-01,-1.605921947519963200e-01,-1.249701894410543690e-01,-1.801479776462065752e-02,1.118502054040988319e-01,1.191331032724483874e-01,1.088224545707455193e-01,1.185057068999225555e-01,1.535445315896988572e-01,1.349209324242562624e-01,1.412702199510822987e-01,1.804297355643886755e-02,-1.476394360168167656e-02,7.603931238731762021e-02,1.440147285312313730e-01,6.163949402399553773e-02,-2.634320849738906734e-02,-9.257731193541236586e-04,4.154839843515139262e-03,8.682725054083805655e-03,7.271690697663080009e-03,7.427065211999810124e-03,4.254933344480753624e-03,3.459349925469629335e-03,3.710387629846027217e-03,9.876495637360578270e-03,-2.889907263322075235e-04,-5.138673480219011630e-02,-1.041844508597234709e-01,-6.439010809104986355e-02,-1.735916423571710540e-02,5.312296167426590159e-03,6.315360365168119772e-02,8.980850495712855430e-02,8.437547948918826257e-02,1.013957760681479942e-01,8.709055106552315850e-02,4.401001897861050310e-02,-1.117172930913034115e-02,-6.777035693960614671e-02,-6.412805390199702305e-02,4.750710402394354992e-02,5.475508945331877819e-02,7.865278057270273446e-03,-1.634594731736946924e-03,2.272430749590705187e-04,2.375433249238776464e-03,9.713950940416396507e-03,1.809769527094897811e-03,8.543850933695791225e-03,4.922778564480347931e-03,2.472310744031770355e-03,8.707499012725114854e-03,4.453052550026655176e-03,4.311709732682317969e-03,-3.188500335568890398e-02,-2.740305032916438496e-02,1.835759506978659056e-02,1.354825944630891690e-02,1.327489118024247350e-01,5.550397677134255581e-02,1.292659774955351622e-02,-1.172289460609288458e-01,-1.135828238729682249e-01,-4.443604618216065449e-02,-5.559630197524178738e-03,-1.247153068344891147e-01,-1.384550431656041691e-01,-1.127837091033286471e-01,-4.870591848409197566e-02,-2.985900807908803758e-02,-1.498049946001276007e-02,6.464766261902380254e-03,4.218816907960649606e-03,2.487142725876299084e-03,6.171449866040300963e-03,7.067772168854458137e-03,1.670419079009498623e-03,1.676192162883176741e-03,3.667142693354297450e-04,7.364020150656405521e-03,6.638045276218050572e-03,3.909844950883555048e-03,-1.771271633442805804e-02,-3.468817117550088841e-02,5.437474434357707220e-02,4.568056194507396500e-02,3.240044776708675411e-02,-6.624280917820131453e-02,-1.051133453728847617e-01,-2.177745183879667978e-01,-1.392652199295975890e-01,-3.426924621923581327e-02,4.049017858893108612e-02,-6.000491293865600068e-02,-6.878378076699455390e-02,-5.093815917484071504e-02,-2.688455712214684809e-02,-9.896534800822483213e-03,-6.034771862597901500e-03,-1.733008711475263327e-03,9.074026770895740265e-03,9.651186964360455173e-03,4.939980934409615612e-05,9.518117854232389236e-03,6.391199378155004024e-03,8.679182945200220739e-03,4.547398556338590886e-03,5.155960285792502741e-03,4.888465802569201893e-03,4.342396641038426437e-03,-1.421729850403660733e-02,-5.770218239661357995e-02,-7.423030537190102029e-02,-1.424336417103914260e-02,7.667518604261981674e-02,1.125324339291356064e-02,-7.074341254316893202e-02,-1.225293605277200243e-01,-6.418727494416254231e-02,-2.799878375088462809e-02,3.727485027745514046e-02,-3.817923923834289773e-02,1.089451499159212709e-02,4.559489649750985991e-04,-1.424325109166169534e-03,1.485401667731817881e-03,4.898812337845765037e-04,3.621132660823215155e-03,5.868072605502439205e-03,5.706097466388297158e-03,3.038705969683685938e-04,9.309486955069777234e-03,6.895267510315611879e-03,6.765133857772465467e-03,2.156751523977171701e-03,6.588854702326571791e-03,3.938644056541584608e-03,2.027020461497096651e-03,-7.278064220127515929e-03,-1.100304869402378947e-02,-4.491588955541406247e-02,-6.125424939375143096e-02,9.820244970626280934e-02,7.780818986121480763e-02,-3.524494152763171795e-02,-7.035692946536224734e-02,-7.431290316553142150e-02,-5.082458024947014708e-02,2.403116795587802949e-03,-4.751740833466493868e-02,-2.293910053871079172e-02,-5.077400594960719722e-03,1.363593027945308794e-03,7.154689167629540124e-03,7.293899456078975323e-03,4.091741661898417454e-03,6.989930473711106901e-03,1.202090553706084515e-03,5.444890979608495857e-03,5.758660498121570494e-05,3.245858299002703142e-03,3.664615348713978673e-03,3.961726916092553862e-03,6.954672066898621476e-03,3.885581012703457574e-03,4.486936226225306246e-03,2.375441308743274707e-03,2.850139392213002325e-03,-4.139254335686044263e-03,-1.553200819233447466e-02,-2.262612346393496482e-02,-4.190999625242983195e-02,-2.736420082898336284e-02,-8.605303019793356101e-02,-1.332629592259755302e-01,-7.835171964862906735e-02,-1.400584639472814402e-03,-4.235536808976702282e-03,-5.833462078033192950e-03,3.018427040396425964e-03,3.801956187858570712e-03,3.988227808969005070e-03,5.801723692273322817e-03,5.336025467268784746e-03,6.079050927934446201e-03,7.648832615421282885e-03,8.129857387160934271e-03,7.181230762264944126e-03,9.555236959549347903e-03,1.823258267636163087e-04,1.957779856835460859e-03,7.562874978142119630e-05,6.474747141546030420e-03,8.980305489499868649e-03,2.317172495885607038e-03,4.564326652867609427e-03,-7.912161845813121819e-03,-8.969801374546605005e-03,-9.013367780704039170e-03,-3.486287441462228125e-03,7.004003134593386748e-04,-5.128902154366232757e-02,-9.354111714487697848e-02,-2.258265563474832691e-02,7.528739223589196207e-03,1.256553420093711976e-04,-5.914278593713975796e-03,4.598778568896850182e-03,7.161506742231935410e-03,2.726240007335337633e-03,4.135491015253515285e-03,1.218860933369475671e-03,1.811493495346803246e-03,6.811178539649828494e-03,1.814383476956269543e-03,5.251633836670602067e-03,7.090462617224326837e-03,1.068769230947438486e-03,5.673122196289035434e-03,2.565627837013637665e-03,9.629268752375798671e-03,4.835456467199247300e-03,8.059925497751582041e-03,5.502265421562617387e-03,4.341253285481916314e-04,6.331513755940224031e-03,9.514033422066570794e-03,6.016118201463312165e-03,8.191888594267901849e-03,8.842064633484077868e-03,2.280797719489324662e-03,2.120448399082266403e-03,6.109809888509917450e-03,4.110284698067047382e-03,8.398613028667203245e-03,9.000231233980112225e-03,3.534213793027181274e-03,2.368705589744820716e-03,7.805255152438618678e-03,2.748060355481361013e-03,8.226143185136784372e-03,4.237382536487628235e-03,6.675498992914704645e-03,9.553531383466818067e-04,6.238593246765729988e-03,-9.242831493561733114e-02
5.866084631754741111e-03,1.680142077448634232e-03,7.368737449441821637e-03,8.627970775432284786e-03,2.167398000907756576e-03,9.571455552016172770e-04,2.363858604633639799e-04,6.419715004432660285e-03,6.070940360887807849e-03,5.466974127140700190e-03,2.319470961159754343e-03,3.909059959055146381e-03,5.944763351861730334e-03,4.967668588591694218e-03,9.877855202148873651e-03,1.364397525567331241e-03,6.951445540475937983e-03,4.043187681042921013e-03,4.281996149256147959e-03,7.175977656581762100e-03,6.924361513243696212e-03,9.912559937021883302e-03,1.283942894541252426e-03,1.041096493841663344e-03,7.243388171287411248e-03,5.783869170064090924e-03,2.741606665598058604e-03,7.941936898898660502e-04,8.565824959643053701e-04,8.941908746641183056e-03,1.918673247187429026e-03,3.233715621155207852e-03,2.266564022269880376e-03,3.549963058319373366e-03,6.942384274609336367e-04,5.190597909082703999e-03,6.761256359221490004e-04,8.003565078223615764e-03,2.337120819104330192e-03,5.400119146045105796e-03,8.800790875614581885e-03,6.508773690471941591e-03,5.329577865513353101e-03,3.243337531153756177e-03,3.330019130581979292e-03,6.694869551981901153e-03,9.941393612211675210e-03,6.618391898493786694e-03,5.577834173700248893e-03,7.306505102392461294e-03,4.652056122837181298e-03,6.014234260078521683e-04,5.622968158779098266e-03,9.576252845053801616e-03,1.753029423576596456e-03,6.900048908206657221e-03,2.009336886590564874e-03,5.358276844730812567e-03,9.667644964671961863e-04,4.503709362581851533e-03,7.561633288952460813e-03,3.475715242389820769e-03,6.649117244872180220e-03,7.954499607897291824e-03,9.271778194794527347e-03,2.346420818554535454e-03,3.993159158093081626e-03,1.524160133304174438e-03,9.924835021583752054e-03,9.270009679242952744e-03,5.399571302805596280e-03,-7.485427863685147933e-03,-2.695127257577775368e-02,-2.925273020417786668e-02,-9.044424608502094759e-03,7.552704204968079330e-03,1.277134836352348353e-03,8.260676302525284120e-03,7.820280876703859449e-03,7.087446977429764580e-03,3.616038052476211332e-04,3.031283559453286282e-03,2.631125699108428483e-03,3.601364074715191193e-03,8.764274676383854157e-04,9.369578230310628142e-03,5.538022407123762737e-03,3.055243106580235544e-03,3.969815170742834604e-03,4.472025405048356966e-03,6.005943333606172767e-03,5.156794276964977997e-03,9.193919732144173462e-03,4.969634829058302596e-03,9.921580148233126450e-03,8.514249577450958353e-03,2.085105143573357921e-03,8.944457582633499881e-03,-1.507864456331571915e-02,-3.450667960423619424e-02,-4.014504134301452587e-02,-4.152570067064415699e-02,-3.725093770344720112e-02,2.659611880510285003e-03,7.900304363070613858e-03,3.046791390980407854e-03,8.091928305125218462e-04,4.029801787651614460e-03,1.735245149865086763e-03,6.949510889024616833e-03,3.460997265377855486e-03,9.756102008599150041e-03,6.409720773453320315e-03,8.224805636343609713e-03,1.325246727418484365e-03,8.620144822726225411e-03,9.227571905133943875e-03,4.870619188189358705e-03,6.062529377509774837e-03,7.648098009029954611e-03,1.748386272604125465e-03,5.025660764634424724e-03,3.986630277723131506e-03,4.897272191768195114e-04,3.341664030532010693e-02,1.746435565791826586e-02,9.568424072167592068e-03,4.893133387517512728e-02,7.645819255101510108e-03,-3.780397385030421359e-02,-2.604669265178928550e-02,-1.399174678132220594e-02,-2.851106272324847955e-03,3.096290013896005246e-03,-1.019686051502636474e-03,-4.386805846208111960e-03,6.408263146902062543e-03,2.160381825095996147e-03,6.195879548978295605e-03,6.502010923981533554e-03,1.520248531286481040e-03,6.134962711066816420e-04,7.807615860684398272e-03,2.949945580684763986e-03,-7.470010153579856316e-03,3.085098892652008915e-02,5.624574532648062009e-02,8.406781680491999531e-02,8.144526745513362698e-02,8.159827913928900667e-02,9.164613081260158944e-02,1.451842652468805228e-01,1.288575909897725358e-01,6.510784539143706084e-02,2.828493851815037236e-02,2.535530015768598308e-02,2.059339324540944427e-02,5.042588811185615139e-02,3.669090674052465778e-02,-3.819004657150309318e-02,-7.091440769229552521e-02,-8.154994473414120537e-02,-2.753881093371302394e-02,-8.367464028435189771e-03,1.307103767401994812e-03,8.866042152404668072e-03,4.497846488213225712e-03,1.946225118207650694e-03,3.677593508772896043e-03,4.141297525289270795e-03,8.275378955668743694e-03,-1.043677844962453277e-02,-1.268991800449738826e-02,4.020005853318684569e-02,6.096418626242539052e-02,7.835043280128861642e-02,1.036407052797312933e-01,1.323827917819410394e-01,1.763656038938662129e-01,1.652192247996204510e-01,1.164910074752875946e-01,3.964653409861633448e-02,4.807127286522925452e-02,1.280861275394198084e-01,1.857126759799145044e-01,1.702688170702534032e-01,8.318548586379101439e-02,2.578379982093587097e-02,-5.565561586885937190e-02,-7.705708216921478004e-02,-3.606513957709511775e-02,-3.219939659087810852e-02,-2.711142634767204837e-02,3.003424484911869103e-03,1.500486646939842503e-03,3.246759268900599807e-03,7.373570773877996705e-03,4.760181293687665814e-03,3.758882851457693262e-03,-1.951518944937314856e-02,-2.364062084576545875e-02,2.214349630932570256e-02,4.332980955068236467e-02,8.603289248210004014e-02,1.244246306332458391e-01,1.435281542104903385e-01,1.201063522140375789e-01,9.540981056573531738e-02,6.049350758447218090e-02,-3.581121399742892694e-04,-3.754977088974712635e-02,2.651407682796428147e-02,9.782649624713767034e-02,1.061571475148243016e-01,1.137222921916533624e-01,6.444087168872411620e-02,-8.390016443643094624e-02,-6.927147098572312978e-02,-5.350180319796131456e-02,-8.947451316515982189e-02,-8.431103761042246791e-02,-4.131255336234826436e-02,5.122219208126744909e-03,6.802277792083533114e-03,4.167290060238426803e-04,8.479201604580322233e-04,7.163233880626822953e-03,-1.435496200886426238e-02,9.388438584364609471e-03,-8.581594242184112722e-03,1.602926655249663559e-02,5.891353847255222792e-02,9.005831792928332968e-02,1.373150371571480455e-01,1.227616058421723833e-01,5.594243556651981586e-02,-6.551799469631651440e-02,-1.664282734672044017e-01,-1.517954535562846818e-01,-1.338450074132699896e-01,-1.695326432521298277e-01,-1.061400833131308924e-01,1.218306806957498989e-01,3.581953358964286988e-02,-8.769168003830556113e-02,-5.331001083560923948e-02,-5.136431410888060711e-02,-6.663794055831592789e-02,-6.306905240685450886e-02,-5.564967848012569718e-02,2.056872621955551251e-03,1.213864181594064267e-03,6.150129680388666253e-03,2.899059472739038291e-03,6.439042535411307160e-03,-7.939761643778218275e-03,-3.313843922929220892e-02,-1.261085377242920740e-02,1.720934077624500930e-02,6.541101646090435179e-03,-3.072826356338411759e-03,4.202338794628895230e-02,5.198129648895348509e-02,-7.790241555025442105e-03,-7.196756406229057323e-02,-1.039404378767924270e-01,-8.981230315385425877e-02,-1.532845954347230311e-01,-2.449146255567936359e-01,-1.753829706833934798e-01,9.219635120472532974e-02,8.641004628055341114e-03,-5.285693066302712961e-02,1.533322431186669166e-02,-5.455873191875495500e-03,-3.646148238312723472e-02,-8.579574409365987690e-04,1.974704898599373166e-03,8.869249002092694997e-03,6.458108126552060228e-03,2.859067892391601445e-03,7.600168043497074893e-03,8.613699963634360510e-03,-8.076986385951147318e-03,-6.190255766921221731e-02,-5.672348374644229502e-02,-1.430333669657616810e-02,-2.217337105816254150e-02,-3.376310182178982044e-02,1.109230819450628472e-02,-7.286238534647861143e-03,-7.153748194322985532e-02,-1.200343608368747844e-01,-9.901685639264325156e-02,-1.345992678688928690e-01,-1.965471396267089998e-01,-1.474459940577769745e-01,-1.565280364820904532e-02,1.010438979349644328e-01,1.099759714331313698e-01,1.855191979021035206e-02,2.023738421685868788e-02,2.393707506219585127e-02,2.722016777370308161e-03,7.328015447662506246e-03,5.422372054918482912e-03,5.903476904587728891e-03,5.083605469162799477e-03,2.975484513188205934e-03,5.650219928590161089e-03,6.888853020500906865e-03,-1.931026016126257197e-02,-5.400702177805057763e-02,-4.504270506300825372e-02,-1.577012896986803789e-02,-3.115105930367109699e-02,-6.799011575111414685e-02,-1.096880541399263692e-01,-1.031206578367212384e-01,-2.124327995887576870e-01,-2.239647909131920744e-01,-2.182725878847698586e-01,-1.950901513334166726e-01,-1.835738688806134167e-01,-1.639381295802689598e-01,-4.558414218893505621e-02,1.474900245968209234e-01,1.409298841000196090e-01,2.575104054820345073e-02,3.703422692413491785e-02,5.046937268097027168e-02,5.229613542912736694e-05,7.609907600280938628e-03,3.531135494023907202e-04,7.457337827312321595e-03,2.024805601652373936e-03,9.580734801193802747e-03,3.679407513020844980e-03,3.269316163380791077e-03,-3.566874284550413526e-02,-5.630267690549074083e-02,-2.986104519623360154e-02,-1.173965802987951383e-02,-3.874712801235992432e-02,-7.523114566537088266e-02,-1.217572860063446255e-01,-1.914000255417220575e-01,-2.550763662106335095e-01,-2.196714104510245347e-01,-2.281207146439753197e-01,-1.330102209295132842e-01,-1.767245523117815797e-01,-2.005940839669531628e-01,-3.776860220208050345e-02,1.140075896786675730e-01,1.027895574344403623e-01,-1.580322191205306035e-03,4.433874299253039858e-02,1.678992596235640705e-02,6.485359448296834552e-04,5.799837874281312672e-03,5.614845879595237177e-03,5.606600944161709531e-03,6.034876665964548047e-03,6.764679372263622710e-03,8.049889996807698192e-03,2.698207201282143506e-03,-2.890712924702796421e-02,-5.437616223775833951e-02,-2.162847379525219618e-02,-2.567022541408241557e-02,-4.373941137923419847e-02,-7.054763618279819015e-02,-1.063348689554494408e-01,-1.833370772209115818e-01,-2.577017355257208431e-01,-1.898856620357318725e-01,-1.261731934805374600e-01,-1.275821162729980918e-01,-1.924814259099309754e-01,-2.510708677103770659e-01,-8.792974882144613535e-02,9.656565366560258823e-02,8.553780563890374389e-02,9.477809409142194316e-03,2.783477792694627820e-02,-1.130173816311170858e-02,4.212480532940720418e-03,6.361773647082327211e-03,7.856516180802320184e-03,1.183361909233873266e-03,4.099048896962882542e-03,8.398022856356171517e-03,3.838329519330440330e-03,5.718722712271865488e-03,-3.127992974020660233e-02,-5.751395652905649108e-02,-1.624178385171883704e-02,-1.345328600542014010e-02,-6.091307425289786692e-02,-8.336842641781644359e-02,-1.157823820483505073e-01,-2.132113916341206450e-01,-1.985087126983468009e-01,-1.137516671059814466e-01,-8.073154014862347905e-02,-1.311854521116361250e-01,-1.905278395502060795e-01,-1.855495046620779520e-01,-2.441426607665611245e-02,2.540437415644650199e-02,-4.351766503196818903e-02,-4.362263384102265523e-02,-4.195145015675153660e-02,-3.000394303683301747e-02,2.058334930796656970e-03,2.336439594699028788e-02,1.511328942315057385e-02,4.368507026151795779e-03,7.295082286523967355e-03,7.655128989911097297e-03,1.589081676693535625e-03,6.102251494776412925e-03,-3.370082082706148119e-02,-5.161127245577016437e-02,-5.004778310391675561e-02,-5.531420661584351278e-02,-1.094871935436684263e-01,-1.335443578555414734e-01,-1.095172355153161692e-01,-5.653958583122058873e-02,-3.722761486043158624e-02,-6.975969641117386877e-02,-1.676315216592465795e-01,-2.270272772136644190e-01,-2.403177281472212157e-01,-1.642949186516824422e-01,2.262652053734197713e-02,1.613150297678992220e-02,-3.398402743478529109e-02,-8.714322667206046702e-02,-7.514127546511352451e-02,6.175086864880035414e-03,2.985957902573492528e-02,4.639605695287755960e-02,4.574655766538179152e-02,3.473433262588426860e-03,8.998333456872724401e-03,2.182339677548950150e-04,6.637896861755891373e-03,9.633944342135504144e-03,5.601681834618419363e-03,-1.844156895520749143e-02,-4.615916384872831291e-02,-5.755332929665532560e-02,-9.980785179372388127e-02,-8.445074476414050901e-02,6.742183223457783037e-02,2.355787103374704441e-02,1.375353826147627731e-02,-7.128884090376055860e-02,-2.467856024288831995e-01,-2.696253150303565826e-01,-8.065009124507750704e-02,-2.474067712157091564e-02,2.961743022823318944e-02,2.246598160446746165e-02,6.904647507310409695e-03,-4.541937006720259129e-02,-1.376308957329865079e-02,2.412602148763858673e-02,1.914379841562199869e-02,1.382125195186469264e-02,1.147688718692174790e-03,8.601396933494350264e-03,7.228143032084837633e-03,6.766836190000158216e-04,7.078350972297686554e-03,5.435382173426460579e-03,8.172534574677826121e-04,4.583006415286564397e-03,-4.706330234788545807e-04,-2.720538621031114504e-02,-5.461452709469018577e-03,1.080944518257829223e-01,1.534970003848341313e-01,7.248293968528093933e-02,-2.102613912102116109e-02,-4.802999465804298762e-02,-1.077554840042896506e-01,-1.117490371996016085e-01,-8.252543385291260039e-03,6.908617181221628212e-02,1.427448947051433801e-03,-8.227822009578944495e-02,-7.211012324343553381e-02,1.261792788150603237e-02,4.677560607323576203e-02,1.820598943516689439e-02,2.780567660115896775e-02,3.207104100933033664e-02,5.193858595039373659e-03,2.048812741507125782e-03,8.778300781520408450e-03,8.795818549515291296e-03,8.705784250460068749e-03,2.387962113815392858e-03,4.512393441809881174e-03,9.849896561408751430e-03,-5.047190032071008185e-03,5.255703059509715669e-02,1.151486036304653349e-01,1.522239512997407562e-01,1.125929914814340210e-01,-2.330686463846034714e-02,-2.060067755596987210e-02,-1.903003829928956838e-03,-3.250596957927548436e-02,-6.191790993588502240e-02,5.309620295573318563e-03,-2.470688078503093660e-02,-1.081709543306090399e-01,-2.282082112935077678e-01,-7.905511485405003480e-02,1.016288607063102201e-01,1.846341270218508079e-01,2.049485803642922543e-01,2.143948303572194014e-01,1.441469531341471599e-01,3.959704726624549247e-03,9.150900684070432251e-03,5.330288672461399799e-03,1.579548228353480068e-03,6.958991181688024309e-03,7.932613504382544228e-03,3.167616770675266927e-03,8.571792569987529350e-03,5.008726819124778573e-02,2.144087470785318861e-01,1.436913475050053957e-01,1.040323007929828437e-02,-1.877938718608311575e-02,-9.446469345685630514e-02,9.637562623077142523e-03,-3.196048742033238185e-03,-4.483845067263680928e-02,-4.765610809588773718e-04,-5.762397093948724847e-02,-1.232170207222559183e-01,-1.511616033394071468e-01,-1.651860046264199966e-01,-2.905711819104894039e-02,6.176999976706205181e-02,1.265449041605541947e-01,1.969468559640000505e-01,1.366450127510051571e-01,2.484937518642567691e-02,1.659548952957850057e-03,8.819277583046439620e-03,4.274896879206151711e-03,1.622334057824793580e-03,1.260751997575904212e-04,5.597556836383825972e-03,5.273996221226763016e-03,4.371878014880805838e-03,8.709779945439129201e-02,1.711412424016191258e-01,1.306066763235868289e-01,4.107185177072709970e-02,2.215330162835409816e-02,7.299233101321130068e-02,6.296825719002534238e-02,4.252009202499323209e-02,4.212873314525489299e-02,-3.615484555522037458e-02,-9.258908181251314373e-02,-1.239024105571434609e-01,-1.751399281240596517e-01,-1.244253939140531201e-01,2.517638854914237834e-02,5.876488778106764982e-02,7.732689613514633076e-02,1.119102376465038462e-01,6.011349441135298288e-02,1.006374785235333337e-03,2.398741127559447187e-03,1.419719897609939127e-03,3.479414115821666178e-03,4.503509789054126883e-03,7.488263369633064818e-03,6.511475848816741796e-03,6.209285674784311912e-03,1.035576978410472209e-04,6.904020764413858202e-02,9.837543682285659896e-02,1.239033041708012539e-01,1.214806082076304028e-01,9.181048747267964161e-02,1.019597462454100295e-01,1.501718304495832691e-02,-8.180481364242216764e-04,-2.021930996419553980e-03,-2.418045557636738785e-02,-6.516706522924473055e-02,-7.366717807088392356e-02,-3.286348369255717022e-02,1.509147638006004023e-02,9.815902573159880629e-02,9.380357971381703130e-02,3.561795100138368669e-02,4.968747126215049270e-02,5.101656763628207962e-03,3.318935456242622312e-04,3.039464012407237965e-03,6.531627905312829829e-03,9.383048184484826457e-03,8.712044822630519644e-03,7.660647765353026210e-03,7.884473432532986339e-03,6.649849034759952940e-03,-8.173231925954664925e-04,-2.180402503703707945e-02,-1.111334457669170203e-02,3.335331212013894348e-02,5.620343469608778814e-02,1.407598598423955710e-02,2.677430485554950501e-02,3.413765774662348186e-03,-1.915836387677927882e-02,-4.194672766827579197e-02,-4.600081008168855484e-02,-1.851801997726111246e-02,1.410300500744687477e-02,-2.021687444638949754e-02,-9.774049357196805052e-03,2.977934505802032339e-02,7.237982474236560881e-02,7.916131541798576698e-02,6.690299543874464461e-02,3.173605746275812156e-02,7.539619035967839826e-03,8.049067768414385968e-03,1.800655560045449812e-04,9.628103570740259576e-03,7.266709920703232940e-03,3.047510953861333471e-03,8.293946648588469348e-03,2.815211984149299570e-03,3.062051031379158048e-03,-2.394159213202684197e-02,-5.116105759523489199e-02,-7.799928158604937933e-02,-1.103494350555178222e-01,-1.419558054029259053e-01,-1.480088067133213392e-01,-5.654507137894675822e-02,3.205097619611764481e-02,9.093343892679522141e-04,-7.033245348483088688e-02,-3.250175020446626623e-02,-1.199559375757241510e-02,-6.794509124628496551e-03,2.464979414904337404e-02,4.990509657195903170e-02,6.821852971767843055e-02,7.595731863833272979e-02,7.709509556093474547e-02,8.242396276324100157e-02,7.896916219082861796e-04,2.395101699095381152e-03,7.945782787001903075e-03,3.467026672648332330e-04,5.828068350834896341e-03,9.954375161913098929e-03,8.556960938375393622e-03,5.214456890435894415e-03,-8.192760129800606347e-03,-8.111116424780830114e-03,-1.887290557380396847e-02,-5.178379274089624229e-02,-7.636083707525012643e-02,-1.075031145002924154e-01,-1.461155156240357689e-01,-1.214926740404158878e-01,-4.446575017303394661e-02,-4.648250979699908997e-02,-8.995260239410854397e-02,-1.811569567346351869e-02,3.935392495863383744e-02,5.295465766084836434e-02,3.512210824113129459e-02,1.209195835536036774e-02,2.229653408146422405e-02,2.397647110197642650e-02,1.361368106929387520e-02,4.025560930039832896e-02,5.916971623063255539e-03,7.026337730855163402e-03,2.374334683748063023e-03,5.123637775457906551e-03,1.042248028083476693e-03,3.845113276448125506e-03,4.876670686212644483e-03,6.522242595454724734e-03,9.505310525862035662e-03,6.006510665483558511e-03,6.460162222318565663e-03,-2.027985165029742853e-03,-1.036657713496495770e-02,-2.353960867255353723e-02,-4.587413597034544627e-02,-2.642704687672752656e-02,-2.834678900238065541e-02,-4.529667652565590868e-02,-3.337284511240891371e-02,-2.271720843694997080e-04,5.613047447623526268e-03,5.460593232694504855e-04,4.641342826853932235e-03,1.960977127383929392e-03,6.107800710757682779e-03,2.806832155159743117e-03,2.069925784384267844e-03,5.165726284459790617e-03,5.505799160420821425e-05,7.664032649225327508e-05,2.190688091018577754e-03,3.672136250082114412e-04,1.080257541306913838e-03,3.388606493387515909e-03,8.025856795798128399e-03,5.720486433693008042e-03,5.126677259564164056e-03,2.804784640154944515e-03,4.113393517277325051e-03,-2.598462285394173305e-03,-9.467592055698742862e-03,-8.813770249889203365e-03,-5.753950188692677666e-03,-3.831234985305530510e-03,-9.650036103987350705e-03,-8.595291759665750139e-03,3.969090255219666786e-04,6.794683245795143066e-03,7.535172037514967398e-03,-2.787388262407162424e-03,2.063602011630697158e-03,3.945760755976464133e-03,4.218281785388313353e-03,4.110210752655457482e-03,9.076110025565549758e-03,7.140326444668564781e-03,6.079052140907037494e-03,3.093727178627820977e-03,8.237903842212946498e-03,9.550605114849890220e-03,8.211982825502265118e-03,1.565105191472904275e-05,6.364013701834070856e-03,5.113538144210072857e-04,2.576072203337218588e-03,5.952470034777168411e-04,6.037954529493877454e-03,6.865899134926067675e-03,1.144876380659051122e-03,3.838388830449794738e-03,4.562365089555420021e-03,3.690530217609165956e-03,1.210250004851930444e-03,4.189477901874754176e-03,7.511780478084181638e-03,7.100766453325546698e-04,8.018001408190344667e-04,3.547712918359842340e-03,9.417257116189250987e-03,6.685726467229140269e-03,6.786699566725648385e-03,3.619199908378649671e-03,5.936607912085384645e-03,1.013118402774337807e-04,6.360960464095422387e-03,9.132869475762367059e-03,6.125734683448192004e-03,8.736985934663449999e-03,-3.463752410066343046e-01
1.205584164036902547e-03,9.024533072858416730e-03,6.644384435577488498e-04,5.339674725477638016e-03,1.421371237934576605e-03,1.170661073090406616e-04,4.220342601276389979e-03,2.950407076541562527e-03,4.860004937976030413e-03,5.771998867345508322e-03,4.373907230894735635e-04,1.230032951237456469e-03,5.586423964504253457e-03,3.431673531726582571e-03,7.291734875494480100e-03,6.522916485919396865e-03,8.456043629899068562e-03,6.924928266692252816e-03,4.299310773901481725e-03,6.729666223944323622e-03,2.753811742554185347e-03,3.063134987782126836e-03,7.889851599207933081e-03,4.464195164015821553e-03,7.983803405183525007e-03,8.224223736682783475e-03,8.575623376612837370e-03,9.166352358412073464e-03,4.309852205132962133e-03,3.188668183211388306e-03,5.821987465941138792e-03,3.711724234376275779e-03,6.010741668002329667e-03,7.055858626438246683e-03,6.884050184921369081e-03,3.745528870201213743e-03,1.668602016987528287e-03,4.305293384622075475e-03,1.425941440819087410e-03,8.900970351838084077e-03,3.458774607378574048e-03,1.544597472233237958e-03,2.544775990575087548e-04,6.458223862864842860e-03,6.369023174547432629e-03,3.406041665812916796e-03,7.171188884765101242e-04,4.096288948952320381e-03,3.112174950633935823e-03,6.771206397350093900e-03,6.057792494526904013e-03,3.645937281975399763e-03,2.178925542549901232e-03,9.880359661555919437e-03,4.540016211961149170e-03,6.882742357802370918e-03,1.405529675783607872e-03,4.855896996593978519e-03,2.753671986946548537e-04,5.054551179104499470e-03,9.640174071177023962e-03,3.842067129858002181e-03,3.899601257491158864e-04,3.095579091934352921e-04,3.879867599468695121e-03,1.600249364631940513e-03,2.335209632818591185e-04,7.562136139501768328e-03,4.585230088818907125e-03,2.892447719726545102e-03,9.000831830164807493e-03,-8.760379341388895014e-03,-1.008435282936150611e-02,-1.655612898435122188e-02,5.160750291126037746e-03,6.029428764794615529e-03,8.267073597414874297e-03,9.840131632104643158e-03,2.884054378187457090e-03,9.611354854075930543e-03,3.894818949024203818e-03,3.855119047369223294e-03,3.403871042545057041e-03,5.414076073475852444e-03,1.541450431784871077e-03,5.537114853580112073e-03,5.417048124100039969e-03,7.619018126048700094e-03,8.336499619375855111e-03,4.404413503124240438e-03,3.023332493514937352e-03,2.593348973170944965e-03,1.946238367048719418e-03,5.764758219902488831e-04,3.424479788347133472e-03,2.702476921307832639e-03,9.664173858664073732e-03,5.351593513786935714e-03,-7.541754450736920350e-03,-2.576104592635032609e-02,-3.419478152711400570e-02,-4.447848637174160735e-02,-4.716058761718731202e-02,-2.752374531904576947e-03,4.017788006543242946e-03,9.938483888996981624e-03,8.803147621489270519e-03,6.234059581594401239e-03,5.693773611822827707e-03,6.206604798245841069e-03,2.013121078224332488e-03,3.951377432643185875e-03,3.945953289089931663e-04,4.755460374868267052e-03,5.430245839576631518e-03,2.277497361032096001e-03,9.640288471655137151e-03,9.094546109372421069e-03,7.221432354559059047e-03,5.333866287653626220e-03,8.699691596476849531e-03,1.306523438234629114e-03,7.905097942748849291e-03,2.396056714177751887e-02,3.727214850650616140e-02,6.650638553199726688e-02,1.690622394293300398e-02,-3.628679412354818279e-02,-6.023333130273098718e-02,-9.550347036018026758e-02,-6.450540034386466337e-02,-1.582810386089237090e-02,5.214293651243402791e-04,3.196598923602329747e-03,7.371312196615165428e-04,-1.742908643791566705e-04,2.032230910860872725e-03,7.617981913776972723e-03,3.865405068230278775e-03,5.112754622007511206e-03,4.923254800011819116e-03,5.772790292331312668e-03,8.655771456245521869e-03,9.975428601579738874e-03,1.177957693024807642e-02,1.306755990074872850e-02,1.368662017791673347e-02,1.037067556407501694e-02,2.300102453766327340e-02,7.117589573831910495e-03,2.911925934594339349e-02,2.440092659511913786e-02,-3.242569616298189572e-02,-8.245019447774809551e-03,1.096908157235967768e-01,9.671599876273284657e-02,1.176587021123637750e-01,5.393523125651222827e-02,8.621387476315019865e-03,2.403316936481632998e-02,-3.090370853330971085e-02,-1.867581055004598201e-01,-1.068001343904930872e-01,-4.429030298005126598e-02,7.227069576982284894e-03,6.925324315371080008e-03,1.344351294081218501e-03,2.993955883716812368e-03,3.587155254170134450e-03,8.044372076795050508e-03,2.787598724145530071e-03,5.383591220725524734e-03,-7.840580521314425427e-03,-1.926906586833714713e-02,8.617960958674913963e-02,7.465033620503017109e-02,2.155446474965499667e-02,-5.089605572512158858e-03,-6.433326058494043265e-02,1.001382368187552913e-01,4.961503114491136457e-02,-4.808867769547840038e-02,-5.855538813948828886e-02,3.071185183931544188e-03,4.589500727569249816e-02,4.829128625861185686e-02,-9.294303915367503610e-02,-2.982051245518953578e-02,-6.548049840160752311e-02,-1.300881893262607059e-01,-1.220586257458092239e-01,-7.455941000818315512e-02,-3.637866772875242294e-02,1.724740976271030377e-03,6.600984414024158335e-04,3.488205339694793426e-03,1.109980987913148417e-03,8.082352100092221950e-03,9.476880259644708537e-03,1.860581574157170112e-02,-2.728863949150573537e-02,-4.573873904909878108e-02,1.149895093613139685e-01,1.273196064365614277e-01,3.662286699181791644e-02,6.778159182656946780e-02,6.522748653854408551e-02,1.241122071487077150e-01,2.301768433044790729e-01,6.339816390814104197e-02,-3.915907589639501529e-02,1.294410446686128369e-01,9.327774130117991169e-02,-1.054253373135667117e-02,-4.990903116579585574e-02,-7.791333300035373222e-02,-5.785910928219749338e-02,-2.053150201940958861e-02,-4.165123584326968498e-02,-7.217494257161273519e-02,-5.467711650338744761e-02,-1.656403038083537060e-02,6.034930960433786302e-03,3.578140841135488571e-03,6.478174459905283733e-03,1.229206784653875777e-03,8.886590802653986446e-03,6.428426778352243354e-02,-1.434392978385510414e-02,9.288528319756943902e-03,9.176048466316391594e-02,1.164237515994374916e-01,3.670168120295545788e-02,-2.173042236541058297e-02,-3.317878462112125448e-02,6.805986794783590310e-02,1.840336135270745077e-01,-4.611290462216793146e-03,-4.831724416316311721e-02,1.123444993456212820e-01,1.205323839991574580e-01,-2.488922893200211026e-02,-8.106209989387382076e-02,-7.449491470505163748e-02,-9.440755438536722888e-02,-1.147884670652672516e-02,-1.745467696566035953e-02,-2.218531272362905121e-02,-2.857537998745350583e-02,-2.768576344407684339e-02,5.111291392372298292e-03,4.685190852760312769e-04,2.761695578208994781e-03,5.360699445823159659e-03,6.268962162186586962e-04,1.147350901463850270e-01,1.902510620250611947e-02,2.281214503338879068e-02,6.835022607391849636e-02,6.773049110919047988e-02,4.945831439259795780e-04,-1.680775272484864025e-01,-2.261463285355674036e-01,-2.160814556674160447e-01,-2.152390613571617262e-01,-2.238774050931638671e-01,-1.821813675132455956e-01,6.131183377005831187e-02,1.334188387385199515e-01,-3.562598790006939881e-02,-6.230574598175185608e-02,-8.211940546636191385e-02,-4.358001345858843883e-02,-4.252652415108271883e-02,-1.135018523919417190e-02,-1.047023070580070658e-03,6.182963007723732765e-03,4.363269650309087094e-05,1.669530887471987191e-03,7.130460506343186920e-03,6.663854135782064717e-03,9.463275194125155346e-03,7.610377902507830389e-03,9.180077586390869571e-02,1.434233392083980249e-02,-2.983542113933973505e-02,-8.272965754905440422e-03,-2.306520001267726647e-02,-5.049725061961111983e-02,-1.778877577882693461e-01,-2.347168870131568219e-01,-2.684101315608457550e-01,-2.709756155995747817e-01,-2.403084124919903364e-01,-6.612400102597887352e-02,1.417624163263945525e-01,1.647327107030824855e-01,-6.597968778147253509e-04,2.357078331272297392e-02,-4.975995513106091367e-02,-3.587936588654252329e-02,8.927580798690309266e-03,1.882790929724139110e-03,-1.021806433921449277e-04,6.573534821701285807e-03,4.722818041629816936e-03,8.801567379214850217e-03,2.157406791764541251e-03,6.778132003100442726e-03,6.077521222527225604e-03,2.953014775718328013e-03,-3.630895151034500834e-02,-7.438105313215276349e-02,-6.037967330502528457e-02,-1.674027159989537744e-02,-3.002834492869476887e-02,-7.835352454309660319e-02,-1.874318019635529409e-01,-2.497132242365312782e-01,-2.682284835371476217e-01,-1.574453041998558900e-01,-9.946168754911750842e-02,6.139150670384541791e-02,1.045332673598069473e-01,7.364320541028525346e-02,-5.522077448066619633e-03,1.587219711645611667e-02,-8.543470942559203141e-02,-4.535027320218958796e-02,-4.043477380743691618e-02,-2.185851877383559322e-02,1.243683990005102187e-03,4.136426749186353051e-03,4.928645844474466645e-03,4.042897472548691307e-03,5.309376784120938518e-03,5.951316749056815604e-03,9.923821127835630198e-05,4.640951594535039186e-03,-4.028433031570923667e-02,-7.455501035621782402e-02,-4.295836853678100531e-02,-1.895893590246023122e-02,-3.115069374800498794e-02,-6.850104553202278346e-02,-1.494589606412950467e-01,-1.554271273176279500e-01,-2.908931195906111836e-02,4.567017064508181734e-02,-1.330867897470295984e-02,1.105698090572445336e-01,9.486961003474310428e-02,-8.065663277344274629e-02,5.203724632275204265e-04,-6.044847042810130855e-02,-4.296037686507130082e-02,-1.920731946730178108e-02,-3.801921496249065918e-02,-1.295534418916426990e-02,1.353625715468154188e-05,2.998005275652359213e-03,6.464587416379305104e-03,9.741944438163572043e-03,8.470608269838995896e-03,2.359496464552912620e-04,8.985606046748393499e-03,7.831984132986259325e-03,-4.211556148887531104e-02,-7.516537556747759918e-02,-2.473591723853101401e-02,-1.885796301213110357e-02,-3.885999487949478443e-02,-5.789603228373893518e-02,-9.168279904825912818e-02,4.783227148687728414e-02,2.038817719228241121e-01,2.826859650273236824e-01,1.367020810118034779e-01,1.007265782299905099e-01,-1.156819179968931743e-01,-1.411776679792109135e-01,2.235644564970595480e-02,2.018760811212818446e-02,-4.429937654796237828e-02,-4.971597272080375413e-02,-3.703648495968776128e-02,-1.388392094302572273e-02,1.958330841342700249e-03,1.408029488926760935e-03,6.224136415659966420e-03,7.813218557473050607e-03,5.782983994203606815e-03,1.469627095882096793e-03,8.111237699334708506e-03,6.359547071637284762e-03,-4.603766566331517207e-02,-7.300403020215268102e-02,-2.408738059492851469e-02,-1.228072924410496952e-02,-4.062087479412729990e-02,-3.498788865971915601e-02,1.956338306306694766e-02,-1.018157493787557981e-02,8.110869480852488100e-02,2.026618515790213071e-01,8.801280233020955523e-02,-8.813067440370575545e-02,-1.736542408224205636e-01,-1.422768780760075569e-01,4.480219827412550149e-02,8.832700237347179684e-02,9.275440149452638880e-03,6.339352375687702656e-03,-4.359229762608347880e-02,-1.479987733412631637e-02,-1.272993544465577179e-02,-1.718247826649082696e-02,3.665262577075811910e-03,4.596648704026612235e-03,5.465771420322949534e-03,4.328160022094692562e-03,4.389994264300511851e-04,1.657497798201559283e-03,-4.263828429615197646e-02,-7.733952049887701796e-02,-7.555299695797339232e-02,-7.326915517882029438e-02,-1.071270941788270981e-01,-9.835978060655403699e-02,-8.367761773485950239e-02,-1.763883050659472984e-01,-7.850102432088322535e-02,-4.330100737564613472e-02,-1.644224113774609974e-01,-1.772062559173097351e-01,-1.690374225399829677e-01,-2.901890521468859785e-02,1.110504751085452796e-01,8.249623159890430435e-02,-1.691715521979797118e-02,5.165387606110966728e-02,2.206175785013144569e-02,-4.434427131076180972e-02,-3.265252559437999136e-02,-3.324068449287588545e-02,-1.014335071102026760e-02,9.078987937796193300e-03,9.437015928202207790e-03,9.601356044054472003e-03,5.214596387214719651e-03,9.773079079915036882e-03,7.573102071344388689e-03,-3.574428817992996582e-02,-5.790385281603328133e-02,-6.792013355599431368e-02,-1.095307802377842032e-01,-1.353677881824022489e-01,-1.740928879989535327e-01,-1.882915981465739241e-01,-1.707624898455795681e-01,-1.494177241820971447e-01,-2.090383609356683825e-01,-2.339033326722983752e-01,-1.899823996455661523e-01,-1.096611127892934273e-01,1.275502930511812627e-01,1.639326146776791948e-01,-1.268370099467948098e-01,4.314625977021353809e-02,8.740746684009170764e-02,2.001309853084779627e-02,1.416091313680633299e-03,-2.772800738360614581e-03,4.287020209864335872e-03,2.916976364526447057e-04,4.808901466030090360e-03,6.624340117010680921e-03,1.185026235981515626e-03,2.888849389091656655e-03,3.978366255021569507e-03,9.195310246560497655e-03,2.830263080130312071e-03,-2.591976417022955753e-02,-1.254714489477128103e-01,-1.811921003112638429e-01,-1.754787621111227602e-01,-2.348441824514937437e-01,-1.951200022359118047e-01,-1.411127104219414841e-01,-2.427389654628940574e-01,-2.675221386614789476e-01,-3.150263373005723899e-01,-1.330782989483504652e-01,4.116162821277150052e-02,1.813608777234846092e-01,-5.158640632255896696e-02,1.483071585345767385e-02,1.240141517452591352e-01,1.246415999510350897e-01,2.909884670125510264e-04,4.332530714866503034e-03,2.208527829630089079e-03,3.892996332566744889e-04,3.601881829142639232e-04,1.752217721058273560e-03,8.667703545060002901e-03,2.824787439770266688e-03,9.504591705752957545e-03,5.816222929891935386e-03,-1.629111226755474220e-02,-6.982441065860191254e-02,-1.693941359042550332e-01,-1.573197668113245073e-01,-1.487770416699726594e-01,-2.222773577312946724e-01,-1.128509695746215402e-01,-9.108939751821341912e-02,-1.527582797359236799e-01,-2.445153679611704045e-01,-3.078357160100199108e-01,-1.639492109046824520e-01,-1.908679994001091090e-02,7.254474793146495348e-02,-6.576522333240943097e-02,-3.035464572853519352e-02,7.608902479940288233e-02,8.023012666891252143e-02,-4.771493182922285914e-02,-1.643506263449525176e-02,6.900759261281630462e-04,9.407845205031078670e-03,5.069204379618346204e-03,4.094120718170183616e-03,8.108785810079184586e-03,8.358259279105160686e-03,3.321910331156046128e-03,6.936180574737952666e-03,-5.249846720450744575e-02,-1.261208046741389699e-01,-3.490408567932095502e-02,-8.060962589632406083e-02,-1.281288986438257615e-01,-2.161809904803960736e-01,-1.801168503769521312e-01,-1.902546618747085749e-01,-2.261134031268926536e-01,-2.965304668379896702e-01,-1.799425605566230546e-01,-6.701295610947377579e-02,-4.157658254717945534e-02,-6.746413146277580042e-02,-2.190924188089759389e-02,1.859123234712442216e-02,6.880365302962512808e-02,5.898893732856279326e-02,-2.279345696768265983e-02,-5.342574814198309792e-04,7.293447940879963995e-03,9.668454997992853225e-03,2.242934832850450744e-03,6.630471918034223922e-03,7.418963269587150987e-03,8.484253790905248171e-03,4.226291970136091328e-03,1.056196645047381005e-02,1.182552446127730673e-02,1.035430992689802959e-01,1.770984144448317643e-01,5.203134599997596976e-02,-1.383808562422404187e-01,-2.667107176504085464e-01,-3.021023849049292442e-01,-2.842173275223700557e-01,-2.384690728743643628e-01,-1.639426024442166008e-01,-1.729658715434337010e-02,1.390386544974579475e-01,3.703382576293229311e-02,8.564783409050910623e-02,8.170483109770725061e-02,6.585309629414903831e-02,6.677152354373441789e-02,-1.193389018560987724e-02,-1.958494926722277943e-02,4.242229820689169431e-04,2.653261375554669902e-03,6.015538792998240819e-03,2.965599122059306859e-03,7.144241640712422313e-03,7.590052825219310330e-03,1.025159640664744442e-03,5.138544642067677769e-03,1.421939936690392627e-02,1.291201947317029419e-01,1.699040471151186116e-01,1.797225506525829131e-01,1.358068707730129276e-01,4.300765661989187916e-02,-1.198608728979704552e-01,-2.124276539111115136e-01,-1.654238743331395145e-01,-1.048244172481119924e-01,-5.296240483371579544e-02,6.213397260152010021e-02,2.544074578748405924e-01,7.999011433099087465e-02,4.336463338669337142e-02,3.869925873531817467e-02,7.237295433152357571e-02,3.334176661427017824e-02,-1.806999057041920945e-02,5.600484256568727393e-03,5.620727944025710743e-03,9.470906671085190312e-03,4.962587528823615181e-03,3.805177098698945149e-03,1.630353369315910069e-03,7.862056522610580758e-03,7.344439320755914366e-03,3.843550385241349069e-03,9.382427950585661008e-03,1.389291815745835046e-01,1.644866797749433285e-01,1.677581766050307011e-01,8.622757992011087502e-02,8.527275184809517128e-02,-3.296624880484274201e-03,-4.887447314765563239e-02,-6.682781914791496858e-02,-1.098548080947234773e-01,-7.537839057380864294e-02,9.328100272254842562e-02,8.511211277907849981e-02,-4.632135950039650840e-02,-3.706327639663759693e-02,1.269028506853609427e-02,2.006314805833389614e-02,-2.425013747361372263e-02,-9.046760548147476239e-03,-1.393626765857607606e-03,8.652957589089124019e-03,1.572732081797153549e-03,3.097878592090992644e-03,2.900455319624368773e-03,8.714140341908543572e-03,6.727029942088980433e-03,7.966813971913722786e-03,2.504678987924989844e-03,-9.260583544459403960e-03,-1.965540181356804916e-02,2.265054162173028851e-02,1.092795963270733334e-01,9.702262540726724893e-02,1.084698890528898174e-01,2.549427917479689387e-02,3.664079012524722873e-02,1.213446218970183899e-01,7.541377118052459971e-02,-3.723766952301022642e-02,-1.019461303839094418e-01,-1.008180808604031559e-01,-1.712682545401541523e-01,-8.519111726513901861e-02,-5.930943197404790757e-02,-1.702073983791425535e-02,-1.665089091547184916e-02,-4.772765722566544785e-03,-2.797570366832614723e-03,3.324561571487120396e-03,5.658565614671562946e-04,3.739210470128135830e-03,9.444485826943033874e-03,6.417343972985581693e-03,6.714791486672069300e-03,6.322821536376398328e-03,1.989921389594368015e-03,-4.799553903111797998e-02,-8.955866121527583656e-02,-8.051189203407939365e-02,-5.419716762797774368e-03,9.462445519831677587e-02,1.278093985356630047e-01,4.017437022231636762e-02,6.701364714894238184e-02,4.873916296545323379e-02,-6.887838538148050027e-02,-1.268192514648548153e-01,-1.162251574089130379e-01,-1.157661068305061991e-01,-7.853733286202746466e-02,-8.309110090855836850e-02,-4.881911863589573353e-02,1.863418876280315169e-03,1.634998150014052749e-03,1.739170281036877316e-03,-2.012836190404816965e-03,4.830396975588900285e-03,2.685337560676073158e-03,2.874616648972501149e-03,6.567560634745570405e-03,9.685373316998922497e-03,6.036372005593751075e-03,7.697946706496628343e-04,7.558361385406697861e-04,9.514232208455659923e-03,2.972907903073336491e-03,1.822712428202753515e-04,6.247492473379333017e-04,-4.786517555161033145e-03,-1.152550641949969153e-02,-2.889439721972371714e-02,-1.997476094575691228e-03,7.345144017799529190e-02,-1.087593152906939781e-02,-3.931523024346524064e-02,4.507345195491344741e-03,2.595420459759362284e-03,7.648234227871395863e-04,2.557981621682758194e-03,5.976682827027031582e-03,8.660956336116914719e-03,9.467337289233955511e-03,1.059058044037576411e-03,1.548286125977198571e-03,9.447362587830797007e-03,7.365352283347926209e-03,8.829938248297730316e-03,2.026326341353431801e-03,5.875858711094019034e-03,7.011395944174736786e-03,6.801118854469726839e-03,4.081516908666981379e-03,1.539489169130847624e-04,5.730807418975366642e-03,-1.407110570894468246e-03,-1.342951577398002238e-03,-3.092347643793743857e-04,-3.299817947523730078e-03,4.734900555449257122e-03,-3.384150846907573416e-03,-1.009989727053900617e-02,-1.451808608781865115e-02,-5.396571735575438414e-03,-1.115035616744963076e-04,2.291446594888773593e-03,-2.578398880521823398e-03,6.899734544923063519e-03,9.145486638485590333e-03,4.340209727087588308e-03,2.587116421554409417e-03,4.344033190066098025e-03,7.234478178500009828e-03,9.054161580370978187e-05,5.894539894846971551e-03,6.132916848873791113e-03,6.376882468959355239e-03,2.420220799808772000e-03,7.140527233781267594e-03,9.139148633177641111e-04,1.992703364668008213e-03,8.774700466544819999e-03,7.387231507265663681e-03,1.374555401134525026e-04,2.483762603698002214e-03,2.144064829931645755e-03,2.708063280369725837e-03,2.475597702798864198e-03,6.252629574284573888e-04,4.589405165968203117e-03,7.327334747861651530e-03,6.067317247174364332e-03,6.728716685980798244e-03,8.114917853623915614e-04,9.514907101767873174e-03,8.384918338430248988e-03,8.050903184956628017e-03,8.229838050417674980e-03,9.327105081327613512e-03,5.442539661136977340e-03,2.002820178676258892e-03,6.167836078525411325e-03,7.428814936679390031e-03,7.379173933540253937e-03,5.214490241668800867e-03,-4.161777581421062799e-01
3.711129384301278377e-03,9.207666084633574222e-03,5.844489097574260758e-03,5.383319432557134333e-03,2.688535143821935407e-03,3.684489199165789323e-03,8.953460891531692112e-03,6.664630475268357168e-03,7.873870267523327970e-03,4.543454230676551367e-03,6.302472194561579456e-03,2.483836087432075151e-03,7.054608302834862628e-03,4.276013337033372948e-03,4.425455148147456122e-03,6.493223245768816980e-03,9.362806214689265924e-03,6.400634660862091927e-04,8.247432373470076766e-03,2.923831104121931129e-03,4.439194545063778440e-03,2.191332877500895614e-04,3.010460778343130358e-03,5.026312426301304814e-03,5.617607734743901293e-04,4.910957293831651367e-03,9.271106288584273977e-03,1.053932181078052121e-03,7.644407280755043978e-03,4.096710533759926817e-03,6.551737145243380876e-03,2.602365979852293634e-03,1.594922625413582821e-03,1.604626142712264371e-03,7.049194564314464895e-04,1.856467049012430282e-03,6.642193849889683165e-03,8.816906118435080542e-03,8.141256855911618850e-03,6.851343098744841487e-03,1.104318634111026674e-03,2.891874462959498435e-03,3.098068753224689914e-03,2.499569463976212148e-03,5.150056597097231112e-03,5.355538148796725774e-03,3.568859751711101966e-03,3.537891587364360314e-03,8.285555979060813328e-03,7.892928483196856235e-03,3.077958316807456567e-03,9.137884438732592554e-03,9.528150170025060858e-03,3.267425420300408209e-03,3.544249487930548580e-03,5.056341534219588492e-03,9.411208125336734814e-03,8.763194331423114838e-03,1.025679625835898123e-03,3.927307432714161918e-03,5.533711897497718690e-03,5.031324725515400574e-03,1.938630679368926781e-03,8.588167711681547745e-03,6.769407829968373397e-03,8.379083748518036459e-03,8.587642793494722551e-03,7.483558536657397738e-03,4.392106012497173223e-03,6.105467550154245783e-03,1.603654061197431601e-03,-3.029036462151553713e-03,-1.880148951433831608e-02,-1.980646557427726343e-02,-8.828518784937790589e-03,1.175513001502199832e-03,1.652844901429574315e-03,1.992135219070267902e-05,7.187396178535302403e-03,7.324010490583791194e-03,5.149333499132594492e-03,1.613628010553837082e-03,8.355433751068974809e-04,1.912896643728700908e-04,1.657481769652207129e-03,8.908555349831467907e-03,2.415368417016817548e-03,3.542713272172156626e-03,1.053454844813331813e-03,2.223613047481702749e-03,5.192245707802051191e-03,6.077526830956525572e-03,2.453523141662110850e-03,5.773215922511720386e-04,3.910328691273986211e-03,2.342033709263341510e-03,2.195539232298019620e-03,9.376685058114087382e-03,-4.201937782130486451e-03,-2.403554585953372735e-02,-2.951588318592194421e-02,-4.246652653065851463e-02,-4.176137772912012075e-02,1.242713156098700479e-03,7.021460961818294481e-03,1.716939077054495605e-03,5.001127520766269693e-03,4.119580950341019711e-03,8.705269662693842364e-03,6.314189212183764048e-03,5.325040664159817923e-03,1.153946421789173778e-03,6.056378893234114560e-03,1.172039056802334257e-03,3.372065755657520543e-03,1.428419648143318746e-03,6.920736470243688855e-03,2.062521138361526115e-03,3.918593731880260118e-03,8.956747776187786933e-03,2.043163833989703002e-03,5.078050639587791334e-03,4.192716611660219847e-03,-2.786752593426856028e-04,3.272890985593837534e-03,-1.478757023013242862e-02,-3.432993923093984046e-02,-4.132359067500099292e-02,-5.737124750472054335e-02,-3.971440665745824827e-02,1.293159005551876121e-02,-2.595869571132466188e-03,3.781276411566500580e-03,4.111540838439587189e-03,1.170374955993159355e-01,1.174652091727966530e-01,8.433261677878832116e-03,4.850946599795401791e-03,3.336283958368656787e-03,7.915582025913700873e-03,4.512941130292549667e-03,1.834421964034345116e-03,8.549740195614743271e-03,1.127278606329808718e-02,8.163956908368290299e-03,3.141817245541528064e-04,-8.027096015455299424e-04,2.313440534810876515e-03,1.838349869579671047e-03,-4.222449578137222638e-03,-9.224547138281427583e-03,-1.950488434145347671e-02,-5.040356159609005876e-02,-8.332149454137900702e-02,-9.971808293393198686e-02,-1.128974448453751028e-01,-8.074287523621981322e-02,-2.360428564343833996e-02,1.136154611457021804e-02,-1.031014565354657943e-02,-1.695164657081295670e-02,1.113819404097260851e-01,1.492574157760130915e-01,8.954731917029440380e-02,2.201113259047531457e-03,3.505205342861618389e-03,3.725332737595508144e-03,6.871367772396097789e-04,3.695741994267731732e-03,4.642385197392248988e-03,7.227377522388046989e-03,3.115921771621265463e-02,6.150384510170942010e-02,2.677417677791717535e-02,-1.809571615888807411e-02,-1.309896058014272877e-02,-9.739968164403329381e-03,-2.025668888707070694e-02,-3.602924588618491852e-02,-5.034232289550238937e-02,-8.418200734782188555e-02,-1.346628184606558365e-01,-1.509034226862313033e-01,-1.303242308956840956e-01,-1.056376333926188626e-01,-7.536635527981892790e-02,1.124624685517320449e-01,-5.909199073798439977e-03,2.562242832975187429e-02,1.102110271907112277e-01,1.055663601833121273e-01,1.020906482300057080e-02,-3.888214643672460030e-02,-3.652544052852790043e-03,8.904095172193284696e-03,7.499777984520708020e-03,9.082284887003229043e-03,7.587153211639207154e-03,5.971553059903018414e-03,2.955430003314132512e-02,7.158812735428420060e-02,6.794151702772986690e-02,-6.252724368854858418e-03,-3.690358675406384126e-02,-4.415638382706359860e-02,-6.522250903336536398e-02,-5.676303644552505023e-02,-6.908428333729173254e-02,-1.295893293231546173e-01,-2.223301762482600419e-01,-2.587191541782531412e-01,-2.392456177081172253e-01,-2.315239778013144512e-01,-5.837967522201147064e-02,3.561277750796230240e-02,-1.254861527714463132e-01,6.451670672496850369e-03,9.221245731272205426e-02,4.501270619947601165e-02,-8.129369105808641194e-02,-7.208779234979924289e-02,-4.817555795649255262e-02,6.923589224610580961e-03,2.640619846937187782e-03,9.390684794502916419e-03,6.363742815333743585e-03,3.245118001753421154e-03,2.297133333212246151e-02,6.992877869559910309e-02,5.223590287500649160e-02,1.224665563493091726e-02,-3.224531322410648798e-02,-5.603247145586634503e-02,-1.863319935587268855e-02,9.015314809733163126e-02,-4.012729172570358299e-02,-1.890276602528425942e-01,-1.995281169868834692e-01,-2.893347402007113156e-01,-2.552848960573781967e-01,-2.107690497839892763e-01,-3.230258357362355420e-02,-8.960674883369504351e-02,-1.554782290832361080e-01,-3.928173133051206418e-03,2.181581326963965770e-02,-5.385195276394674768e-02,-5.731983168697633163e-02,-5.628060150605179029e-02,-4.317306507177978009e-02,3.230273457540938815e-03,8.979191869576658158e-03,8.881181889340358446e-03,-6.654279366546157932e-03,9.009608956904679306e-03,1.623899275567303874e-02,7.399769586051749282e-02,5.193623814415507939e-02,2.299186951532638384e-02,1.296445306654591713e-02,-3.076456759405655703e-02,5.948609576707753616e-02,7.581345198285383523e-03,-1.852553173782873763e-01,-1.222916965749287904e-01,-1.279349726646301366e-01,-1.822659595308230851e-01,-1.865426803502997222e-01,-1.453759757579350942e-01,-4.357751516627274974e-02,-1.923469760596923928e-01,-7.251274092252955883e-02,4.445855244412325741e-02,-2.062337018017129306e-02,-2.679848720225808112e-02,-1.460410932500345177e-02,1.690126054666331269e-03,6.543420054927196784e-03,2.320181803088107019e-03,1.438144607208502533e-04,7.643533864364273830e-03,5.094294054390452291e-03,7.623026245009600042e-03,-4.562096589267027394e-03,5.533746470854664784e-02,7.385123341547486508e-02,5.540048155693755305e-02,4.569106845709939441e-02,-1.417640352049992156e-02,8.428692800638254434e-02,-4.330465671489842211e-02,-1.989480133257276184e-01,-1.108744070876492155e-01,-3.556208395796766480e-02,-9.712642970327813041e-02,-1.793018981155701241e-01,-8.212533824323875464e-02,-2.090185398244743219e-03,-1.482668870596082211e-01,2.298835499600958981e-02,8.724604644312210222e-02,1.875358784161696921e-02,-4.568203056679742344e-03,8.917899728169953119e-03,9.811179078679357901e-03,6.495089297074473425e-03,8.044140596774733767e-03,7.151001612837000476e-03,5.931582190394682139e-03,5.334799698889769719e-04,4.547643425526610994e-03,2.289961639778302985e-02,4.400667785836297197e-02,6.949685704414783338e-02,6.038057994712904553e-02,2.879495273876955461e-02,-8.011717189287228050e-03,5.477958539667223542e-02,-7.366359934574258361e-02,-1.572291182086225370e-01,-5.611575287224219999e-02,-2.825129645781783785e-02,-1.426739245138954615e-01,-1.649864751413601671e-01,5.018638222470961537e-03,2.884991031590217539e-02,-4.536426878573117383e-02,8.466289780699491618e-02,9.010587671995806680e-02,-1.088509169398629156e-02,-6.440006189269121932e-03,7.791025863957867954e-03,6.096974251526159072e-03,6.996395696221216834e-03,8.381549749886425815e-03,8.028109348245004301e-03,9.609201469288246658e-03,5.359350788521182081e-03,4.884956326599053551e-03,2.541994522225162617e-02,3.572478840787265270e-02,5.373295551792935110e-02,4.849358514562570471e-02,2.249586644866238827e-02,-2.725655028415811809e-02,5.407420541572383749e-02,-4.813924223022425508e-02,-8.443228608241519495e-02,-1.445477849100021937e-02,-1.317708996114026476e-01,-1.377220377394431650e-01,-1.805667467690004746e-01,1.166174993051460364e-02,5.706938537786364340e-02,1.851405280139424223e-02,1.059597617720190871e-01,-8.812996682500909978e-03,-4.617334111824591969e-03,-2.418911570056174291e-03,7.374260857706772462e-03,2.865195489271229502e-03,8.026403123529295830e-03,9.972378999036026273e-03,3.002600532939281373e-04,8.973658657909319714e-03,6.226305335986580258e-03,9.733826191648212167e-03,2.605116839860859707e-02,4.266175728514434717e-02,2.993189458828064697e-02,4.039327817192759490e-02,-2.722096611304506059e-05,-2.248456515214297333e-02,4.314793847609925403e-02,1.772877594971143111e-01,8.660808419899898580e-02,-2.122253984953123909e-02,-1.666286014527151027e-01,-1.732567864697426296e-01,-2.335261690647228161e-01,-1.439736848891879153e-03,1.277451562556480291e-01,1.865324637495701099e-01,1.177382044343222300e-01,-2.065960377360306216e-02,-2.104585725668803309e-02,3.267808804826328496e-03,7.592925069184736434e-03,9.677614652695619088e-03,4.397404865079085345e-03,2.783684816626566094e-03,7.982931972091867473e-03,3.262539180411467947e-03,2.993833737053482914e-03,2.325059922078312122e-03,2.269786300558667563e-02,3.675250858959826228e-02,1.499402279281604640e-02,3.188276077163117866e-02,-9.208005467343023664e-03,2.671592916232164508e-02,1.322714136910392302e-01,1.458018422022748506e-01,1.854872827658288759e-01,1.809166540489980379e-01,5.393903606957745761e-02,-3.674151847728202719e-02,-3.356305408074294200e-02,8.716798694017169336e-02,1.753925969921190098e-01,1.115874657232456130e-01,1.744452730380589844e-02,-3.479697512636191481e-02,-3.274707435602240008e-02,-1.052983651716854485e-02,-3.776308582844293150e-03,-1.045819867795823310e-02,2.703710425460454422e-03,8.227232427706188513e-04,4.595840572136230227e-03,3.064634680428203473e-03,8.223812111853544271e-03,5.697872699736828252e-04,2.437576446931949067e-02,3.863759427594405660e-02,3.859916639052005799e-02,3.851060662265975987e-02,1.004774616146602711e-01,1.547126557445080153e-01,1.081294311373207501e-01,2.062462099741861187e-03,8.610088110216895796e-02,1.640689706476127219e-01,1.327708747491513908e-01,7.482708271773826081e-02,5.750809761683689514e-02,9.411833735638028275e-02,6.809816625708414728e-02,-3.188797528220609773e-02,-2.717989977122005699e-02,-5.772355142114009297e-02,-6.565465510206826283e-02,-2.975665617731069676e-02,-2.016883494339723540e-02,-1.776913751893107254e-02,-5.639239240569103584e-03,4.539899111996989825e-03,7.624469586748684399e-03,1.260020278639942867e-03,1.964192158720173744e-03,9.514448256630919643e-03,1.754916273813573839e-03,2.169442861061860253e-02,2.723935850650743146e-02,8.446879189962649970e-02,2.026910796821644878e-01,1.418853180201647413e-01,9.546576388262999202e-02,-9.166135028128523377e-02,-7.870315130875810139e-02,-3.443805287090324213e-02,-6.777330730828613758e-02,-1.422717770541704618e-01,-9.929264179547517277e-02,1.144004332257970852e-01,7.791885231816060575e-02,1.125260433577636304e-01,-2.241211297987255602e-02,-4.268580556899412293e-02,-4.161212390234601127e-02,-8.705115140475103153e-03,-1.469499119982298598e-03,1.905408559966858834e-03,7.977322633482140241e-03,3.673907286970704705e-03,8.701721830278874451e-04,5.567849109281879268e-03,8.451208514960348653e-03,7.959263871435024243e-03,1.751231401303532517e-03,6.727646144124667382e-03,-1.725797555161699595e-04,1.105243715401883486e-01,1.058437218167246618e-01,4.021648732337264678e-03,-4.222336942648289432e-02,-8.897452324201969576e-02,-7.583419798106828813e-02,-9.239460413421764218e-02,-1.010652476595952920e-01,-1.878007925050744209e-01,-5.985937791440736067e-02,1.606647148951403925e-01,1.244775159161796985e-01,9.548966249396000083e-02,-3.814030789054912579e-02,-1.270810887402374495e-02,-3.289959908394191057e-02,-1.385998943254921310e-02,8.574568017661454841e-04,1.163513976366074495e-03,9.084345518793753363e-03,4.680690542342900995e-03,4.662994129398188511e-03,7.605756424552823428e-03,1.544922040049257969e-03,4.872653541000507640e-03,4.299852141210597743e-03,5.969106905466561169e-03,-3.874244988579550898e-04,1.338859412501848187e-02,-4.836655417306390953e-02,-3.709269031866981037e-02,-3.383345355863783682e-02,-1.177565100778137780e-01,-9.238914213582935520e-02,-6.874755061364139219e-02,-7.273014863150344123e-02,-1.265542791660591304e-01,-3.893005735731134426e-02,5.089501799067128879e-02,2.046928947082618522e-02,1.796812369808883014e-03,-4.166397195780090212e-02,1.778040600393905948e-02,-2.274175878234500209e-02,-1.584325029383266970e-02,-6.943346796660435083e-03,-5.980310978995255489e-03,4.490387679301258671e-03,2.374785567522574858e-03,4.961437333883744402e-04,7.245982868476289786e-03,1.115929999572474801e-03,6.083195000077716921e-03,2.810497501668891666e-03,1.734960503550220202e-03,-2.528692998821279250e-02,-6.074624029935784403e-02,-9.406839241399393703e-02,-8.294249679896324723e-02,-9.687948433559664951e-02,-1.699741601573961924e-01,-1.494869754899666170e-01,-9.359976483547090276e-02,-7.461248240804373155e-02,-1.047296342269910946e-01,-2.780187043149478371e-02,-3.648248009803867209e-02,-2.994605208711942704e-02,-2.128200052718887125e-02,-4.789934456768621222e-03,3.439286551699004268e-02,-1.902327492772593401e-02,-1.869008858361179831e-02,-5.286649626578833125e-03,8.695244781847990406e-03,6.678679067008134150e-03,9.332050877593062177e-03,2.654964074290723421e-03,6.114636112256608205e-03,6.784999682926378534e-03,3.175497002575884600e-03,8.481092350156300627e-03,8.756738685866519850e-03,-2.347121371394066819e-02,-5.638887698326917886e-02,-1.042445860667327862e-01,-1.121101435208662206e-01,-1.471600423838292926e-01,-2.057671966452963852e-01,-1.338139096577083687e-01,-6.544283892020830162e-02,-7.683164995456397139e-02,-1.445075411120879672e-01,-4.100471863315333088e-02,-1.035459871975207419e-01,-6.752237316087833507e-02,-1.717073318033956672e-02,3.179159701461606313e-02,2.825093851144202389e-02,1.957270547397003263e-02,1.970360962221633962e-03,4.120500590677058728e-04,3.725089315534658736e-03,9.286305621153940690e-03,6.180846068922263336e-04,9.236052811137851135e-04,1.627909892062293692e-03,5.952128341268747742e-03,1.504722710059974797e-03,9.680763814507335058e-03,3.600628977874950534e-03,-1.885779109658114114e-02,-6.593209787001609590e-02,-9.846506392666413976e-02,-1.084555934334576616e-01,-1.468949472491192509e-01,-1.508586517824041517e-01,-7.075348701156529418e-02,-5.933525062455674570e-02,-1.285464169869057482e-01,-1.117911850346215014e-01,-1.577172857177398801e-02,-1.469311964887179411e-01,-7.925576226333710950e-02,3.280010349074700265e-02,4.112718893396929282e-02,3.268120620453185410e-02,4.917299439485384865e-02,9.679436148150640656e-03,9.008826700971197046e-03,3.138780765150273305e-03,6.910558127392617961e-03,2.716331812743696342e-03,1.906098330744497929e-03,1.846324573473692244e-03,3.421076208635940447e-03,4.299576197798217307e-03,8.309491710550684709e-03,3.323946400168665606e-04,-4.104076957887825387e-03,-3.601055848658537423e-02,-6.101592627027174059e-02,-8.627586442345613893e-02,-1.377119874378627817e-01,-2.660072092313460826e-02,-3.951118462454431685e-02,-1.023383223023297123e-01,-1.594345201109095000e-01,-4.252053311229437617e-03,5.111866270564462827e-03,-1.051504538257585220e-01,-2.726295065643592058e-02,2.479523542005367814e-02,6.140492427997121944e-02,5.013902958127521708e-02,5.347024199076241824e-02,1.679780099257212334e-02,8.136432725743658612e-03,3.995187845869348393e-03,3.267947058577773921e-03,1.081108363519633995e-04,8.265510741914642787e-03,8.009807004033649147e-03,1.044545181001513929e-03,5.768573811327002906e-03,4.639816981668874393e-03,-5.404663148483784059e-05,3.763633783769436240e-03,-2.278346440642619805e-02,-4.360385700106850920e-02,-5.199919853271690179e-02,-8.389805564160714157e-02,-6.544288923999320995e-02,5.475209825932813440e-03,-4.395232737835500642e-02,-6.060960706288902322e-02,3.833941346276806272e-02,8.252601896828744982e-03,-6.646931111051800067e-02,5.590280045981730131e-03,3.554974812070537532e-02,4.456845231588232870e-02,4.156911195316086161e-02,3.332382241235616605e-02,3.963411320054848093e-03,4.578166512781453958e-04,5.034952696935324429e-04,5.276525785960262159e-04,6.920112559466546839e-03,4.579289944340278994e-03,2.265216260361056951e-03,6.139703063252326815e-03,2.528581182501111677e-03,5.776317543444225815e-03,1.835471025736625265e-03,4.967699028214945037e-03,2.931616804319486617e-03,-8.545233475584220612e-03,-2.512391683295192579e-02,-5.761025155270407816e-02,-1.010391112429657595e-01,-1.124751396077527943e-01,-6.547426512039764002e-02,2.432550490716986133e-02,8.545553537556560553e-02,-5.361252728549423252e-02,-3.207654776465193591e-02,2.054733284600799952e-03,3.474930161241063936e-02,2.711107784208498239e-02,7.735480870159878487e-03,3.114237720613277985e-03,4.308762919501246680e-03,1.761710998347805132e-03,9.325548784193121374e-03,1.186437657415803041e-03,9.337494230014699997e-03,6.838664518353432600e-03,5.315721526867311746e-03,3.265906078449587490e-04,4.755961918220082824e-03,4.077481050027322550e-03,1.612188119751225505e-03,6.564096035006568991e-03,8.979722674823793077e-03,3.042402789361040873e-04,-1.084661581415373270e-02,-2.745840042266687112e-02,-6.651706670168837376e-02,-5.828387833623192155e-02,-5.667103281919266822e-02,5.977685458544239328e-02,1.348529917785543653e-01,-1.425902815622985195e-02,-1.703387478233539531e-02,-8.377061687621869049e-03,3.133720794848206780e-03,8.336440104751723437e-03,8.146710047099891411e-03,6.118310201032214381e-03,3.734579451327052577e-03,2.553363737632441573e-03,1.058743182131293131e-03,3.548976834865540542e-03,4.131725172077195529e-03,6.758229251040736088e-03,6.581598242975735154e-03,7.010813964125695366e-04,3.952593154311578177e-03,1.817788672173619152e-03,1.568127053168056869e-03,8.175449977524576473e-03,-3.483708626752396367e-03,-1.243640314831127381e-03,-1.040517413696474304e-02,-1.187300546467829829e-02,-1.194255540475794644e-02,-3.132961931991123244e-02,-3.426359647620267485e-02,-1.810607290746942336e-02,3.193880283253946410e-03,1.061096885110512748e-03,-3.143495430815172655e-03,-1.123749569051131145e-02,5.734115973289617002e-03,6.354143568619098452e-03,6.298206544347076732e-03,4.032106331838227614e-03,7.523978823037878912e-03,5.312940183509319222e-03,6.774380712282944417e-03,4.284579038487954308e-03,7.314964640431390400e-03,8.244715176045490368e-03,1.464362566028161276e-03,8.329297155742279579e-03,5.402965317903072814e-03,8.446659090902242789e-03,4.313017063410146644e-03,3.790404853830350428e-03,9.150607325172224055e-03,2.511692675484013173e-03,8.442123252861430741e-03,4.840205725094041435e-03,5.140954425512597042e-03,3.084682814894840457e-03,5.730422006190156667e-03,3.252111962762113326e-03,3.926941424165231458e-04,2.719986053443560533e-03,6.379043406590679133e-05,9.783547870568566965e-03,9.657472098197474736e-03,3.951552974723050206e-03,7.283708543396459623e-03,3.458060984104249693e-03,6.710931570859760345e-03,8.054300430459791424e-03,9.467562446922407615e-03,4.002122758496719744e-03,7.832979829560476198e-03,2.659284506321187708e-03,-1.136818039174501138e-01
