3.745401188473624927e-03,9.507143064099162627e-03,7.319939418114051327e-03,5.986584841970366347e-03,1.560186404424365172e-03,1.559945203362026519e-03,5.808361216819946061e-04,8.661761457749352772e-03,6.011150117432088186e-03,7.080725777960455124e-03,2.058449429580244650e-04,9.699098521619943167e-03,8.324426408004218306e-03,2.123391106782761533e-03,1.818249672071006132e-03,1.834045098534338100e-03,3.042422429595377422e-03,5.247564316322378582e-03,4.319450186421157876e-03,2.912291401980419015e-03,6.118528947223794874e-03,1.394938606520418388e-03,2.921446485352181474e-03,3.663618432936917215e-03,4.560699842170359147e-03,7.851759613930135717e-03,1.996737821583597326e-03,5.142344384136116227e-03,5.924145688620425024e-03,4.645041271999772459e-04,6.075448519014384208e-03,1.705241236872915298e-03,6.505159298527951866e-04,9.488855372533333207e-03,9.656320330745593594e-03,8.083973481164611133e-03,3.046137691733706750e-03,9.767211400638386217e-04,6.842330265121569430e-03,4.401524937396012783e-03,1.220382348447788309e-03,4.951769101112702375e-03,3.438852111521839452e-04,9.093204020787821681e-03,2.587799816000169346e-03,6.625222843539819648e-03,3.117110760894109631e-03,5.200680211778108131e-03,5.467102793432796620e-03,1.848544555255270507e-03,9.695846277645586361e-03,7.751328233611146090e-03,9.394989415641891856e-03,8.948273504276488266e-03,5.978999788110851352e-03,9.218742350231168975e-03,8.849250205191950148e-04,1.959828624191451828e-03,4.522728891053806642e-04,3.253303307632643675e-03,3.886772896894820275e-03,2.713490317738959101e-03,8.287375091519293482e-03,3.567533266935892997e-03,2.809345096873807571e-03,5.426960831582484934e-03,1.409242249747626446e-03,8.021969807540395986e-03,7.455064367977081927e-04,9.868869366005172949e-03,7.722447692966574219e-03,-1.672280208149368522e-02,-3.753888872401293930e-02,-3.220766079289721223e-02,-3.217095110152335714e-03,7.290071680409872940e-03,7.712703466859457783e-03,7.404465173409035877e-04,3.584657285442726087e-03,1.158690595251297235e-03,8.631034258755936051e-03,6.232981268275579120e-03,3.308980248526491915e-03,6.355835028602363100e-04,3.109823217156621952e-03,3.251833220267470476e-03,7.296061783380641125e-03,6.375574713552131616e-03,8.872127425763265407e-03,4.722149251619492741e-03,1.195942459383017055e-03,7.132447872229949817e-03,7.607850486168974205e-03,5.612771975694962230e-03,7.709671799545609813e-03,4.937955963643907674e-03,5.227328293819940436e-03,3.850183845021053208e-03,-1.872934283651321238e-02,-5.467719750907209381e-02,-6.138622175030655076e-02,-6.620129796097903863e-02,-6.876882904792919193e-02,-4.302622548227978509e-03,9.075664739260930897e-03,2.492922291488749650e-03,4.103829230356297215e-03,7.555511385430487004e-03,2.287981654916224680e-03,7.697990982879299258e-04,2.897514529137680192e-03,1.612212872540044143e-03,9.296976523425730041e-03,8.081203795644168950e-03,6.334037565104234935e-03,8.714605901877177374e-03,8.036720768991144001e-03,1.865700588860358345e-03,8.925589984899777451e-03,5.393422419156507393e-03,8.074401551640625688e-03,8.960912999234932341e-03,3.180034749718638719e-03,2.011048167321895469e-04,-4.605723204361975194e-03,-2.044056678778584726e-02,-5.207870954668418484e-02,-5.179431104315709855e-02,-3.690524760916637226e-02,3.806883939460973046e-03,3.712419054160754489e-02,4.629710254457890251e-02,5.748631206439157142e-03,6.988881720401604863e-04,4.522026689143739640e-03,-1.701004364958991297e-03,5.187906217433661295e-03,7.030189588951778895e-03,3.636296023792940073e-03,9.717820827209606646e-03,9.624472949421113144e-03,2.517822958253641656e-03,4.972485058923854957e-03,2.471560585533309155e-03,2.567669986563299550e-04,-3.955320809708919721e-03,-2.093359535670475356e-03,-5.242910133828209730e-03,-1.165082867718820331e-02,-8.281272320086963123e-03,-7.943810329767679243e-03,-4.000345636868206378e-02,-7.416818459322423174e-02,-1.210228537908601965e-01,-1.161746789505974792e-01,-7.302371785702320255e-03,8.229438703745986516e-02,1.644053108008005359e-01,1.846875317507160053e-01,1.264403761054247455e-01,-1.715254688297555147e-02,-5.360801394103097139e-02,-2.411197293623185481e-02,-7.080521558317596359e-03,9.028977005440830825e-04,8.353024955892379699e-03,3.207800649717358274e-03,1.865185103998542307e-03,4.077514155476391925e-04,5.908929431882418114e-03,6.775643618422824699e-03,-5.620595971098716996e-03,-2.029673585971929553e-02,-2.834234328047104470e-02,-1.204977858166268734e-02,-1.843879208037760634e-02,-1.407886340320100953e-02,-2.467491586277294549e-02,-5.491469319094563484e-02,-8.719190490294113915e-02,-1.298219280654255015e-01,-1.835799818082974044e-01,-7.494230683422097028e-02,1.409806637559062395e-02,8.198303705817847065e-02,1.096998682626734584e-01,1.143667681858913376e-01,1.202342739957454609e-01,-1.294945430800619260e-02,-5.165050475786257811e-02,-6.697871603674891705e-02,-4.388837892767484539e-02,-3.355800481268535890e-02,-1.038985167997853558e-03,3.390297910487006985e-03,3.492095746126609029e-03,7.259556788702393668e-03,8.971102599525770938e-03,8.870864242651172599e-03,-8.397724466645325320e-04,-3.258332366260108942e-02,-4.956443444142857174e-02,-2.335829928236519623e-02,-2.328226007247936880e-02,-4.376336700570707117e-02,-7.882726793134774146e-02,-1.010759419903378142e-01,-1.050053725034492680e-01,-1.300438831453449018e-01,-7.736051912455180202e-02,-1.767978191646523908e-02,5.110428197441022752e-02,4.067771669787131894e-02,2.388970602298949239e-02,3.617389859124067047e-02,6.790956654830399009e-02,3.991482770107039613e-02,-2.738963725639958352e-02,-8.022828475385229696e-02,-7.215542888783137154e-02,-6.840600817722251870e-02,-4.697881896185415740e-02,9.367476782809247343e-04,3.677158030594335474e-03,2.652023676817254465e-03,2.439896433790835709e-03,9.730105547524455639e-03,-5.682753373570767659e-03,-5.240061708484472502e-02,-4.629263402128998284e-02,-1.620628328485720221e-02,-2.393877486226629950e-02,-4.334123382139543762e-02,-8.188190796901635704e-02,-1.081082138646494301e-01,-9.070307436789265543e-02,-1.314108046525681306e-01,-7.612908174625418467e-02,1.101453606335035112e-02,3.804144824750933102e-02,3.180510535255443721e-02,1.924690535042834771e-02,8.387902406639443503e-04,8.099947269380755252e-03,1.492323292901444158e-02,-3.279493550459401663e-02,-7.541783787835465436e-02,-5.052123792728947793e-02,-4.217396798977362388e-02,-3.771222184389853155e-02,2.944488920695857107e-03,3.850977286019252772e-03,8.511366715168569574e-03,-3.071360941000600550e-04,1.694927466860924855e-03,-6.175684253647581532e-04,-4.777892881734876335e-02,-4.465336994369023538e-02,-1.414736554152681500e-02,-1.597434648590508738e-02,-2.118358539829913803e-02,-6.418480042449456469e-02,-8.162534890797346065e-02,-5.335435364779837764e-02,-2.461832650094337299e-02,9.297778886026727280e-03,5.799079072655072969e-02,4.812551656911862041e-02,1.037710465323038803e-02,-8.011669831733282676e-02,-6.543428868644982077e-02,-2.419810283490998748e-02,6.820922863065750907e-02,3.624545781426474766e-02,-2.540405329700846232e-02,-1.479420188178166666e-02,6.810772555542682696e-03,6.499639307777652086e-03,7.019668772577033339e-03,7.957926694361010245e-03,8.900053418175664019e-03,2.978833551708108193e-03,3.755829526399440121e-03,-1.165584533578907858e-02,-4.901687791051639181e-02,-3.925061863916440297e-02,-2.253388225291170534e-03,-1.013075039718125750e-02,-3.679411255154193400e-02,-4.078526909751123419e-02,4.656475981089810284e-03,3.673295412239289265e-02,2.558220862984930677e-02,6.822779504223992764e-02,7.281975471162824287e-02,-3.662878055302780638e-03,-9.179502783959295198e-02,-1.328537158388606865e-01,-9.026107271078492866e-02,1.223691596884753964e-02,1.103849543012430240e-01,1.091863521506284407e-01,8.551318119552701533e-03,3.922912551961201325e-03,7.260913337226615472e-03,9.758520794625346120e-03,5.163003483011953561e-03,3.229564729412459558e-03,7.951861947687037524e-03,2.708322512620742282e-03,4.389714207056361062e-03,-2.308464206478758052e-02,-5.060528898084409172e-02,-2.762912704592233523e-02,1.779946854939115511e-03,-2.128961003426068851e-02,-3.306708438735377759e-02,-1.776446614585461270e-02,-2.497872521663816250e-02,-5.178539411461146637e-03,5.566976461255487320e-03,3.271749578479232062e-02,4.197884191791330377e-02,-1.013190650928935538e-01,-1.199305823940582799e-01,-1.450842323756546259e-01,-7.790638993808682300e-02,3.314633808653694863e-02,1.355125645797569944e-01,1.485841143843858181e-01,2.626740266600019122e-02,7.578461104643691160e-03,1.439348862975586949e-04,1.160726405069162403e-03,4.600264202175274853e-04,4.072880231897013604e-04,8.554605840110071635e-03,7.036578593800237209e-03,4.741738290873252250e-03,-3.064835618211855447e-02,-4.560699369104331130e-02,-2.264756175224176549e-02,-1.105218544030335363e-02,-1.844267998219864188e-02,1.784668716666054991e-02,2.813124591255541929e-02,3.985600864960166245e-02,-4.178840047306545818e-02,1.441374747493901452e-02,-1.800295763804371854e-02,-2.804257555383636927e-02,-1.535281495432031240e-01,-1.709464550119479676e-01,-1.665994121368491176e-01,-5.829154337013039283e-02,2.616785925252117923e-02,1.460949629077717693e-01,1.619381669416278258e-01,4.163197510216323782e-02,5.754741778758789943e-03,3.881699262065219092e-03,6.432882184423532011e-03,4.582528904915166013e-03,5.456167893159349046e-03,9.414648087765251083e-03,3.861026378007742770e-03,9.611905638239142541e-03,-2.257319136906793186e-02,-4.856524109431867992e-02,-1.487098675849566828e-02,-1.525852513883367047e-02,1.701794657695274507e-02,5.522223094397893384e-02,4.036534627306923723e-02,-2.605988717240862590e-02,-5.635695019529764205e-02,3.113940707937470909e-02,-3.462791703765497747e-02,-1.643426269528963923e-01,-2.810080968129382573e-01,-2.992028699431085736e-01,-1.945950212847655791e-01,-5.006418593078737489e-02,5.255202145251310769e-02,1.884738948623395083e-01,1.623491838350017424e-01,5.874071072524802983e-02,1.774395437797228166e-03,7.506147516408583770e-03,8.068347392672640950e-03,9.905051420006734039e-03,4.126176769114264960e-03,3.720180857927831656e-03,7.764129607419968312e-03,3.408035402530178691e-03,-2.231912453259292037e-02,-4.193902492378152880e-02,-1.261741388998205426e-02,6.680712977175916681e-03,4.561186713374110885e-02,6.553842291445445556e-02,-1.369151055344706470e-02,-3.450591187330634413e-02,-6.330008872511966311e-02,-7.564112919343410346e-02,-1.325179474560438109e-01,-2.852645471163678947e-01,-3.166373788995549554e-01,-2.968380402073844126e-01,-1.416123469872549723e-01,-7.157764544581121657e-02,3.714305324816726678e-02,1.636000156477202816e-01,1.350678840040110407e-01,3.490693262621478998e-02,-2.203017035539985274e-03,-7.962765941545532633e-03,4.078971251918515157e-04,6.725184560770384491e-03,7.523745294376799932e-03,7.915790437258485301e-03,7.896181427945538761e-03,9.120610304869037266e-04,-2.489230430073698444e-02,-4.974865479306015553e-02,-3.446652802809481442e-02,7.063957345652012269e-03,4.734763853823405894e-02,4.483878385676008660e-02,4.808716669328094891e-03,-8.897337934283953975e-02,-6.523890609382240746e-02,-1.064207658075540935e-01,-2.641880230116315231e-01,-2.784149478461297456e-01,-2.846947187345362229e-01,-2.736894322279283531e-01,-7.448767100234744698e-02,-1.476684404950305562e-02,-9.346652081734876244e-03,1.005925726265725489e-01,2.524709342083787320e-02,4.727147364660256972e-03,-1.909286221529979052e-02,-1.199076209366435261e-02,-2.337763779011906712e-03,9.860010638228708379e-03,7.533781852589416413e-03,3.762595855309157789e-03,8.350071669866876304e-04,7.771469159274368467e-03,5.584042497358050576e-03,-1.942807573675539232e-02,4.860426636161819559e-03,1.368240305968865256e-02,5.599426617052145200e-02,6.530593967999408223e-02,3.679662018219068131e-02,-1.877961540093242912e-02,6.482615725985063464e-03,-4.232689996712767078e-02,-2.051962894388362768e-01,-2.596590975750954211e-01,-2.858449996093329060e-01,-1.889326698523368375e-01,-5.022493164208251260e-02,-3.953168211003272974e-03,1.289010860622265102e-02,3.164055045364700530e-02,2.680729307272038467e-02,-6.568586076163745839e-03,5.860457162399975752e-03,-2.004264850769651735e-03,8.911431136980710668e-03,5.277011090862998403e-03,9.929647961193003441e-03,7.379656473539885969e-04,5.538542844013207879e-03,9.693025356190989109e-03,5.230978441701488596e-03,6.293986381352625371e-03,3.796144834542074242e-02,4.480966113750649293e-02,2.970162890582824650e-02,5.675758041315037694e-02,7.362192761295112409e-02,-2.703444747772123027e-03,4.765565695328365103e-02,1.588108940436738781e-02,-1.711961196163729604e-01,-2.733774666880669502e-01,-2.366146253394937060e-01,-8.695958509552542681e-02,-1.905055203947160491e-02,4.221279337540347759e-02,-3.621258166164526004e-02,2.287618610802270511e-02,2.015833537290405431e-02,5.557164639727781019e-03,8.961448058897394237e-03,6.080957754298801053e-03,5.360963663441203723e-03,3.095276162863277655e-03,8.137950197069487163e-03,6.847311725538793130e-03,1.626169393448912998e-03,9.109271844938425164e-03,8.225372429231690014e-03,9.497999132919239876e-03,3.247383498973468313e-02,2.665216196770622565e-03,2.890653689567707074e-02,6.674010601467936232e-02,9.577745763108053145e-02,-1.387207807248023658e-02,2.662682310577765138e-02,-2.147921687488736631e-02,-1.597447704064611784e-01,-2.181812693014522908e-01,-1.310348672987363960e-01,2.212885991731758720e-02,4.246645655174186712e-02,6.818299803498303890e-02,-4.572157122763761267e-02,-9.970690722433433323e-03,-1.648214733203818422e-02,-1.235719178691446068e-02,-7.125869185609636121e-03,-5.106266280733035706e-03,8.647223762550532156e-03,8.129010091300774982e-03,9.997176732861306342e-03,9.966368370739053795e-03,5.554317056026274353e-03,7.689874151805105133e-03,9.447657298824281222e-03,8.496473906774115042e-03,1.341383679568139420e-02,-7.204342234646872109e-03,1.611845507073007833e-02,9.844399481686268161e-02,6.753144319676721019e-02,-4.380210725324940740e-02,-1.595968768801196702e-02,-1.406095023052327253e-01,-1.740903142798491676e-01,-1.171570625398232479e-01,-1.616017350011884207e-02,5.707813220214545680e-02,5.258420575866846330e-02,-5.549497248326815124e-02,-8.072288043626979492e-02,-3.293952177940816239e-02,-2.444760596361402610e-02,-6.586637854267723621e-03,-1.819984781356858957e-03,6.600625441339598920e-04,2.878267631333897379e-04,7.551372556736189907e-03,6.203095513534646714e-03,7.040797680992236240e-03,2.129641615089107511e-03,1.363714755867697671e-03,1.454466566788192893e-04,2.660485137371783847e-03,-7.660359728606458418e-03,-1.336669136594599919e-02,-2.122449785081751208e-02,4.532331003432931577e-02,7.486331276122824840e-02,-9.642416566400583561e-03,-3.228901027157825981e-02,-1.120108546533182814e-01,-6.286266638759820113e-02,-1.186509543804279213e-02,1.062901414370529679e-02,6.739887223570835417e-02,-2.894084712761939293e-02,-1.552325985279298104e-01,-5.593158813188302964e-02,-3.167970575316103599e-02,-1.224592411174473330e-02,-3.511292183528754319e-03,-1.721569278147165182e-05,6.334008543167258046e-03,2.401456187781930793e-03,7.586332810866391928e-04,1.288797219106492227e-03,1.280458389577724407e-03,1.519026935122943633e-03,1.388271726494101372e-03,6.408747448032146334e-03,7.940851461803131181e-04,-1.681107564012084693e-02,-5.465982783810520440e-02,-2.236330629019505495e-02,3.729835591700985525e-02,8.010997889305061792e-02,3.859911906361073591e-02,-2.399486855602823640e-02,-7.748892782752692804e-03,4.847969501272295090e-03,-8.244108476079766747e-04,2.576971335313781031e-02,4.880603539420351467e-02,-1.229989191614574567e-01,-1.086201209773197118e-01,-4.600600532695390404e-02,-1.939744149067076581e-02,-5.976886573716869849e-03,-2.966388126073644070e-03,7.804488230323247504e-03,6.279003894909077413e-03,8.175903194887191010e-04,8.735786241067772240e-03,9.208724005318132816e-03,6.107795985486375078e-04,2.768776481472037289e-03,8.062012797930614288e-03,7.482596903836583914e-03,8.204944957526378972e-04,-8.911174825674057776e-03,-4.934164405480003651e-02,-6.795093917916292248e-02,5.635256535012470903e-03,7.500011174705846495e-02,5.632207554520270859e-02,2.819778098797739649e-02,8.357508162750861003e-03,1.044038218255857395e-02,4.665207344507407185e-03,7.743819749274808524e-04,-4.307145024388227272e-02,-8.556603907624074634e-02,-8.063508347875109061e-02,-4.651707363015852165e-02,-1.050891633077229680e-02,-1.034387840063873999e-02,-4.270409723306522499e-03,1.931097586281061351e-03,2.007119777772636794e-04,3.220791655831782736e-03,2.114480069965446376e-03,3.274973521779146399e-03,1.197621318192512111e-03,8.905272807398950316e-03,5.935924535540486498e-03,6.791023191444895725e-03,3.597748852927235355e-03,-1.055573325747049054e-02,-4.234619569045555004e-02,-6.555974044924932354e-02,-6.143046967384568902e-02,2.785286178316209380e-02,8.714174115526344966e-02,8.966838472877294852e-02,9.859892840536971237e-02,5.310873724272226898e-02,1.448329766240946670e-02,-8.534032937634410121e-02,-5.407459600898698732e-02,-5.930076190130981195e-02,-5.630980242861484408e-02,-3.826386965446134519e-02,-9.730832649287852673e-03,-7.820898247708339690e-03,-3.395509402225956649e-03,-4.950911275280409259e-03,1.865670240513057649e-03,2.850951686938470956e-03,1.733735952947548266e-03,8.967654246264252296e-03,8.023374566164220541e-04,5.245113895702546887e-03,4.103968269896614979e-03,9.823786169086063877e-03,-7.945433212505082984e-03,-1.288653978343199009e-02,-1.000733748075017387e-02,-2.294573691215406538e-02,-3.751367536755820936e-02,-7.219279391196878337e-02,-2.866627298014065572e-02,5.706779141315451720e-02,8.120324124657300746e-02,-1.706554120812683178e-02,-4.004644281403090672e-02,-5.024951579562940418e-02,-2.453710295051217058e-02,-3.307259882219218405e-02,-5.434637891643573360e-02,-2.958330907008949531e-02,3.987800487665132780e-03,8.335001945808851896e-04,5.344535658036460692e-04,3.343584357268576408e-03,2.886305532402557838e-03,5.812382214226122570e-03,1.543627152742023129e-03,4.811401018548175021e-03,5.325894325515858480e-03,5.182353682242691380e-04,3.366042781939205739e-03,1.344146769389742511e-03,6.337497047276774388e-04,9.899602323899452799e-03,2.665594875388035360e-03,4.044354484869517805e-03,-1.160233441923967310e-02,-1.574729490623190051e-02,-2.328100527717269844e-02,-1.161063683772320734e-02,-1.822880277586161335e-02,-2.730437741751587724e-02,-1.672461903817656567e-02,6.528609317570749533e-03,4.517042472025706475e-03,7.094095404304930595e-03,1.077572759996846220e-03,7.308674752036442915e-03,9.383404568210377758e-03,1.812330661656601487e-03,6.649626736677749462e-04,7.411206492900591046e-03,5.744731131799118810e-03,8.418287767582721334e-03,1.397723766262894953e-03,7.952673118598901914e-03,2.016273200477445258e-03,1.636559428657045076e-03,1.642657979309929432e-03,8.145747202313822002e-03,6.651972206962001276e-03,5.156261771109963733e-03,6.126057779859787064e-04,4.650681164270156764e-03,-5.426567719936273120e-03,-8.408424445965104535e-03,-2.695763395051883459e-03,-2.530850930223963249e-03,-9.623166946094437874e-03,-1.486333322649602794e-02,2.782200713401200825e-03,4.816695478377483637e-03,1.117885147214162133e-04,5.206594126894100415e-03,3.207386946090182329e-03,5.435528611139886328e-03,9.064721109645469330e-03,6.242379959139921289e-03,1.168980407083640687e-03,9.398321236134751788e-03,6.277080530714178319e-03,3.349056146570861345e-03,1.392720726633872716e-03,7.940251892702959030e-03,6.200727559285135193e-03,5.334610919763215289e-03,8.938925830509576384e-03,7.885972112245308308e-03,1.516748797327511795e-03,3.117220677955482525e-03,2.484891398144657357e-03,7.439462925726769531e-03,3.353243473577938042e-04,5.698896848713165021e-03,7.624586857406905928e-03,8.767656367617494145e-03,3.420817487159074841e-03,8.212573046720128556e-03,1.106317369552072211e-03,8.464522917345182820e-03,1.274886623319824172e-03,3.972872905603672469e-03,7.972953657795536428e-03,1.499174273487737918e-03,2.292513952326414705e-03,7.222525683930662577e-03,7.200365365460743503e-03,6.411476328852972785e-03,6.939484444671000646e-03,5.427244433475962061e-03,2.517990589069527430e-03,3.456959935039194409e-03,-3.259746930099373108e-01
9.084505613336284202e-03,5.833917947661204813e-03,4.008514167636399034e-03,4.620058036441327190e-03,9.472833396118153851e-03,1.533514031160801948e-03,5.862298320167972157e-03,5.058886788844660018e-03,6.114542354346478095e-03,1.811018382084050827e-04,8.721239089441515380e-03,9.321182824836123787e-03,5.651331835892089810e-03,6.966508238768922764e-03,9.224993811772956923e-03,7.072386343133986453e-03,1.525390429142613538e-03,5.762883601668131878e-03,6.067150463828559215e-03,4.241306713023860683e-03,7.364442356247228455e-03,9.343670147690148406e-03,9.255685129067763028e-03,4.508393714041321158e-03,1.132380458407552474e-03,9.848411989623346435e-03,8.388980864459341658e-03,1.246626812032668565e-03,9.208418826173722649e-03,8.698963620621282325e-03,5.188380571260721268e-03,5.912754357449292487e-03,3.990027038701302736e-03,5.476163882203133283e-04,3.351972416459009143e-03,8.028534485980114155e-03,4.632023004602858979e-05,3.334991716911441927e-03,3.981686935909433192e-03,5.373956029379229130e-03,9.198556164127605697e-03,3.463459943659612586e-03,3.469532018962277059e-03,7.375012481097484134e-03,4.522179408898071955e-03,2.246048229399819508e-03,4.524395161326934083e-03,1.408570203797998707e-03,1.763869865062233158e-03,4.983677727394797766e-03,4.189254495045479330e-03,9.148459010681000633e-03,3.623938991166331027e-03,5.805883502780434871e-03,6.322642879195304079e-03,1.309445658833363634e-04,6.635373720167106470e-03,1.780359668697514266e-03,9.610703174694552181e-03,1.486627277531129502e-03,4.146241237270237474e-03,8.534966807864386449e-04,9.968742518459474192e-03,5.021950103312426174e-03,5.953850173200437614e-03,6.707647738842748225e-04,7.499604703991778060e-03,2.099055930955857820e-03,8.980542894407137974e-03,2.051396404820071597e-03,1.906877206636665859e-03,-7.328058579542543437e-03,-1.155943307732903817e-02,-1.574709480622467003e-02,-8.435731261797738134e-03,7.755276166950105833e-03,4.532888347480275998e-03,5.243902693275800421e-03,4.407627469382281206e-03,4.007630608753259480e-03,5.596403313082178900e-03,1.552402459307125138e-03,1.819281304952711370e-03,8.617856210135173278e-03,9.461154621336327272e-03,3.733093162797529625e-03,2.707446731435537643e-03,6.439995432390157974e-03,4.087341710980963751e-03,2.538635566034486125e-04,1.561525973661903729e-03,7.159722288473975051e-03,6.589239419101514117e-03,2.709599250348348966e-04,2.219721619329494394e-03,2.310747965880714100e-03,6.718927435987284008e-03,2.225184895219864430e-05,-1.045448085364549320e-02,9.397643021172341626e-02,1.272155820249244174e-01,3.222149441950899161e-03,-3.810206042276795962e-02,-4.003553116314477987e-03,2.431721909994541062e-03,7.222669318556591833e-03,8.556964681062857389e-03,8.302198645669915320e-03,3.971835296184548190e-03,6.680851365706461445e-03,2.049842954158209545e-03,2.931477302610132740e-03,8.963358185211198204e-03,1.300192351073603547e-04,8.550853085446808019e-04,2.078862551460273177e-03,2.653220387381971849e-04,1.814354350897973232e-03,5.830415609696921672e-03,4.214245505924980005e-03,8.926717110769748220e-03,8.174435617384409949e-03,3.418173516978759759e-03,-9.478142717400265876e-04,3.545479039800733534e-02,5.512802622496917881e-02,1.656408164888460710e-02,9.636129730188744413e-02,1.091001323940318790e-01,1.027888990022845783e-01,-2.203326500254391279e-02,-1.045556130982436965e-02,-3.393041596298706445e-03,2.118634411894785088e-03,-1.739250502043775820e-03,5.527681720118931934e-03,4.874311982495136558e-03,8.945522268940913832e-03,7.998552559473152621e-03,4.252135044692334671e-03,2.246930832011739896e-04,2.686773593849460864e-03,5.416342146608668986e-03,5.855738638097239199e-03,-2.952538070521339847e-04,-2.042420791486043025e-03,2.418812329961099027e-03,2.795718135629376641e-03,-4.144156175855988160e-03,-6.142326102948224634e-03,-2.108726253608117843e-02,-5.368634822454065869e-02,5.449838947083419927e-02,5.058369630182994042e-02,6.962173073547076041e-02,1.061557353356321343e-01,5.343194838521544282e-02,8.766567288036225536e-02,5.791727069380456228e-02,1.695857938884249017e-01,1.255559978374840568e-01,-1.189811143531762511e-02,-5.513336846271210852e-03,2.045363654489663115e-03,5.974131021703083487e-03,6.005168604336533905e-03,6.650366745462554970e-03,1.753712786234495847e-03,9.144119459249597584e-03,4.187705248920731149e-03,3.831385282494974547e-03,-9.046671672614407583e-05,-1.239327514291774061e-02,-1.196297552621098867e-02,-3.114494932131715507e-02,-3.410962614560838352e-02,-1.649532318746767950e-02,-2.911504605916538646e-02,-6.560463340718208913e-02,-8.825931709914169865e-02,1.972055975394951602e-02,5.480088321083441405e-02,2.430722410138015308e-02,5.009053087600087717e-02,4.515111009690231381e-02,-2.930187180602059765e-02,2.436694432610255617e-02,1.057855969038394850e-01,1.018189812665578758e-01,-3.117979887713997339e-02,-6.165228106564325100e-02,-5.937849118111530877e-02,-4.977892440121353679e-02,2.380252974981854602e-03,5.968428489168892473e-03,3.342438908169608185e-03,7.709122037458219362e-03,1.065982531337718005e-03,7.513778173580875838e-04,-5.404251621830063676e-04,-1.039028051221520602e-02,-1.236087153755856954e-02,-4.651754802742987666e-02,-6.479254952773315368e-02,-7.127184008991438446e-02,-9.534192849065463438e-02,-1.287780298486210506e-01,-1.575158326771904649e-01,-6.908583799633884193e-02,-5.812522138196728888e-02,6.084111726418725205e-03,-5.490216275788615402e-02,-7.655245376874401930e-02,-1.468881689575960992e-01,-2.498243477184349318e-02,1.087051838526520691e-03,2.590600984819281874e-02,-9.495705588377748030e-02,-1.030751520406064520e-01,-1.196990560258651692e-01,-1.040051551640762961e-01,-4.818700709907294127e-02,8.491956515653193913e-03,2.496680088591859362e-03,4.894249636431404794e-03,2.212094418196022469e-03,9.876680079966469739e-03,-1.854298045367023823e-03,-2.711316211404376716e-02,-2.681116991196004842e-02,-2.654208294445344757e-02,-5.248859790823756644e-02,-6.368886424032715876e-02,-1.208934757474558058e-01,-1.874098334924343412e-01,-2.063437690752655540e-01,-2.132660688277296102e-01,-8.109013902263474682e-02,1.296929299752561278e-02,-1.280743073661445852e-01,-1.089209986170251443e-01,-8.973452376853055523e-02,-4.310714340896862340e-02,-7.293562431778921606e-02,-2.073253891961933659e-01,-2.023471765025873503e-01,-1.165189271723625075e-01,-8.092468117840097286e-02,-7.527294028703462869e-02,-6.499821536674318945e-02,6.962887758781398026e-03,3.398749637680661267e-03,7.247667715287614901e-03,-2.908553311174259456e-02,3.152903378306103326e-03,-1.568143365010116197e-02,-2.387504573017967119e-02,-3.285510195712034592e-02,-2.339287076252237474e-02,-1.914316553659889050e-02,-4.326074193794421374e-02,-1.165420641405104513e-01,-2.050084756194207047e-01,-2.433682652699862836e-01,-1.490332580341349744e-01,7.662499640840533810e-02,1.190332519677549522e-01,-2.738921278693558226e-02,-4.876289257806015742e-02,-1.766579840685525149e-01,-1.335064179277796470e-01,-2.189555103261707214e-01,-2.359673405853073003e-01,-1.418901566211988041e-01,-8.593600323841300848e-02,-4.993983086040904018e-02,7.585916426356698918e-03,7.682734138645182231e-03,4.177667821673337369e-03,4.213570022770701806e-03,7.375823015888915285e-03,-1.043662756132206215e-03,1.104741131313946708e-03,-1.485480777441566813e-02,-2.320487362172763204e-02,-1.273388708217260135e-02,-2.068997324143418640e-03,-3.542324324040577177e-02,-1.267494310223239717e-01,-1.702569762662864139e-01,-2.427994050347979382e-01,-2.075609343460769196e-01,-3.330306105236939540e-02,1.539068516856835211e-01,1.728728085613879528e-01,2.063671261883017749e-01,8.104454858365930936e-02,-1.033579407621132151e-01,-1.678952277217927169e-01,-2.358274596101573584e-01,-2.052735002474342652e-01,-7.688397338602689923e-02,-4.711808508495445719e-02,-6.174210483105011145e-03,2.316717013834433854e-03,9.427317741351257455e-03,6.496466489923684307e-03,6.077367948788591281e-03,5.126885110165085684e-03,2.306698117177586899e-03,1.765280320055082628e-03,-1.787239778648450333e-03,-6.782158197349478709e-03,-4.576831163440237861e-04,8.631333602402280550e-03,-2.231678393460718828e-03,-4.401760903597706776e-02,-1.257167934011247379e-01,-8.881810051109445547e-02,-1.149333198793660582e-01,-1.052650380720712847e-01,4.197147347798643735e-02,3.215996391182155550e-02,3.356449341503315864e-01,1.204070475979265170e-01,-4.382046758062641684e-02,-2.001182968147899588e-01,-2.311389231463520100e-01,-1.460626755733012150e-01,-5.148893967574635910e-02,-1.848936377451393040e-02,9.148683739775486864e-04,8.774608626303803671e-03,2.656000425887060801e-03,1.295149212828041862e-03,8.887480798689771991e-03,9.556514982297533572e-03,8.621276172654505909e-03,8.095160747248780764e-03,1.262884829501194871e-03,-2.941375250699874034e-03,-5.179895759177336780e-03,2.850464160486190085e-02,1.413311053238093806e-01,1.316502073779247384e-01,7.749670533144712575e-03,-8.793920158395958364e-02,-2.220042290595123924e-01,-2.673336332018007577e-01,-6.095991361533312225e-02,2.162878547155651088e-01,2.709736648503310863e-01,6.763038951723582271e-02,-1.276599000721253263e-01,-2.401991922115829792e-01,-1.782803223434497597e-01,-5.364567602114633099e-02,-1.116482362072736267e-02,6.586320239710910952e-04,2.670282701694213102e-03,8.786299863551580089e-03,7.974260216069280899e-03,6.584518346584255361e-03,8.505817290942420048e-03,8.672942009598023222e-03,7.083629767150347728e-03,8.370133283636720101e-03,1.685179639803814286e-03,-1.648541239188262191e-03,2.646577825092948175e-03,7.650846930144269541e-04,-1.524301558166703090e-02,6.521830745132407327e-03,-5.753353639000035463e-02,-1.614401555475271643e-01,-3.078629484759423662e-01,-3.203226661657491703e-01,4.225171023823626887e-02,2.307347347708478269e-01,1.590174537509524144e-01,-1.368085506697234444e-01,-2.681500252736627732e-01,-2.323526204329223466e-01,-8.100620558503554558e-02,-3.318604651275913753e-02,-1.609431388396711723e-02,3.025554453249890488e-03,6.318135270166684060e-03,2.598035810641597960e-03,6.340057030996113299e-03,5.399853797158554909e-03,7.798453951511435944e-03,1.069806388269584204e-03,7.610279025020280294e-03,5.412665786761102979e-03,4.340385061700926909e-03,-5.031227296404397649e-03,3.498480107216420196e-03,4.267135862910190376e-03,-2.514332242841787676e-02,-2.624359853769679327e-02,-5.821929295750559452e-02,-1.876244093247434186e-01,-3.295756341231625419e-01,-3.000283582828445206e-01,1.548696954952348825e-01,1.921847190393215221e-01,9.340199436603788263e-02,-2.400188889586472862e-01,-1.825385814998360667e-01,-1.571808838265391639e-01,-6.974287814728992452e-02,-5.507123023414426527e-02,-2.453862760050517719e-02,-6.610943011833482312e-03,3.742946076979395548e-03,-4.734225200388422761e-03,-5.590439728496533279e-04,3.236102191495412658e-03,4.886431904046657955e-03,7.704074178077932600e-03,6.832953766065051789e-03,4.459027063767483437e-03,-2.253860673871094667e-03,1.554563560363763112e-03,-4.368739034180383306e-03,-8.527950688769667456e-03,-3.180431548270246100e-02,-4.092515034682216168e-02,-9.746263495658509524e-02,-2.141343860638549035e-01,-2.445713429944061101e-01,-1.129843319119250150e-01,1.601075297391248708e-01,1.361334592640820740e-01,6.785373828520731287e-02,-2.366709229041174256e-01,-1.215054509073433125e-01,-1.142949424454739460e-01,-1.084162571925664231e-01,-7.583000672546312548e-02,-5.471170994198669424e-02,-1.224142870883281053e-02,-1.053449885548364160e-03,-4.070698315745493318e-03,5.739845418782616587e-03,2.299546058910861834e-03,2.131047040250833111e-03,3.113408288451135933e-04,6.516668253758850504e-03,3.685263437237611388e-03,8.643582498396371397e-03,7.732647131432871142e-04,5.715689248339037411e-04,-1.170270494809745425e-02,-2.235894781217484528e-02,-6.590273711751389041e-02,-1.065060915794343588e-01,-1.677729128779361090e-01,-6.363459290083152420e-02,-2.531909820146977658e-02,1.330919749399767649e-01,7.995749082674888375e-02,-1.066756842083612655e-01,-1.063714468026366877e-01,-1.268608378661341130e-01,-1.518690373876992183e-01,-1.340031517079611767e-01,-7.951121669783842161e-02,-4.224227638675622648e-02,-6.297430371070143924e-03,9.648746161505322933e-04,4.255708977450075280e-03,6.420893707513408537e-04,5.819714019143987747e-03,2.689934044350976612e-03,7.975591006371881078e-03,3.103619589235737629e-03,4.552201490818011745e-03,1.162053990810063629e-04,7.244688779455887634e-04,7.029204670450852222e-04,-1.247436533983638587e-02,-9.468181586575155628e-02,-1.471770842746718821e-01,-1.179032583870204542e-01,-1.314954690306641694e-01,2.521876077762372865e-04,9.903641699794872577e-03,1.855405779895237528e-01,7.155312257123615412e-03,-2.362809607827530065e-02,3.393671343789085582e-02,-1.228673953028786014e-01,-1.405166072732173810e-01,-1.408170350768491175e-01,-5.946034259702011326e-02,-3.840995686415330651e-02,-2.285806108669688128e-02,2.639213739284367293e-03,4.551717090691561295e-03,8.786649914483335086e-04,3.506269312091807484e-03,3.320310879136656522e-04,7.857849715502074556e-04,3.969232762015960370e-03,1.327157540430603513e-03,5.675408482615581889e-03,6.894649691372657131e-03,-1.262813628402806657e-02,-7.710752613908314346e-02,-1.413765095217261458e-01,-1.163276979361290431e-01,-8.387699382142005389e-02,2.547172713396765598e-02,5.572680608743604824e-02,8.174187308699211452e-02,7.980774735827371458e-02,-3.280172360868589126e-02,-2.382171617688578699e-02,7.470193814033906921e-02,-6.812421875378670000e-02,-1.334835701434703703e-01,-1.082777123120868962e-01,7.569860368153821795e-02,1.137766525185144803e-02,-1.952517976666000299e-02,-2.348637439384744941e-04,4.577145657637787454e-03,4.523182845183001434e-03,6.435776951965249508e-03,5.264026609361132508e-03,7.315895217553318453e-03,8.162998203058957321e-04,6.035208399056379543e-04,2.471032340101464529e-03,1.595446801131883419e-03,-4.799669573110632720e-02,-1.067812665083251178e-01,-1.602215874416593466e-01,-1.247040516091240253e-01,-1.704023956951924643e-02,1.145630864466505583e-01,1.210887277696098413e-01,1.108362483395358145e-01,1.202973222403091874e-01,1.552842625636851326e-01,1.358847006596813345e-01,1.410908529526673783e-01,1.822747738816098487e-02,-1.310565360450390363e-02,7.661014884064626385e-02,1.435553437898218487e-01,6.136831516346110543e-02,-2.645353827015789125e-02,-9.354689673544866165e-04,4.153989247051214848e-03,8.682725054083805655e-03,7.271690697663080009e-03,7.427065211999810124e-03,4.254933344480753624e-03,3.459349925469629335e-03,3.710387629846027217e-03,9.876495637360578270e-03,-2.892078812691889554e-04,-5.107495722874895450e-02,-1.044209911528606316e-01,-6.440918154176547561e-02,-1.735471636802355527e-02,6.956135232870810751e-03,6.627182465220372853e-02,9.256547847113939798e-02,8.586791951227033814e-02,1.022808020254700606e-01,8.840649571275122076e-02,4.505060507938909303e-02,-1.165813034561501843e-02,-6.679055342418767360e-02,-6.282631116059300691e-02,4.712502455406952784e-02,5.434474409153594587e-02,7.751410607169426092e-03,-1.678175023221576420e-03,2.200297455956968672e-04,2.375433249238776464e-03,9.713950940416396507e-03,1.809769527094897811e-03,8.543850933695791225e-03,4.922778564480347931e-03,2.472310744031770355e-03,8.707499012725114854e-03,4.453052550026655176e-03,4.311446514576881134e-03,-3.186201633894393537e-02,-2.756187886248301008e-02,1.807037934684836700e-02,1.328728594839504937e-02,1.333407415822829567e-01,5.674837230303982072e-02,1.490528712276828656e-02,-1.165404796397679632e-01,-1.129862323201952651e-01,-4.288597487210076692e-02,-4.509271117019073710e-03,-1.244586003025065502e-01,-1.375174569244412559e-01,-1.126876387288210657e-01,-4.915599554609163119e-02,-3.005041565674501300e-02,-1.504200974246522153e-02,6.457597194379507098e-03,4.218403028407029243e-03,2.487142725876299084e-03,6.171449866040300963e-03,7.067772168854458137e-03,1.670419079009498623e-03,1.676192162883176741e-03,3.667142693354297450e-04,7.364020150656405521e-03,6.638045276218050572e-03,3.909581732778118213e-03,-1.796820992123609670e-02,-3.518579423427946329e-02,5.373682827212560020e-02,4.513057970108148159e-02,3.235733661264827976e-02,-6.622549062045469948e-02,-1.046141311113922834e-01,-2.169573521131853977e-01,-1.369592796210062358e-01,-3.112315173047022071e-02,4.240080705837901559e-02,-5.929295182968485206e-02,-6.873555239911315062e-02,-5.086976763803859047e-02,-2.687165065510055406e-02,-9.945054463505971498e-03,-6.039769602637172323e-03,-1.740747819862590749e-03,9.070820804466365322e-03,9.651186964360455173e-03,4.939980934409615612e-05,9.518117854232389236e-03,6.391199378155004024e-03,8.679182945200220739e-03,4.547398556338590886e-03,5.155960285792502741e-03,4.888465802569201893e-03,4.358330264164523259e-03,-1.426122439339823009e-02,-5.810878669245716360e-02,-7.474394931168394651e-02,-1.467770027160558537e-02,7.641065234825994423e-02,1.101604489057540770e-02,-7.117262727331728767e-02,-1.234435734738960622e-01,-6.310665831369521861e-02,-2.459835317828686432e-02,3.948848173299775166e-02,-3.770134290877819733e-02,1.106630536144575724e-02,6.622730487670975717e-04,-1.287390244792553868e-03,1.481017294345718643e-03,4.827166243975917950e-04,3.611705560036661787e-03,5.856657422003907001e-03,5.706097466388297158e-03,3.038705969683685938e-04,9.309486955069777234e-03,6.895267510315611879e-03,6.765133857772465467e-03,2.156751523977171701e-03,6.588854702326571791e-03,3.938644056541584608e-03,2.066818621739491702e-03,-7.204027936735414930e-03,-1.102479903140555703e-02,-4.535167579732461013e-02,-6.179682882634682239e-02,9.809823935538194983e-02,7.807197485179097340e-02,-3.497725207682383930e-02,-7.020774949234644124e-02,-7.282314436542222658e-02,-4.762277750711260693e-02,4.186402438388758980e-03,-4.686121707375116852e-02,-2.260093262570104719e-02,-4.823356730790185308e-03,1.518096022886561598e-03,7.152794732921274531e-03,7.291130666889976235e-03,4.090673006421962320e-03,6.985121524067053160e-03,1.202090553706084515e-03,5.444890979608495857e-03,5.758660498121570494e-05,3.245858299002703142e-03,3.664615348713978673e-03,3.961726916092553862e-03,6.954672066898621476e-03,3.885581012703457574e-03,4.486936226225306246e-03,2.375441308743274707e-03,2.847676095653987275e-03,-4.157154290681558395e-03,-1.554264883259958915e-02,-2.259841115029330785e-02,-4.158492263894530971e-02,-2.710421649227964455e-02,-8.516477019690403549e-02,-1.317800170423563677e-01,-7.734082960748582536e-02,-1.484728625259008894e-03,-4.350777485162147552e-03,-5.911203804031308837e-03,3.013396693420080687e-03,3.801956187858570712e-03,3.988227808969005070e-03,5.801723692273322817e-03,5.336025467268784746e-03,6.079050927934446201e-03,7.648832615421282885e-03,8.129857387160934271e-03,7.181230762264944126e-03,9.555236959549347903e-03,1.823258267636163087e-04,1.957779856835460859e-03,7.562874978142119630e-05,6.474747141546030420e-03,8.980305489499868649e-03,2.316844056344402429e-03,4.551189071219530896e-03,-7.921568653090684323e-03,-8.957069773791744016e-03,-9.001952712365925494e-03,-3.485511938747375572e-03,6.950308665089711480e-04,-5.076768847786238686e-02,-9.254115297649358196e-02,-2.231593602168055815e-02,7.522336963801121504e-03,5.843161423452960260e-05,-6.029519269899414995e-03,4.579571789532608725e-03,7.161506742231935410e-03,2.726240007335337633e-03,4.135491015253515285e-03,1.218860933369475671e-03,1.811493495346803246e-03,6.811178539649828494e-03,1.814383476956269543e-03,5.251633836670602067e-03,7.090462617224326837e-03,1.068769230947438486e-03,5.673122196289035434e-03,2.565627837013637665e-03,9.629268752375798671e-03,4.835456467199247300e-03,8.059925497751582041e-03,5.502265421562617387e-03,4.341253285481916314e-04,6.331513755940224031e-03,9.514033422066570794e-03,6.016118201463312165e-03,8.191888594267901849e-03,8.842064633484077868e-03,2.280797719489324662e-03,2.120448399082266403e-03,6.109809888509917450e-03,4.110284698067047382e-03,8.398613028667203245e-03,9.000231233980112225e-03,3.534213793027181274e-03,2.368705589744820716e-03,7.805255152438618678e-03,2.748060355481361013e-03,8.226143185136784372e-03,4.237382536487628235e-03,6.675498992914704645e-03,9.553531383466818067e-04,6.238593246765729988e-03,-8.565730628370343824e-02
5.866084631754741111e-03,1.680142077448634232e-03,7.368737449441821637e-03,8.627970775432284786e-03,2.167398000907756576e-03,9.571455552016172770e-04,2.363858604633639799e-04,6.419715004432660285e-03,6.070940360887807849e-03,5.466974127140700190e-03,2.319470961159754343e-03,3.909059959055146381e-03,5.944763351861730334e-03,4.967668588591694218e-03,9.877855202148873651e-03,1.364397525567331241e-03,6.951445540475937983e-03,4.043187681042921013e-03,4.281996149256147959e-03,7.175977656581762100e-03,6.924361513243696212e-03,9.912559937021883302e-03,1.283942894541252426e-03,1.041096493841663344e-03,7.243388171287411248e-03,5.783869170064090924e-03,2.741606665598058604e-03,7.941936898898660502e-04,8.565824959643053701e-04,8.941908746641183056e-03,1.918673247187429026e-03,3.233715621155207852e-03,2.266564022269880376e-03,3.549963058319373366e-03,6.942384274609336367e-04,5.190597909082703999e-03,6.761256359221490004e-04,8.003565078223615764e-03,2.337120819104330192e-03,5.400119146045105796e-03,8.800790875614581885e-03,6.508773690471941591e-03,5.329577865513353101e-03,3.243337531153756177e-03,3.330019130581979292e-03,6.694869551981901153e-03,9.941393612211675210e-03,6.618391898493786694e-03,5.577834173700248893e-03,7.306505102392461294e-03,4.652056122837181298e-03,6.014234260078521683e-04,5.622968158779098266e-03,9.576252845053801616e-03,1.753029423576596456e-03,6.900048908206657221e-03,2.009336886590564874e-03,5.358276844730812567e-03,9.667644964671961863e-04,4.503709362581851533e-03,7.561633288952460813e-03,3.475715242389820769e-03,6.649117244872180220e-03,7.954499607897291824e-03,9.271778194794527347e-03,2.346420818554535454e-03,3.993159158093081626e-03,1.524160133304174438e-03,9.924835021583752054e-03,9.270009679242952744e-03,5.399571302805596280e-03,-6.436856997534645512e-03,-2.498509442442696168e-02,-2.781282415952259987e-02,-9.301225652222546575e-03,7.552704204968079330e-03,1.277134836352348353e-03,8.260676302525284120e-03,7.820280876703859449e-03,7.087446977429764580e-03,3.616038052476211332e-04,3.031283559453286282e-03,2.631125699108428483e-03,3.601364074715191193e-03,8.764274676383854157e-04,9.369578230310628142e-03,5.538022407123762737e-03,3.055243106580235544e-03,3.969815170742834604e-03,4.472025405048356966e-03,6.005943333606172767e-03,5.156794276964977997e-03,9.193919732144173462e-03,4.969634829058302596e-03,9.921580148233126450e-03,8.514249577450958353e-03,2.085105143573357921e-03,8.968288738682357944e-03,-1.407232228214178385e-02,-3.270040519761837489e-02,-3.846478694269275800e-02,-3.857475228850440474e-02,-3.375520190163817935e-02,3.204534322886536286e-03,7.900304363070613858e-03,3.046791390980407854e-03,8.091928305125218462e-04,4.029801787651614460e-03,1.735245149865086763e-03,6.949510889024616833e-03,3.460997265377855486e-03,9.756102008599150041e-03,6.409720773453320315e-03,8.224805636343609713e-03,1.325246727418484365e-03,8.620144822726225411e-03,9.227571905133943875e-03,4.870619188189358705e-03,6.062529377509774837e-03,7.648098009029954611e-03,1.748386272604125465e-03,5.025660764634424724e-03,3.986630277723131506e-03,4.591703299794357672e-04,3.289535392734112274e-02,1.752783222202437471e-02,1.018186614049269682e-02,4.869452717439549244e-02,9.599515326626024275e-03,-3.477599690765741103e-02,-2.403302110845843137e-02,-1.369812630815450509e-02,-2.989834966400977279e-03,3.038629550341115284e-03,-1.018558820904978028e-03,-4.385672651427402653e-03,6.408263146902062543e-03,2.160381825095996147e-03,6.195879548978295605e-03,6.502010923981533554e-03,1.520248531286481040e-03,6.134962711066816420e-04,7.807615860684398272e-03,2.927366456294639048e-03,-7.556456778391979802e-03,3.029283284002925319e-02,5.499713813218468778e-02,8.241010250974474538e-02,7.972980329416234913e-02,7.987536211300251543e-02,9.001465759447856152e-02,1.443314507838830141e-01,1.298324072306375476e-01,6.753932688604100121e-02,2.990191678140896592e-02,2.702591893721370195e-02,2.026821799172904420e-02,4.751006913740304927e-02,3.449339877031753349e-02,-3.843806991530900052e-02,-6.915608090872531200e-02,-7.674133610660723026e-02,-2.622315300663221813e-02,-8.049711132906296404e-03,1.307103767401994812e-03,8.866042152404668072e-03,4.497846488213225712e-03,1.946225118207650694e-03,3.677593508772896043e-03,4.141297525289270795e-03,8.275378955668743694e-03,-1.067519770959896204e-02,-1.250714351689495574e-02,3.989566493752769172e-02,5.984319918689412487e-02,7.632893742149522709e-02,1.009824577098654697e-01,1.297602291784550887e-01,1.758164785783996875e-01,1.647940560150154277e-01,1.181899808852060196e-01,4.295254606977576967e-02,5.088373062735088159e-02,1.272259858224973617e-01,1.831152745756027544e-01,1.684271775193260101e-01,8.225779780247839679e-02,2.439226538249921611e-02,-5.485770399878801135e-02,-7.349550599944243423e-02,-3.372208107864602816e-02,-3.019547860193894095e-02,-2.564859763963321312e-02,3.038479399884796896e-03,1.500486646939842503e-03,3.246759268900599807e-03,7.373570773877996705e-03,4.760181293687665814e-03,3.758882851457693262e-03,-1.980877500580635261e-02,-2.242626056943731322e-02,2.312702961503089114e-02,4.157697706597632270e-02,8.403647170983699621e-02,1.222533814219126658e-01,1.432751090223434443e-01,1.213835453509165413e-01,9.584016327530429924e-02,5.994994975955730832e-02,2.746199337171868066e-03,-3.460216952063784046e-02,2.551658086499013559e-02,9.816863833922084837e-02,1.071329180838669626e-01,1.129901890898733774e-01,6.338610124302869464e-02,-8.071736726673614526e-02,-6.583892215674441717e-02,-5.004158837054987347e-02,-8.359171772841267334e-02,-7.899626402418760684e-02,-3.842839333558851350e-02,5.122219208126744909e-03,6.802277792083533114e-03,4.167290060238426803e-04,8.479201604580322233e-04,7.163233880626822953e-03,-1.456365692255113739e-02,1.148892346909768068e-02,-7.100389373259290149e-03,1.418258620038139080e-02,5.674324977565006756e-02,8.880651525009972125e-02,1.385380368139399188e-01,1.246380614330738074e-01,5.643998460465535910e-02,-6.248933424684187388e-02,-1.589205313249712759e-01,-1.463029150155269464e-01,-1.313584958193173835e-01,-1.648666985020857123e-01,-9.960694299439971922e-02,1.229018287772237622e-01,3.750408100550930296e-02,-8.222977514799406640e-02,-4.898542432539344793e-02,-4.830212915534923268e-02,-6.240028354764932950e-02,-5.863192692106979770e-02,-5.186846838928912962e-02,2.056872621955551251e-03,1.213864181594064267e-03,6.150129680388666253e-03,3.099759904760557381e-03,6.439042535411307160e-03,-8.045358595768362445e-03,-3.014839525731243322e-02,-1.084982611741725465e-02,1.590931908280035501e-02,5.583739100210001645e-03,-2.343441155351674160e-03,4.584383682896976675e-02,5.478834211006864546e-02,-5.387065698014815128e-03,-6.662796810375308521e-02,-9.729433928305560031e-02,-8.464941575797706175e-02,-1.506694236710100776e-01,-2.357361315106730193e-01,-1.649982927042981107e-01,9.557199554177620016e-02,1.265533820487120195e-02,-4.920932879878118366e-02,1.712590128685037225e-02,-5.272815315918162431e-03,-3.546421451752845150e-02,-7.198699893685724625e-04,1.974704898599373166e-03,8.869249002092694997e-03,6.458108126552060228e-03,2.859067892391601445e-03,7.623325785653407155e-03,8.613699963634360510e-03,-7.232049946939104329e-03,-5.758869612857756698e-02,-5.403788430875394039e-02,-1.498173424809702212e-02,-2.207976810764733858e-02,-3.239594788450148727e-02,1.438074554171189963e-02,-3.441182902031699863e-03,-6.659848130388525134e-02,-1.135736660561916245e-01,-9.386568929971375597e-02,-1.293579786227814776e-01,-1.886193992302187539e-01,-1.390734877300958683e-01,-8.788498456390386043e-03,1.029998436719588295e-01,1.099327450020986668e-01,1.903411642603966211e-02,1.822255213070297225e-02,2.237947259915659681e-02,2.497535644992371091e-03,7.328015447662506246e-03,5.422372054918482912e-03,5.903476904587728891e-03,5.083605469162799477e-03,2.975484513188205934e-03,5.650219928590161089e-03,6.888853020500906865e-03,-1.712891178122247574e-02,-4.940804066264264244e-02,-4.234187740853530973e-02,-1.606801745877986867e-02,-3.089040296356000345e-02,-6.668987970519205111e-02,-1.050500639985305212e-01,-9.786862497428071295e-02,-2.042038933938910283e-01,-2.168709498695368942e-01,-2.127636056582848934e-01,-1.878881796500886381e-01,-1.753009553128974385e-01,-1.585252105282271562e-01,-4.244763495878146886e-02,1.456139946233914462e-01,1.393439468716614615e-01,2.554458696420152872e-02,3.542732189883789767e-02,4.975790684595949448e-02,5.229613542912736694e-05,7.609907600280938628e-03,3.531135494023907202e-04,7.457337827312321595e-03,2.024805601652373936e-03,9.580734801193802747e-03,3.679407513020844980e-03,3.269316163380791077e-03,-3.277845624195101226e-02,-5.168548950107249712e-02,-2.787025597450119158e-02,-1.200367699481483946e-02,-3.887358988710918478e-02,-7.454610884426597639e-02,-1.187495322715847040e-01,-1.853199793576626175e-01,-2.469949806327903230e-01,-2.142631662235998380e-01,-2.198083928195925518e-01,-1.277365969756455166e-01,-1.713038960840572444e-01,-1.957042169068976822e-01,-3.586177258957299469e-02,1.135350170587899055e-01,1.013245277219759488e-01,-1.217491541377554564e-03,4.348593508994773316e-02,1.718476934422728461e-02,6.485359448296834552e-04,5.799837874281312672e-03,5.614845879595237177e-03,5.606600944161709531e-03,6.034876665964548047e-03,6.764679372263622710e-03,8.049889996807698192e-03,2.698207201282143506e-03,-2.601684264347488285e-02,-4.975897483334010968e-02,-2.053192954313169324e-02,-2.594063403966820683e-02,-4.379459456593151612e-02,-6.995028715664892982e-02,-1.049175696576323119e-01,-1.779187909687005298e-01,-2.502813912115515738e-01,-1.857993246501523366e-01,-1.216814108023485941e-01,-1.232109469651845174e-01,-1.846905953008579349e-01,-2.410873335206001611e-01,-8.088127686137810968e-02,9.956410432083608042e-02,8.643882267108717044e-02,9.017138978678106501e-03,2.679730109374389366e-02,-1.085419551630889545e-02,4.212480532940720418e-03,6.361773647082327211e-03,7.856516180802320184e-03,1.183361909233873266e-03,4.099048896962882542e-03,8.398022856356171517e-03,3.838329519330440330e-03,5.718722712271865488e-03,-2.838964313665352443e-02,-5.289676912463824737e-02,-1.469666208252374401e-02,-1.365097944562020278e-02,-6.030392042563315069e-02,-8.309595655535155501e-02,-1.150848772989543634e-01,-2.056859802788703340e-01,-1.899895922390219538e-01,-1.079292771928893335e-01,-7.559560288081151880e-02,-1.223421657282927066e-01,-1.800509969541833066e-01,-1.760440161205395759e-01,-1.840596266532413400e-02,3.130490234381830966e-02,-4.004660856767495308e-02,-4.323478785294742471e-02,-4.112111786086252579e-02,-2.874439437659229157e-02,2.761249428832387911e-03,2.449898654783102050e-02,1.540864675664874346e-02,4.368507026151795779e-03,7.295082286523967355e-03,7.655128989911097297e-03,1.589081676693535625e-03,6.102251494776412925e-03,-3.097413535201130885e-02,-4.701226295451895604e-02,-4.575031629293106750e-02,-5.126951058857977944e-02,-1.052914082067172991e-01,-1.300712467193029520e-01,-1.057625488194361418e-01,-4.873743084859327723e-02,-3.068162597902126393e-02,-6.234172194577971421e-02,-1.562868474195834023e-01,-2.157079846160917525e-01,-2.306238474867765009e-01,-1.565011221385724238e-01,2.401889094404858691e-02,2.003393749709709779e-02,-2.879079863461321206e-02,-8.530417322395301982e-02,-7.051270519049623875e-02,9.216051084492086348e-03,3.223779807178332041e-02,4.848267329972179990e-02,4.695828005922036280e-02,3.473433262588426860e-03,8.998333456872724401e-03,2.182339677548950150e-04,6.637896861755891373e-03,9.633944342135504144e-03,5.601681834618419363e-03,-1.627839847833436465e-02,-4.298786329550472601e-02,-5.401048629102190440e-02,-9.634815832706132566e-02,-8.121856900900828458e-02,6.759561460355947848e-02,2.792437087819071503e-02,1.636948040629242901e-02,-6.593237597206330625e-02,-2.342775199778411033e-01,-2.552837655692279384e-01,-6.917840659038540507e-02,-1.707712948521021221e-02,3.210312354323585637e-02,2.504528582616672230e-02,1.244645350448341306e-02,-4.287176240526190119e-02,-1.050585688529183902e-02,2.516113078351052065e-02,1.953760819361958015e-02,1.407116969559392590e-02,1.147688718692174790e-03,8.601396933494350264e-03,7.228143032084837633e-03,6.766836190000158216e-04,7.078350972297686554e-03,5.435382173426460579e-03,8.172534574677826121e-04,4.583006415286564397e-03,-5.168213308144322619e-04,-2.636277736229768534e-02,-1.388192984718717490e-03,1.105406226416062454e-01,1.534941357315910138e-01,7.644307030452032747e-02,-1.817130241487776091e-02,-4.377927353221651441e-02,-9.811825286050740447e-02,-9.820320032648327535e-02,1.053382703442704319e-03,7.276556185105984009e-02,4.693507942816199652e-03,-7.884305025839347114e-02,-6.597592740235189157e-02,1.238553537220884668e-02,4.611035578485726122e-02,1.772819904392963081e-02,2.751018605114896251e-02,3.177555045932031058e-02,5.193858595039373659e-03,2.048812741507125782e-03,8.778300781520408450e-03,8.795818549515291296e-03,8.705784250460068749e-03,2.387962113815392858e-03,4.512393441809881174e-03,9.849896561408751430e-03,-4.536765137052056231e-03,5.729884706648960546e-02,1.188669848762656800e-01,1.523920520691439406e-01,1.110471405910611192e-01,-1.819624321990998342e-02,-1.866319564029589317e-02,7.864531232504378506e-04,-2.568301464936740067e-02,-5.344080290951047640e-02,1.118431383956217454e-02,-2.178607356238974890e-02,-1.037383361324647896e-01,-2.213526316012825179e-01,-7.425029701319921238e-02,9.939353870685282977e-02,1.819271238872952889e-01,2.022409725116092183e-01,2.118050447595559160e-01,1.424805791707871305e-01,3.959704726624549247e-03,9.150900684070432251e-03,5.330288672461399799e-03,1.579548228353480068e-03,6.958991181688024309e-03,7.932613504382544228e-03,3.167616770675266927e-03,8.571792569987529350e-03,5.084556449107373310e-02,2.171537332481086602e-01,1.472762305780207781e-01,1.272119791232879764e-02,-1.637850342830792644e-02,-8.589367312314818981e-02,1.482720411678426810e-02,2.462405486745816371e-03,-3.873875962788215360e-02,3.827241855532510176e-03,-5.283990347081014838e-02,-1.197048457846662389e-01,-1.459712649623527703e-01,-1.571548060531766933e-01,-2.755924765166207352e-02,5.946748472828727872e-02,1.245275381533398895e-01,1.944384627226282691e-01,1.350383389621133134e-01,2.462624966907116589e-02,1.659548952957850057e-03,8.819277583046439620e-03,4.274896879206151711e-03,1.622334057824793580e-03,1.260751997575904212e-04,5.597556836383825972e-03,5.273996221226763016e-03,4.093148156129022483e-03,8.595728033932065193e-02,1.706550866371527864e-01,1.312159822967334244e-01,4.154679624496538520e-02,2.579191643851349788e-02,7.909851076377205636e-02,6.875822435883922890e-02,4.717248882591797837e-02,4.604225964307157026e-02,-3.089126258373809178e-02,-8.706545164226242584e-02,-1.220631054388171544e-01,-1.680576590312763963e-01,-1.175583335588037404e-01,2.413340832006040035e-02,5.641029791667726001e-02,7.565879796848844208e-02,1.105080660856147257e-01,5.943704555512747262e-02,1.006374785235333337e-03,2.398741127559447187e-03,1.419719897609939127e-03,3.479414115821666178e-03,4.503509789054126883e-03,7.488263369633064818e-03,6.511475848816741796e-03,6.209285674784311912e-03,-2.342966764035276110e-04,6.651022001299473907e-02,9.778310098583807564e-02,1.233797972685969357e-01,1.201169239942666278e-01,9.198572380466198128e-02,1.030525144004674765e-01,1.937269400763614452e-02,3.295011694442428942e-03,1.055586462328310686e-03,-1.974791035910209228e-02,-6.177292183316036855e-02,-7.172003843918260679e-02,-2.768626116423888658e-02,1.744687562954510412e-02,9.637172723284351261e-02,9.124823484406159591e-02,3.454808206249718183e-02,4.904329276440486801e-02,5.062844124336586538e-03,3.318935456242622312e-04,3.039464012407237965e-03,6.531627905312829829e-03,9.383048184484826457e-03,8.712044822630519644e-03,7.660647765353026210e-03,7.884473432532986339e-03,6.649849034759952940e-03,-1.155177566840042205e-03,-2.388573535280729201e-02,-1.384374115483625808e-02,3.199252795356761353e-02,5.539086946291346680e-02,1.450002492915938336e-02,2.732401727225594601e-02,6.532752364332829707e-03,-1.546827404165573502e-02,-3.789242789054469290e-02,-4.104329406086518889e-02,-1.554752409207261869e-02,1.481554062112524876e-02,-1.706051649771163706e-02,-7.052584478318709924e-03,3.033129088132265061e-02,7.039409371476257338e-02,7.728072160672538882e-02,6.559658636359853856e-02,3.132813678111996680e-02,7.539619035967839826e-03,8.049067768414385968e-03,1.800655560045449812e-04,9.628103570740259576e-03,7.266709920703232940e-03,3.047510953861333471e-03,8.293946648588469348e-03,2.815211984149299570e-03,2.992329563010025922e-03,-2.443091765203451310e-02,-5.263281337597389836e-02,-7.970135308735268320e-02,-1.112727374382586620e-01,-1.421930549487210593e-01,-1.480894208953200675e-01,-5.776180909111849199e-02,2.816377593245263100e-02,9.043108147166218237e-05,-6.579522089280748220e-02,-2.829586866216694807e-02,-1.079719794212776786e-02,-3.388720018747395576e-03,2.781358890661038072e-02,5.098221384850507021e-02,6.660876107647670241e-02,7.437677527829790469e-02,7.583944038824742828e-02,8.097151791195371373e-02,7.896916219082861796e-04,2.395101699095381152e-03,7.945782787001903075e-03,3.467026672648332330e-04,5.828068350834896341e-03,9.954375161913098929e-03,8.556960938375393622e-03,5.214456890435894415e-03,-7.853466499321131236e-03,-7.479930479844738682e-03,-1.886525901044837708e-02,-5.313407974202630224e-02,-7.820007221700819855e-02,-1.083301439813430522e-01,-1.448973952047217795e-01,-1.204731538462509161e-01,-4.464221280149331672e-02,-4.394534020481276337e-02,-8.351630867906424671e-02,-1.474661022144881789e-02,4.020864952690675342e-02,5.404398158509213929e-02,3.817559969927005609e-02,1.411914234051980105e-02,2.205549004231440596e-02,2.362417596783441404e-02,1.347770750874782188e-02,3.964372827794115234e-02,5.916971623063255539e-03,7.026337730855163402e-03,2.374334683748063023e-03,5.123637775457906551e-03,1.042248028083476693e-03,3.845113276448125506e-03,4.876670686212644483e-03,6.522242595454724734e-03,9.505310525862035662e-03,6.006510665483558511e-03,6.469318163003930609e-03,-1.961451996049374830e-03,-1.022259679081798101e-02,-2.327310152776299740e-02,-4.390658664770879377e-02,-2.525123287031554725e-02,-2.662931501572272236e-02,-4.218279404294948687e-02,-3.074787142005456705e-02,-2.628897172852833982e-04,5.564129819934512770e-03,5.130593363363876230e-04,4.639207533581790957e-03,1.960977127383929392e-03,6.107800710757682779e-03,2.806832155159743117e-03,2.069925784384267844e-03,5.165726284459790617e-03,5.505799160420821425e-05,7.664032649225327508e-05,2.190688091018577754e-03,3.672136250082114412e-04,1.080257541306913838e-03,3.388606493387515909e-03,8.025856795798128399e-03,5.720486433693008042e-03,5.126677259564164056e-03,2.806005432246328445e-03,4.162225200932638883e-03,-2.526008624373420313e-03,-9.341545226259533388e-03,-8.709914621682484162e-03,-5.732426616067532593e-03,-3.849273766398662693e-03,-8.935325646507587954e-03,-7.208751761144419415e-03,7.668630003573104334e-04,6.791965599812426792e-03,7.506636754696379733e-03,-2.836305890096175487e-03,2.055449073682528820e-03,3.945760755976464133e-03,4.218281785388313353e-03,4.110210752655457482e-03,9.076110025565549758e-03,7.140326444668564781e-03,6.079052140907037494e-03,3.093727178627820977e-03,8.237903842212946498e-03,9.550605114849890220e-03,8.211982825502265118e-03,1.565105191472904275e-05,6.364013701834070856e-03,5.113538144210072857e-04,2.576072203337218588e-03,5.952470034777168411e-04,6.037954529493877454e-03,6.865899134926067675e-03,1.144876380659051122e-03,3.838388830449794738e-03,4.562365089555420021e-03,3.690530217609165956e-03,1.210250004851930444e-03,4.189477901874754176e-03,7.511780478084181638e-03,7.100766453325546698e-04,8.018001408190344667e-04,3.547712918359842340e-03,9.417257116189250987e-03,6.685726467229140269e-03,6.786699566725648385e-03,3.619199908378649671e-03,5.936607912085384645e-03,1.013118402774337807e-04,6.360960464095422387e-03,9.132869475762367059e-03,6.125734683448192004e-03,8.736985934663449999e-03,-3.205288884437074715e-01
1.205584164036902547e-03,9.024533072858416730e-03,6.644384435577488498e-04,5.339674725477638016e-03,1.421371237934576605e-03,1.170661073090406616e-04,4.220342601276389979e-03,2.950407076541562527e-03,4.860004937976030413e-03,5.771998867345508322e-03,4.373907230894735635e-04,1.230032951237456469e-03,5.586423964504253457e-03,3.431673531726582571e-03,7.291734875494480100e-03,6.522916485919396865e-03,8.456043629899068562e-03,6.924928266692252816e-03,4.299310773901481725e-03,6.729666223944323622e-03,2.753811742554185347e-03,3.063134987782126836e-03,7.889851599207933081e-03,4.464195164015821553e-03,7.983803405183525007e-03,8.224223736682783475e-03,8.575623376612837370e-03,9.166352358412073464e-03,4.309852205132962133e-03,3.188668183211388306e-03,5.821987465941138792e-03,3.711724234376275779e-03,6.010741668002329667e-03,7.055858626438246683e-03,6.884050184921369081e-03,3.745528870201213743e-03,1.668602016987528287e-03,4.305293384622075475e-03,1.425941440819087410e-03,8.900970351838084077e-03,3.458774607378574048e-03,1.544597472233237958e-03,2.544775990575087548e-04,6.458223862864842860e-03,6.369023174547432629e-03,3.406041665812916796e-03,7.171188884765101242e-04,4.096288948952320381e-03,3.112174950633935823e-03,6.771206397350093900e-03,6.057792494526904013e-03,3.645937281975399763e-03,2.178925542549901232e-03,9.880359661555919437e-03,4.540016211961149170e-03,6.882742357802370918e-03,1.405529675783607872e-03,4.855896996593978519e-03,2.753671986946548537e-04,5.054551179104499470e-03,9.640174071177023962e-03,3.842067129858002181e-03,3.899601257491158864e-04,3.095579091934352921e-04,3.879867599468695121e-03,1.600249364631940513e-03,2.335209632818591185e-04,7.562136139501768328e-03,4.585230088818907125e-03,2.892447719726545102e-03,9.000831830164807493e-03,-8.072473034879387721e-03,-8.754396469044831847e-03,-1.537744794530149055e-02,5.229483313692061090e-03,6.029428764794615529e-03,8.267073597414874297e-03,9.840131632104643158e-03,2.884054378187457090e-03,9.611354854075930543e-03,3.894818949024203818e-03,3.855119047369223294e-03,3.403871042545057041e-03,5.414076073475852444e-03,1.541450431784871077e-03,5.537114853580112073e-03,5.417048124100039969e-03,7.619018126048700094e-03,8.336499619375855111e-03,4.404413503124240438e-03,3.023332493514937352e-03,2.593348973170944965e-03,1.946238367048719418e-03,5.764758219902488831e-04,3.424479788347133472e-03,2.702476921307832639e-03,9.664173858664073732e-03,5.367227748025790203e-03,-6.962184790268543047e-03,-2.455932092260849908e-02,-3.255470064399330204e-02,-4.071767485529410174e-02,-4.229615061490279992e-02,-2.013196074075235611e-03,4.017788006543242946e-03,9.938483888996981624e-03,8.803147621489270519e-03,6.234059581594401239e-03,5.693773611822827707e-03,6.206604798245841069e-03,2.013121078224332488e-03,3.951377432643185875e-03,3.945953289089931663e-04,4.755460374868267052e-03,5.430245839576631518e-03,2.277497361032096001e-03,9.640288471655137151e-03,9.094546109372421069e-03,7.221432354559059047e-03,5.333866287653626220e-03,8.699691596476849531e-03,1.306523438234629114e-03,7.905097942748849291e-03,2.346213830184090687e-02,3.502237334508162547e-02,6.314710224104992664e-02,1.473790537089243041e-02,-3.718183439639167337e-02,-5.760972744812425939e-02,-9.115334431526014858e-02,-6.190150354159534157e-02,-1.549657849864422010e-02,3.202559381960186791e-04,3.105129568394004481e-03,7.707411020828206297e-04,-1.405031518921310814e-04,2.032230910860872725e-03,7.617981913776972723e-03,3.865405068230278775e-03,5.112754622007511206e-03,4.923254800011819116e-03,5.772790292331312668e-03,8.655771456245521869e-03,9.941752634920555248e-03,1.164523719435919813e-02,1.277298782237402779e-02,1.309879599851489912e-02,9.613530831884792294e-03,2.215806293880870359e-02,6.293341170791495569e-03,2.771243759143426216e-02,2.344513646855179295e-02,-3.204662105097728919e-02,-7.663513890056924266e-03,1.080786317090196152e-01,9.655778473939161111e-02,1.149281537210139620e-01,4.956224030270681147e-02,6.111479667051139542e-03,2.340959825146287504e-02,-2.878609731367456903e-02,-1.803124981754033185e-01,-1.045445994848840793e-01,-4.355619361643979504e-02,7.227069576982284894e-03,6.925324315371080008e-03,1.344351294081218501e-03,2.993955883716812368e-03,3.587155254170134450e-03,8.044372076795050508e-03,2.787598724145530071e-03,5.026846750751174514e-03,-7.367406899998893942e-03,-1.853527998212348843e-02,8.698587323700975038e-02,7.421222382157553754e-02,2.006602018793455719e-02,-6.215848243775222610e-03,-6.239136891600055579e-02,9.920971490887073307e-02,5.062948483745975670e-02,-4.400729341884320606e-02,-5.402215045461250531e-02,3.200165877526397942e-03,4.242529474016028951e-02,4.423851594530409798e-02,-9.192005336268090077e-02,-3.141020536822348996e-02,-6.445446726960098183e-02,-1.252583713506394969e-01,-1.182400847698509977e-01,-7.125217506320970229e-02,-3.404268275527620735e-02,1.788173071829725217e-03,6.600984414024158335e-04,3.488205339694793426e-03,1.109980987913148417e-03,8.082352100092221950e-03,9.476880259644708537e-03,1.806040238688435065e-02,-2.551001608910874810e-02,-4.352397699185062835e-02,1.149929187553493382e-01,1.273625144784416297e-01,3.688397745399826094e-02,7.007570576390724504e-02,6.963299711419197735e-02,1.262386892630995294e-01,2.282916367783157652e-01,6.907159752544113351e-02,-3.156145482366549265e-02,1.283211218534645592e-01,9.389991945983242050e-02,-8.166809075868841292e-03,-4.814537836112961489e-02,-7.816178141709903548e-02,-5.430632479328548895e-02,-1.724540290555279243e-02,-3.844225183346171998e-02,-6.665836083926142408e-02,-5.005485828622510680e-02,-1.455762237707766346e-02,6.034930960433786302e-03,3.578140841135488571e-03,6.478174459905283733e-03,1.229206784653875777e-03,8.886590802653986446e-03,6.321782235992740029e-02,-1.141278005281465974e-02,1.093261733660773338e-02,8.896544830382308033e-02,1.140981638055670877e-01,3.632343419589532246e-02,-1.771677624530624412e-02,-2.590053733194497623e-02,7.132987565212421666e-02,1.853715606375871128e-01,4.479946677846492753e-03,-4.013690713745308308e-02,1.156365556734371969e-01,1.257996328582360879e-01,-1.546490934200342796e-02,-7.752691102396895573e-02,-7.333151761454222151e-02,-8.906715397185351046e-02,-8.359199706752655848e-03,-1.588998867158801509e-02,-1.946057946933413621e-02,-2.565808372559359382e-02,-2.518758346161696984e-02,5.111291392372298292e-03,4.685190852760312769e-04,2.761695578208994781e-03,5.420364866613921681e-03,6.268962162186586962e-04,1.135335825889528111e-01,2.206486742975963256e-02,2.441121021444210906e-02,6.633308329738382692e-02,6.591909692238032137e-02,4.717980276038485129e-04,-1.612832936380994564e-01,-2.179932604114029338e-01,-2.104872449171316384e-01,-2.085184279050442679e-01,-2.150560829686006259e-01,-1.734873016222970021e-01,6.396645901208466989e-02,1.422984783292020883e-01,-2.498991821162619559e-02,-6.005663814927229838e-02,-7.949446332741817722e-02,-4.108622972816405178e-02,-4.146349746523835672e-02,-1.174014961202599072e-02,-4.264868097078666829e-04,6.271198013913222534e-03,4.363269650309087094e-05,1.669530887471987191e-03,7.130460506343186920e-03,6.663854135782064717e-03,9.470159665754852851e-03,7.610377902507830389e-03,9.191372686136262127e-02,1.856941067014707472e-02,-2.709817726433660229e-02,-9.224976733014771460e-03,-2.310309845715782795e-02,-4.926354644726310683e-02,-1.700425749873477888e-01,-2.254209196768954537e-01,-2.597358793140442934e-01,-2.628686052387521621e-01,-2.315949152172383507e-01,-5.830622620916517396e-02,1.503879625517894059e-01,1.720506646166172493e-01,4.626763076003743980e-03,2.229242512992880496e-02,-4.970135927993434705e-02,-3.493594505592901439e-02,7.492139590523408908e-03,1.140330419749094586e-03,-1.545947937375022156e-04,6.573534821701285807e-03,4.722818041629816936e-03,8.801567379214850217e-03,2.157406791764541251e-03,6.778132003100442726e-03,6.077521222527225604e-03,2.953014775718328013e-03,-3.371676098577199715e-02,-6.892041769508820692e-02,-5.723543140440136984e-02,-1.716897327724606348e-02,-2.987725121385833085e-02,-7.702633722214839718e-02,-1.796429454907788603e-01,-2.402867322202477396e-01,-2.582873816284803059e-01,-1.505626890037467802e-01,-9.230327940398626307e-02,6.943894776308100203e-02,1.129106410018605317e-01,7.800079882551964883e-02,-4.346904683529043655e-03,1.320573107630213308e-02,-8.481612732042338731e-02,-4.422889123544643253e-02,-4.056053658059140254e-02,-2.181651253966810852e-02,1.243683990005102187e-03,4.136426749186353051e-03,4.928645844474466645e-03,4.042897472548691307e-03,5.309376784120938518e-03,5.951316749056815604e-03,9.923821127835630198e-05,4.640951594535039186e-03,-3.684967787065000777e-02,-6.906820707920505176e-02,-4.064006807033269941e-02,-1.935653463179000389e-02,-3.137429389626435888e-02,-6.819759953059464919e-02,-1.442562264648744319e-01,-1.480960878257039093e-01,-2.267981186552771311e-02,4.927344854603436797e-02,-5.027790060577203707e-03,1.170440965722745058e-01,1.008642678489980321e-01,-7.541106803475042253e-02,9.443511873680061593e-04,-6.006668623307340193e-02,-4.122886983564729574e-02,-1.689708242730577833e-02,-3.764902078115183598e-02,-1.247435737710109703e-02,1.353625715468154188e-05,2.998005275652359213e-03,6.464587416379305104e-03,9.741944438163572043e-03,8.470608269838995896e-03,2.359496464552912620e-04,8.985606046748393499e-03,7.831984132986259325e-03,-3.868090904381610295e-02,-6.967857229046484080e-02,-2.346306312863246160e-02,-1.928536139148892894e-02,-3.911542912349054435e-02,-5.747770093143372838e-02,-8.842836371868065259e-02,5.311151954611046527e-02,2.076509230091975189e-01,2.825259413285045040e-01,1.408698308408697086e-01,1.070200046985084613e-01,-1.056886089092397285e-01,-1.292220699878223189e-01,2.946041860151061079e-02,2.541666353968256506e-02,-3.964491700303057059e-02,-4.819917809832673788e-02,-3.680095390628281005e-02,-1.326747809927016769e-02,1.958330841342700249e-03,1.408029488926760935e-03,6.224136415659966420e-03,7.813218557473050607e-03,5.782983994203606815e-03,1.469627095882096793e-03,8.111237699334708506e-03,6.359547071637284762e-03,-4.260301321825592930e-02,-6.751722692513990876e-02,-2.225124564002264882e-02,-1.256568850269755393e-02,-4.040261738121327800e-02,-3.494029278891128826e-02,2.043301176809372149e-02,-1.622816145769217892e-03,8.944417681783305152e-02,2.082127402312387576e-01,9.513905116787813032e-02,-7.610707245862849413e-02,-1.603440166995055427e-01,-1.311260978378124276e-01,5.084072564608676376e-02,9.559821352764731606e-02,1.379798123304773819e-02,7.121662327747979755e-03,-4.245557531903400295e-02,-1.391099414749908184e-02,-1.214416654017763143e-02,-1.611794631110485473e-02,3.992837296118016341e-03,4.596648704026612235e-03,5.465771420322949534e-03,4.328160022094692562e-03,4.389994264300511851e-04,1.657497798201559283e-03,-3.939804614043574543e-02,-7.187431880956890451e-02,-7.043718994400471889e-02,-6.862926663071515498e-02,-1.022573469814837960e-01,-9.384268959522736042e-02,-7.844983264129086475e-02,-1.661738520742205849e-01,-6.892175613500674258e-02,-3.306086545358696838e-02,-1.485198723833848211e-01,-1.623515762270526519e-01,-1.557904414155167061e-01,-2.019829446514189927e-02,1.111701290807429743e-01,8.587821140080129090e-02,-1.001304419793960614e-02,5.235264200049517813e-02,2.488734417087701961e-02,-4.187627616312134676e-02,-3.046557963240291086e-02,-3.118566518272133589e-02,-8.799454427770178611e-03,9.078987937796193300e-03,9.437015928202207790e-03,9.601356044054472003e-03,5.214596387214719651e-03,9.773079079915036882e-03,7.573102071344388689e-03,-3.317369924306171058e-02,-5.409664819437799699e-02,-6.388281314328198013e-02,-1.053052372344139009e-01,-1.308420602591350845e-01,-1.705102958802353352e-01,-1.824027039131679018e-01,-1.678584991492688971e-01,-1.443386542572848708e-01,-1.960635271927026468e-01,-2.177554665210258145e-01,-1.747659359904512044e-01,-9.718450097617953309e-02,1.315019445418034172e-01,1.678569931894431100e-01,-1.170840611800353231e-01,4.418660169671140281e-02,8.895746158539412363e-02,2.085238482460326226e-02,1.852857605736917077e-03,-2.495622129940284085e-03,4.287020209864335872e-03,2.916976364526447057e-04,4.808901466030090360e-03,6.624340117010680921e-03,1.185026235981515626e-03,2.888849389091656655e-03,3.978366255021569507e-03,9.195310246560497655e-03,2.813986678040443761e-03,-2.533122525901007963e-02,-1.220730861268569944e-01,-1.778873397957845826e-01,-1.729014668019338008e-01,-2.288518875457812018e-01,-1.926064427777739729e-01,-1.371727017251805902e-01,-2.321646342820457287e-01,-2.518992602260348712e-01,-3.007232092783690414e-01,-1.255745538345393320e-01,4.599206512122994833e-02,1.853036439184327089e-01,-4.201622448059682408e-02,1.454957442969795345e-02,1.228733214488748199e-01,1.235681197746559684e-01,2.861798425585786372e-04,4.327722090412522947e-03,2.208527829630089079e-03,3.892996332566744889e-04,3.601881829142639232e-04,1.752217721058273560e-03,8.667703545060002901e-03,2.824787439770266688e-03,9.504591705752957545e-03,5.816222929891935386e-03,-1.540283810691448624e-02,-6.564601744819065221e-02,-1.651271840743448738e-01,-1.553547806670226294e-01,-1.478575646148946321e-01,-2.152388180083353308e-01,-1.103825127870191741e-01,-8.738492763575524125e-02,-1.436870405323122102e-01,-2.324962534813168336e-01,-2.962419113280619354e-01,-1.593742793389113788e-01,-1.542648286712513216e-02,7.971225743911443395e-02,-5.896429667288588528e-02,-3.258056106405134156e-02,7.365663089433652222e-02,7.811349237252195044e-02,-4.864804928860395894e-02,-1.672993366679051755e-02,6.900759261281630462e-04,9.407845205031078670e-03,5.069204379618346204e-03,4.094120718170183616e-03,8.108785810079184586e-03,8.358259279105160686e-03,3.321910331156046128e-03,6.936180574737952666e-03,-5.006808310164834880e-02,-1.216415240844282153e-01,-3.258568548657911346e-02,-7.930894563112064755e-02,-1.255844092418133273e-01,-2.069314044656728468e-01,-1.738401365293177347e-01,-1.818849588327043354e-01,-2.162018359533536271e-01,-2.865720129540201833e-01,-1.722745142883500002e-01,-6.491836915139884145e-02,-3.792254725453095970e-02,-5.765182172528333232e-02,-2.045309614932893510e-02,1.521557327456895224e-02,6.631896397649897357e-02,5.670385229114972142e-02,-2.325354832174574352e-02,-5.378884835585441559e-04,7.293447940879963995e-03,9.668454997992853225e-03,2.242934832850450744e-03,6.630471918034223922e-03,7.418963269587150987e-03,8.484253790905248171e-03,4.226291970136091328e-03,1.018933657739702972e-02,1.244351655960837869e-02,1.028740052344110645e-01,1.750042063885208776e-01,5.089901024102225918e-02,-1.340684307666477892e-01,-2.569897269343921486e-01,-2.927998148259305933e-01,-2.770269591020542155e-01,-2.318756712904089801e-01,-1.570602826307938293e-01,-1.295283882951563277e-02,1.366105504364798495e-01,4.373277582063304914e-02,9.323391210004047802e-02,7.908960215833711616e-02,6.210365686692265880e-02,6.413461378498830356e-02,-1.351896876319810641e-02,-2.015916305827356383e-02,4.242229820689169431e-04,2.653261375554669902e-03,6.015538792998240819e-03,2.965599122059306859e-03,7.144241640712422313e-03,7.590052825219310330e-03,1.025159640664744442e-03,5.138544642067677769e-03,1.376772679347752250e-02,1.267503596828671864e-01,1.690618190810755372e-01,1.779692614053887123e-01,1.329971106832200101e-01,4.215590896525936437e-02,-1.172692141601633792e-01,-2.045397967477488310e-01,-1.604585305103431170e-01,-1.014427963280499917e-01,-4.784832768450046625e-02,6.450974781109067302e-02,2.534427223095723214e-01,8.670702865558199690e-02,4.651611492946989418e-02,3.636424789491668474e-02,6.888320986241061594e-02,3.162816607581959982e-02,-1.861714242895620014e-02,5.567537563639587267e-03,5.620727944025710743e-03,9.470906671085190312e-03,4.962587528823615181e-03,3.805177098698945149e-03,1.630353369315910069e-03,7.862056522610580758e-03,7.344439320755914366e-03,3.843550385241349069e-03,8.930755377159262445e-03,1.358021836006935157e-01,1.608033350242772108e-01,1.642303841294718292e-01,8.405340265768813934e-02,8.249307064351912855e-02,-4.131812721500548007e-03,-4.636533270975892046e-02,-6.276394287098546743e-02,-1.022188990298461830e-01,-6.609931688271500350e-02,9.815486768685262320e-02,8.704396859773624873e-02,-4.080850625327948900e-02,-3.293227866730268072e-02,1.386743093843834269e-02,1.852784884298671123e-02,-2.531588131598074692e-02,-9.638572906696646347e-03,-1.553455360986252202e-03,8.652957589089124019e-03,1.572732081797153549e-03,3.097878592090992644e-03,2.900455319624368773e-03,8.714140341908543572e-03,6.727029942088980433e-03,7.966813971913722786e-03,2.504678987924989844e-03,-9.231094609891040900e-03,-1.997469577244473729e-02,2.120692191069410704e-02,1.064578098326438987e-01,9.489246651014723866e-02,1.062155467408597426e-01,2.360838122928831176e-02,3.250428722306123591e-02,1.151977248763788736e-01,7.540954590207021857e-02,-2.650807154290827153e-02,-9.193707600181713624e-02,-9.695306638024850376e-02,-1.653794133850444437e-01,-8.019095451495834859e-02,-5.682447608140453466e-02,-1.791287349029856840e-02,-1.743640182192245092e-02,-5.278706193390048096e-03,-3.366657031305821980e-03,3.324561571487120396e-03,5.658565614671562946e-04,3.739210470128135830e-03,9.444485826943033874e-03,6.417343972985581693e-03,6.714791486672069300e-03,6.322821536376398328e-03,1.989921389594368015e-03,-4.723854229534137084e-02,-8.815042464063252425e-02,-7.983768576173845555e-02,-6.626641139035647533e-03,9.183213580870894233e-02,1.258646014807956182e-01,4.006987122252319428e-02,6.711833019939947298e-02,4.998699340748426201e-02,-6.241587602868932383e-02,-1.128210370357240061e-01,-1.079002688653388081e-01,-1.115942403873975836e-01,-7.517362923779315198e-02,-7.821697391287205092e-02,-4.580951645351511586e-02,1.768974706431569255e-03,1.496964363312041626e-03,1.685894082660660716e-03,-2.252579083097787978e-03,4.830396975588900285e-03,2.685337560676073158e-03,2.874616648972501149e-03,6.567560634745570405e-03,9.685373316998922497e-03,6.036372005593751075e-03,7.697946706496628343e-04,7.558361385406697861e-04,9.514232208455659923e-03,2.972907903073336491e-03,1.903752687699243997e-04,6.836385025720528516e-04,-4.637973897661904973e-03,-1.117561344901329273e-02,-2.797953666284176688e-02,-9.336369092775967425e-04,7.685697820927141211e-02,-5.050709014215491212e-03,-3.399356756153848469e-02,4.504506137208543273e-03,2.591532184285103794e-03,7.622003798084748052e-04,2.557811895372380517e-03,5.976682827027031582e-03,8.660956336116914719e-03,9.467337289233955511e-03,1.059058044037576411e-03,1.548286125977198571e-03,9.447362587830797007e-03,7.365352283347926209e-03,8.829938248297730316e-03,2.026326341353431801e-03,5.875858711094019034e-03,7.011395944174736786e-03,6.801118854469726839e-03,4.081516908666981379e-03,1.539489169130847624e-04,5.731887955768654071e-03,-1.363889099163004270e-03,-1.259897422599934704e-03,-1.256113845981637824e-04,-3.192195618629867920e-03,4.739440341298484412e-03,-3.444802716797164873e-03,-9.292970318359988768e-03,-1.289356078412354396e-02,-4.962658987321518812e-03,-1.117195769786218275e-04,2.289178434195452815e-03,-2.582287155996081454e-03,6.899086499010689127e-03,9.145486638485590333e-03,4.340209727087588308e-03,2.587116421554409417e-03,4.344033190066098025e-03,7.234478178500009828e-03,9.054161580370978187e-05,5.894539894846971551e-03,6.132916848873791113e-03,6.376882468959355239e-03,2.420220799808772000e-03,7.140527233781267594e-03,9.139148633177641111e-04,1.992703364668008213e-03,8.774700466544819999e-03,7.387231507265663681e-03,1.374555401134525026e-04,2.483762603698002214e-03,2.144064829931645755e-03,2.708063280369725837e-03,2.475597702798864198e-03,6.252629574284573888e-04,4.589405165968203117e-03,7.327334747861651530e-03,6.067317247174364332e-03,6.728716685980798244e-03,8.114917853623915614e-04,9.514907101767873174e-03,8.384918338430248988e-03,8.050903184956628017e-03,8.229838050417674980e-03,9.327105081327613512e-03,5.442539661136977340e-03,2.002820178676258892e-03,6.167836078525411325e-03,7.428814936679390031e-03,7.379173933540253937e-03,5.214490241668800867e-03,-3.835209630899958921e-01
3.711129384301278377e-03,9.207666084633574222e-03,5.844489097574260758e-03,5.383319432557134333e-03,2.688535143821935407e-03,3.684489199165789323e-03,8.953460891531692112e-03,6.664630475268357168e-03,7.873870267523327970e-03,4.543454230676551367e-03,6.302472194561579456e-03,2.483836087432075151e-03,7.054608302834862628e-03,4.276013337033372948e-03,4.425455148147456122e-03,6.493223245768816980e-03,9.362806214689265924e-03,6.400634660862091927e-04,8.247432373470076766e-03,2.923831104121931129e-03,4.439194545063778440e-03,2.191332877500895614e-04,3.010460778343130358e-03,5.026312426301304814e-03,5.617607734743901293e-04,4.910957293831651367e-03,9.271106288584273977e-03,1.053932181078052121e-03,7.644407280755043978e-03,4.096710533759926817e-03,6.551737145243380876e-03,2.602365979852293634e-03,1.594922625413582821e-03,1.604626142712264371e-03,7.049194564314464895e-04,1.856467049012430282e-03,6.642193849889683165e-03,8.816906118435080542e-03,8.141256855911618850e-03,6.851343098744841487e-03,1.104318634111026674e-03,2.891874462959498435e-03,3.098068753224689914e-03,2.499569463976212148e-03,5.150056597097231112e-03,5.355538148796725774e-03,3.568859751711101966e-03,3.537891587364360314e-03,8.285555979060813328e-03,7.892928483196856235e-03,3.077958316807456567e-03,9.137884438732592554e-03,9.528150170025060858e-03,3.267425420300408209e-03,3.544249487930548580e-03,5.056341534219588492e-03,9.411208125336734814e-03,8.763194331423114838e-03,1.025679625835898123e-03,3.927307432714161918e-03,5.533711897497718690e-03,5.031324725515400574e-03,1.938630679368926781e-03,8.588167711681547745e-03,6.769407829968373397e-03,8.379083748518036459e-03,8.587642793494722551e-03,7.483558536657397738e-03,4.392106012497173223e-03,6.105467550154245783e-03,1.603654061197431601e-03,-2.748631852854917408e-03,-1.829141385176321841e-02,-1.951320168007782824e-02,-8.990221890614607733e-03,1.175513001502199832e-03,1.652844901429574315e-03,1.992135219070267902e-05,7.187396178535302403e-03,7.324010490583791194e-03,5.149333499132594492e-03,1.613628010553837082e-03,8.355433751068974809e-04,1.912896643728700908e-04,1.657481769652207129e-03,8.908555349831467907e-03,2.415368417016817548e-03,3.542713272172156626e-03,1.053454844813331813e-03,2.223613047481702749e-03,5.192245707802051191e-03,6.077526830956525572e-03,2.453523141662110850e-03,5.773215922511720386e-04,3.910328691273986211e-03,2.342033709263341510e-03,2.195539232298019620e-03,9.383057890143554555e-03,-3.941531619412016324e-03,-2.365438966032964996e-02,-2.916599031966621638e-02,-4.161748970088865324e-02,-4.063522372296238250e-02,1.430691539196785305e-03,7.021460961818294481e-03,1.716939077054495605e-03,5.001127520766269693e-03,4.119580950341019711e-03,8.705269662693842364e-03,6.314189212183764048e-03,5.325040664159817923e-03,1.153946421789173778e-03,6.056378893234114560e-03,1.172039056802334257e-03,3.372065755657520543e-03,1.428419648143318746e-03,6.920736470243688855e-03,2.062521138361526115e-03,3.918593731880260118e-03,8.956747776187786933e-03,2.043163833989703002e-03,5.078050639587791334e-03,4.192716611660219847e-03,-2.800861851143122538e-04,3.271987696754260263e-03,-1.461161037537672854e-02,-3.402668045384009410e-02,-4.112015605933878881e-02,-5.653911800594429993e-02,-3.891600675467710158e-02,1.339009616984276375e-02,-2.549599686323161547e-03,3.772464556391308139e-03,4.108111679503092910e-03,1.167717964489653065e-01,1.171981042068356849e-01,8.433261677878832116e-03,4.850946599795401791e-03,3.336283958368656787e-03,7.915582025913700873e-03,4.512941130292549667e-03,1.834421964034345116e-03,8.549740195614743271e-03,1.125772615158816652e-02,8.120875592019868514e-03,2.764699549043549685e-04,-8.549168957744750479e-04,2.249943019622799821e-03,1.757791945172732483e-03,-4.291701016110026703e-03,-9.230213650237599141e-03,-1.928303344556424673e-02,-4.972010013865076766e-02,-8.235418568394463346e-02,-9.895857011280807802e-02,-1.121494595713906361e-01,-8.047617447569281601e-02,-2.418524810746701392e-02,1.079749875527183725e-02,-1.052246729841973399e-02,-1.671976938928130402e-02,1.121316526685701281e-01,1.490687269729959741e-01,8.933301099196845618e-02,2.201113259047531457e-03,3.505205342861618389e-03,3.725332737595508144e-03,6.871367772396097789e-04,3.695741994267731732e-03,4.642385197392248988e-03,7.227377522388046989e-03,3.100329744543333516e-02,6.144906817941610255e-02,2.691169109139671112e-02,-1.792973828401769887e-02,-1.298826240188796950e-02,-9.757842909763345465e-03,-2.025727186611792074e-02,-3.578012018587952564e-02,-5.011137564104541781e-02,-8.338429668189956123e-02,-1.333358508000802300e-01,-1.493749283472815548e-01,-1.298622273920333470e-01,-1.055935975348366168e-01,-7.482284258452177872e-02,1.139346563903020637e-01,-5.599463381080096135e-03,2.582394450133400701e-02,1.107032780100858371e-01,1.057324695151513894e-01,1.056428411390053675e-02,-3.851087075254751996e-02,-3.650423311090130948e-03,8.904095172193284696e-03,7.499777984520708020e-03,9.082284887003229043e-03,7.587153211639207154e-03,5.971553059903018414e-03,2.938256371290863880e-02,7.179053473996470369e-02,6.828213995949937443e-02,-6.111981044738618897e-03,-3.665267042734975805e-02,-4.391769798379915879e-02,-6.489569707811643218e-02,-5.611306760680041111e-02,-6.852506128740622204e-02,-1.291748234594522204e-01,-2.209403339941990452e-01,-2.574150419480406571e-01,-2.388410028905446070e-01,-2.308651280625730329e-01,-5.686895099482382199e-02,3.683341911365492494e-02,-1.250468851221250011e-01,7.186638919602359940e-03,9.303169628607561858e-02,4.588728566802684899e-02,-7.973624655199043620e-02,-7.068610641726852384e-02,-4.743209396434199671e-02,6.923589224610580961e-03,2.640619846937187782e-03,9.390684794502916419e-03,6.363742815333743585e-03,3.245118001753421154e-03,2.278691954549363907e-02,7.045069036947987362e-02,5.254851271330780033e-02,1.190573842089532632e-02,-3.225599552891012661e-02,-5.586910455095051020e-02,-1.780276592864803165e-02,9.166876011332755758e-02,-3.968192816794104127e-02,-1.885050690506939186e-01,-1.972950876253090902e-01,-2.873591011875811230e-01,-2.541861548809015159e-01,-2.094936561335538072e-01,-3.007278831150604279e-02,-8.880197417847431052e-02,-1.546462707784711788e-01,-2.552454280976455218e-03,2.323899715764706289e-02,-5.268636641574959978e-02,-5.614641915939251604e-02,-5.510680918662995420e-02,-4.217493651427120516e-02,3.230273457540938815e-03,8.979191869576658158e-03,8.881181889340358446e-03,-6.551973010769846818e-03,9.009608956904679306e-03,1.601252415082466546e-02,7.450711061734067997e-02,5.224082848218120079e-02,2.265481146936864157e-02,1.270202856467384303e-02,-3.075912123250458888e-02,6.071791505136575617e-02,8.712508092973603527e-03,-1.850128565624314658e-01,-1.209290803300098055e-01,-1.255761066070732179e-01,-1.802565695753865771e-01,-1.851123472578506124e-01,-1.419975717202014154e-01,-4.017430034775286429e-02,-1.909220586022775390e-01,-7.094069073033945627e-02,4.550155845140874122e-02,-1.949529361511201375e-02,-2.614819030643681513e-02,-1.416112880811492593e-02,1.727107899279661232e-03,6.543420054927196784e-03,2.320181803088107019e-03,1.438144607208502533e-04,7.643533864364273830e-03,5.106098633903096567e-03,7.623026245009600042e-03,-4.487638270511504213e-03,5.610407206295559696e-02,7.422444441210145072e-02,5.514996309061491464e-02,4.562518676262022899e-02,-1.364909262620279604e-02,8.591678565487598229e-02,-4.231736166941122562e-02,-1.980454314185421671e-01,-1.092629668615922173e-01,-3.387560804153028071e-02,-9.532390740262504381e-02,-1.768086218972839962e-01,-7.865587782741188805e-02,7.539855755294694447e-04,-1.470209479422096288e-01,2.368308471104963939e-02,8.780154487740635116e-02,1.867273249468745511e-02,-4.600338426683638765e-03,8.913764630723344448e-03,9.811179078679357901e-03,6.495089297074473425e-03,8.044140596774733767e-03,7.151001612837000476e-03,5.931582190394682139e-03,5.334799698889769719e-04,4.547643425526610994e-03,2.338745654982890554e-02,4.502447109210171161e-02,6.994636131548946645e-02,6.013276525416588747e-02,2.875780545611433814e-02,-7.935085079579051390e-03,5.618150632506244829e-02,-7.266568419701914527e-02,-1.553789418564513192e-01,-5.436477075456800506e-02,-2.678300551022023968e-02,-1.402158400394722115e-01,-1.622976645588705968e-01,7.623375291291189897e-03,3.049892193720914885e-02,-4.539707974759233516e-02,8.495810726839464477e-02,9.048974291690947691e-02,-1.086687307886568220e-02,-6.468818119813097255e-03,7.791025863957867954e-03,6.096974251526159072e-03,6.996395696221216834e-03,8.381549749886425815e-03,8.028109348245004301e-03,9.609201469288246658e-03,5.359350788521182081e-03,4.884956326599053551e-03,2.606633342371240600e-02,3.675738339636967777e-02,5.406587063683748057e-02,4.823243809144358435e-02,2.199012255897721951e-02,-2.812528012499699095e-02,5.470450751070751044e-02,-4.655962705836818455e-02,-8.204450567376334047e-02,-1.324591513187220633e-02,-1.293565450188824129e-01,-1.358896710540947461e-01,-1.789985409537845351e-01,1.396481406793473844e-02,5.816227207649099507e-02,1.863991393703844784e-02,1.059916335641909457e-01,-8.633789313495798118e-03,-4.647322213392515201e-03,-2.426608396491241118e-03,7.374260857706772462e-03,2.865195489271229502e-03,8.026403123529295830e-03,9.972378999036026273e-03,3.002600532939281373e-04,8.973658657909319714e-03,6.226305335986580258e-03,9.733826191648212167e-03,2.669755660006938383e-02,4.369435227364135838e-02,3.010559364145040315e-02,4.008172606537299676e-02,-7.328451620570548223e-04,-2.342041670180732352e-02,4.304893838268285949e-02,1.794545963361579566e-01,8.937636709726703987e-02,-1.993891311678097286e-02,-1.649871115368339858e-01,-1.722222988409476963e-01,-2.314748408885857200e-01,2.327796874560910702e-03,1.303834788062635808e-01,1.881916007066831709e-01,1.183033328442513188e-01,-2.074159919962315773e-02,-2.126645557815782378e-02,3.235039416434763292e-03,7.592925069184736434e-03,9.677614652695619088e-03,4.397404865079085345e-03,2.783684816626566094e-03,7.982931972091867473e-03,3.262539180411467947e-03,2.993833737053482914e-03,2.325059922078312122e-03,2.334425120704746240e-02,3.778510357809529430e-02,1.533957623384851407e-02,3.167104076527516021e-02,-1.001421023243101796e-02,2.556379517754465286e-02,1.313685266149869080e-01,1.482582026797793773e-01,1.884967666223522909e-01,1.830868546245279782e-01,5.561686348199831875e-02,-3.395419326102598612e-02,-2.987282903115296220e-02,9.026924895110081948e-02,1.774199151876166558e-01,1.135857918163101499e-01,1.874349718863288147e-02,-3.468893104401165467e-02,-3.267613778063945679e-02,-1.051053516510180516e-02,-3.693401659859682756e-03,-1.032355320864572663e-02,2.739110483474274833e-03,8.227232427706188513e-04,4.595840572136230227e-03,3.064634680428203473e-03,8.223812111853544271e-03,5.697872699736828252e-04,2.498556465937674595e-02,3.966612392984075752e-02,3.956162245143206302e-02,3.927919945416068898e-02,1.005021197571750458e-01,1.540908366586316580e-01,1.080646499394201931e-01,4.171959277955243281e-03,8.788501108848431609e-02,1.660312411812477629e-01,1.359623153386938232e-01,7.845810097909448888e-02,6.082721180638943348e-02,9.658275869420035464e-02,6.821226724269717490e-02,-3.063172569944480270e-02,-2.556003094569702511e-02,-5.764103652170816938e-02,-6.521620535846245348e-02,-2.948572989209759243e-02,-1.988691147037412524e-02,-1.752083934203824134e-02,-5.494008233332913632e-03,4.539899111996989825e-03,7.624469586748684399e-03,1.260020278639942867e-03,1.964192158720173744e-03,9.514448256630919643e-03,1.754916273813573839e-03,2.217820342806403611e-02,2.795448260618589587e-02,8.501493372449928088e-02,2.026019922400661699e-01,1.415749673369938177e-01,9.520981801026409674e-02,-8.993493775479489971e-02,-7.788666209858000067e-02,-3.327685035930372931e-02,-6.484222679019097102e-02,-1.388478424821996682e-01,-9.584640697540003362e-02,1.167620220929145303e-01,7.811793626516931599e-02,1.130397400062326668e-01,-2.080626427099065492e-02,-4.249748256376390670e-02,-4.132762244383774569e-02,-8.623964552339833181e-03,-1.422299042630535302e-03,1.935362455209324378e-03,7.977322633482140241e-03,3.673907286970704705e-03,8.701721830278874451e-04,5.567849109281879268e-03,8.451208514960348653e-03,7.959263871435024243e-03,1.751231401303532517e-03,6.727646144124667382e-03,-1.770198801052905602e-04,1.103330084754554075e-01,1.062317612907009712e-01,4.603263545594869430e-03,-4.172663856252536302e-02,-8.712559115438538171e-02,-7.480637928407507520e-02,-9.124668300066264559e-02,-9.878538075355779158e-02,-1.840868862788708205e-01,-5.695233040682636666e-02,1.620352742729106177e-01,1.247052971286637807e-01,9.588588231101136117e-02,-3.636882439442951781e-02,-1.266801979147832470e-02,-3.303593238060029830e-02,-1.403388593632712462e-02,8.358732397166130940e-04,1.141930414316540913e-03,9.084345518793753363e-03,4.680690542342900995e-03,4.662994129398188511e-03,7.605756424552823428e-03,1.544922040049257969e-03,4.872653541000507640e-03,4.299852141210597743e-03,5.969106905466561169e-03,-2.355950386497369584e-04,1.439222742281435000e-02,-4.740389242729730473e-02,-3.686892802972857597e-02,-3.372542306449388683e-02,-1.157832273343043367e-01,-9.156090855994082622e-02,-6.780341287577637543e-02,-7.067481928816808645e-02,-1.238587089418010795e-01,-3.677907615248240253e-02,5.182231720028269290e-02,2.088022426749962246e-02,3.251521293300264990e-03,-4.004359982055802347e-02,1.759925747822673608e-02,-2.306909819543676368e-02,-1.612027751869480122e-02,-7.070056955218956794e-03,-6.083259044423736973e-03,4.490387679301258671e-03,2.374785567522574858e-03,4.961437333883744402e-04,7.245982868476289786e-03,1.115929999572474801e-03,6.083195000077716921e-03,2.810497501668891666e-03,1.734960503550220202e-03,-2.487427514844270382e-02,-5.973574136300665444e-02,-9.286003834352876685e-02,-8.202911244303043303e-02,-9.566532870907581976e-02,-1.668453741266317514e-01,-1.473660342093083830e-01,-9.159986665291494634e-02,-7.262266112676310503e-02,-1.035078578613318340e-01,-2.610611722421605357e-02,-3.575949802506085684e-02,-2.897064359058854760e-02,-1.912639565931879143e-02,-4.027661103685810026e-03,3.396653972593988158e-02,-1.928607264956142334e-02,-1.892907934768212411e-02,-5.373587187971658186e-03,8.678946990096317315e-03,6.678679067008134150e-03,9.332050877593062177e-03,2.654964074290723421e-03,6.114636112256608205e-03,6.784999682926378534e-03,3.175497002575884600e-03,8.481092350156300627e-03,8.754432460237967020e-03,-2.325294457032270681e-02,-5.608750115582755019e-02,-1.036514205002913441e-01,-1.114320082677505014e-01,-1.455259927507495943e-01,-2.028335841986324273e-01,-1.313975475116807290e-01,-6.351643046897598177e-02,-7.573908266312284754e-02,-1.429986208900222988e-01,-3.911044035094602550e-02,-1.031395306181311922e-01,-6.573189949846403035e-02,-1.526967388569945919e-02,3.170725123710203819e-02,2.778381680458757302e-02,1.923368585103128747e-02,1.897340462107243927e-03,4.021200288031470476e-04,3.725089315534658736e-03,9.286305621153940690e-03,6.180846068922263336e-04,9.236052811137851135e-04,1.627909892062293692e-03,5.952128341268747742e-03,1.504722710059974797e-03,9.680763814507335058e-03,3.597833552870639828e-03,-1.908480592090751674e-02,-6.583850623677864333e-02,-9.828374883160140296e-02,-1.082157799291952466e-01,-1.463808351107888095e-01,-1.499016486652083036e-01,-6.930321343546121116e-02,-5.804592749761441212e-02,-1.276692126943096417e-01,-1.098553590325893753e-01,-1.376484053678251988e-02,-1.457313563042458016e-01,-7.734979365776022131e-02,3.369324295032700978e-02,4.101317261103635398e-02,3.222418026360121535e-02,4.882466233638699943e-02,9.657483270855875615e-03,9.008256945136350335e-03,3.138780765150273305e-03,6.910558127392617961e-03,2.716331812743696342e-03,1.906098330744497929e-03,1.846324573473692244e-03,3.421076208635940447e-03,4.299576197798217307e-03,8.309491710550684709e-03,3.295992150125604090e-04,-4.405342902935580063e-03,-3.640393584163063856e-02,-6.133319588555103535e-02,-8.641878489578040667e-02,-1.373814801440481903e-01,-2.650633482684570941e-02,-3.854474551443832359e-02,-1.007699494190897466e-01,-1.574447258588322629e-01,-1.208845259819531399e-03,7.627747826556111575e-03,-1.041519236775814705e-01,-2.615382623325793535e-02,2.573747632305308994e-02,6.164154309184313729e-02,4.979820846859053796e-02,5.318637013888358883e-02,1.670847006231929513e-02,8.127423705755398506e-03,3.995187845869348393e-03,3.267947058577773921e-03,1.081108363519633995e-04,8.265510741914642787e-03,8.009807004033649147e-03,1.044545181001513929e-03,5.768573811327002906e-03,4.639816981668874393e-03,-5.542033675727420797e-05,3.691023811566995771e-03,-2.300969320907288521e-02,-4.397017260162710411e-02,-5.230302920958128376e-02,-8.406171489513371287e-02,-6.544400539837047504e-02,5.584876214005001123e-03,-4.445038888608419253e-02,-5.986337139846836103e-02,4.095804413247165765e-02,1.008012139403183932e-02,-6.588711180601200534e-02,6.525879708356404837e-03,3.655481608100050184e-02,4.505687466841077488e-02,4.133580445451824625e-02,3.316315868447695936e-02,3.925120139025351819e-03,4.257390801078037024e-04,5.034952696935324429e-04,5.276525785960262159e-04,6.920112559466546839e-03,4.579289944340278994e-03,2.265216260361056951e-03,6.139703063252326815e-03,2.528581182501111677e-03,5.776317543444225815e-03,1.836308025478574583e-03,4.969256093911378694e-03,2.917596405215648094e-03,-8.705477529325178834e-03,-2.548125361049581247e-02,-5.779185377700184895e-02,-1.004368923765395216e-01,-1.118790264564893111e-01,-6.547733704493985396e-02,2.577401391393404489e-02,8.829711863301012431e-02,-5.286386964905361724e-02,-3.195259356227399955e-02,2.493467948014269162e-03,3.574736202428598769e-02,2.771642099899544395e-02,7.730157358348632539e-03,3.106457203350683916e-03,4.305759912838491577e-03,1.748197468365406517e-03,9.325548784193121374e-03,1.186437657415803041e-03,9.337494230014699997e-03,6.838664518353432600e-03,5.315721526867311746e-03,3.265906078449587490e-04,4.755961918220082824e-03,4.077481050027322550e-03,1.612188119751225505e-03,6.564096035006568991e-03,8.977579937273105770e-03,2.886697194010919443e-04,-1.087920044466237496e-02,-2.748434218507532154e-02,-6.587321247759971021e-02,-5.808700336980501810e-02,-5.618217449365005278e-02,6.138461670336382847e-02,1.364314688687749133e-01,-1.451418621768505411e-02,-1.738333038824144486e-02,-8.612805548748974499e-03,3.118466780304687044e-03,8.336440104751723437e-03,8.146710047099891411e-03,6.118310201032214381e-03,3.734579451327052577e-03,2.553363737632441573e-03,1.058743182131293131e-03,3.548976834865540542e-03,4.131725172077195529e-03,6.758229251040736088e-03,6.581598242975735154e-03,7.010813964125695366e-04,3.952593154311578177e-03,1.817788672173619152e-03,1.568127053168056869e-03,8.175164279184495356e-03,-3.495136560356075592e-03,-1.248082830033180827e-03,-1.039330705381573752e-02,-1.191055684558444197e-02,-1.202979611711049203e-02,-3.154824910717494296e-02,-3.402920509988219960e-02,-1.733937518517689527e-02,3.400877906193226427e-03,1.041682684782396090e-03,-3.347344534260374149e-03,-1.158695129641737140e-02,5.675873372305284374e-03,6.354143568619098452e-03,6.298206544347076732e-03,4.032106331838227614e-03,7.523978823037878912e-03,5.312940183509319222e-03,6.774380712282944417e-03,4.284579038487954308e-03,7.314964640431390400e-03,8.244715176045490368e-03,1.464362566028161276e-03,8.329297155742279579e-03,5.402965317903072814e-03,8.446659090902242789e-03,4.313017063410146644e-03,3.790404853830350428e-03,9.150607325172224055e-03,2.511692675484013173e-03,8.442123252861430741e-03,4.840205725094041435e-03,5.140954425512597042e-03,3.084682814894840457e-03,5.730422006190156667e-03,3.252111962762113326e-03,3.926941424165231458e-04,2.719986053443560533e-03,6.379043406590679133e-05,9.783547870568566965e-03,9.657472098197474736e-03,3.951552974723050206e-03,7.283708543396459623e-03,3.458060984104249693e-03,6.710931570859760345e-03,8.054300430459791424e-03,9.467562446922407615e-03,4.002122758496719744e-03,7.832979829560476198e-03,2.659284506321187708e-03,-1.060229439375790089e-01
